    0.101854147981479404E+01   -0.401351937054022656E+01   -0.244797680844181631E+01   -0.132098644467064219E+03
    0.105317841523737821E+01   -0.407927019834657312E+01   -0.256712939737991874E+01   -0.131538043183875658E+03
    0.104543808166100738E+01   -0.407470169113272540E+01   -0.256209267408859764E+01   -0.131124907335559243E+03
    0.102978504255355485E+01   -0.403964788188190660E+01   -0.258451437720248611E+01   -0.130813243454338135E+03
    0.118280591830132376E+01   -0.414591363159754156E+01   -0.251823362713142451E+01   -0.130606822894285699E+03
    0.955947380876019048E+00   -0.401678395060668425E+01   -0.255592437561291019E+01   -0.130587577581765601E+03
    0.922407049799799372E+00   -0.397455812942371089E+01   -0.257082078477285370E+01   -0.130584940806179503E+03
    0.883055621832050774E+00   -0.394242007865484911E+01   -0.253895085468742909E+01   -0.130230683187934630E+03
    0.958689456582332844E+00   -0.402116086989033406E+01   -0.245315084837629449E+01   -0.129815609702400650E+03
    0.878986515614561426E+00   -0.393262250772807187E+01   -0.252078290195475407E+01   -0.129785582027752383E+03
    0.110567273218337969E+01   -0.413130577001034460E+01   -0.249217923302736644E+01   -0.129726210114872259E+03
    0.984596140314528134E+00   -0.400548763512187556E+01   -0.257466282310449701E+01   -0.129698426133981144E+03
    0.892298470843183367E+00   -0.395839250505881379E+01   -0.251849187797436258E+01   -0.129692000125980826E+03
    0.953906209117930115E+00   -0.393246054750625884E+01   -0.250290140742903056E+01   -0.129629388731173890E+03
    0.115696210514988795E+01   -0.411213740859540433E+01   -0.250680023035449517E+01   -0.129612134600357905E+03
    0.877584370114097290E+00   -0.393604060174861292E+01   -0.248112666583621166E+01   -0.129595038813875789E+03
    0.948275584905744373E+00   -0.394248863745119760E+01   -0.246452505752001816E+01   -0.129589166987073014E+03
    0.934239516235743084E+00   -0.396507135782495368E+01   -0.256804770106381630E+01   -0.129561536942760483E+03
    0.104453853675123920E+01   -0.402943535088249316E+01   -0.257618188226434430E+01   -0.129550295452965514E+03
    0.114603974861535063E+01   -0.409920760282302243E+01   -0.249175551128496231E+01   -0.129506725270845010E+03
    0.924790106764330710E+00   -0.392545061852843480E+01   -0.246789777202072624E+01   -0.129499260463149795E+03
    0.908692137064401995E+00   -0.394012686994225536E+01   -0.244442159787336966E+01   -0.129402843645207270E+03
    0.100198303208223116E+01   -0.404136802299406117E+01   -0.254805009841371444E+01   -0.129358490533870537E+03
    0.104523587139357588E+01   -0.407952089285882558E+01   -0.247371234117483407E+01   -0.129350156112228433E+03
    0.110859261281801547E+01   -0.410653937623461029E+01   -0.247148826770237129E+01   -0.129303728307582617E+03
    0.905625645499548382E+00   -0.391712742958488036E+01   -0.251237648064452790E+01   -0.129187631685362192E+03
    0.115145239976928737E+01   -0.412069292000804044E+01   -0.252284651025071893E+01   -0.129181873792326201E+03
    0.909855123620575523E+00   -0.393452849465352683E+01   -0.254718019711138455E+01   -0.129156037016736718E+03
    0.106790162295866908E+01   -0.401766948284011516E+01   -0.247940559379256031E+01   -0.129140921924947634E+03
    0.115766707975555727E+01   -0.412546220321513513E+01   -0.249312042482728113E+01   -0.129065998526963654E+03
    0.101037080199080331E+01   -0.406766391282944895E+01   -0.250526277801478159E+01   -0.129064597527436376E+03
    0.982568544275747024E+00   -0.403533046812119078E+01   -0.245611136551067943E+01   -0.129013730078906008E+03
    0.995629956378928593E+00   -0.404251720675916992E+01   -0.253642057383193587E+01   -0.128985540616501680E+03
    0.101927926977100891E+01   -0.397458396448470275E+01   -0.251408415000646901E+01   -0.128954912681409240E+03
    0.910769335149030690E+00   -0.397518975656405971E+01   -0.251299854973683567E+01   -0.128886015943051149E+03
    0.895457344784890030E+00   -0.393212279229967310E+01   -0.245997048620598058E+01   -0.128843860120052909E+03
    0.939297069161903142E+00   -0.395171736305546961E+01   -0.244432289459506880E+01   -0.128843188852392956E+03
    0.982247703431659902E+00   -0.404526809771384777E+01   -0.250152371936549534E+01   -0.128803155677073192E+03
    0.106326187488844437E+01   -0.401444888482917417E+01   -0.252975314934413475E+01   -0.128795302773390205E+03
    0.113707673029728640E+01   -0.411069008970882432E+01   -0.252775374592277080E+01   -0.128781606904184116E+03
    0.105794238427019871E+01   -0.404250941952050979E+01   -0.256288837690294091E+01   -0.128716290873143805E+03
    0.961905768122848004E+00   -0.401111219878049763E+01   -0.254345374787242617E+01   -0.128681206810174444E+03
    0.923972830640038656E+00   -0.398597476908542703E+01   -0.252540305411743304E+01   -0.128680521078361522E+03
    0.102224202181249724E+01   -0.403208425846084495E+01   -0.256044617473020875E+01   -0.128609917676446031E+03
    0.102750961712811817E+01   -0.400179625765204872E+01   -0.256039733041589646E+01   -0.128601868586213186E+03
    0.103729076944677034E+01   -0.401856152589093440E+01   -0.256476020680168926E+01   -0.128579572521649311E+03
    0.105994732208908782E+01   -0.403902112579021288E+01   -0.246349441021448801E+01   -0.128567817740028573E+03
    0.108655324578799317E+01   -0.409885164294909998E+01   -0.252700298211535967E+01   -0.128564943443895544E+03
    0.103103768593982537E+01   -0.406222456610951710E+01   -0.247326357565232069E+01   -0.128550333775243104E+03
    0.112178130457296632E+01   -0.411641305409878733E+01   -0.252192542125997043E+01   -0.128475446437815208E+03
    0.980276400764223843E+00   -0.404100513640211467E+01   -0.249192726500122230E+01   -0.128453391288993600E+03
    0.980800668364710915E+00   -0.397124203325101632E+01   -0.255737927170189883E+01   -0.128407817676161699E+03
    0.974026150861480033E+00   -0.401538401754254881E+01   -0.254446283695274156E+01   -0.128406607385822952E+03
    0.892427146321545184E+00   -0.393482348444903085E+01   -0.251485750499188976E+01   -0.128383579579171936E+03
    0.106992945482550139E+01   -0.403774114071142787E+01   -0.246816187332579107E+01   -0.128370455876933789E+03
    0.916973888942708371E+00   -0.397918749892378276E+01   -0.250309798795746863E+01   -0.128362347273402918E+03
    0.982182220277741713E+00   -0.395403853517754378E+01   -0.251799403714378878E+01   -0.128330369504138844E+03
    0.106900186570294675E+01   -0.405675986230720831E+01   -0.255362574487131111E+01   -0.128327219181149133E+03
    0.104153967261950298E+01   -0.403259050444286427E+01   -0.246261725840862633E+01   -0.128304133365036932E+03
    0.103292958515154987E+01   -0.399705734938516599E+01   -0.247158933703011341E+01   -0.128301242114881660E+03
    0.901818983471407654E+00   -0.395971551509458886E+01   -0.249408831350539462E+01   -0.128259181438464765E+03
    0.102579335140793737E+01   -0.406075427312116144E+01   -0.247729893917916177E+01   -0.128255144115861242E+03
    0.103032183926804111E+01   -0.398507834950452988E+01   -0.249702629692869849E+01   -0.128253166218193542E+03
    0.980623601392654032E+00   -0.397021463586172363E+01   -0.255447062996931695E+01   -0.128250446324978583E+03
    0.102609456706140389E+01   -0.398202010043451171E+01   -0.250812574481182704E+01   -0.128232107006557158E+03
    0.112621753108446310E+01   -0.410335064458740284E+01   -0.248176170709611865E+01   -0.128230408084430337E+03
    0.104288911018974018E+01   -0.404499027068603922E+01   -0.255436915299080791E+01   -0.128226569049301503E+03
    0.100532519811766186E+01   -0.402803776379795320E+01   -0.246559561809589978E+01   -0.128168132749668132E+03
    0.113549162415864191E+01   -0.412046161386545862E+01   -0.249358459802882049E+01   -0.128145053927275768E+03
    0.105910172051600049E+01   -0.400966578719979250E+01   -0.249739877127091603E+01   -0.128135928702506050E+03
    0.923790315357298164E+00   -0.394506567967170874E+01   -0.245058699020263226E+01   -0.128129272753305457E+03
    0.913661977655124691E+00   -0.396940203832876826E+01   -0.252203455773462792E+01   -0.128123933772312512E+03
    0.957348388369573033E+00   -0.399780160621070602E+01   -0.244815389190884192E+01   -0.128115539269559605E+03
    0.986310971646280232E+00   -0.398443922289667052E+01   -0.256028648425562055E+01   -0.128095811396162503E+03
    0.911266098481368192E+00   -0.392870587878602207E+01   -0.252251339995340373E+01   -0.128067235624495680E+03
    0.107527769839511089E+01   -0.402816216804894545E+01   -0.248580907394207751E+01   -0.128050051179532346E+03
    0.110512211561363349E+01   -0.405971166831229269E+01   -0.248981111190941329E+01   -0.128040456112464994E+03
    0.105224973372278940E+01   -0.408369391853836738E+01   -0.249480217998416220E+01   -0.128027980220326555E+03
    0.111083751967886357E+01   -0.406880948091619743E+01   -0.252028542147288626E+01   -0.128016726659041666E+03
    0.105569203551843316E+01   -0.401633429282784427E+01   -0.253867053032932777E+01   -0.128013301894339662E+03
    0.110183253896608435E+01   -0.405384731538955378E+01   -0.250556992587613347E+01   -0.128011593083605050E+03
    0.110952963486785872E+01   -0.411378691320441270E+01   -0.250093919214233074E+01   -0.127981355853620059E+03
    0.987707414101927528E+00   -0.399581042871513414E+01   -0.255926832476578037E+01   -0.127970527138588977E+03
    0.109977996199523043E+01   -0.410921766279912237E+01   -0.249902077576024073E+01   -0.127965179383582480E+03
    0.977302834809728016E+00   -0.400369940356630494E+01   -0.255127945095867981E+01   -0.127951576956709758E+03
    0.112590789437111005E+01   -0.411630500365863305E+01   -0.249424041925990991E+01   -0.127923296419364846E+03
    0.907722469849804203E+00   -0.392496347735225193E+01   -0.250321778956363339E+01   -0.127921512356802765E+03
    0.958484565750433948E+00   -0.394383212450692877E+01   -0.248643570870032260E+01   -0.127890768306135229E+03
    0.963221163061173113E+00   -0.402010471757421506E+01   -0.247783735219264312E+01   -0.127843497546366123E+03
    0.101611573853603776E+01   -0.399999804432766837E+01   -0.246469069538668917E+01   -0.127839474969219310E+03
    0.981821493232302722E+00   -0.395566865414485314E+01   -0.251474001970171424E+01   -0.127824488923815707E+03
    0.106447963492201514E+01   -0.407654654284471452E+01   -0.247702960762015190E+01   -0.127796571507915473E+03
    0.113037733341419466E+01   -0.411298649577185937E+01   -0.249800726631664283E+01   -0.127781370302792595E+03
    0.109564994834004592E+01   -0.405802695073167552E+01   -0.252987692888079518E+01   -0.127758233269977495E+03
    0.105500461002725787E+01   -0.400789057099144763E+01   -0.249903079417895890E+01   -0.127747731895129974E+03
    0.102757889563281224E+01   -0.399098409978838120E+01   -0.253167780791443064E+01   -0.127746699991468262E+03
    0.945143247513167806E+00   -0.400363033046477490E+01   -0.250513343615471662E+01   -0.127744363200733332E+03
    0.939923671048402909E+00   -0.393690603041066556E+01   -0.251560502001918307E+01   -0.127732702794663709E+03
    0.108209561360120721E+01   -0.403526129313200776E+01   -0.249208734236460705E+01   -0.127728389775706475E+03
    0.104855663188024395E+01   -0.407798880347977111E+01   -0.249300467897720601E+01   -0.127717948989457298E+03
    0.100371465941155424E+01   -0.398345517395593784E+01   -0.254792944587735493E+01   -0.127712590262808902E+03
    0.920215812632478980E+00   -0.394540936979507828E+01   -0.253730334131369739E+01   -0.127695674090122480E+03
    0.975218405690168710E+00   -0.397663441263888906E+01   -0.255356809487360348E+01   -0.127694464253405542E+03
    0.111240275063960303E+01   -0.411050312348018032E+01   -0.250035322121317938E+01   -0.127692975660780405E+03
    0.949048515369910861E+00   -0.394980987789703919E+01   -0.253716995015096458E+01   -0.127690720051339454E+03
    0.949966559334512017E+00   -0.394056906610167879E+01   -0.248893514852723285E+01   -0.127671268075173870E+03
    0.978241786128615676E+00   -0.400347851724528869E+01   -0.254797105128021695E+01   -0.127634431752322982E+03
    0.107757829817247441E+01   -0.404101640055598210E+01   -0.247664768474663655E+01   -0.127631774903144532E+03
    0.107959316035314945E+01   -0.409246533139774016E+01   -0.248888169041046270E+01   -0.127625945172290187E+03
    0.103264479483328975E+01   -0.404764193101420577E+01   -0.247080290757137355E+01   -0.127623759617757969E+03
    0.100379897401887441E+01   -0.397424411513590004E+01   -0.247867219259192950E+01   -0.127614562946209645E+03
    0.952245402389951145E+00   -0.396635835983077278E+01   -0.254871280219831453E+01   -0.127605247113424369E+03
    0.922481680355816014E+00   -0.395865507519640936E+01   -0.254033311282786034E+01   -0.127600362126852431E+03
    0.109814211305606158E+01   -0.406854026900717436E+01   -0.253173441814029898E+01   -0.127585086390173643E+03
    0.106156218081984810E+01   -0.406017912128575365E+01   -0.247124193934766101E+01   -0.127565417898165066E+03
    0.102046681125560479E+01   -0.400742214322599466E+01   -0.246536506648018960E+01   -0.127563938661665986E+03
    0.973414604368501579E+00   -0.395965357118232131E+01   -0.253499959037932321E+01   -0.127544066191961718E+03
    0.923542219462556657E+00   -0.397740749090691104E+01   -0.251281680389317463E+01   -0.127508227774517366E+03
    0.955829647523307346E+00   -0.401222591358215386E+01   -0.249104963152074355E+01   -0.127491494870184241E+03
    0.906428771521713639E+00   -0.395550577868800080E+01   -0.249923894898436361E+01   -0.127481882146526928E+03
    0.107200166592506330E+01   -0.402838727330374979E+01   -0.251983055405226342E+01   -0.127460070743339756E+03
    0.104532580502393158E+01   -0.407197336965087686E+01   -0.248889220615177953E+01   -0.127455516740185345E+03
    0.110932271259427040E+01   -0.410028810607542837E+01   -0.248860724458542126E+01   -0.127447666883456748E+03
    0.912662268981659808E+00   -0.396234615278196367E+01   -0.247565388793062535E+01   -0.127444574479914536E+03
    0.106223075785807763E+01   -0.403883110653147881E+01   -0.247049637347234352E+01   -0.127436342680787590E+03
    0.107754092161821413E+01   -0.408960780132120760E+01   -0.248997253946725117E+01   -0.127436094677721897E+03
    0.101643500349824589E+01   -0.402063237244621963E+01   -0.246598637985329106E+01   -0.127432864183190290E+03
    0.104157878775473289E+01   -0.405549156364358687E+01   -0.247396526247895521E+01   -0.127431698389850993E+03
    0.101661187598512082E+01   -0.402015540573457120E+01   -0.255078773249940971E+01   -0.127409421129370429E+03
    0.103873570110186098E+01   -0.402690547956268485E+01   -0.255065418204489713E+01   -0.127407200229004800E+03
    0.954755042690336841E+00   -0.397417458858682782E+01   -0.245030764206285001E+01   -0.127399937265614753E+03
    0.945313633506063566E+00   -0.397884973013864318E+01   -0.254233766318549392E+01   -0.127388865900811567E+03
    0.977833068162755503E+00   -0.402881630248501121E+01   -0.248121455860651441E+01   -0.127388367757380919E+03
    0.102004439161083171E+01   -0.404805736806869287E+01   -0.252650095359483728E+01   -0.127384128216485109E+03
    0.926255053254317340E+00   -0.397313191787812414E+01   -0.246359560562975588E+01   -0.127374752002730588E+03
    0.108985920752376075E+01   -0.408476110290208538E+01   -0.252513434972463413E+01   -0.127368955967239614E+03
    0.101811256474098188E+01   -0.403936411497784142E+01   -0.253563347070101752E+01   -0.127353012447480708E+03
    0.959480973617741095E+00   -0.397498414764332608E+01   -0.245280999607879391E+01   -0.127343558524244528E+03
    0.107258136008359117E+01   -0.403844466031820648E+01   -0.253425186811267977E+01   -0.127330806409361060E+03
    0.103587284255367895E+01   -0.399768203099278763E+01   -0.248314833673572144E+01   -0.127318964784245352E+03
    0.920756987855253062E+00   -0.396417047844899884E+01   -0.246333385872698640E+01   -0.127304518522216242E+03
    0.957179282736802417E+00   -0.397948776745195421E+01   -0.254598262049404855E+01   -0.127294227995661714E+03
    0.939052626698632653E+00   -0.393802435231289838E+01   -0.249196649880175913E+01   -0.127275425298369456E+03
    0.108833429961813866E+01   -0.409207483376183045E+01   -0.251198393886378479E+01   -0.127274207592605507E+03
    0.977629244582517876E+00   -0.395515037361379962E+01   -0.249547983976462984E+01   -0.127261041045955977E+03
    0.985783396092090758E+00   -0.400141712299599295E+01   -0.254779571860679788E+01   -0.127249584675512395E+03
    0.102618768988366105E+01   -0.400535228870587634E+01   -0.254680732190298853E+01   -0.127244318535261058E+03
    0.905662377917152317E+00   -0.393857847194590249E+01   -0.250999875078053547E+01   -0.127233985840412885E+03
    0.941016742561494479E+00   -0.395842396510972261E+01   -0.253993218693776868E+01   -0.127229588925337708E+03
    0.106695147926373268E+01   -0.407826351064673176E+01   -0.251750669361316071E+01   -0.127211369535209627E+03
    0.100524032529721152E+01   -0.397198206715055147E+01   -0.250052545987039077E+01   -0.127186697081724134E+03
    0.108266536901060739E+01   -0.405896743074025323E+01   -0.253355676071825853E+01   -0.127145128247637672E+03
    0.995467697924226957E+00   -0.397872694292878304E+01   -0.247187648860417397E+01   -0.127135448657912079E+03
    0.106043315981307362E+01   -0.407565064162434254E+01   -0.248731671694646650E+01   -0.127124215280079497E+03
    0.110169606371284523E+01   -0.409174199939090055E+01   -0.251493790569004760E+01   -0.127121103950718904E+03
    0.979283030315020286E+00   -0.397221486745997288E+01   -0.247044032164666483E+01   -0.127103659871410599E+03
    0.105752513415894422E+01   -0.401949214437970515E+01   -0.248212740663765796E+01   -0.127089498925174880E+03
    0.908799724854638002E+00   -0.395011031839952320E+01   -0.250805233627000312E+01   -0.127088483981042259E+03
    0.106179332015248007E+01   -0.406568292131281872E+01   -0.247770035751947271E+01   -0.127075586856530322E+03
    0.910169747434946608E+00   -0.395541144479201234E+01   -0.249021752559466814E+01   -0.127075379101743934E+03
    0.107172443729139388E+01   -0.404841659052162317E+01   -0.247486622404050882E+01   -0.127048340058647966E+03
    0.109690294271943367E+01   -0.406092113448457148E+01   -0.251609232537793748E+01   -0.127033163622320970E+03
    0.911796163659599368E+00   -0.393416364499742199E+01   -0.249138560470131809E+01   -0.127022386182333889E+03
    0.102797742090877264E+01   -0.403455686825566584E+01   -0.247066858951456014E+01   -0.127018778847744855E+03
    0.915302052433532909E+00   -0.394483476789841747E+01   -0.252606729308697142E+01   -0.127014595175839744E+03
    0.100321056203198777E+01   -0.401454701142758275E+01   -0.254431389104551009E+01   -0.127010490812078402E+03
    0.109542786372608525E+01   -0.408995763807111778E+01   -0.251248817093021648E+01   -0.127005083766878286E+03
    0.104870646423262670E+01   -0.406236585118521276E+01   -0.248069393888206502E+01   -0.126988429860636941E+03
    0.103658300861202601E+01   -0.404986037940402088E+01   -0.253051265201061781E+01   -0.126987963880473373E+03
    0.926600524066420905E+00   -0.397205501981941467E+01   -0.252713407366128706E+01   -0.126976394818906073E+03
    0.110968941435188473E+01   -0.407771697676061784E+01   -0.250103032717862739E+01   -0.126975489093133277E+03
    0.926411321127325049E+00   -0.397644349104152095E+01   -0.248334357447470389E+01   -0.126962742487600210E+03
    0.107001485828539722E+01   -0.405050116428977436E+01   -0.253616599083492833E+01   -0.126961101312227640E+03
    0.104748781522895174E+01   -0.402297993645069063E+01   -0.247278434985651607E+01   -0.126949773594621107E+03
    0.103457848267541697E+01   -0.402635067026248983E+01   -0.254487613389126333E+01   -0.126938122182410098E+03
    0.105515895120312742E+01   -0.401321978301117177E+01   -0.250727591543686046E+01   -0.126919544222079622E+03
    0.110209992643914978E+01   -0.407453050116864368E+01   -0.251662001888167364E+01   -0.126912725842031037E+03
    0.108347861693725678E+01   -0.404205852253534914E+01   -0.250316899611664212E+01   -0.126908452414237487E+03
    0.946800337905812972E+00   -0.394740944113843639E+01   -0.252099931152934209E+01   -0.126877534337870912E+03
    0.108786201854397202E+01   -0.404776809007132599E+01   -0.249944309293130651E+01   -0.126864565064937693E+03
    0.913612531384261572E+00   -0.394213145171872537E+01   -0.252029127836622013E+01   -0.126852509257346270E+03
    0.931757369866820007E+00   -0.397144963392696138E+01   -0.246284619242829095E+01   -0.126852209405472564E+03
    0.964195402827733861E+00   -0.401336050369468733E+01   -0.251025262064645283E+01   -0.126826911062931586E+03
    0.985570030730028468E+00   -0.401491109971051063E+01   -0.246685590886895900E+01   -0.126805913081820748E+03
    0.985570030730028468E+00   -0.401491109971051063E+01   -0.246685590886895900E+01   -0.126805913081820748E+03
    0.973558037240725760E+00   -0.402147064852197023E+01   -0.250539668737637156E+01   -0.126802457011600580E+03
    0.956400262656363020E+00   -0.398768824089215368E+01   -0.253536550113462855E+01   -0.126791301609851885E+03
    0.941323772373661716E+00   -0.399191804076744639E+01   -0.249270640029454738E+01   -0.126780431121100193E+03
    0.930518426031025747E+00   -0.394863764375277082E+01   -0.246473499980116806E+01   -0.126769984722121308E+03
    0.109470240467097280E+01   -0.406532982303738599E+01   -0.251741739815594245E+01   -0.126743540874227136E+03
    0.922989434569696510E+00   -0.396432941381049408E+01   -0.252471810879448455E+01   -0.126742397823458944E+03
    0.110564182043930881E+01   -0.408131972743140814E+01   -0.249626003493483806E+01   -0.126738157104590684E+03
    0.915682416818834444E+00   -0.394479638587879844E+01   -0.252096302058811972E+01   -0.126724365994288661E+03
    0.103252765853112427E+01   -0.400789434218531593E+01   -0.253646279909004546E+01   -0.126684605834850558E+03
    0.108152654164976614E+01   -0.407024640489540346E+01   -0.252308012407607496E+01   -0.126683023621286395E+03
    0.992257225288974309E+00   -0.403336315910032805E+01   -0.249764639341497974E+01   -0.126681344934028957E+03
    0.955831962539030355E+00   -0.400479371109427440E+01   -0.250602248709799191E+01   -0.126678687163079985E+03
    0.106988394140264731E+01   -0.404502807169364864E+01   -0.247818963347925525E+01   -0.126674851906768069E+03
    0.106988394140264731E+01   -0.404502807169364864E+01   -0.247818963347925525E+01   -0.126674851906768069E+03
    0.104267964486288189E+01   -0.405999535856434868E+01   -0.251468602266327279E+01   -0.126672012680410631E+03
    0.108971050640746858E+01   -0.407980767944071943E+01   -0.251463786866975303E+01   -0.126654511324100866E+03
    0.106533932770567041E+01   -0.405824345536249265E+01   -0.252896523517632454E+01   -0.126633919950000887E+03
    0.989097772972981293E+00   -0.402978624179512046E+01   -0.249347817256088611E+01   -0.126590453240852497E+03
    0.993469381658959261E+00   -0.397659191710995819E+01   -0.253108180935673799E+01   -0.126588723803316469E+03
    0.104210842015972704E+01   -0.402464438960105042E+01   -0.253864794240699121E+01   -0.126588334196818977E+03
    0.970474570355297605E+00   -0.401213015166555831E+01   -0.251757319258805268E+01   -0.126586520476516540E+03
    0.970474570355297605E+00   -0.401213015166555831E+01   -0.251757319258805268E+01   -0.126586520476516540E+03
    0.102336553392264684E+01   -0.404307816990183877E+01   -0.248056927972583852E+01   -0.126581272774841821E+03
    0.102336553392264684E+01   -0.404307816990183877E+01   -0.248056927972583852E+01   -0.126581272774841821E+03
    0.106974528982450057E+01   -0.406626520173770878E+01   -0.252223787287569889E+01   -0.126566979466482678E+03
    0.100833291042116091E+01   -0.398650808282481739E+01   -0.253146821216739504E+01   -0.126562222010259134E+03
    0.100833291042116091E+01   -0.398650808282481739E+01   -0.253146821216739504E+01   -0.126562222010259134E+03
    0.104918115152006775E+01   -0.405557860179014451E+01   -0.248020974542996431E+01   -0.126558655242001208E+03
    0.955895344976060879E+00   -0.398176975569138936E+01   -0.253481671903214600E+01   -0.126556501948851633E+03
    0.955895344976060879E+00   -0.398176975569138936E+01   -0.253481671903214600E+01   -0.126556501948851633E+03
    0.109547749208624667E+01   -0.406368889600876226E+01   -0.249698128096880012E+01   -0.126546667097608847E+03
    0.109547749208624667E+01   -0.406368889600876226E+01   -0.249698128096880012E+01   -0.126546667097608847E+03
    0.999910789200077144E+00   -0.403584268047356964E+01   -0.249281278247955296E+01   -0.126531072365379615E+03
    0.999910789200077144E+00   -0.403584268047356964E+01   -0.249281278247955296E+01   -0.126531072365379615E+03
    0.104091590271925516E+01   -0.402040415898822356E+01   -0.253695260902191588E+01   -0.126530200502499625E+03
    0.108547608839375886E+01   -0.405036957906921113E+01   -0.251018377615062871E+01   -0.126523619532935072E+03
    0.105974874188260371E+01   -0.402892726281989511E+01   -0.248112815934465702E+01   -0.126522014896155156E+03
    0.101347475453626679E+01   -0.403496491765305265E+01   -0.247921330177784416E+01   -0.126521271731704815E+03
    0.101347475453626679E+01   -0.403496491765305265E+01   -0.247921330177784416E+01   -0.126521271731704815E+03
    0.955149606609099644E+00   -0.400307458858713705E+01   -0.249373844783881315E+01   -0.126520729321790384E+03
    0.104819958455702844E+01   -0.402777256974282860E+01   -0.247494166897259227E+01   -0.126519034912958531E+03
    0.103802431263924277E+01   -0.403179046215948933E+01   -0.253742374213054589E+01   -0.126499752933425711E+03
    0.945120678229570244E+00   -0.397354158343510111E+01   -0.253175781361610275E+01   -0.126489746337170999E+03
    0.945120678229570244E+00   -0.397354158343510111E+01   -0.253175781361610275E+01   -0.126489746337170999E+03
    0.970489044403051837E+00   -0.401462772860139694E+01   -0.248413704868758112E+01   -0.126471783518625458E+03
    0.109612683846545900E+01   -0.407630801471698945E+01   -0.249364206279060685E+01   -0.126464841685124881E+03
    0.997339219211349715E+00   -0.402848064577567566E+01   -0.251770345782766825E+01   -0.126458565107033380E+03
    0.109750502933903560E+01   -0.407438745051525686E+01   -0.249556904606613816E+01   -0.126458213006340515E+03
    0.109753648766142842E+01   -0.407403231812727640E+01   -0.250613919639537253E+01   -0.126442249170807386E+03
    0.936155667585067519E+00   -0.395866766816616611E+01   -0.246314810295950437E+01   -0.126437114414177344E+03
    0.963485753639175435E+00   -0.398899299989608647E+01   -0.253333052098188505E+01   -0.126436216404643929E+03
    0.963485753639175435E+00   -0.398899299989608647E+01   -0.253333052098188505E+01   -0.126436216404643929E+03
    0.100377878896238304E+01   -0.403760697827277237E+01   -0.250283487334525567E+01   -0.126429263675671478E+03
    0.100312527639792282E+01   -0.397653387864634933E+01   -0.251309195236518557E+01   -0.126416174528988535E+03
    0.925920312304101989E+00   -0.394069638440534309E+01   -0.249540528383380789E+01   -0.126405481726266729E+03
    0.107740259199403132E+01   -0.406705704278265490E+01   -0.251949338905270404E+01   -0.126401020770414519E+03
    0.103774387883586150E+01   -0.404990546416228714E+01   -0.252084459127910554E+01   -0.126389882296560998E+03
    0.103227871023611151E+01   -0.405233466790660035E+01   -0.248955194118810308E+01   -0.126381062568007152E+03
    0.956167977103204336E+00   -0.396535596053495709E+01   -0.247145353622267816E+01   -0.126377712446338805E+03
    0.988868676624990006E+00   -0.402757729506270135E+01   -0.250207307070820217E+01   -0.126377263918869616E+03
    0.102657335834446073E+01   -0.402677292901779893E+01   -0.253592528003809203E+01   -0.126361590715256696E+03
    0.108987018732207042E+01   -0.407857201198760322E+01   -0.250454289259049734E+01   -0.126361107601829445E+03
    0.108987018732207042E+01   -0.407857201198760322E+01   -0.250454289259049734E+01   -0.126361107601829445E+03
    0.108947251526230438E+01   -0.407480718106380735E+01   -0.251053679850462563E+01   -0.126359596716543507E+03
    0.108947251526230438E+01   -0.407480718106380735E+01   -0.251053679850462563E+01   -0.126359596716543507E+03
    0.982168049525165676E+00   -0.399508483906361223E+01   -0.253732008472933446E+01   -0.126357991336234804E+03
    0.960077564712448872E+00   -0.398267439763953845E+01   -0.246131649303176392E+01   -0.126332585255903652E+03
    0.942682174064738976E+00   -0.398107594625376660E+01   -0.246836334372261756E+01   -0.126323771957706356E+03
    0.998368876107615821E+00   -0.397335561682754435E+01   -0.250890184160968932E+01   -0.126319729800071840E+03
    0.933915599600200652E+00   -0.396029004860927891E+01   -0.252557727602524107E+01   -0.126316078991713852E+03
    0.100546556052393909E+01   -0.398310427138213630E+01   -0.248148833487067444E+01   -0.126313964727884780E+03
    0.100340412373127186E+01   -0.403330585955321208E+01   -0.248758332016752526E+01   -0.126307959285886113E+03
    0.992072297994375907E+00   -0.397622869149710745E+01   -0.252700180164950661E+01   -0.126303060997069252E+03
    0.944457239544678417E+00   -0.398520493812893051E+01   -0.252126521228320488E+01   -0.126299582959508584E+03
    0.944457239544678417E+00   -0.398520493812893051E+01   -0.252126521228320488E+01   -0.126299582959508584E+03
    0.961423124888585834E+00   -0.395355158692152164E+01   -0.249398533229787045E+01   -0.126298771980614589E+03
    0.103787411091682391E+01   -0.405555007944876422E+01   -0.249250200953397316E+01   -0.126296914606451935E+03
    0.100962250029733092E+01   -0.402380881354956088E+01   -0.253042324736931601E+01   -0.126296572257110697E+03
    0.100962250029733092E+01   -0.402380881354956088E+01   -0.253042324736931601E+01   -0.126296572257110697E+03
    0.956951367395225461E+00   -0.400220251683180983E+01   -0.248993717298440043E+01   -0.126293226435460483E+03
    0.969970268904881805E+00   -0.395789660365741192E+01   -0.249226841793410792E+01   -0.126289469847829508E+03
    0.969970268904881805E+00   -0.395789660365741192E+01   -0.249226841793410792E+01   -0.126289469847829508E+03
    0.978827477857247219E+00   -0.398741129576929465E+01   -0.247225739714269688E+01   -0.126289364543337499E+03
    0.104005915279454797E+01   -0.400589904500959726E+01   -0.251426821683067825E+01   -0.126283946714194471E+03
    0.104005915279454797E+01   -0.400589904500959726E+01   -0.251426821683067825E+01   -0.126283946714194471E+03
    0.963209037975770621E+00   -0.399965614098244915E+01   -0.246902338210549255E+01   -0.126265278998567922E+03
    0.108201681614234690E+01   -0.407079841975914292E+01   -0.251261013245338383E+01   -0.126261086037773680E+03
    0.101246531698717579E+01   -0.401691784858542800E+01   -0.247333918416922893E+01   -0.126255190607948819E+03
    0.101246531698717579E+01   -0.401691784858542800E+01   -0.247333918416922893E+01   -0.126255190607948819E+03
    0.100867433767288484E+01   -0.402263324045739523E+01   -0.247595979559580304E+01   -0.126254554872743512E+03
    0.100867433767288484E+01   -0.402263324045739523E+01   -0.247595979559580304E+01   -0.126254554872743512E+03
    0.975079741072158890E+00   -0.401592282935639133E+01   -0.248716838076114755E+01   -0.126248193068918994E+03
    0.970488799567603477E+00   -0.398934184328215835E+01   -0.246689664102812811E+01   -0.126243267991350862E+03
    0.108555001338922308E+01   -0.405471553583334376E+01   -0.250687956149506253E+01   -0.126242360298268835E+03
    0.108555001338922308E+01   -0.405471553583334376E+01   -0.250687956149506253E+01   -0.126242360298268835E+03
    0.927008232930889076E+00   -0.394634741533766586E+01   -0.247963187842068811E+01   -0.126241757488620479E+03
    0.927838046645798498E+00   -0.396566895861051716E+01   -0.247701694607906964E+01   -0.126238425665914548E+03
    0.927838046645798498E+00   -0.396566895861051716E+01   -0.247701694607906964E+01   -0.126238425665914548E+03
    0.102043968902365667E+01   -0.404455789593946857E+01   -0.249170199511822288E+01   -0.126235576564250991E+03
    0.108287294586567517E+01   -0.406560816712596562E+01   -0.248855120014308406E+01   -0.126223947438392159E+03
    0.108287294586567517E+01   -0.406560816712596562E+01   -0.248855120014308406E+01   -0.126223947438392159E+03
    0.101326219022310049E+01   -0.399543704556327839E+01   -0.247638260281026934E+01   -0.126222636400529538E+03
    0.101326219022310049E+01   -0.399543704556327839E+01   -0.247638260281026934E+01   -0.126222636400529538E+03
    0.935245666216225402E+00   -0.395819715492671698E+01   -0.246699839832900469E+01   -0.126222447373639170E+03
    0.935245666216225402E+00   -0.395819715492671698E+01   -0.246699839832900469E+01   -0.126222447373639170E+03
    0.947824267509319807E+00   -0.398426341359715774E+01   -0.246766608441565438E+01   -0.126221579330846396E+03
    0.100835645109309713E+01   -0.401963183878320418E+01   -0.247512323358004416E+01   -0.126214004310322835E+03
    0.979449334864080479E+00   -0.401540100574825232E+01   -0.248002709551498501E+01   -0.126208710587071891E+03
    0.921999669480175310E+00   -0.394438222078463419E+01   -0.250082559979463737E+01   -0.126190205725497719E+03
    0.107742805082358761E+01   -0.406898340649170720E+01   -0.249017450908249671E+01   -0.126187659126948503E+03
    0.102715875775308629E+01   -0.402182574729213460E+01   -0.253520370150226926E+01   -0.126179916979877092E+03
    0.948713495894412340E+00   -0.397838049196070287E+01   -0.252685944363605053E+01   -0.126174873168649242E+03
    0.948713495894412340E+00   -0.397838049196070287E+01   -0.252685944363605053E+01   -0.126174873168649242E+03
    0.103598498559049235E+01   -0.405296112385234952E+01   -0.249263740515450394E+01   -0.126174575576985390E+03
    0.105798211559198974E+01   -0.405235688639528835E+01   -0.252371979755050457E+01   -0.126170040257307690E+03
    0.105798211559198974E+01   -0.405235688639528835E+01   -0.252371979755050457E+01   -0.126170040257307690E+03
    0.996548864126411083E+00   -0.402307279244598348E+01   -0.251948711537913628E+01   -0.126167640248809334E+03
    0.996548864126411083E+00   -0.402307279244598348E+01   -0.251948711537913628E+01   -0.126167640248809334E+03
    0.934146854714812291E+00   -0.394979608016977224E+01   -0.247716504265286508E+01   -0.126162677140971013E+03
    0.978697007048298984E+00   -0.398466399939811211E+01   -0.247341420571361503E+01   -0.126160121251148325E+03
    0.978697007048298984E+00   -0.398466399939811211E+01   -0.247341420571361503E+01   -0.126160121251148325E+03
    0.105114130230485836E+01   -0.406115829256138383E+01   -0.250545600282926895E+01   -0.126153466299000840E+03
    0.970793056896999129E+00   -0.396952031221284507E+01   -0.252874866780842567E+01   -0.126151171014009790E+03
    0.970793056896999129E+00   -0.396952031221284507E+01   -0.252874866780842567E+01   -0.126151171014009790E+03
    0.990234546940035099E+00   -0.401314681009753738E+01   -0.247800051614966366E+01   -0.126149313181180730E+03
    0.994968690008448564E+00   -0.399441112362072026E+01   -0.247305829264154964E+01   -0.126148319574905159E+03
    0.105189175792841638E+01   -0.403988555736438482E+01   -0.252924383136817843E+01   -0.126148128492682147E+03
    0.946952816464397995E+00   -0.398592622947987563E+01   -0.247272693511673847E+01   -0.126146479233663186E+03
    0.946952816464397995E+00   -0.398592622947987563E+01   -0.247272693511673847E+01   -0.126146479233663186E+03
    0.102163437793005607E+01   -0.403848978186551921E+01   -0.248319137370559684E+01   -0.126133103529854338E+03
    0.102163437793005607E+01   -0.403848978186551921E+01   -0.248319137370559684E+01   -0.126133103529854338E+03
    0.107044389519135530E+01   -0.406963242121327529E+01   -0.250213150534974327E+01   -0.126114073706939607E+03
    0.107044389519135530E+01   -0.406963242121327529E+01   -0.250213150534974327E+01   -0.126114073706939607E+03
    0.933642257246572016E+00   -0.394646504842549906E+01   -0.250676298733869629E+01   -0.126110514015700147E+03
    0.933642257246572016E+00   -0.394646504842549906E+01   -0.250676298733869629E+01   -0.126110514015700147E+03
    0.104917058272895680E+01   -0.403171339177945054E+01   -0.252971569566767762E+01   -0.126103962980732618E+03
    0.929704091751423767E+00   -0.395111917492814246E+01   -0.251564037260073325E+01   -0.126099905436131181E+03
    0.994072272897279063E+00   -0.400371554960990217E+01   -0.253407167639377384E+01   -0.126099418706417040E+03
    0.952454770708464293E+00   -0.399611533794749629E+01   -0.250010140769955314E+01   -0.126098572017423592E+03
    0.104617495528000926E+01   -0.405767188839396997E+01   -0.249386933187075588E+01   -0.126095911602100060E+03
    0.104889267447917245E+01   -0.405962586152800675E+01   -0.249668017734102676E+01   -0.126092879699102838E+03
    0.926083938599136625E+00   -0.395441427272375634E+01   -0.247730054202616756E+01   -0.126091841337084261E+03
    0.926083938599136625E+00   -0.395441427272375634E+01   -0.247730054202616756E+01   -0.126091841337084261E+03
    0.102076473424018221E+01   -0.399066243975246460E+01   -0.249359930230749960E+01   -0.126091632902767287E+03
    0.997580146995635575E+00   -0.398509935500695756E+01   -0.253057574256285234E+01   -0.126091077020937803E+03
    0.934871274265948626E+00   -0.395526741546498073E+01   -0.247155898022917553E+01   -0.126088862388336921E+03
    0.103370912329873654E+01   -0.405111730217650390E+01   -0.249512019280972464E+01   -0.126080396391271279E+03
    0.942400041243459108E+00   -0.398542893447595192E+01   -0.249875019998185088E+01   -0.126070122214834043E+03
    0.108408881441449623E+01   -0.406214889477910734E+01   -0.249333516909666741E+01   -0.126069159395656072E+03
    0.107234393210778078E+01   -0.404155198380650571E+01   -0.251175867255446850E+01   -0.126058090632668097E+03
    0.969314084034097911E+00   -0.395903977942822793E+01   -0.249443688205051473E+01   -0.126055746525952841E+03
    0.928444555735607913E+00   -0.396246088409335329E+01   -0.251824689338500773E+01   -0.126046062521911807E+03
    0.986135277386519626E+00   -0.401835466939991193E+01   -0.248700918798357051E+01   -0.126032758362681591E+03
    0.103909593433575509E+01   -0.403456445206402581E+01   -0.247777937235471235E+01   -0.126024855061640707E+03
    0.103741882220748027E+01   -0.405247764065060778E+01   -0.250384524197533676E+01   -0.126023578618651754E+03
    0.106388327191716692E+01   -0.406480882374230923E+01   -0.249498565511772386E+01   -0.126018637179768405E+03
    0.982154913315640976E+00   -0.400728129180561954E+01   -0.252403776946945602E+01   -0.126015895828838069E+03
    0.102216474279866665E+01   -0.403438237414105139E+01   -0.252239317999974988E+01   -0.126013345650678943E+03
    0.103195132365109687E+01   -0.400113816621285689E+01   -0.251301537880319392E+01   -0.126005675345613639E+03
    0.107255147584551058E+01   -0.406333475496928376E+01   -0.251235139464434853E+01   -0.126002301326611317E+03
    0.100121529622820482E+01   -0.398790481567136723E+01   -0.252968923480289876E+01   -0.126002292347441227E+03
    0.100542167054951537E+01   -0.400435516336956887E+01   -0.253463446229663480E+01   -0.126000287614162900E+03
    0.102328807983326420E+01   -0.403157898200925047E+01   -0.252562508355863091E+01   -0.125994480417080993E+03
    0.108041765829344971E+01   -0.405802729823340780E+01   -0.249233109214775972E+01   -0.125992796226222865E+03
    0.976351551602073764E+00   -0.396277566363615996E+01   -0.249667039260461010E+01   -0.125985033985316463E+03
    0.960489042004978089E+00   -0.399841584623822888E+01   -0.251442574583366873E+01   -0.125983708418976462E+03
    0.960489042004978089E+00   -0.399841584623822888E+01   -0.251442574583366873E+01   -0.125983708418976462E+03
    0.941627278901580600E+00   -0.395570715255851546E+01   -0.251796066656992545E+01   -0.125979822503136774E+03
    0.980595692742707525E+00   -0.401013068825709773E+01   -0.251870059813679070E+01   -0.125979535931898880E+03
    0.104840296632184371E+01   -0.405532055277951553E+01   -0.251068728802613617E+01   -0.125973512317501900E+03
    0.104840296632184371E+01   -0.405532055277951553E+01   -0.251068728802613617E+01   -0.125973512317501900E+03
    0.101012468675373457E+01   -0.403419133092913906E+01   -0.248970193470100387E+01   -0.125972193764890406E+03
    0.101012468675373457E+01   -0.403419133092913906E+01   -0.248970193470100387E+01   -0.125972193764890406E+03
    0.101772862184260959E+01   -0.401397780021712514E+01   -0.247510429373340557E+01   -0.125970222579980657E+03
    0.990040217599530981E+00   -0.397277094264076647E+01   -0.251538634175130049E+01   -0.125969727090495354E+03
    0.990040217599530981E+00   -0.397277094264076647E+01   -0.251538634175130049E+01   -0.125969727090495354E+03
    0.945152084722390429E+00   -0.398715301245489551E+01   -0.249376391051723401E+01   -0.125966871297941140E+03
    0.945152084722390429E+00   -0.398715301245489551E+01   -0.249376391051723401E+01   -0.125966871297941140E+03
    0.934694848925167188E+00   -0.396437014266986143E+01   -0.251973067928564909E+01   -0.125962957671979623E+03
    0.952494090194445642E+00   -0.396965568710104089E+01   -0.252628777355818768E+01   -0.125962057346801714E+03
    0.101630543138263052E+01   -0.403579561495319261E+01   -0.251423362517516935E+01   -0.125961280580195918E+03
    0.944252362227301356E+00   -0.396414506902456054E+01   -0.252305190171428340E+01   -0.125955680885836699E+03
    0.102583229829264777E+01   -0.404491574584604585E+01   -0.249469638135680460E+01   -0.125953933676417336E+03
    0.107180078006231350E+01   -0.404854984911938853E+01   -0.251603495000973476E+01   -0.125943749891968267E+03
    0.107180078006231350E+01   -0.404854984911938853E+01   -0.251603495000973476E+01   -0.125943749891968267E+03
    0.989556433236330357E+00   -0.400223888854852827E+01   -0.247567708523538688E+01   -0.125939471141642656E+03
    0.989556433236330357E+00   -0.400223888854852827E+01   -0.247567708523538688E+01   -0.125939471141642656E+03
    0.928402453884558110E+00   -0.396079220560341128E+01   -0.251487510687891946E+01   -0.125937178159818473E+03
    0.976308084206170435E+00   -0.400995453083394526E+01   -0.251318665807239672E+01   -0.125933033116621033E+03
    0.972503985069371191E+00   -0.399425224660427070E+01   -0.252706745080343920E+01   -0.125924117354939952E+03
    0.987381162138928348E+00   -0.401759585287432053E+01   -0.251277566041653833E+01   -0.125920082339750039E+03
    0.987381162138928348E+00   -0.401759585287432053E+01   -0.251277566041653833E+01   -0.125920082339750039E+03
    0.103853857320656906E+01   -0.401471682145314546E+01   -0.252485258777499944E+01   -0.125918696314891903E+03
    0.103853857320656906E+01   -0.401471682145314546E+01   -0.252485258777499944E+01   -0.125918696314891903E+03
    0.105811771291186396E+01   -0.406079414571275166E+01   -0.249503719000740887E+01   -0.125918024965702671E+03
    0.105811771291186396E+01   -0.406079414571275166E+01   -0.249503719000740887E+01   -0.125918024965702671E+03
    0.104765698920431682E+01   -0.403505622242685114E+01   -0.252688571149841090E+01   -0.125913128379992401E+03
    0.104765698920431682E+01   -0.403505622242685114E+01   -0.252688571149841090E+01   -0.125913128379992401E+03
    0.107019049107543185E+01   -0.404464812102114912E+01   -0.251483171870955902E+01   -0.125910826829974312E+03
    0.101679411216990756E+01   -0.403838961800388319E+01   -0.249226758761160205E+01   -0.125909427847869352E+03
    0.101679411216990756E+01   -0.403838961800388319E+01   -0.249226758761160205E+01   -0.125909427847869352E+03
    0.981736616500816783E+00   -0.397166571176713568E+01   -0.252118700031957488E+01   -0.125908740360162582E+03
    0.100221767442971599E+01   -0.399486393188294286E+01   -0.253223384644115779E+01   -0.125905851396252871E+03
    0.100221767442971599E+01   -0.399486393188294286E+01   -0.253223384644115779E+01   -0.125905851396252871E+03
    0.994711734414565285E+00   -0.402122068225348883E+01   -0.251445808797976023E+01   -0.125895823091224372E+03
    0.102885462803925432E+01   -0.402498817974315237E+01   -0.252986265825102752E+01   -0.125889424656784769E+03
    0.102885462803925432E+01   -0.402498817974315237E+01   -0.252986265825102752E+01   -0.125889424656784769E+03
    0.960103669505512181E+00   -0.397562171122577102E+01   -0.247204463117087503E+01   -0.125880977159284896E+03
    0.101240013765835402E+01   -0.403445378503018137E+01   -0.248999503857800164E+01   -0.125880664919439397E+03
    0.101240013765835402E+01   -0.403445378503018137E+01   -0.248999503857800164E+01   -0.125880664919439397E+03
    0.939197058683522323E+00   -0.395574797685504453E+01   -0.251560791701947295E+01   -0.125872607346292440E+03
    0.971224769408379762E+00   -0.400215781365935896E+01   -0.247585187331621182E+01   -0.125862704611072857E+03
    0.970555733184205738E+00   -0.400033198329295914E+01   -0.247450725041865560E+01   -0.125859315845468913E+03
    0.970555733184205738E+00   -0.400033198329295914E+01   -0.247450725041865560E+01   -0.125859315845468913E+03
    0.102085248920393701E+01   -0.399190021085980540E+01   -0.250005590366939279E+01   -0.125854490215053175E+03
    0.102085248920393701E+01   -0.399190021085980540E+01   -0.250005590366939279E+01   -0.125854490215053175E+03
    0.946246823334151221E+00   -0.398685204606580168E+01   -0.249601199109072791E+01   -0.125847137937033409E+03
    0.956211523686210207E+00   -0.395506351489861263E+01   -0.250110135295944369E+01   -0.125837400810164894E+03
    0.956211523686210207E+00   -0.395506351489861263E+01   -0.250110135295944369E+01   -0.125837400810164894E+03
    0.101109972394378222E+01   -0.398563735074025383E+01   -0.250875777289778501E+01   -0.125834730164868148E+03
    0.107972460424230787E+01   -0.405982051580230774E+01   -0.250128336561704279E+01   -0.125833090608170224E+03
    0.993133142433188842E+00   -0.400775066000595537E+01   -0.252723510007311658E+01   -0.125830711681556920E+03
    0.937007908234706588E+00   -0.396259879614162092E+01   -0.251793879156750355E+01   -0.125829047209729850E+03
    0.946510100320358538E+00   -0.397834404792414542E+01   -0.247168837824006005E+01   -0.125828370405096265E+03
    0.105005710706800426E+01   -0.401868654776800938E+01   -0.250967795982633612E+01   -0.125823675866265773E+03
    0.105005710706800426E+01   -0.401868654776800938E+01   -0.250967795982633612E+01   -0.125823675866265773E+03
    0.105913400251859158E+01   -0.404425345397643810E+01   -0.252067133378007746E+01   -0.125818165806324188E+03
    0.105913400251859158E+01   -0.404425345397643810E+01   -0.252067133378007746E+01   -0.125818165806324188E+03
    0.101159967410914042E+01   -0.398667042637053681E+01   -0.249179292633870109E+01   -0.125816914304291686E+03
    0.101159967410914042E+01   -0.398667042637053681E+01   -0.249179292633870109E+01   -0.125816914304291686E+03
    0.105743273834711293E+01   -0.402525325306538928E+01   -0.250169035751553981E+01   -0.125813768198207697E+03
    0.939865301022700828E+00   -0.395898987832744265E+01   -0.247544958140894789E+01   -0.125800965914798084E+03
    0.939865301022700828E+00   -0.395898987832744265E+01   -0.247544958140894789E+01   -0.125800965914798084E+03
    0.104531023215735708E+01   -0.403140963565784460E+01   -0.252570202466957916E+01   -0.125796029784833877E+03
    0.104531023215735708E+01   -0.403140963565784460E+01   -0.252570202466957916E+01   -0.125796029784833877E+03
    0.102782774455817205E+01   -0.400283647610804927E+01   -0.248533315777004526E+01   -0.125791003045288761E+03
    0.944945054181192123E+00   -0.395223250823517080E+01   -0.249655436859423530E+01   -0.125788931488881786E+03
    0.967245101807547858E+00   -0.396216946302454964E+01   -0.251223791280042708E+01   -0.125788535115845306E+03
    0.987306894711433958E+00   -0.398973140923550229E+01   -0.247625304635325572E+01   -0.125786548601297270E+03
    0.929959365316454512E+00   -0.396136060549240421E+01   -0.248518769334309031E+01   -0.125783266833484461E+03
    0.962996057132839756E+00   -0.399369586855717973E+01   -0.251831649399678703E+01   -0.125775894055980316E+03
    0.931451200198471607E+00   -0.396345883889883410E+01   -0.251208347404861554E+01   -0.125769903369385261E+03
    0.931451200198471607E+00   -0.396345883889883410E+01   -0.251208347404861554E+01   -0.125769903369385261E+03
    0.106731361956244419E+01   -0.406137232605787446E+01   -0.249808277109969756E+01   -0.125764367554037861E+03
    0.103020311527198349E+01   -0.403617206298110087E+01   -0.248288192553638076E+01   -0.125760327830839003E+03
    0.964260751937640048E+00   -0.396702343740588947E+01   -0.248203130046718323E+01   -0.125758788190216038E+03
    0.929221506682073262E+00   -0.395530757886425288E+01   -0.250994565562002414E+01   -0.125757567608023535E+03
    0.950321056703879785E+00   -0.398137773559344055E+01   -0.251849117722383165E+01   -0.125752602370011715E+03
    0.939811846546902974E+00   -0.396289994026261816E+01   -0.251737396761101140E+01   -0.125750891434417255E+03
    0.939811846546902974E+00   -0.396289994026261816E+01   -0.251737396761101140E+01   -0.125750891434417255E+03
    0.106161209625396724E+01   -0.404375764054029752E+01   -0.251808305120808784E+01   -0.125746707978033783E+03
    0.106161209625396724E+01   -0.404375764054029752E+01   -0.251808305120808784E+01   -0.125746707978033783E+03
    0.973068582156468853E+00   -0.399437370136599856E+01   -0.252417708950919462E+01   -0.125740745243003786E+03
    0.973068582156468853E+00   -0.399437370136599856E+01   -0.252417708950919462E+01   -0.125740745243003786E+03
    0.959662664956302036E+00   -0.396007436084835707E+01   -0.251265231063494010E+01   -0.125739633435801551E+03
    0.995670142864969576E+00   -0.397578046053226775E+01   -0.249640120946450494E+01   -0.125738239717233597E+03
    0.995282272394136580E+00   -0.402274920915747902E+01   -0.249230050398401159E+01   -0.125732184870717759E+03
    0.969443524642976229E+00   -0.396401058513009641E+01   -0.251295725064331199E+01   -0.125732107938265628E+03
    0.106282776971471593E+01   -0.405878986760823057E+01   -0.249553635402241136E+01   -0.125728036244493126E+03
    0.106282776971471593E+01   -0.405878986760823057E+01   -0.249553635402241136E+01   -0.125728036244493126E+03
    0.104380583693507156E+01   -0.402432888343326489E+01   -0.248228815629961108E+01   -0.125719702924450502E+03
    0.101749527325606404E+01   -0.402890468132023472E+01   -0.251984206383695852E+01   -0.125718377053528911E+03
    0.105178626588222213E+01   -0.404394881609464285E+01   -0.251957041173897967E+01   -0.125717823561635257E+03
    0.105397830127875225E+01   -0.402557177972419833E+01   -0.251264996043499345E+01   -0.125716200080517453E+03
    0.940095038822264417E+00   -0.397693537703712252E+01   -0.250749824529108478E+01   -0.125713713628160278E+03
    0.941046956724199690E+00   -0.395727772077781381E+01   -0.251308424996347846E+01   -0.125707551900737101E+03
    0.963488684999044498E+00   -0.398082344187055126E+01   -0.247496032227030893E+01   -0.125705713031223141E+03
    0.930942670221264312E+00   -0.396257882370235670E+01   -0.250553523265701905E+01   -0.125705577089680304E+03
    0.104143695859128771E+01   -0.401377034902214369E+01   -0.251484362898756508E+01   -0.125703523576337020E+03
    0.974414566166605822E+00   -0.398888059439868226E+01   -0.247791239588451884E+01   -0.125702712744501540E+03
    0.974414566166605822E+00   -0.398888059439868226E+01   -0.247791239588451884E+01   -0.125702712744501540E+03
    0.959563046521963336E+00   -0.398690720235479645E+01   -0.252013645686940713E+01   -0.125701852320917098E+03
    0.983905785023701518E+00   -0.397322572434923460E+01   -0.251740526258746655E+01   -0.125696808555147342E+03
    0.983905785023701518E+00   -0.397322572434923460E+01   -0.251740526258746655E+01   -0.125696808555147342E+03
    0.100903880114415867E+01   -0.402088299719514808E+01   -0.252257361222436538E+01   -0.125695764262009035E+03
    0.992935570047066340E+00   -0.400322091389111101E+01   -0.252762190601915071E+01   -0.125695413834295024E+03
    0.106757926522725022E+01   -0.405935665646284249E+01   -0.249789738505264403E+01   -0.125689761978438739E+03
    0.958075117247611963E+00   -0.399369843574414762E+01   -0.251103593436752215E+01   -0.125689492274192474E+03
    0.965036887662417575E+00   -0.396578761443325067E+01   -0.248440680912937140E+01   -0.125686139275253936E+03
    0.101419583378345579E+01   -0.400332998394694872E+01   -0.252848164701514699E+01   -0.125682639965736698E+03
    0.100371620642991255E+01   -0.398808009650897510E+01   -0.248256578584711640E+01   -0.125682236763750652E+03
    0.942840478608031773E+00   -0.397539664674355731E+01   -0.247753647854848236E+01   -0.125678237906862975E+03
    0.106267318095398000E+01   -0.403673134115209908E+01   -0.249190129685877793E+01   -0.125675303347362060E+03
    0.106267318095398000E+01   -0.403673134115209908E+01   -0.249190129685877793E+01   -0.125675303347362060E+03
    0.100918310438688863E+01   -0.398495382627878048E+01   -0.250113607665190152E+01   -0.125673065700326546E+03
    0.967389155721652294E+00   -0.397724746637457827E+01   -0.252529913160271757E+01   -0.125670919068613856E+03
    0.948839611968131047E+00   -0.395512468271123518E+01   -0.250475476784695195E+01   -0.125670725295596071E+03
    0.959793914945917814E+00   -0.399763366360003047E+01   -0.249490610745720165E+01   -0.125667632893075023E+03
    0.971333069197362620E+00   -0.399492184915591420E+01   -0.252131142954958420E+01   -0.125664560038669379E+03
    0.965177171231820785E+00   -0.400179987057047803E+01   -0.249336888543258128E+01   -0.125658197462811245E+03
    0.103309875645816596E+01   -0.404081041272737274E+01   -0.248767283841143438E+01   -0.125649994716148157E+03
    0.103309875645816596E+01   -0.404081041272737274E+01   -0.248767283841143438E+01   -0.125649994716148157E+03
    0.945939636457699962E+00   -0.396139870077649681E+01   -0.248033199217358025E+01   -0.125648983624259756E+03
    0.951592584171667144E+00   -0.397734672029640590E+01   -0.251939970700442917E+01   -0.125646944152962689E+03
    0.965866190937536340E+00   -0.396731817412700671E+01   -0.251881580227771096E+01   -0.125646396538290546E+03
    0.103660379444498818E+01   -0.400851586207419164E+01   -0.251125258644107419E+01   -0.125645759497377483E+03
    0.101853589502371067E+01   -0.400689377484474107E+01   -0.252767289959617925E+01   -0.125644942743739691E+03
    0.960726057652924736E+00   -0.395895510346273305E+01   -0.249709885310364132E+01   -0.125644849167350984E+03
    0.967464539840106053E+00   -0.399064214229635050E+01   -0.247547129749881734E+01   -0.125644782102232654E+03
    0.106331704647993597E+01   -0.405148080677003719E+01   -0.249018976771444933E+01   -0.125642691243834406E+03
    0.961490045226550238E+00   -0.396074063953360467E+01   -0.250955611743794105E+01   -0.125642169145549545E+03
    0.951066780783457855E+00   -0.397103869087100048E+01   -0.252020404530594355E+01   -0.125641179042990331E+03
    0.951066780783457855E+00   -0.397103869087100048E+01   -0.252020404530594355E+01   -0.125641179042990331E+03
    0.101377021324772665E+01   -0.402852672741478379E+01   -0.248557631667213563E+01   -0.125640046002452110E+03
    0.932348806982920553E+00   -0.396073884796164544E+01   -0.251047958247651382E+01   -0.125638714787866832E+03
    0.961352849416731714E+00   -0.395930585697783677E+01   -0.250301139763133573E+01   -0.125636111968763416E+03
    0.961352849416731714E+00   -0.395930585697783677E+01   -0.250301139763133573E+01   -0.125636111968763416E+03
    0.971698058207250415E+00   -0.399996478191555127E+01   -0.248046757394758721E+01   -0.125633373143380624E+03
    0.104245901075914005E+01   -0.401368940005262242E+01   -0.250977100736407577E+01   -0.125631869389604660E+03
    0.977810922542116212E+00   -0.400476857349282600E+01   -0.251539624617015445E+01   -0.125623696251916684E+03
    0.105540221045792415E+01   -0.404932182303358257E+01   -0.251335332777098053E+01   -0.125620163311776324E+03
    0.103078314063397047E+01   -0.401096056642310028E+01   -0.248285611270386619E+01   -0.125616958286424932E+03
    0.101398306006591055E+01   -0.402765986840852186E+01   -0.251662649745901890E+01   -0.125616732716722169E+03
    0.101084029979046064E+01   -0.402900328199671520E+01   -0.251122403359984681E+01   -0.125613183482803649E+03
    0.946233414290184482E+00   -0.398337987343552191E+01   -0.249989755824026938E+01   -0.125606898227486454E+03
    0.940784065550807291E+00   -0.396376098906717100E+01   -0.247734992237328999E+01   -0.125602805567156878E+03
    0.100579748421666149E+01   -0.399589170249180015E+01   -0.252648800088010983E+01   -0.125593330166976713E+03
    0.961236747139494585E+00   -0.398220966757651418E+01   -0.247464361716417169E+01   -0.125591128911027297E+03
    0.961236747139494585E+00   -0.398220966757651418E+01   -0.247464361716417169E+01   -0.125591128911027297E+03
    0.101251343595356547E+01   -0.400608469765890884E+01   -0.247848539985808225E+01   -0.125587258721945943E+03
    0.106750357962669207E+01   -0.405523153363905120E+01   -0.249710119876699332E+01   -0.125583483013106743E+03
    0.102823466975695799E+01   -0.400291501640395708E+01   -0.248976926625885930E+01   -0.125582860917289338E+03
    0.934433766309024638E+00   -0.396174591458158520E+01   -0.251022697122956018E+01   -0.125581843292596233E+03
    0.102295821300012690E+01   -0.401697472269876066E+01   -0.252664105600367694E+01   -0.125581308550664275E+03
    0.105952186396160264E+01   -0.403704989549777427E+01   -0.249000426403134290E+01   -0.125580626428460803E+03
    0.100817251632161686E+01   -0.402974711512743156E+01   -0.249723781222804231E+01   -0.125578787921538222E+03
    0.104525998191725833E+01   -0.404904250721038039E+01   -0.250600794094794654E+01   -0.125576134111334341E+03
    0.105271397066579731E+01   -0.402395094512201723E+01   -0.249770340146177050E+01   -0.125569283229094694E+03
    0.965427618886802730E+00   -0.396217532277603901E+01   -0.249421960446460922E+01   -0.125568778989152833E+03
    0.969097377379344538E+00   -0.396759903518857904E+01   -0.251583285741690466E+01   -0.125563886104721036E+03
    0.954349013178236394E+00   -0.395845299552366692E+01   -0.250590743834863394E+01   -0.125558881852899162E+03
    0.983312021645751599E+00   -0.400178696116577104E+01   -0.252138009483284931E+01   -0.125553919942118128E+03
    0.946604540110215109E+00   -0.398285104024060832E+01   -0.249422454926430559E+01   -0.125551514699697165E+03
    0.936633726745290884E+00   -0.396139548511216644E+01   -0.248298183989302723E+01   -0.125550674835771758E+03
    0.100615168581562053E+01   -0.401429038396523907E+01   -0.248025302846792561E+01   -0.125550492521825660E+03
    0.100615168581562053E+01   -0.401429038396523907E+01   -0.248025302846792561E+01   -0.125550492521825660E+03
    0.104156194515424150E+01   -0.404133526051563940E+01   -0.248683818731483308E+01   -0.125545956822185033E+03
    0.991664195802151593E+00   -0.400475268097086889E+01   -0.252362342214876634E+01   -0.125545553551171764E+03
    0.969578837065727450E+00   -0.399801938847351490E+01   -0.251416627043700069E+01   -0.125545073755719827E+03
    0.103673694157834650E+01   -0.404486529497284586E+01   -0.250376846426771538E+01   -0.125535056955321764E+03
    0.103589230431901669E+01   -0.403750987758951929E+01   -0.251669345503781239E+01   -0.125532253937948013E+03
    0.933833712690949724E+00   -0.395908877102647239E+01   -0.249041271255418417E+01   -0.125530503810324007E+03
    0.933833712690949724E+00   -0.395908877102647239E+01   -0.249041271255418417E+01   -0.125530503810324007E+03
    0.105665534328176669E+01   -0.402888071266745751E+01   -0.250290267862920057E+01   -0.125529157165668622E+03
    0.100300622654373783E+01   -0.398396510050060337E+01   -0.251180657493402171E+01   -0.125529096475237353E+03
    0.975190360071860329E+00   -0.397097132779593487E+01   -0.248589753897502153E+01   -0.125528329174542193E+03
    0.946103767774274740E+00   -0.397592581360025710E+01   -0.247831766188477332E+01   -0.125527446356013016E+03
    0.970855520151171936E+00   -0.397382358971096306E+01   -0.248233014194247614E+01   -0.125514960723194278E+03
    0.104649386161856994E+01   -0.404186598501950289E+01   -0.251561523529344333E+01   -0.125512677230499079E+03
    0.101116652005828733E+01   -0.401429460645907188E+01   -0.252463860198165957E+01   -0.125499698827659287E+03
    0.105788384979981398E+01   -0.405284325874662699E+01   -0.250146098998488586E+01   -0.125495947113377355E+03
    0.100409347855969688E+01   -0.401933126917780292E+01   -0.251681076343665877E+01   -0.125494686370810044E+03
    0.965935377869584388E+00   -0.399891186012607491E+01   -0.248971484019385336E+01   -0.125492259830114790E+03
    0.941985996891924748E+00   -0.395738393594246052E+01   -0.250537702908692728E+01   -0.125489660944268110E+03
    0.105858354192712811E+01   -0.405271747619380651E+01   -0.250157964642920216E+01   -0.125486514025491843E+03
    0.105858354192712811E+01   -0.405271747619380651E+01   -0.250157964642920216E+01   -0.125486514025491843E+03
    0.105965611846207097E+01   -0.403656819821698587E+01   -0.250929135219635224E+01   -0.125481924645403126E+03
    0.101438168561885167E+01   -0.402739069331664545E+01   -0.248702350892402713E+01   -0.125481163977520524E+03
    0.935601610690345198E+00   -0.396554508962716801E+01   -0.249621044401941239E+01   -0.125477392877829814E+03
    0.956925721120967077E+00   -0.398112787044780303E+01   -0.247616496428796129E+01   -0.125476038379740444E+03
    0.968268711614293065E+00   -0.400154526359107621E+01   -0.249925184595035610E+01   -0.125474364744337208E+03
    0.962661156088682746E+00   -0.397698917551299758E+01   -0.248188880805692857E+01   -0.125470037297301147E+03
    0.100896423844232963E+01   -0.402740775090873182E+01   -0.250699882725952383E+01   -0.125468803982797752E+03
    0.105836786555205054E+01   -0.403460810496086886E+01   -0.249394859821180326E+01   -0.125468233174537858E+03
    0.103906099182788836E+01   -0.401864763792256330E+01   -0.251849302374647710E+01   -0.125467563444011546E+03
    0.939329312154360219E+00   -0.396963674129394617E+01   -0.248710509264980217E+01   -0.125459509063874407E+03
    0.939329312154360219E+00   -0.396963674129394617E+01   -0.248710509264980217E+01   -0.125459509063874407E+03
    0.106522473841867060E+01   -0.404916783091809052E+01   -0.250388930284611000E+01   -0.125458463008684419E+03
    0.102315098171024621E+01   -0.402405059113130203E+01   -0.252156004889876328E+01   -0.125453089418524371E+03
    0.960666661818687651E+00   -0.398241706097831027E+01   -0.247781413686450858E+01   -0.125451585160924836E+03
    0.104730619871133346E+01   -0.402015277626916223E+01   -0.250564360306711986E+01   -0.125450254357666637E+03
    0.103403505157098463E+01   -0.404221584672876944E+01   -0.250275412389546759E+01   -0.125448071675114008E+03
    0.951576371923419262E+00   -0.397665042162537619E+01   -0.247704615303653775E+01   -0.125447449160917841E+03
    0.100936809573461828E+01   -0.400946168129116121E+01   -0.247982202645893324E+01   -0.125446778308834070E+03
    0.104193255071337765E+01   -0.401661987117164720E+01   -0.251139690003414495E+01   -0.125446347294950087E+03
    0.101572478694089785E+01   -0.402141356748195378E+01   -0.252064712710557615E+01   -0.125445719082272674E+03
    0.994145540502659464E+00   -0.401011322908340517E+01   -0.248329188089801667E+01   -0.125444143068451538E+03
    0.101425211620878275E+01   -0.402822215065920375E+01   -0.248898914258413306E+01   -0.125443925967051797E+03
    0.101539858251145287E+01   -0.400517465739453815E+01   -0.248087452391476404E+01   -0.125442400323467027E+03
    0.990832969855801049E+00   -0.401536251233534092E+01   -0.250706050204034270E+01   -0.125440870185241479E+03
    0.996263029360021535E+00   -0.401652187797524274E+01   -0.248800664950999284E+01   -0.125438254887876624E+03
    0.976871476898758528E+00   -0.400503229193336630E+01   -0.250827615610469001E+01   -0.125433676466715966E+03
    0.105701122737774122E+01   -0.405063535969998956E+01   -0.249758471386730330E+01   -0.125433192864228346E+03
    0.960806525005058476E+00   -0.397289479726874140E+01   -0.251875830229784770E+01   -0.125432238313265131E+03
    0.966722913241223614E+00   -0.396630433856792397E+01   -0.251129171238291304E+01   -0.125429149618281414E+03
    0.100045612500392744E+01   -0.401526052244865728E+01   -0.251732974569843826E+01   -0.125426525065271250E+03
    0.106254243300688311E+01   -0.405026776905399810E+01   -0.249904738035725416E+01   -0.125424962817109659E+03
    0.103575004320595521E+01   -0.401604166512320226E+01   -0.248608533207272941E+01   -0.125410156047829943E+03
    0.100804519746242960E+01   -0.401879712466508021E+01   -0.251825712205745944E+01   -0.125409699008738116E+03
    0.976235694599346671E+00   -0.400151018522191482E+01   -0.248717924426482773E+01   -0.125408424524554718E+03
    0.973648089077581713E+00   -0.397550058672924145E+01   -0.248343428332927374E+01   -0.125407449847436808E+03
    0.986353814140826568E+00   -0.399798901411896113E+01   -0.248082285992194507E+01   -0.125407072223234209E+03
    0.103513706280343776E+01   -0.401364224923567026E+01   -0.248755568519720693E+01   -0.125406960698606383E+03
    0.965070717134686729E+00   -0.399728196679929138E+01   -0.249310051662779486E+01   -0.125403401725768305E+03
    0.105369594388639687E+01   -0.403225766646896489E+01   -0.249167859047407214E+01   -0.125393732292361520E+03
    0.936883021992476195E+00   -0.396212826120435402E+01   -0.249526638092811837E+01   -0.125389822827462439E+03
    0.100024554139121258E+01   -0.400120280774353176E+01   -0.252470126170359199E+01   -0.125387201638104955E+03
    0.966029368958984391E+00   -0.398656959148396828E+01   -0.248288050851956488E+01   -0.125386342134118522E+03
    0.969567649565183265E+00   -0.396689244002631991E+01   -0.250859650279773527E+01   -0.125385429237023786E+03
    0.105438179890156314E+01   -0.403470316567985776E+01   -0.249126475602451958E+01   -0.125381096670608486E+03
    0.106143529501898337E+01   -0.404601341375360946E+01   -0.250444683431491510E+01   -0.125372125146805899E+03
    0.947580201041170356E+00   -0.398031148698649240E+01   -0.250447911603118012E+01   -0.125365983345180453E+03
    0.100288843246254911E+01   -0.399127616687274056E+01   -0.252008553296190296E+01   -0.125361405495366412E+03
    0.103258547708221515E+01   -0.401215110285735310E+01   -0.251625659881561692E+01   -0.125357181813162526E+03
    0.102200941933886624E+01   -0.400584907540770097E+01   -0.251986652172384229E+01   -0.125356411995644379E+03
    0.105873497542343764E+01   -0.403667308071625452E+01   -0.249845357830059944E+01   -0.125353612252834267E+03
    0.940806339234980804E+00   -0.397033254795479706E+01   -0.250478149239982661E+01   -0.125352951493084618E+03
    0.956344608057778101E+00   -0.397943373396413946E+01   -0.247971671940201066E+01   -0.125352622741198203E+03
    0.100082173063434787E+01   -0.398280567792556850E+01   -0.250436769302566198E+01   -0.125350965573331123E+03
    0.102376441454890421E+01   -0.403435528884932992E+01   -0.250606243066908485E+01   -0.125350110820739701E+03
    0.104459322738040417E+01   -0.402086263968903967E+01   -0.251028459492779499E+01   -0.125347263225690327E+03
    0.100371062516173892E+01   -0.402147293229680614E+01   -0.250878632456931161E+01   -0.125345644058103105E+03
    0.954990982983687231E+00   -0.398065781562522858E+01   -0.248030383043259572E+01   -0.125344474953631675E+03
    0.995060689710796753E+00   -0.401799274857060862E+01   -0.250009265748596654E+01   -0.125340089594306406E+03
    0.102133819954212757E+01   -0.400609243277666316E+01   -0.252004879484392008E+01   -0.125334720414089659E+03
    0.962335942554818469E+00   -0.399414237377515846E+01   -0.249485513034034012E+01   -0.125334285136411850E+03
    0.976238160603799310E+00   -0.397863673900812342E+01   -0.248333702225850095E+01   -0.125333591429819904E+03
    0.952596828429816966E+00   -0.397685722088690152E+01   -0.251283926512979461E+01   -0.125327181381104609E+03
    0.104796989176359201E+01   -0.402354973637969060E+01   -0.249589219357135716E+01   -0.125325075121889299E+03
    0.965520090203821013E+00   -0.399674205711422648E+01   -0.249988142598897234E+01   -0.125322265139231746E+03
    0.101220297836510431E+01   -0.402813246064672370E+01   -0.249673626937249260E+01   -0.125320526404202766E+03
    0.101135412624607079E+01   -0.400525075724724910E+01   -0.252313776938873202E+01   -0.125316220564130077E+03
    0.103584414567949068E+01   -0.401592319157887623E+01   -0.251552009140974420E+01   -0.125315192167232283E+03
    0.984077250855542429E+00   -0.400648136903754715E+01   -0.248872924327857703E+01   -0.125306956991504066E+03
    0.103746022500361512E+01   -0.401726478071612458E+01   -0.248863421907138793E+01   -0.125304787074242569E+03
    0.102777930848626742E+01   -0.400722470742136760E+01   -0.251440638421910112E+01   -0.125304311694693283E+03
    0.105813813587167171E+01   -0.404479241071451234E+01   -0.250346405723834220E+01   -0.125300888836955281E+03
    0.968343278404029117E+00   -0.399496974243820535E+01   -0.250996222048114381E+01   -0.125297935617569820E+03
    0.960785648409319126E+00   -0.396699543536560562E+01   -0.251107226859331645E+01   -0.125297185550023599E+03
    0.976102361494915360E+00   -0.398762431640156034E+01   -0.252026347986242882E+01   -0.125295490850295693E+03
    0.105779326102087312E+01   -0.404309848641700853E+01   -0.249665001552341348E+01   -0.125295435179928901E+03
    0.101737081199078561E+01   -0.402019189210895966E+01   -0.248383646259065261E+01   -0.125295375128617877E+03
    0.962101684903226895E+00   -0.398689621797672578E+01   -0.248370198260125985E+01   -0.125292891595459025E+03
    0.976237037722467837E+00   -0.397227919251916717E+01   -0.251152277047005956E+01   -0.125292531495138135E+03
    0.104544564399060236E+01   -0.403520994234660790E+01   -0.248879502889473647E+01   -0.125282061759135033E+03
    0.100553327648395285E+01   -0.399225018153736944E+01   -0.251744684687542364E+01   -0.125281103028275453E+03
    0.105421044300786848E+01   -0.403299441773832079E+01   -0.250533343402747821E+01   -0.125275367324949571E+03
    0.104666169005840981E+01   -0.402230323397068013E+01   -0.250324447631847757E+01   -0.125274702181089765E+03
    0.103085437597773355E+01   -0.403432547752569981E+01   -0.251055424429035501E+01   -0.125270875088392387E+03
    0.970912120918302479E+00   -0.398734361601773024E+01   -0.248386117514044180E+01   -0.125269968906857216E+03
    0.102586793534368947E+01   -0.403486525138845842E+01   -0.249686565577873232E+01   -0.125269671567611070E+03
    0.952070180863401117E+00   -0.397358013697881418E+01   -0.249488163953942266E+01   -0.125071967963833970E+03
    0.949598664164050921E+00   -0.397293196811953653E+01   -0.250341624514557193E+01   -0.125114837890922857E+03
    0.966085584395465768E+00   -0.397692595330446341E+01   -0.249320008046729047E+01   -0.124914325154111495E+03
    0.966085584395465768E+00   -0.397692595330446341E+01   -0.249320008046729047E+01   -0.124914325154111495E+03
    0.949977515564234265E+00   -0.397131815204277849E+01   -0.249789149136529076E+01   -0.125077368134870696E+03
    0.101177394046940794E+01   -0.401250979199010960E+01   -0.250312122438223383E+01   -0.124694269889268099E+03
    0.102361083040418488E+01   -0.400742286231759870E+01   -0.248675007229286660E+01   -0.125218711586807828E+03
    0.996566133693346679E+00   -0.399795604123960668E+01   -0.249295250467126817E+01   -0.124694631974386837E+03
    0.981934756208063919E+00   -0.397899293403052745E+01   -0.248624418212778275E+01   -0.125230385436824335E+03
    0.983129695140133042E+00   -0.398400628368196497E+01   -0.249303880246299769E+01   -0.124809305355504009E+03
    0.981603175965323094E+00   -0.399932859876122571E+01   -0.248601600118874355E+01   -0.125205056972439621E+03
    0.946321006489471261E+00   -0.397302604413940896E+01   -0.249684973926642062E+01   -0.125172941759821185E+03
    0.995398212061217036E+00   -0.400060776473998558E+01   -0.249398349483203763E+01   -0.124693778603568404E+03
    0.995398212061217036E+00   -0.400060776473998558E+01   -0.249398349483203763E+01   -0.124693778603568404E+03
    0.102260750098428077E+01   -0.401546708315283318E+01   -0.250001411224433134E+01   -0.124709399887116035E+03
    0.100094453438770348E+01   -0.400661708161704233E+01   -0.250313905056148434E+01   -0.124692849731106733E+03
    0.100094453438770348E+01   -0.400661708161704233E+01   -0.250313905056148434E+01   -0.124692849731106733E+03
    0.970472231764157200E+00   -0.397304090086389206E+01   -0.249824742368011155E+01   -0.124959892581115994E+03
    0.102821979093401139E+01   -0.401790691230097341E+01   -0.249283275793025894E+01   -0.124867548555771307E+03
    0.103546926310229082E+01   -0.401999526230389481E+01   -0.250405152498957628E+01   -0.124911627752790110E+03
    0.102519745147836394E+01   -0.402244299072063782E+01   -0.249943853502101332E+01   -0.124791482239039226E+03
    0.101100313102148420E+01   -0.401095329752161156E+01   -0.248750940792762520E+01   -0.124943727696530956E+03
    0.102061644618816461E+01   -0.400876235630285738E+01   -0.249556285667278210E+01   -0.124782865826829962E+03
    0.102953214573141127E+01   -0.401992082046885635E+01   -0.249544434524357017E+01   -0.124821867103038727E+03
    0.101260703059774659E+01   -0.400886773074572478E+01   -0.251538069356301497E+01   -0.124960356754683843E+03
    0.954604329419926678E+00   -0.397449157841761203E+01   -0.249143679273755048E+01   -0.125103792715406499E+03
    0.983602557613353579E+00   -0.398352365012842258E+01   -0.248777738227872458E+01   -0.125012644175783990E+03
    0.983602557613353579E+00   -0.398352365012842258E+01   -0.248777738227872458E+01   -0.125012644175783990E+03
    0.992359590314360496E+00   -0.399098612834996924E+01   -0.248355149285202703E+01   -0.125167802810467563E+03
    0.949781638884592438E+00   -0.396459262713314242E+01   -0.249877170047062691E+01   -0.125169018029490161E+03
    0.102540362365621007E+01   -0.401629381413494890E+01   -0.251445687510888582E+01   -0.125011621321535955E+03
    0.957555093386805112E+00   -0.397591647625480515E+01   -0.250043539160542672E+01   -0.124949932290964000E+03
    0.103335053625117390E+01   -0.401221056234388751E+01   -0.250524791100041888E+01   -0.125096360917925395E+03
    0.103324628109455041E+01   -0.401355252146330521E+01   -0.250895395874363958E+01   -0.125099979082275738E+03
    0.101404296013253337E+01   -0.401124691687900370E+01   -0.251612219185017771E+01   -0.125005973499249450E+03
    0.961981518428788318E+00   -0.399183186476683094E+01   -0.250125430609895005E+01   -0.125229014184976592E+03
    0.957332058447929235E+00   -0.398469002141888051E+01   -0.249019697107716809E+01   -0.125179370529347693E+03
    0.103259153947926130E+01   -0.402570376649358774E+01   -0.250045474797966927E+01   -0.124841033092007692E+03
    0.102065619710737576E+01   -0.400901365157462841E+01   -0.251222610913044742E+01   -0.124934154735445759E+03
    0.101341875826032801E+01   -0.399593736548265976E+01   -0.249105693613834589E+01   -0.125169565546702657E+03
    0.103290539208657983E+01   -0.402176017146569453E+01   -0.250921957143155794E+01   -0.124933697136817386E+03
    0.975170311873492901E+00   -0.398803077231102732E+01   -0.248961625023882416E+01   -0.124919480187899055E+03
    0.976754546106233024E+00   -0.398092004553532686E+01   -0.249886265633457016E+01   -0.124763816241738297E+03
    0.966030514403413032E+00   -0.398423448118097134E+01   -0.250515350916902824E+01   -0.124914476690258283E+03
    0.102692810828346426E+01   -0.403374985397562380E+01   -0.250287762221235788E+01   -0.125183280835647622E+03
    0.983941207128161688E+00   -0.399747093992823155E+01   -0.250114631033070234E+01   -0.124761207616848097E+03
    0.104894800127288490E+01   -0.403962221846060121E+01   -0.249225802428353482E+01   -0.125246211226488413E+03
    0.103361052881381288E+01   -0.403194669060899979E+01   -0.250194036020705912E+01   -0.124982929795009468E+03
    0.103616060345067673E+01   -0.403114337029044112E+01   -0.251070226623823389E+01   -0.125097046815615428E+03
    0.101458002958428195E+01   -0.400333425532374321E+01   -0.248614372759263080E+01   -0.125105696285449966E+03
    0.103092969671660661E+01   -0.400791800639432605E+01   -0.249548243288563443E+01   -0.125225569836885327E+03
    0.967671033081971554E+00   -0.398768567429033016E+01   -0.250489179868868161E+01   -0.124941823619214063E+03
    0.967671033081971554E+00   -0.398768567429033016E+01   -0.250489179868868161E+01   -0.124941823619214063E+03
    0.988699912792377900E+00   -0.400425314902391172E+01   -0.248888608245900356E+01   -0.125060399851120593E+03
    0.104827392330170777E+01   -0.402899429667269793E+01   -0.249741148335851992E+01   -0.125135376608655804E+03
    0.103728296995623670E+01   -0.401939615167844089E+01   -0.249490118329214905E+01   -0.125021067116831873E+03
    0.970447675365830209E+00   -0.399671390888673539E+01   -0.249998455563569255E+01   -0.125128809964825180E+03
    0.104019572261582360E+01   -0.403459152163968415E+01   -0.249522367254589339E+01   -0.125055309680682129E+03
    0.103073185261382005E+01   -0.403377834939191260E+01   -0.249259986906037367E+01   -0.125181446670247325E+03
    0.972091243005674954E+00   -0.397890071375402421E+01   -0.250909324938232059E+01   -0.124925285088520312E+03
    0.101732571627448176E+01   -0.401081766043931687E+01   -0.250640691504455848E+01   -0.124724617146971738E+03
    0.101732571627448176E+01   -0.401081766043931687E+01   -0.250640691504455848E+01   -0.124724617146971738E+03
    0.957407141808160334E+00   -0.396811463645025020E+01   -0.250901584673395028E+01   -0.125185414615440862E+03
    0.949794244651998021E+00   -0.397121508332907514E+01   -0.251013758445637869E+01   -0.125252310411115715E+03
    0.100403361819115577E+01   -0.399354631675588934E+01   -0.250307960624319081E+01   -0.124796804785788510E+03
    0.100403361819115577E+01   -0.399354631675588934E+01   -0.250307960624319081E+01   -0.124796804785788510E+03
    0.100068585910128260E+01   -0.400216863793311184E+01   -0.251497488521073276E+01   -0.124928074930030604E+03
    0.100068585910128260E+01   -0.400216863793311184E+01   -0.251497488521073276E+01   -0.124928074930030604E+03
    0.102951459912178800E+01   -0.402510769721939798E+01   -0.249360217255765049E+01   -0.124904486619276156E+03
    0.100362763687611878E+01   -0.401295925434335654E+01   -0.249915316473108096E+01   -0.124813300490007492E+03
    0.100362763687611878E+01   -0.401295925434335654E+01   -0.249915316473108096E+01   -0.124813300490007492E+03
    0.104337235259641870E+01   -0.402910590040895933E+01   -0.251505147197190571E+01   -0.125266690500229501E+03
    0.972955006025506774E+00   -0.397294736407834481E+01   -0.249184489875564719E+01   -0.125109240191907929E+03
    0.100119246878808399E+01   -0.400284679268383758E+01   -0.251677580329741479E+01   -0.125004219238454553E+03
    0.101432001198536526E+01   -0.400178821500989823E+01   -0.251259818886040520E+01   -0.124978048380066852E+03
    0.987545325096435556E+00   -0.398094837669400858E+01   -0.251579202285779413E+01   -0.125250026987285509E+03
    0.100576147181380327E+01   -0.399530080016316580E+01   -0.248557978592957118E+01   -0.125168609041428383E+03
    0.103737273453985512E+01   -0.402335748961449724E+01   -0.251511196316303831E+01   -0.125184013865090691E+03
    0.100426332074200131E+01   -0.400738482794224637E+01   -0.248901734121591556E+01   -0.124864674784791674E+03
    0.102164864780450149E+01   -0.400881330670776581E+01   -0.250472605229017820E+01   -0.124792749841690252E+03
    0.102164864780450149E+01   -0.400881330670776581E+01   -0.250472605229017820E+01   -0.124792749841690252E+03
    0.996115856669465116E+00   -0.401272970644092375E+01   -0.250804778599569733E+01   -0.125116436389468547E+03
    0.973266039955777540E+00   -0.399213157171001898E+01   -0.250707731748341578E+01   -0.124956842597337328E+03
    0.973266039955777540E+00   -0.399213157171001898E+01   -0.250707731748341578E+01   -0.124956842597337328E+03
    0.996339654290367527E+00   -0.398387897299372895E+01   -0.249474798216817462E+01   -0.125087215344536659E+03
    0.100023530249177006E+01   -0.400998015471139535E+01   -0.250702021471361514E+01   -0.124862933008553824E+03
    0.983240564605951550E+00   -0.400585226036483455E+01   -0.249981298875069102E+01   -0.125104559854270576E+03
    0.956674838885755108E+00   -0.397748918789250183E+01   -0.249348175080884982E+01   -0.125031589046509268E+03
    0.983715148955149998E+00   -0.398349121769872738E+01   -0.250246002091756914E+01   -0.124755936979331054E+03
    0.983715148955149998E+00   -0.398349121769872738E+01   -0.250246002091756914E+01   -0.124755936979331054E+03
    0.985576487403117207E+00   -0.398965807728368205E+01   -0.248943625679922853E+01   -0.124845037578132150E+03
    0.965547029584394645E+00   -0.397287777261050001E+01   -0.251518839219673263E+01   -0.125261709877158509E+03
    0.104180939379077619E+01   -0.402601862640972996E+01   -0.249505072278635565E+01   -0.125024185272617288E+03
    0.994093056529088415E+00   -0.399983983582236391E+01   -0.250761870251808450E+01   -0.124730472640473081E+03
    0.102840302723539434E+01   -0.403130569816970397E+01   -0.250860445802661092E+01   -0.125136384547006585E+03
    0.103626524319675073E+01   -0.403310178146970166E+01   -0.249941351143989010E+01   -0.124991694957784318E+03
    0.999840187696008353E+00   -0.398461904094795871E+01   -0.250473125207833736E+01   -0.125159556871363904E+03
    0.101756495956198645E+01   -0.401850057471470379E+01   -0.249452061524885238E+01   -0.124808052166582641E+03
    0.101756495956198645E+01   -0.401850057471470379E+01   -0.249452061524885238E+01   -0.124808052166582641E+03
    0.997263001948017758E+00   -0.399041516186509071E+01   -0.250244972117443698E+01   -0.124746798307589216E+03
    0.102597915110415849E+01   -0.403173972844872974E+01   -0.250257810244368040E+01   -0.125106020094846684E+03
    0.101451259130703320E+01   -0.401192669028546511E+01   -0.250039685957893543E+01   -0.124660789153081041E+03
    0.101451259130703320E+01   -0.401192669028546511E+01   -0.250039685957893543E+01   -0.124660789153081041E+03
    0.978284191790410040E+00   -0.399011916612185802E+01   -0.251579251475835708E+01   -0.125084913368548939E+03
    0.100068483487091098E+01   -0.399723198322930351E+01   -0.250270624101525296E+01   -0.124639457174710884E+03
    0.983962168949694016E+00   -0.398740448777719836E+01   -0.251459825305624740E+01   -0.124977159843177603E+03
    0.983962168949694016E+00   -0.398740448777719836E+01   -0.251459825305624740E+01   -0.124977159843177603E+03
    0.983921269012015265E+00   -0.397843317780514472E+01   -0.250909305322748288E+01   -0.125069666675226046E+03
    0.101407013487459330E+01   -0.401300707367591070E+01   -0.251396394064973494E+01   -0.124944733226876778E+03
    0.101407013487459330E+01   -0.401300707367591070E+01   -0.251396394064973494E+01   -0.124944733226876778E+03
    0.960226597241664592E+00   -0.396931475255286781E+01   -0.249918348505910570E+01   -0.125019778766488486E+03
    0.987719710954720997E+00   -0.401074592282403675E+01   -0.250401684591292373E+01   -0.125233753043460567E+03
    0.103919349441447073E+01   -0.403292579943844931E+01   -0.250783174866299996E+01   -0.125058333905392658E+03
    0.102333253927328283E+01   -0.401340319346642005E+01   -0.250156245531067878E+01   -0.124727342797857062E+03
    0.100206131536783905E+01   -0.400934076127048478E+01   -0.249234472149176911E+01   -0.124822276189827051E+03
    0.102486983168735013E+01   -0.400945574245364611E+01   -0.249603706168683859E+01   -0.124875013359076419E+03
    0.102486983168735013E+01   -0.400945574245364611E+01   -0.249603706168683859E+01   -0.124875013359076419E+03
    0.977490431604971732E+00   -0.399497949113229200E+01   -0.251016358981528853E+01   -0.125009928327870526E+03
    0.964805337309230238E+00   -0.399258120221147017E+01   -0.249685499973442315E+01   -0.125157656247994922E+03
    0.983861944120500764E+00   -0.398755027901460934E+01   -0.249686653112872881E+01   -0.124685738201529574E+03
    0.983861944120500764E+00   -0.398755027901460934E+01   -0.249686653112872881E+01   -0.124685738201529574E+03
    0.103307392436528289E+01   -0.401767008342294840E+01   -0.249373797465422786E+01   -0.124954416293565117E+03
    0.101157183694761255E+01   -0.402270380675656547E+01   -0.249029543044011215E+01   -0.125185533149883682E+03
    0.948596808190181773E+00   -0.397167289122785094E+01   -0.250533092007743052E+01   -0.125159343848871799E+03
    0.955080317806173529E+00   -0.398060476253323303E+01   -0.249716067592241453E+01   -0.125071011776163019E+03
    0.993190735733017749E+00   -0.399908330442008797E+01   -0.249016138959379951E+01   -0.124802888501368628E+03
    0.978007331061828022E+00   -0.399119703020765604E+01   -0.251852463620552225E+01   -0.125228127105244269E+03
    0.992683318239036661E+00   -0.399811911828921041E+01   -0.249193769782496855E+01   -0.124740303971057898E+03
    0.992683318239036661E+00   -0.399811911828921041E+01   -0.249193769782496855E+01   -0.124740303971057898E+03
    0.964336737292086466E+00   -0.397514702278890164E+01   -0.248718429746856673E+01   -0.125158537095201638E+03
    0.104948992105804306E+01   -0.403135715370358216E+01   -0.250772213755680040E+01   -0.125183997131319600E+03
    0.101207087183894773E+01   -0.400887161301872208E+01   -0.251553048734522511E+01   -0.124965692337482977E+03
    0.972118226351795234E+00   -0.399756133575289407E+01   -0.250284893023423560E+01   -0.125127131092683058E+03
    0.102110403072782141E+01   -0.402430544284787306E+01   -0.250989923741961052E+01   -0.125029307805577432E+03
    0.101540550785624784E+01   -0.400876751146901089E+01   -0.248272341135919428E+01   -0.125243630529021274E+03
    0.100930741622564835E+01   -0.400952924827990387E+01   -0.248805286052220920E+01   -0.124906761334525171E+03
    0.103717282559717661E+01   -0.403599694097229822E+01   -0.249751769203651586E+01   -0.125087100780779735E+03
    0.988314742505657984E+00   -0.397916304980392965E+01   -0.249844102441025084E+01   -0.125045710058367973E+03
    0.101527268824738393E+01   -0.402483516585667633E+01   -0.250859547411203998E+01   -0.125148209284185953E+03
    0.985878819228626635E+00   -0.398796506040922250E+01   -0.251055497384282011E+01   -0.124833855639811290E+03
    0.100725538295148542E+01   -0.401605964069288746E+01   -0.251659955562889648E+01   -0.125238695976062047E+03
    0.978546348515480391E+00   -0.399976179211570138E+01   -0.248949417131655171E+01   -0.125154606341820539E+03
    0.102316859225419954E+01   -0.400069874207571363E+01   -0.250245164886736049E+01   -0.125209278251320484E+03
    0.104101141407851472E+01   -0.402716045364982023E+01   -0.248775812362978010E+01   -0.125240993653196966E+03
    0.991770891620074257E+00   -0.399224942142068340E+01   -0.250790999005171100E+01   -0.124728905300124609E+03
    0.991770891620074257E+00   -0.399224942142068340E+01   -0.250790999005171100E+01   -0.124728905300124609E+03
    0.103621171231339626E+01   -0.402974029858998772E+01   -0.249091832329629970E+01   -0.125066944160434346E+03
    0.101497918474861826E+01   -0.401542589410344597E+01   -0.250204224387839247E+01   -0.124716946984503394E+03
    0.101497918474861826E+01   -0.401542589410344597E+01   -0.250204224387839247E+01   -0.124716946984503394E+03
    0.102173015613705553E+01   -0.400528362868761612E+01   -0.251593952903206075E+01   -0.125201346355748058E+03
    0.978565738297687449E+00   -0.398142877576329912E+01   -0.248968968180782158E+01   -0.124942236672407404E+03
    0.101556009569345029E+01   -0.402808757227350611E+01   -0.249374828789238467E+01   -0.125251266868556868E+03
    0.101596595434374581E+01   -0.399619672740712240E+01   -0.249915601448911406E+01   -0.125121438904222487E+03
    0.997067256249134726E+00   -0.398569019363661425E+01   -0.250095218499207794E+01   -0.124949686995597702E+03
    0.966812086711386187E+00   -0.397464336348004377E+01   -0.250068463368980121E+01   -0.124884371072152518E+03
    0.104106873185408744E+01   -0.402603412018161499E+01   -0.250814661241687853E+01   -0.125034283800322811E+03
    0.100859716463524407E+01   -0.400811289622721212E+01   -0.249915085946448201E+01   -0.124636329018836364E+03
    0.100859716463524407E+01   -0.400811289622721212E+01   -0.249915085946448201E+01   -0.124636329018836364E+03
    0.977438546985504031E+00   -0.398310429228343210E+01   -0.249055979550352147E+01   -0.124875673811393554E+03
    0.987226892337913942E+00   -0.399991251285175364E+01   -0.249001798215162662E+01   -0.124913750756660662E+03
    0.987226892337913942E+00   -0.399991251285175364E+01   -0.249001798215162662E+01   -0.124913750756660662E+03
    0.950219951446636957E+00   -0.397200220903388157E+01   -0.250808598104338731E+01   -0.125188070702518260E+03
    0.995769336155428841E+00   -0.400209654471764242E+01   -0.248475265483713592E+01   -0.125076656529867719E+03
    0.104347440094480137E+01   -0.403061543607977946E+01   -0.250426761042900203E+01   -0.125001100921179841E+03
    0.104423402824608491E+01   -0.402808141813149589E+01   -0.249638670213851910E+01   -0.125039843236642398E+03
    0.959375278607092818E+00   -0.397905532453404920E+01   -0.250884957319875657E+01   -0.125069308688001612E+03
    0.964650214905665937E+00   -0.399046172735201399E+01   -0.250478063496019798E+01   -0.125118188146694834E+03
    0.102466720124297805E+01   -0.402955135529667174E+01   -0.250137752933715962E+01   -0.125028476717606978E+03
    0.104246555034124966E+01   -0.402936077977963336E+01   -0.249136998566288437E+01   -0.125111697765930572E+03
    0.104147704877484593E+01   -0.403110145518392837E+01   -0.250074099114102344E+01   -0.124957728869072483E+03
    0.973078148164565060E+00   -0.397227829351411055E+01   -0.250831376960551955E+01   -0.125135168030518130E+03
    0.975342351011752262E+00   -0.398149238665986305E+01   -0.249943624682106913E+01   -0.124751011729391124E+03
    0.975342351011752262E+00   -0.398149238665986305E+01   -0.249943624682106913E+01   -0.124751011729391124E+03
    0.965625462833080039E+00   -0.398127027793959343E+01   -0.249390624783022119E+01   -0.124889970253150054E+03
    0.965587614092667690E+00   -0.398181380551749164E+01   -0.249015669715311905E+01   -0.124994513388175434E+03
    0.962182709158448390E+00   -0.398493806294399278E+01   -0.249623097625402401E+01   -0.124986037688646704E+03
    0.991849262592978231E+00   -0.399569593166730863E+01   -0.249598623694203869E+01   -0.124647341458043215E+03
    0.995339352917141595E+00   -0.398825508533823614E+01   -0.248845147625986174E+01   -0.125025303384403585E+03
    0.978721692354989292E+00   -0.399590178072710467E+01   -0.248708263314877254E+01   -0.125115262515982607E+03
    0.101228130772376690E+01   -0.400558040696015016E+01   -0.251877440352767223E+01   -0.125108102867591143E+03
    0.101655699618736395E+01   -0.399894616320981866E+01   -0.251362715134842585E+01   -0.125210049555988292E+03
    0.952812505152180744E+00   -0.396477809401931403E+01   -0.249214512010064748E+01   -0.125251864761177998E+03
    0.101369011473042758E+01   -0.400073895541709490E+01   -0.248554144657799592E+01   -0.125201101603290823E+03
    0.103979728071745181E+01   -0.402630028781715321E+01   -0.250489016940753650E+01   -0.124950953575476817E+03
    0.988001787787081143E+00   -0.399691266197533013E+01   -0.251584232359672910E+01   -0.125033471290433170E+03
    0.104398556557461730E+01   -0.403955569085458421E+01   -0.249602908054923223E+01   -0.125163011693522250E+03
    0.102033135384517104E+01   -0.402137666502220981E+01   -0.249793968099592156E+01   -0.124810200637409380E+03
    0.100507926374226653E+01   -0.399764217502970087E+01   -0.250348327779507729E+01   -0.124694627740275322E+03
    0.997714731207788974E+00   -0.398674825906400443E+01   -0.250372974199022336E+01   -0.124929661054575945E+03
    0.997714731207788974E+00   -0.398674825906400443E+01   -0.250372974199022336E+01   -0.124929661054575945E+03
    0.102786813760620976E+01   -0.401039926151009229E+01   -0.249082539188911589E+01   -0.125082506284149147E+03
    0.103850815708331345E+01   -0.401706425128840827E+01   -0.250703097409182396E+01   -0.125147707480942330E+03
    0.998985679031928253E+00   -0.400571279865040353E+01   -0.249324912592529691E+01   -0.124756593893918378E+03
    0.989943809659260987E+00   -0.400932777707859245E+01   -0.248966883053976673E+01   -0.125211441178756445E+03
    0.101393384180642299E+01   -0.402377190564486487E+01   -0.251267720431072794E+01   -0.125255861706492169E+03
    0.103540866831042466E+01   -0.403177199899217609E+01   -0.249843228678830798E+01   -0.124964388362016493E+03
    0.946520881233001155E+00   -0.396534184247413490E+01   -0.250606412397681710E+01   -0.125244876963115729E+03
    0.949388075530088194E+00   -0.396526268368942159E+01   -0.249132373257247997E+01   -0.125267167929821127E+03
    0.102114473634565073E+01   -0.401688936896148086E+01   -0.250068825519304383E+01   -0.124711841899955559E+03
    0.989529240317079561E+00   -0.399098843682297710E+01   -0.249387989451376280E+01   -0.124704065370589618E+03
    0.989529240317079561E+00   -0.399098843682297710E+01   -0.249387989451376280E+01   -0.124704065370589618E+03
    0.104088455831373561E+01   -0.403395135188089426E+01   -0.250151459839894486E+01   -0.124998834964484459E+03
    0.969086331953680657E+00   -0.398084890338694120E+01   -0.250128629561334659E+01   -0.124796380467313085E+03
    0.972028103593541637E+00   -0.397444422072680315E+01   -0.249859465776677947E+01   -0.124920866435434263E+03
    0.102084017056286314E+01   -0.401357701673307243E+01   -0.249317320070509307E+01   -0.124781319606873296E+03
    0.990583246171729548E+00   -0.399837456133147606E+01   -0.248545589471436834E+01   -0.125037611114615274E+03
    0.988406644394692058E+00   -0.399759840587526050E+01   -0.248781485272414837E+01   -0.124932834888803626E+03
    0.988406644394692058E+00   -0.399759840587526050E+01   -0.248781485272414837E+01   -0.124932834888803626E+03
    0.103571202684119390E+01   -0.403349639965236761E+01   -0.251171525804620588E+01   -0.125197269047340299E+03
    0.101662388802058223E+01   -0.400660029239293003E+01   -0.251370846582892460E+01   -0.124949690358826132E+03
    0.101914874914562703E+01   -0.401356315888340553E+01   -0.249848091445312903E+01   -0.124687018109787147E+03
    0.103434988343407852E+01   -0.401768129890593784E+01   -0.249743005401446094E+01   -0.124928357442502133E+03
    0.948385988181691952E+00   -0.397276496998575146E+01   -0.250183584981393725E+01   -0.125123565173262079E+03
    0.959753218816609133E+00   -0.397264115011466856E+01   -0.249720328393504865E+01   -0.124951853482936599E+03
    0.966024427431346533E+00   -0.399143569308556945E+01   -0.249902220090074412E+01   -0.125060147178379978E+03
    0.102511853828172828E+01   -0.401033578804485913E+01   -0.250849481482466974E+01   -0.124912674030937183E+03
    0.966687201648991579E+00   -0.398356070991884348E+01   -0.248675130462628502E+01   -0.125134093026888010E+03
    0.104099435926014294E+01   -0.402774072813277062E+01   -0.249073449500648048E+01   -0.125110620311880425E+03
    0.999929140220213952E+00   -0.400782362747936816E+01   -0.251038421266705480E+01   -0.124886362658315662E+03
