    0.300257940537955736E+01    0.399548592705834871E+00   -0.300033327019289242E+01    0.598456136386545040E+03
    0.298699671046043491E+01    0.401077926328041678E+00   -0.300012448552013788E+01    0.598589560967922807E+03
    0.301849669667220377E+01    0.399600847172822793E+00   -0.300011593774321028E+01    0.598632573122890676E+03
    0.299279004129504367E+01    0.400269522486050855E+00   -0.300041434563954867E+01    0.598952014546473720E+03
    0.301635260640379599E+01    0.400047952845354216E+00   -0.300016199403149741E+01    0.599498651417323686E+03
    0.299349966453100436E+01    0.399162107791312504E+00   -0.299973724654937079E+01    0.599499634615792274E+03
    0.300625436462222684E+01    0.399501754885476956E+00   -0.299958930204961538E+01    0.599708784914337798E+03
    0.298595041070030032E+01    0.400816477488720790E+00   -0.300020137739630366E+01    0.599867547644052934E+03
    0.299942838714885918E+01    0.399381164911537856E+00   -0.300019470317728754E+01    0.599919172058113304E+03
    0.300432450240555937E+01    0.398970260280136879E+00   -0.299993152271970187E+01    0.599983942624253359E+03
    0.299979685465643264E+01    0.399208297103553433E+00   -0.300009918643981965E+01    0.599997893718351406E+03
    0.299208391225120796E+01    0.399474618869470277E+00   -0.299966090172424460E+01    0.600066818153145164E+03
    0.298953427793585202E+01    0.400632837634614491E+00   -0.299983259723022622E+01    0.600097325696270900E+03
    0.299685612022993197E+01    0.400619491864099120E+00   -0.300039139082696016E+01    0.600508523075267590E+03
    0.299049905080247402E+01    0.400935067077954954E+00   -0.300007034385190341E+01    0.600528807231400606E+03
    0.299188403590138430E+01    0.399842146264784870E+00   -0.299965950789728897E+01    0.600638007500009053E+03
    0.300072888239167623E+01    0.400213306904567911E+00   -0.300038891337386682E+01    0.600698392813735950E+03
    0.299562433198871059E+01    0.399288953428779791E+00   -0.299969224979268700E+01    0.600707258771166039E+03
    0.298814315015371168E+01    0.400139826942163435E+00   -0.300023031231401305E+01    0.600762442207253457E+03
    0.300826379906901265E+01    0.399580062079626430E+00   -0.299967008688630443E+01    0.600957441087154507E+03
    0.298904298802713475E+01    0.400626782714990359E+00   -0.300026612681565918E+01    0.601037395110702505E+03
    0.301010647450266422E+01    0.399439320763914918E+00   -0.299970821777854235E+01    0.601054119073613833E+03
    0.299290969984558286E+01    0.400907077569716441E+00   -0.300020699903436361E+01    0.601143544360512919E+03
    0.299331205224663588E+01    0.400357218803995052E+00   -0.300033807849757927E+01    0.601180523399944036E+03
    0.299777256526955505E+01    0.399337038790374743E+00   -0.299967316494242286E+01    0.601189663820242686E+03
    0.299307676785002830E+01    0.399392665290945748E+00   -0.299999079957134107E+01    0.601195082400917840E+03
    0.299320780723914481E+01    0.400442225851992739E+00   -0.300033720570604867E+01    0.601240578470065088E+03
    0.298753623465272344E+01    0.400707098499685166E+00   -0.300003717313663598E+01    0.601275615006384328E+03
    0.301237835830202316E+01    0.399414497110224975E+00   -0.299979399319227902E+01    0.601305576690714361E+03
    0.299449032628334511E+01    0.400875904457176691E+00   -0.300004726044206604E+01    0.601341487738483579E+03
    0.300518099814421236E+01    0.399278724102527460E+00   -0.300008912279134776E+01    0.601384316702792262E+03
    0.299713306532828971E+01    0.400269587604988708E+00   -0.300035395340423161E+01    0.601418023648176586E+03
    0.300736060945503825E+01    0.400603562551201775E+00   -0.300010266904505052E+01    0.601429495080067568E+03
    0.301432120201513865E+01    0.399950338079652024E+00   -0.300003334715246606E+01    0.601438893177887280E+03
    0.299105718296192480E+01    0.399836138127584617E+00   -0.300017379199135892E+01    0.601494393461349318E+03
    0.300606689469406518E+01    0.400338516732288929E+00   -0.300032063173893526E+01    0.601495763101701868E+03
    0.299883883104898352E+01    0.400871973285684857E+00   -0.300014233418658094E+01    0.601506021984673907E+03
    0.301365162942548626E+01    0.399524818206605903E+00   -0.299986752388675004E+01    0.601525578561103089E+03
    0.298653539984598915E+01    0.399964705718397429E+00   -0.299988857392966057E+01    0.601526105790532824E+03
    0.300696411728570201E+01    0.399630398487334726E+00   -0.300022615789811420E+01    0.601539636148979071E+03
    0.299062579453814248E+01    0.399583335971649523E+00   -0.300000473557256253E+01    0.601585633575210750E+03
    0.300262906495256177E+01    0.399686152445923648E+00   -0.299965110846035499E+01    0.601596899088568534E+03
    0.299409674795200154E+01    0.399347079537198280E+00   -0.299991960763169097E+01    0.601622330190173898E+03
    0.298616101407153556E+01    0.400126464781453806E+00   -0.300006040682820174E+01    0.601634200022220512E+03
    0.301386271686104878E+01    0.399838359295894341E+00   -0.299993051897911256E+01    0.601641991445159761E+03
    0.298920699192331352E+01    0.399747057151759178E+00   -0.299980132145218770E+01    0.601653042691198493E+03
    0.299781462351271166E+01    0.400354836480934229E+00   -0.299976475031051359E+01    0.601659751639421188E+03
    0.299159885056436936E+01    0.400658856131109131E+00   -0.299991938003957603E+01    0.601662014974887256E+03
    0.299703235157700032E+01    0.400293454806189331E+00   -0.299974568990155221E+01    0.601683181626210967E+03
    0.301421272967516574E+01    0.399815261206266870E+00   -0.300001975260098508E+01    0.601719425278423842E+03
    0.301015280558440246E+01    0.399239746921045191E+00   -0.299995313120118512E+01    0.601723049756201704E+03
    0.299724830323100555E+01    0.400372425567068646E+00   -0.299977570614736422E+01    0.601783152876808344E+03
    0.301249734543080105E+01    0.400110958197600841E+00   -0.299999913920592665E+01    0.601807601347196510E+03
    0.301161391885697327E+01    0.400193165393897543E+00   -0.300013653861130658E+01    0.601875249649428952E+03
    0.300123562084547091E+01    0.400407184290594520E+00   -0.299981641406350397E+01    0.601908786564783782E+03
    0.298711769801462346E+01    0.399979883625168897E+00   -0.300001078740055460E+01    0.601953141957985167E+03
    0.298635836256256715E+01    0.400301540907840758E+00   -0.300005057006613285E+01    0.601970090324864600E+03
    0.300324683480138521E+01    0.400460344241518718E+00   -0.299987293702803326E+01    0.601999753756969994E+03
    0.299368570104126031E+01    0.400608054982543482E+00   -0.300028460864011759E+01    0.602032301835135740E+03
    0.301109999857352273E+01    0.399602271092736550E+00   -0.300012305231876475E+01    0.602046427004788256E+03
    0.300631791954897398E+01    0.399406674473889167E+00   -0.299971466363984129E+01    0.602054185808952866E+03
    0.300889438998951819E+01    0.400321769977854514E+00   -0.300021423113454411E+01    0.602054976208366270E+03
    0.300457144877173210E+01    0.399531087058601964E+00   -0.299968641083911125E+01    0.602077021164086545E+03
    0.301262197490847994E+01    0.399545779511649657E+00   -0.300002925858280545E+01    0.602095810871565618E+03
    0.301275757609443762E+01    0.399835475414920316E+00   -0.300009605362328813E+01    0.602150049050561165E+03
    0.299362179856978816E+01    0.400714287393320268E+00   -0.299997959154199068E+01    0.602153057341550266E+03
    0.300796346566224448E+01    0.399384583080685807E+00   -0.300007502199808895E+01    0.602168530673079772E+03
    0.300328429664577445E+01    0.400688864915828280E+00   -0.300014888165144189E+01    0.602170979362327103E+03
    0.299329631156542098E+01    0.400728538378916865E+00   -0.300022224489393174E+01    0.602197964973760008E+03
    0.300159742768893523E+01    0.400509697858825564E+00   -0.299988722992366030E+01    0.602200761631098999E+03
    0.300587353267293267E+01    0.400560682695811687E+00   -0.300017926771092203E+01    0.602212878903652495E+03
    0.301034191915669780E+01    0.399967570675658524E+00   -0.300019621969921690E+01    0.602246770877086533E+03
    0.300150716736061174E+01    0.399397284753405135E+00   -0.299970769569989448E+01    0.602295511828386225E+03
    0.299209711178256832E+01    0.400726083090000518E+00   -0.300003799734549492E+01    0.602304099585302197E+03
    0.299468286906480952E+01    0.400725484678026156E+00   -0.300023091164632216E+01    0.602305163515663367E+03
    0.299827066918547036E+01    0.399279056511945507E+00   -0.299985721652480608E+01    0.602353709035054294E+03
    0.298790953876979337E+01    0.400206171757488904E+00   -0.300010041970834607E+01    0.602401306300156421E+03
    0.300858938125249598E+01    0.400097072448239555E+00   -0.300023098166610769E+01    0.602403833793671311E+03
    0.300637085035484963E+01    0.400512825028718544E+00   -0.300005719813318361E+01    0.602404637286911907E+03
    0.299162702671148129E+01    0.399624153293299922E+00   -0.299998686856964492E+01    0.602429195708510633E+03
    0.301070445428491684E+01    0.399441856707084653E+00   -0.300001136162231763E+01    0.602438880172270387E+03
    0.300633187579084993E+01    0.400313010188178275E+00   -0.299989534548834946E+01    0.602493622024138290E+03
    0.301041299741979840E+01    0.399996227003299287E+00   -0.299988878653412927E+01    0.602509923228455023E+03
    0.298819235431203545E+01    0.399967816439573076E+00   -0.299995351533010624E+01    0.602536648841440410E+03
    0.300555892473042441E+01    0.400185117417255709E+00   -0.300027259091368581E+01    0.602565390845098477E+03
    0.301076598892359870E+01    0.399911141432348238E+00   -0.300015069096317744E+01    0.602566449997891709E+03
    0.301225492553672591E+01    0.399651162643987867E+00   -0.299993540847268436E+01    0.602567429495853503E+03
    0.301057940426162851E+01    0.399642191057298479E+00   -0.299983296187576531E+01    0.602590989273436890E+03
    0.298975943622010387E+01    0.399944819923878980E+00   -0.300008705118563235E+01    0.602607296987970813E+03
    0.298809556944636867E+01    0.400180395522555576E+00   -0.300007422445357896E+01    0.602612591316217618E+03
    0.300494110544551996E+01    0.400315315230637681E+00   -0.299987249773906184E+01    0.602621041243606783E+03
    0.299654039380598558E+01    0.399599109732965307E+00   -0.300011457909810630E+01    0.602643622741640911E+03
    0.300329775086366935E+01    0.399548048975006620E+00   -0.299971059962677078E+01    0.602643981595585046E+03
    0.299694579702433650E+01    0.399450739643243347E+00   -0.300002709169004511E+01    0.602645776882629207E+03
    0.300707972038799820E+01    0.400158971713213629E+00   -0.299985489313096343E+01    0.602650139945795104E+03
    0.300790846413628277E+01    0.399401343231401362E+00   -0.299979382254399507E+01    0.602651144101091631E+03
    0.299676677748641751E+01    0.399759609401796834E+00   -0.300018652027197774E+01    0.602656711569272034E+03
    0.298983454704801099E+01    0.399823492650504764E+00   -0.300000795703596035E+01    0.602656827355124278E+03
    0.299762144972404254E+01    0.399817080332360353E+00   -0.300021453281639339E+01    0.602670937664715666E+03
    0.300162335575395955E+01    0.400542383927210477E+00   -0.300025816340170515E+01    0.602699232983954175E+03
    0.299849165697324604E+01    0.399493448254953865E+00   -0.300008301471668748E+01    0.602702215666885195E+03
    0.300022427058216357E+01    0.400587906658113224E+00   -0.299995765718609331E+01    0.602713961901496191E+03
    0.299548663753704592E+01    0.399876907654597047E+00   -0.299972768137494450E+01    0.602726511486627032E+03
    0.300609268880971614E+01    0.399841319414472041E+00   -0.300022251775506943E+01    0.602730902313247952E+03
    0.301161272333185970E+01    0.399602087684684526E+00   -0.300000399973988952E+01    0.602739281941107492E+03
    0.300796704855078412E+01    0.400305721380802060E+00   -0.299997840963321760E+01    0.602764102620045492E+03
    0.300327088584615209E+01    0.399297946966512496E+00   -0.299979952476084089E+01    0.602768929309639248E+03
    0.299744217920329437E+01    0.400728777733720121E+00   -0.300009892812003898E+01    0.602777324989350973E+03
    0.300872446400096427E+01    0.399650293210621066E+00   -0.300013352730959149E+01    0.602782378188694111E+03
    0.300851515659785740E+01    0.400324827263587535E+00   -0.300007027808489379E+01    0.602806301023540868E+03
    0.299222486377132668E+01    0.400215899100532069E+00   -0.299981830361912749E+01    0.602829750637922302E+03
    0.299987741732840929E+01    0.400459001928121283E+00   -0.299988366463963585E+01    0.602842556052705618E+03
    0.298950794707650447E+01    0.400394509947387789E+00   -0.300013815596079336E+01    0.602842583938168559E+03
    0.299386362920416760E+01    0.399914013371384269E+00   -0.299975529004645391E+01    0.602848683604876214E+03
    0.299523466700040775E+01    0.400213242035788230E+00   -0.300026099587243422E+01    0.602861775563726042E+03
    0.300358780380170609E+01    0.400357259928050324E+00   -0.300026459433179093E+01    0.602872340469653636E+03
    0.300741821327597769E+01    0.399354780107442298E+00   -0.299997768824078603E+01    0.602872553044780148E+03
    0.299351955145638282E+01    0.400224324327913217E+00   -0.300023684345654473E+01    0.602888574297253513E+03
    0.298834278838668199E+01    0.400280697092899207E+00   -0.300003756267626009E+01    0.602892563259295912E+03
    0.299232035921973383E+01    0.399624991061767854E+00   -0.299993065908126422E+01    0.602902177047880059E+03
    0.300897806807791257E+01    0.400186130972136400E+00   -0.299996147387981837E+01    0.602902613941773666E+03
    0.299181772383637057E+01    0.400476295831067475E+00   -0.300020199649495689E+01    0.602908220174363578E+03
    0.300987968130762962E+01    0.400120406729689904E+00   -0.300012403573250097E+01    0.602921745549500542E+03
    0.300980906717074514E+01    0.399639692332468432E+00   -0.299983989800059581E+01    0.602931524300055344E+03
    0.299997545964988133E+01    0.400524037484161766E+00   -0.299992887469283565E+01    0.602932922120379203E+03
    0.300056303245445566E+01    0.400665452583976289E+00   -0.300012943902401386E+01    0.602938222116845509E+03
    0.300818737487305965E+01    0.400241585201441319E+00   -0.300016742811387527E+01    0.602967609137054183E+03
    0.299132328641390499E+01    0.399724750634502246E+00   -0.299988787915201760E+01    0.602969976382589152E+03
    0.300843975678693809E+01    0.400008850245623826E+00   -0.300018989945719561E+01    0.602973674584344508E+03
    0.299238277497849037E+01    0.400635209200197129E+00   -0.300013191135674173E+01    0.602988456633731175E+03
    0.299432566081857310E+01    0.399518303082547210E+00   -0.299990283115488365E+01    0.602992446490183852E+03
    0.300977967906871680E+01    0.399697659754257084E+00   -0.299984709835818331E+01    0.603001402821600436E+03
    0.300522366580310019E+01    0.400134541220238560E+00   -0.299982994422580651E+01    0.603005106955019301E+03
    0.300112279359543388E+01    0.400477683349053148E+00   -0.299992103539324972E+01    0.603009602855491607E+03
    0.299997731134215595E+01    0.399401739635222575E+00   -0.299977879200245567E+01    0.603014499689294439E+03
    0.300716472921426670E+01    0.399973022677783341E+00   -0.299982162529591845E+01    0.603018675374502322E+03
    0.299817246237801793E+01    0.400449008071988910E+00   -0.299988176723661848E+01    0.603045683517307680E+03
    0.299259892607327371E+01    0.400221009252711757E+00   -0.300020843050475161E+01    0.603048545091891810E+03
    0.299782815520840895E+01    0.400227369803812238E+00   -0.300027128570765544E+01    0.603073873753587804E+03
    0.300877183883536503E+01    0.399416951348529448E+00   -0.299990779603257263E+01    0.603079554931596363E+03
    0.300828300054569331E+01    0.399415637540177115E+00   -0.299986779629796585E+01    0.603088491162437208E+03
    0.300941219595705967E+01    0.399491050096357880E+00   -0.299987831832459673E+01    0.603092609852696683E+03
    0.300418722879115663E+01    0.399315653583986685E+00   -0.299991568341913695E+01    0.603117444461339119E+03
    0.299327327966532541E+01    0.399755109922452001E+00   -0.300007872626725192E+01    0.603124486288898538E+03
    0.299062051124776485E+01    0.400445311491073652E+00   -0.299996722733858423E+01    0.603135330595396454E+03
    0.300655061066062679E+01    0.399395404780928331E+00   -0.299982748982411040E+01    0.603136491569109467E+03
    0.299226643869067610E+01    0.400322499449790425E+00   -0.300020037650519189E+01    0.603150152610403438E+03
    0.301095813808353707E+01    0.399853639875642541E+00   -0.299997129342818480E+01    0.603160260654539456E+03
    0.300653831765559154E+01    0.400092168356342315E+00   -0.300021728753785277E+01    0.603160656244124311E+03
    0.300152844314003975E+01    0.400180305065615138E+00   -0.300026785249103156E+01    0.603163437974281578E+03
    0.299402031262683233E+01    0.400503499580811828E+00   -0.299993107768334522E+01    0.603187039876573522E+03
    0.299194741166024247E+01    0.399794596698287374E+00   -0.300003961440981115E+01    0.603197666278557676E+03
    0.301032752464471276E+01    0.399598480241019349E+00   -0.299999490416843972E+01    0.603197750979458874E+03
    0.300418981427370024E+01    0.399427173147444303E+00   -0.299978398053032613E+01    0.603199015222938669E+03
    0.298976626436156634E+01    0.400200412946171424E+00   -0.300009652609955735E+01    0.603200293078620120E+03
    0.299367414270765053E+01    0.400400546063578777E+00   -0.300022091316976125E+01    0.603220871545948057E+03
    0.300865614035506290E+01    0.400119997726395393E+00   -0.300014854892062255E+01    0.603223479483899609E+03
    0.300312665775150744E+01    0.399627711732097657E+00   -0.300014345932426441E+01    0.603224995838404880E+03
    0.300909473974457686E+01    0.399501479856454733E+00   -0.299988358032223124E+01    0.603229943359333674E+03
    0.299683457013327459E+01    0.399864891211955675E+00   -0.299974704463863873E+01    0.603234510309072675E+03
    0.299162352858191527E+01    0.400560007120099482E+00   -0.300009401824410737E+01    0.603239078318255565E+03
    0.301016483744498053E+01    0.400020049220180862E+00   -0.300004473694377083E+01    0.603274986699660076E+03
    0.298941887108415827E+01    0.400313963818483054E+00   -0.300001908281462848E+01    0.603284189969357158E+03
    0.300108923417536877E+01    0.400222135167013049E+00   -0.300026246751353565E+01    0.603292951959710422E+03
    0.298961213282462790E+01    0.400141613731928247E+00   -0.300005482077088725E+01    0.603295019580392250E+03
    0.300082772726819824E+01    0.400137158455135644E+00   -0.299979570185967503E+01    0.603295285281538213E+03
    0.299235579342945757E+01    0.399934774213490329E+00   -0.299981900634159260E+01    0.603300372138354192E+03
    0.300116571239612639E+01    0.399393808785065585E+00   -0.299997519558707459E+01    0.603333734911421857E+03
    0.299901833271382046E+01    0.399531445245900396E+00   -0.299976797399965767E+01    0.603335786416254905E+03
    0.299923136013074743E+01    0.400617633392633621E+00   -0.300006030431201065E+01    0.603348788401701427E+03
    0.299923136013074743E+01    0.400617633392633621E+00   -0.300006030431201065E+01    0.603348788401701427E+03
    0.299719517525159684E+01    0.400295493507174194E+00   -0.300025241469321458E+01    0.603359539282662809E+03
    0.299781766749862522E+01    0.400635454101809119E+00   -0.300006889846434310E+01    0.603360341936546320E+03
    0.300409321606225266E+01    0.399438397959976654E+00   -0.300002721706316144E+01    0.603362865804984040E+03
    0.300618541821713725E+01    0.400362910646009373E+00   -0.300003230677666455E+01    0.603367283211818744E+03
    0.299834027549546844E+01    0.400589435153332118E+00   -0.300000973420118333E+01    0.603370971709965374E+03
    0.299946127331968082E+01    0.400416130212283339E+00   -0.300024781104016780E+01    0.603387062001749882E+03
    0.300027123618201497E+01    0.400449709269658394E+00   -0.299992539305774386E+01    0.603393256926045410E+03
    0.300517455733798844E+01    0.400198117727909253E+00   -0.299988190476216232E+01    0.603396451922493156E+03
    0.300815822074988315E+01    0.400227865638954239E+00   -0.300006601179022647E+01    0.603399587087918235E+03
    0.300815822074988315E+01    0.400227865638954239E+00   -0.300006601179022647E+01    0.603399587087918235E+03
    0.300664334353167240E+01    0.399639255122712644E+00   -0.299979912250421510E+01    0.603409749693779759E+03
    0.299065615345443847E+01    0.400426492545844781E+00   -0.300008840278842293E+01    0.603412514846569366E+03
    0.299065615345443847E+01    0.400426492545844781E+00   -0.300008840278842293E+01    0.603412514846569366E+03
    0.300069291489102374E+01    0.400327965337079705E+00   -0.300025236774762138E+01    0.603416968365004209E+03
    0.299680887717767863E+01    0.399844700907757589E+00   -0.300016838913068051E+01    0.603426018133512798E+03
    0.299356310178453366E+01    0.399647579806906017E+00   -0.299988946132840040E+01    0.603429195535405938E+03
    0.299913617375401476E+01    0.400306009285567255E+00   -0.300025446731424905E+01    0.603434144111512751E+03
    0.299913617375401476E+01    0.400306009285567255E+00   -0.300025446731424905E+01    0.603434144111512751E+03
    0.300967606385644526E+01    0.399943138549838317E+00   -0.299994849114734841E+01    0.603434522949487246E+03
    0.299412887004034234E+01    0.399623399154361736E+00   -0.299987697726648594E+01    0.603460478133845413E+03
    0.299412887004034234E+01    0.399623399154361736E+00   -0.299987697726648594E+01    0.603460478133845413E+03
    0.299609874424592126E+01    0.400464924340794060E+00   -0.299992215875680435E+01    0.603471680426701596E+03
    0.299609874424592126E+01    0.400464924340794060E+00   -0.299992215875680435E+01    0.603471680426701596E+03
    0.300689531155219170E+01    0.399476481308304932E+00   -0.300000676744667460E+01    0.603480580903427153E+03
    0.300853990345961764E+01    0.399710028409726137E+00   -0.299985777669552611E+01    0.603498618498478322E+03
    0.299623717452665250E+01    0.400564117093206773E+00   -0.299999528250084335E+01    0.603501792391135609E+03
    0.299623717452665250E+01    0.400564117093206773E+00   -0.299999528250084335E+01    0.603501792391135609E+03
    0.300699092679672875E+01    0.399660721799413476E+00   -0.300010555856481842E+01    0.603504069998260775E+03
    0.299714728990776047E+01    0.399906037345346022E+00   -0.300018575984678471E+01    0.603507763982387132E+03
    0.299714728990776047E+01    0.399906037345346022E+00   -0.300018575984678471E+01    0.603507763982387132E+03
    0.300139624108399872E+01    0.399830317727278672E+00   -0.300019185726662707E+01    0.603507999409076888E+03
    0.299447967615264776E+01    0.400595587076231330E+00   -0.300011615910283957E+01    0.603520433748830669E+03
    0.300979337508865896E+01    0.399967978104164457E+00   -0.300003616137053530E+01    0.603521831361205727E+03
    0.300580995452314381E+01    0.399804257940788665E+00   -0.300016399900735209E+01    0.603528402353769479E+03
    0.300039104763530284E+01    0.399464157053996072E+00   -0.299980483984443769E+01    0.603533018594903638E+03
    0.300039104763530284E+01    0.399464157053996072E+00   -0.299980483984443769E+01    0.603533018594903638E+03
    0.300634920439864395E+01    0.399583943494479288E+00   -0.300007896934782892E+01    0.603534919925035183E+03
    0.300806490672529847E+01    0.399946983034599857E+00   -0.300014453399699699E+01    0.603536228059409609E+03
    0.299264967111048197E+01    0.400113174310557707E+00   -0.300015336163186852E+01    0.603542082990458425E+03
    0.300876870134435670E+01    0.400102400173743045E+00   -0.300000082961976045E+01    0.603542458632809939E+03
    0.300966626124075143E+01    0.399735046750178347E+00   -0.300003547593620290E+01    0.603558562006636180E+03
    0.300966626124075143E+01    0.399735046750178347E+00   -0.300003547593620290E+01    0.603558562006636180E+03
    0.300169421065522002E+01    0.399792132213803608E+00   -0.299975901300681569E+01    0.603572248991255492E+03
    0.300241179294209282E+01    0.399411900958797916E+00   -0.299996676449393540E+01    0.603576218635408850E+03
    0.299530226571483249E+01    0.399807468775646935E+00   -0.299978936095587212E+01    0.603595051454806594E+03
    0.300847550041286294E+01    0.400095062148157266E+00   -0.300010375392198103E+01    0.603596452794316519E+03
    0.299263302486102933E+01    0.399863425251937687E+00   -0.300006116075829077E+01    0.603598441763532605E+03
    0.300012678021147439E+01    0.400280844894969234E+00   -0.300024354686773354E+01    0.603598726986488145E+03
    0.300469989847142394E+01    0.400228100115512464E+00   -0.299990202270065787E+01    0.603600127915505823E+03
    0.300469989847142394E+01    0.400228100115512464E+00   -0.299990202270065787E+01    0.603600127915505823E+03
    0.300059811406531596E+01    0.399496192486338941E+00   -0.300002918540148400E+01    0.603600556590915517E+03
    0.299626466747487274E+01    0.399833815619848487E+00   -0.299977617706963784E+01    0.603601331568104001E+03
    0.300663467840818122E+01    0.400294389324622912E+00   -0.300010491447572392E+01    0.603604533877917561E+03
    0.299789522242680651E+01    0.399834190799521483E+00   -0.299976450779994819E+01    0.603615997970652870E+03
    0.300418240439007045E+01    0.399420649845599440E+00   -0.299996709752159152E+01    0.603624806966751294E+03
    0.299160373606297014E+01    0.400177485028452073E+00   -0.300012088837546287E+01    0.603642195173177583E+03
    0.299451070754886528E+01    0.399759132643948134E+00   -0.299981679314731053E+01    0.603644928436082637E+03
    0.299451070754886528E+01    0.399759132643948134E+00   -0.299981679314731053E+01    0.603644928436082637E+03
    0.300670131198646873E+01    0.399493059385804039E+00   -0.299986213021868764E+01    0.603646407551446259E+03
    0.300670131198646873E+01    0.399493059385804039E+00   -0.299986213021868764E+01    0.603646407551446259E+03
    0.300286649024183383E+01    0.399799746719741667E+00   -0.300017379355230629E+01    0.603646609569965449E+03
    0.300312707142755642E+01    0.400466464022350033E+00   -0.300004707024272799E+01    0.603654965706814323E+03
    0.299259323188129844E+01    0.400507877409867818E+00   -0.300008324547142680E+01    0.603658137686066311E+03
    0.299259323188129844E+01    0.400507877409867818E+00   -0.300008324547142680E+01    0.603658137686066311E+03
    0.300017075543157397E+01    0.400122524094779553E+00   -0.299981064063760661E+01    0.603659219636698822E+03
    0.299887879152030745E+01    0.400579153469507732E+00   -0.300006807290904387E+01    0.603661029139892321E+03
    0.300206927426267312E+01    0.400468716325796559E+00   -0.300000435317524161E+01    0.603661850757919410E+03
    0.299544181173640212E+01    0.399934568514022037E+00   -0.300015746467995559E+01    0.603681625850311661E+03
    0.299846844093972331E+01    0.400361196754118132E+00   -0.300023159891050906E+01    0.603681791766129436E+03
    0.299846844093972331E+01    0.400361196754118132E+00   -0.300023159891050906E+01    0.603681791766129436E+03
    0.299234739196745858E+01    0.399794703065965429E+00   -0.299994463863386063E+01    0.603687509883148550E+03
    0.300900694209420161E+01    0.400032722329488610E+00   -0.300002006853938763E+01    0.603692396197488051E+03
    0.300900694209420161E+01    0.400032722329488610E+00   -0.300002006853938763E+01    0.603692396197488051E+03
    0.299127015946970420E+01    0.400268035549016632E+00   -0.300010627020616072E+01    0.603694221156215917E+03
    0.300744380050181714E+01    0.399521569827787637E+00   -0.299998296596185110E+01    0.603705035216053147E+03
    0.300639662610137792E+01    0.399492517856771645E+00   -0.299986405337201312E+01    0.603705936388391933E+03
    0.300639662610137792E+01    0.399492517856771645E+00   -0.299986405337201312E+01    0.603705936388391933E+03
    0.299981346411209593E+01    0.400548873731709332E+00   -0.300005071060597039E+01    0.603714499693135281E+03
    0.299981346411209593E+01    0.400548873731709332E+00   -0.300005071060597039E+01    0.603714499693135281E+03
    0.300567479244908009E+01    0.399609893537571093E+00   -0.300008137083517301E+01    0.603721598489906910E+03
    0.300387783808386910E+01    0.399898839787992399E+00   -0.300018805187881643E+01    0.603722377737481111E+03
    0.299952594459111310E+01    0.399452703827233635E+00   -0.299987541253266743E+01    0.603722995870045906E+03
    0.300847389883079908E+01    0.399943810993224957E+00   -0.300010422413048872E+01    0.603736349053281060E+03
    0.300171644216377054E+01    0.400487655878262294E+00   -0.300015520316619977E+01    0.603740861282444143E+03
    0.300171644216377054E+01    0.400487655878262294E+00   -0.300015520316619977E+01    0.603740861282444143E+03
    0.299821821017247814E+01    0.400551354763524159E+00   -0.300015749590995240E+01    0.603747049401244112E+03
    0.299762511700967416E+01    0.400104192648763402E+00   -0.300021538370619600E+01    0.603751832195417364E+03
    0.299572066722012220E+01    0.400564124419477585E+00   -0.300005247670105168E+01    0.603756479024920282E+03
    0.300260594487143750E+01    0.400182380970274143E+00   -0.300022254732846250E+01    0.603759963658037691E+03
    0.300944101049703994E+01    0.399830123544057559E+00   -0.300001767369340389E+01    0.603761048540227193E+03
    0.299218785418643662E+01    0.399832701538505919E+00   -0.299994606064142166E+01    0.603763822433075347E+03
    0.299276111936981160E+01    0.399905960638192171E+00   -0.300006509571122137E+01    0.603779295926570853E+03
    0.300689190658362193E+01    0.399523371648762338E+00   -0.299988051140737211E+01    0.603784331964062517E+03
    0.299955433416881778E+01    0.400544599037250149E+00   -0.300013672069265525E+01    0.603785265114195795E+03
    0.299955433416881778E+01    0.400544599037250149E+00   -0.300013672069265525E+01    0.603785265114195795E+03
    0.299398239357877083E+01    0.400520477772649763E+00   -0.300003786343382917E+01    0.603788894152778539E+03
    0.300733361194785154E+01    0.399678847983273244E+00   -0.300007426573986624E+01    0.603795172818896390E+03
    0.300733361194785154E+01    0.399678847983273244E+00   -0.300007426573986624E+01    0.603795172818896390E+03
    0.300690728166719801E+01    0.399706644796357424E+00   -0.299984097462126353E+01    0.603795522424229944E+03
    0.300690728166719801E+01    0.399706644796357424E+00   -0.299984097462126353E+01    0.603795522424229944E+03
    0.299811235263189335E+01    0.400000957962543424E+00   -0.299979132228396894E+01    0.603796299695646439E+03
    0.299087425644940286E+01    0.400155779334874173E+00   -0.300003769399608533E+01    0.603828243203641250E+03
    0.299087425644940286E+01    0.400155779334874173E+00   -0.300003769399608533E+01    0.603828243203641250E+03
    0.299154779829513018E+01    0.399945269231279710E+00   -0.299998634224601002E+01    0.603839051437575336E+03
    0.299121939570348605E+01    0.400293021001234317E+00   -0.300006664509898746E+01    0.603842070265937309E+03
    0.299256830991216560E+01    0.400423023080843987E+00   -0.300000115039047666E+01    0.603848329792405707E+03
    0.300292641772168123E+01    0.400109215667667439E+00   -0.299984446586001630E+01    0.603852484380585679E+03
    0.300271371327982761E+01    0.400022226545927395E+00   -0.300020537484694660E+01    0.603853297771203074E+03
    0.300638553493935046E+01    0.399793928248475483E+00   -0.299983876466689070E+01    0.603861143419876726E+03
    0.299828218064773155E+01    0.400553741532601426E+00   -0.300007323064047204E+01    0.603862800876913298E+03
    0.299714101470455851E+01    0.399561486547093336E+00   -0.299986365796227483E+01    0.603864524883361469E+03
    0.299714101470455851E+01    0.399561486547093336E+00   -0.299986365796227483E+01    0.603864524883361469E+03
    0.300386351254018447E+01    0.399994723150464693E+00   -0.299982749352715361E+01    0.603867319998688004E+03
    0.299561684026999231E+01    0.400474467210382656E+00   -0.300016972057285347E+01    0.603870135677279791E+03
    0.300693950183333047E+01    0.399827293767711978E+00   -0.299985754428734985E+01    0.603870208653684244E+03
    0.300900249615715198E+01    0.399824731143027357E+00   -0.299995886307448290E+01    0.603873997943111362E+03
    0.299469087250994681E+01    0.399794739105995334E+00   -0.299983077752067562E+01    0.603874769453688486E+03
    0.300059760774816020E+01    0.400509076598455360E+00   -0.300005464485581896E+01    0.603876881972799310E+03
    0.299333814279406241E+01    0.400072377606932428E+00   -0.300012958885200076E+01    0.603896404419028954E+03
    0.299969174024442431E+01    0.399496661707042677E+00   -0.299996630139483011E+01    0.603897084614394771E+03
    0.299149031743947980E+01    0.400286781374777856E+00   -0.300007489151898188E+01    0.603900954127912428E+03
    0.299354558042988028E+01    0.399818987119266889E+00   -0.299986834477291442E+01    0.603906525556879160E+03
    0.299551333419202770E+01    0.399781123357938528E+00   -0.299981975887357422E+01    0.603926863101015897E+03
    0.300665718640363400E+01    0.400045856905837827E+00   -0.299991185671862137E+01    0.603934872279161027E+03
    0.300151785050047959E+01    0.400015718589007918E+00   -0.299981216298873221E+01    0.603938252148365109E+03
    0.300112562563994878E+01    0.399531499668910495E+00   -0.300001984423990464E+01    0.603939380648001929E+03
    0.300459879410691633E+01    0.399745454694965696E+00   -0.300012560702428921E+01    0.603944558322629405E+03
    0.299134231003617534E+01    0.400137418840490977E+00   -0.300004537425458651E+01    0.603947693966405041E+03
    0.300423215501381424E+01    0.400330070760452295E+00   -0.300014634852747486E+01    0.603953108761818612E+03
    0.299433398655704952E+01    0.400332800577800130E+00   -0.300016885293239621E+01    0.603953344640975843E+03
    0.299267754680321696E+01    0.400078959858956085E+00   -0.299988426248877671E+01    0.603956635772018103E+03
    0.299575031145161930E+01    0.399799177086795909E+00   -0.300008907066283825E+01    0.603958953790162809E+03
    0.299623185249331447E+01    0.400032937456364590E+00   -0.299981771108269824E+01    0.603963773597259092E+03
    0.299623185249331447E+01    0.400032937456364590E+00   -0.299981771108269824E+01    0.603963773597259092E+03
    0.299463797094189310E+01    0.400038330055285996E+00   -0.299983718716387537E+01    0.603966804426137628E+03
    0.300597575457205046E+01    0.399512750230085478E+00   -0.299995542025025186E+01    0.603975137551980083E+03
    0.300752580685233362E+01    0.399908706738561215E+00   -0.300010489243976775E+01    0.603985101927505298E+03
    0.299936804127637613E+01    0.399576104269257382E+00   -0.299982090671491974E+01    0.603989512690352967E+03
    0.300725659959191649E+01    0.400061174181098600E+00   -0.300011094998189964E+01    0.603991562996557036E+03
    0.300725659959191649E+01    0.400061174181098600E+00   -0.300011094998189964E+01    0.603991562996557036E+03
    0.299514127164234445E+01    0.400419374428489683E+00   -0.300016399405866085E+01    0.603994959970470291E+03
    0.299514127164234445E+01    0.400419374428489683E+00   -0.300016399405866085E+01    0.603994959970470291E+03
    0.299462066048012066E+01    0.399701757383072065E+00   -0.299994949981596326E+01    0.604009134639627746E+03
    0.299958890654479138E+01    0.399514315057139080E+00   -0.299995948896554765E+01    0.604013860864355706E+03
    0.300111389437794518E+01    0.399839443359046143E+00   -0.299979080475865167E+01    0.604018669461331683E+03
    0.300219774786940574E+01    0.399765491381978866E+00   -0.300013629836431139E+01    0.604020919998623981E+03
    0.300219774786940574E+01    0.399765491381978866E+00   -0.300013629836431139E+01    0.604020919998623981E+03
    0.299681746168645580E+01    0.400510322711110811E+00   -0.300013329341502200E+01    0.604021237643980953E+03
    0.300207259235711277E+01    0.400048372328564827E+00   -0.299983051147683577E+01    0.604023015390295996E+03
    0.299546754401914761E+01    0.399780951146702090E+00   -0.299983203566686729E+01    0.604026811739421646E+03
    0.299546754401914761E+01    0.399780951146702090E+00   -0.299983203566686729E+01    0.604026811739421646E+03
    0.300741088563752301E+01    0.399605273025406549E+00   -0.299993792803158854E+01    0.604042731460760024E+03
    0.300741088563752301E+01    0.399605273025406549E+00   -0.299993792803158854E+01    0.604042731460760024E+03
    0.299276778935024979E+01    0.399866642900897407E+00   -0.299997345063703458E+01    0.604044706040052688E+03
    0.300134098156423734E+01    0.400345010435014526E+00   -0.299994113783017680E+01    0.604051031247094102E+03
    0.300601992485353797E+01    0.399595176041895539E+00   -0.299986668602734152E+01    0.604053127470750837E+03
    0.300601992485353797E+01    0.399595176041895539E+00   -0.299986668602734152E+01    0.604053127470750837E+03
    0.300846712554722640E+01    0.399757634006961016E+00   -0.299998143244972759E+01    0.604053608660660529E+03
    0.300846712554722640E+01    0.399757634006961016E+00   -0.299998143244972759E+01    0.604053608660660529E+03
    0.300162511327270165E+01    0.400438515401978057E+00   -0.300013482952357968E+01    0.604060087082518749E+03
    0.300162511327270165E+01    0.400438515401978057E+00   -0.300013482952357968E+01    0.604060087082518749E+03
    0.300624445823505670E+01    0.399703178200400910E+00   -0.299985535471694931E+01    0.604067487558648168E+03
    0.300807856119508221E+01    0.399864869711934467E+00   -0.299993942885427067E+01    0.604070798150513042E+03
    0.300076543811195195E+01    0.399502230692541316E+00   -0.299995577164070104E+01    0.604072706622318151E+03
    0.300016634533431770E+01    0.399840549148867797E+00   -0.300015164128424106E+01    0.604075124894214696E+03
    0.299382568835738061E+01    0.399859404805444352E+00   -0.299987205622870512E+01    0.604076906822890464E+03
    0.299516727062866916E+01    0.400290690298817919E+00   -0.300017346830220166E+01    0.604077679349071900E+03
    0.299516727062866916E+01    0.400290690298817919E+00   -0.300017346830220166E+01    0.604077679349071900E+03
    0.300842295081512034E+01    0.399873859429081657E+00   -0.299998272284104495E+01    0.604081552277939636E+03
    0.300065615545694708E+01    0.400450744144676185E+00   -0.300014336194254305E+01    0.604093105626543775E+03
    0.299365938984010160E+01    0.400384623419260899E+00   -0.299998201227519745E+01    0.604103092372835931E+03
    0.299252077530339022E+01    0.399920976446037468E+00   -0.299995266847344677E+01    0.604110976011834168E+03
    0.299252077530339022E+01    0.399920976446037468E+00   -0.299995266847344677E+01    0.604110976011834168E+03
    0.300683204837455254E+01    0.399662514740924513E+00   -0.300002889899961733E+01    0.604134860677510005E+03
    0.300683204837455254E+01    0.399662514740924513E+00   -0.300002889899961733E+01    0.604134860677510005E+03
    0.300317906265742707E+01    0.400381767568535607E+00   -0.300009920080751824E+01    0.604136968656580962E+03
    0.300357225170368203E+01    0.400363837175439996E+00   -0.300006821955893432E+01    0.604152924478998330E+03
    0.300537946786028476E+01    0.399717655343112932E+00   -0.300008584595082262E+01    0.604154706311365203E+03
    0.299706497563933194E+01    0.399852660664647586E+00   -0.300011842662695472E+01    0.604154935102401737E+03
    0.300412244697532627E+01    0.399589048822979298E+00   -0.300003399551665151E+01    0.604155949439976325E+03
    0.300803131330735152E+01    0.399858003740564683E+00   -0.299995759763583347E+01    0.604156577917647496E+03
    0.300327908405914057E+01    0.399846957880355125E+00   -0.300014537706146989E+01    0.604169718491291974E+03
    0.299710100397644830E+01    0.400460379725618987E+00   -0.300000446899340645E+01    0.604172926386633321E+03
    0.299710100397644830E+01    0.400460379725618987E+00   -0.300000446899340645E+01    0.604172926386633321E+03
    0.299332713116860916E+01    0.400048621609332411E+00   -0.299988945878613222E+01    0.604173965169391295E+03
    0.299332713116860916E+01    0.400048621609332411E+00   -0.299988945878613222E+01    0.604173965169391295E+03
    0.300482287012564520E+01    0.400033196344944608E+00   -0.299988163126568930E+01    0.604178426619593893E+03
    0.300794785371421547E+01    0.399840401475805629E+00   -0.299995375464814362E+01    0.604179349638602389E+03
    0.300794785371421547E+01    0.399840401475805629E+00   -0.299995375464814362E+01    0.604179349638602389E+03
    0.300064832283135141E+01    0.399898468853907896E+00   -0.299980679408830087E+01    0.604183165496382571E+03
    0.299711992969404584E+01    0.399963327617923303E+00   -0.300015092536289796E+01    0.604185894923347860E+03
    0.299800058947337478E+01    0.400462398859307733E+00   -0.300014121993195992E+01    0.604195172259688775E+03
    0.299800058947337478E+01    0.400462398859307733E+00   -0.300014121993195992E+01    0.604195172259688775E+03
    0.300172104160432252E+01    0.400341526602535358E+00   -0.299996346633072575E+01    0.604195258885857925E+03
    0.299915072711264274E+01    0.399668474903141058E+00   -0.300005950841263758E+01    0.604196492512140253E+03
    0.299915072711264274E+01    0.399668474903141058E+00   -0.300005950841263758E+01    0.604196492512140253E+03
    0.299415923495721437E+01    0.400086910470773494E+00   -0.299987522680490937E+01    0.604198394176931743E+03
    0.300336301308827203E+01    0.399971047598787821E+00   -0.300016723119552964E+01    0.604202494365588109E+03
    0.300336301308827203E+01    0.399971047598787821E+00   -0.300016723119552964E+01    0.604202494365588109E+03
    0.300439316765525888E+01    0.400037084002417609E+00   -0.299987745375403492E+01    0.604218048330071724E+03
    0.299337110092306879E+01    0.400004798062235045E+00   -0.299989375246352141E+01    0.604222661613134846E+03
    0.299337110092306879E+01    0.400004798062235045E+00   -0.299989375246352141E+01    0.604222661613134846E+03
    0.300621658810662673E+01    0.399784324366392552E+00   -0.299987380573996321E+01    0.604222742185546167E+03
    0.300621658810662673E+01    0.399784324366392552E+00   -0.299987380573996321E+01    0.604222742185546167E+03
    0.299954385308377214E+01    0.400353567990670622E+00   -0.300018089544924127E+01    0.604224644407012875E+03
    0.300049891178588268E+01    0.399553573458494238E+00   -0.299986026245243664E+01    0.604225059540317943E+03
    0.299473722521402497E+01    0.400041429596995068E+00   -0.299986078807889589E+01    0.604225398315501934E+03
    0.299942627663112260E+01    0.399723517431700315E+00   -0.299981002962656662E+01    0.604227034722110147E+03
    0.300207809059568609E+01    0.399521014894830162E+00   -0.299988331181499479E+01    0.604227076098557745E+03
    0.300207809059568609E+01    0.399521014894830162E+00   -0.299988331181499479E+01    0.604227076098557745E+03
    0.299397940695816045E+01    0.400375490300809933E+00   -0.299999122395906603E+01    0.604229055394380339E+03
    0.299314642114580653E+01    0.400298300027412679E+00   -0.299997159479623532E+01    0.604232519983009638E+03
    0.300251910771523578E+01    0.399870191831284028E+00   -0.299981943100677340E+01    0.604236291192305998E+03
    0.300251910771523578E+01    0.399870191831284028E+00   -0.299981943100677340E+01    0.604236291192305998E+03
    0.300209964754734582E+01    0.399543752660161511E+00   -0.299998608241467579E+01    0.604245937019924440E+03
    0.300209964754734582E+01    0.399543752660161511E+00   -0.299998608241467579E+01    0.604245937019924440E+03
    0.299914486721938633E+01    0.399763740013689750E+00   -0.299980962365869619E+01    0.604248840779989905E+03
    0.300238532446820194E+01    0.399694352984051038E+00   -0.299981789020867362E+01    0.604253363318845118E+03
    0.300206819929634650E+01    0.399696884605070635E+00   -0.300008790067400799E+01    0.604259054667800569E+03
    0.300246532364594465E+01    0.400351648096823221E+00   -0.300013688248350974E+01    0.604259126973497587E+03
    0.300453334243084846E+01    0.399670352438095067E+00   -0.300006293165032023E+01    0.604263380124228547E+03
    0.300453334243084846E+01    0.399670352438095067E+00   -0.300006293165032023E+01    0.604263380124228547E+03
    0.299701929219718544E+01    0.400464733944106477E+00   -0.300011490127837543E+01    0.604269094491815281E+03
    0.300700353225013561E+01    0.400066476063631438E+00   -0.300004849317207523E+01    0.604271163081874988E+03
    0.300700353225013561E+01    0.400066476063631438E+00   -0.300004849317207523E+01    0.604271163081874988E+03
    0.300234089845102492E+01    0.400238968393037409E+00   -0.299992341847587785E+01    0.604271606810995081E+03
    0.299711327427366214E+01    0.400296402166266552E+00   -0.299991257555939672E+01    0.604277233231946752E+03
    0.299664339628663257E+01    0.400409433961043559E+00   -0.299997959791010427E+01    0.604277902073981863E+03
    0.300053025288452568E+01    0.399536764597401339E+00   -0.299993333685413210E+01    0.604281519872394597E+03
    0.299935615480030959E+01    0.399730654217458292E+00   -0.300008566825800305E+01    0.604284131813038243E+03
    0.299909416054605771E+01    0.400449113112715915E+00   -0.300012526819385972E+01    0.604286269286170750E+03
    0.299909416054605771E+01    0.400449113112715915E+00   -0.300012526819385972E+01    0.604286269286170750E+03
    0.300640319435215631E+01    0.399856312501065625E+00   -0.300009070068153338E+01    0.604287239004858179E+03
    0.300480552492186082E+01    0.399657779192616136E+00   -0.299985673749801984E+01    0.604288807923239006E+03
    0.300665919270358861E+01    0.399764143890817603E+00   -0.300005487073221655E+01    0.604295389338664904E+03
    0.300665919270358861E+01    0.399764143890817603E+00   -0.300005487073221655E+01    0.604295389338664904E+03
    0.299532526599981486E+01    0.400428215762580475E+00   -0.300010647661985441E+01    0.604297796389920450E+03
    0.300009359113537233E+01    0.399596136438981675E+00   -0.300000732957910587E+01    0.604298168199691986E+03
    0.299556683699485449E+01    0.400250659277521625E+00   -0.299990687938231648E+01    0.604299240995454397E+03
    0.300722604573637087E+01    0.399712758474974228E+00   -0.299994719312629954E+01    0.604299274828601824E+03
    0.300056193101352076E+01    0.400273413516664900E+00   -0.299991804592254541E+01    0.604301970208505850E+03
    0.299236071417514715E+01    0.400085647064007843E+00   -0.299999626369875916E+01    0.604305043848969717E+03
    0.299236071417514715E+01    0.400085647064007843E+00   -0.299999626369875916E+01    0.604305043848969717E+03
    0.300242058630766451E+01    0.399656737178528620E+00   -0.300006278777110547E+01    0.604305832869251503E+03
    0.300242058630766451E+01    0.399656737178528620E+00   -0.300006278777110547E+01    0.604305832869251503E+03
    0.300451661181948060E+01    0.399711318755501754E+00   -0.300007699201969746E+01    0.604305989725738414E+03
    0.299656040797362122E+01    0.399700859376542872E+00   -0.300000101046549705E+01    0.604318723996869153E+03
    0.299349834147220539E+01    0.400355072374183663E+00   -0.300003444109042050E+01    0.604319090129631149E+03
    0.300430869860572969E+01    0.400266523074271852E+00   -0.300010508178682977E+01    0.604321776180200686E+03
    0.300632426510985873E+01    0.399727708956749916E+00   -0.299989391466910371E+01    0.604323548230257529E+03
    0.300286711679492502E+01    0.399767471764202631E+00   -0.299982517885608635E+01    0.604326785502978055E+03
    0.300698968242221909E+01    0.399895914746325964E+00   -0.299993489103526079E+01    0.604329592584745001E+03
    0.299883718251041609E+01    0.399750357553519231E+00   -0.299982099325271356E+01    0.604332207099000016E+03
    0.299311432904989028E+01    0.400192248601089318E+00   -0.299994788601357731E+01    0.604333954510448848E+03
    0.300154789580922454E+01    0.399984620753815689E+00   -0.300016672690883812E+01    0.604339998218017740E+03
    0.299843502688869634E+01    0.399616245300678796E+00   -0.299987857683386272E+01    0.604344993883325401E+03
    0.299579303367293948E+01    0.400408041125548453E+00   -0.300000213030367213E+01    0.604354695935627319E+03
    0.299579303367293948E+01    0.400408041125548453E+00   -0.300000213030367213E+01    0.604354695935627319E+03
    0.300044448131269670E+01    0.399625187821954775E+00   -0.299984292984567125E+01    0.604355947640984482E+03
    0.299517925252208439E+01    0.399753758030601092E+00   -0.299994929913104036E+01    0.604359395216876806E+03
    0.300063419727837211E+01    0.399606680304401440E+00   -0.299985095231379306E+01    0.604361305281381419E+03
    0.300523575750191529E+01    0.399596280326504627E+00   -0.299991871041101321E+01    0.604370095376847758E+03
    0.300484627500357204E+01    0.400206628747656834E+00   -0.300000019878952706E+01    0.604383889486150451E+03
    0.300414500026819198E+01    0.400063569518090967E+00   -0.299989875661728478E+01    0.604392813051344319E+03
    0.299377568461394539E+01    0.400290608270989945E+00   -0.299997764576379655E+01    0.604397546675156832E+03
    0.300187367073225131E+01    0.400232449878000385E+00   -0.299992606694634611E+01    0.604397991769844793E+03
    0.300187367073225131E+01    0.400232449878000385E+00   -0.299992606694634611E+01    0.604397991769844793E+03
    0.299785420869620056E+01    0.399629195809904691E+00   -0.299992573133195517E+01    0.604402307863243550E+03
    0.300722523056204238E+01    0.399812253634287240E+00   -0.300000787430459326E+01    0.604407456256968999E+03
    0.299575857821339575E+01    0.399732871758476604E+00   -0.299992461741581939E+01    0.604409351407604504E+03
    0.300418411115235173E+01    0.399604875958608885E+00   -0.299999974499978483E+01    0.604410590925066799E+03
    0.299959766437232433E+01    0.399838014310634093E+00   -0.300011892152791626E+01    0.604413776615051574E+03
    0.300083138313485387E+01    0.399820384775701199E+00   -0.300011926916241300E+01    0.604414260605206891E+03
    0.300083138313485387E+01    0.399820384775701199E+00   -0.300011926916241300E+01    0.604414260605206891E+03
    0.300379472253371871E+01    0.399572350759949069E+00   -0.299990682893606087E+01    0.604418317980439497E+03
    0.299317606339821651E+01    0.400101938527852363E+00   -0.299994442708035436E+01    0.604422194849508060E+03
    0.299681258229727643E+01    0.400101777006944659E+00   -0.300015332887589770E+01    0.604425437880036043E+03
    0.300218176034387119E+01    0.399555222554854372E+00   -0.299991708808066981E+01    0.604426240160118823E+03
    0.299941444235947774E+01    0.399713640095936684E+00   -0.299983387166125270E+01    0.604430940763045783E+03
    0.300224396752936551E+01    0.400107253377930572E+00   -0.299988406667612129E+01    0.604434621533633162E+03
    0.300224396752936551E+01    0.400107253377930572E+00   -0.299988406667612129E+01    0.604434621533633162E+03
    0.300462312501209006E+01    0.399625215283806012E+00   -0.300000247476330628E+01    0.604440948400085176E+03
    0.299514265297933591E+01    0.400324005183255949E+00   -0.299996728419450287E+01    0.604445740958163583E+03
    0.299935443498754895E+01    0.399934763348859135E+00   -0.300014277832715859E+01    0.604447455654162013E+03
    0.299950566918287898E+01    0.400304987742601093E+00   -0.299994097285334638E+01    0.604447693792618679E+03
    0.300120169895444056E+01    0.399890843893345005E+00   -0.299983050057104927E+01    0.604449093543762274E+03
    0.300564011167571854E+01    0.400137039857847820E+00   -0.300001211507300303E+01    0.604454776321524832E+03
    0.300218535452391500E+01    0.400337125638435209E+00   -0.300002966683048822E+01    0.604476782481642545E+03
    0.299683690073742159E+01    0.399925141183346045E+00   -0.299984848899104461E+01    0.604489067365497021E+03
    0.299704663943128669E+01    0.399685292236970746E+00   -0.299992468820596914E+01    0.604491657630107738E+03
    0.299704663943128669E+01    0.399685292236970746E+00   -0.299992468820596914E+01    0.604491657630107738E+03
    0.299324501518880570E+01    0.400178920542636929E+00   -0.300004743069331603E+01    0.604492571850186096E+03
    0.300438723185603251E+01    0.399898553908447418E+00   -0.300011526813979801E+01    0.604495531192628050E+03
    0.299330220900248678E+01    0.400204551200139591E+00   -0.300004502447904153E+01    0.604503743964475120E+03
    0.299330220900248678E+01    0.400204551200139591E+00   -0.300004502447904153E+01    0.604503743964475120E+03
    0.299501795458553932E+01    0.400207943716494707E+00   -0.300012120056344855E+01    0.604505878823180751E+03
    0.300295656841827752E+01    0.400279079427999729E+00   -0.300000326770276970E+01    0.604508860425942657E+03
    0.300274657662411482E+01    0.400279250721010116E+00   -0.299999462847889209E+01    0.604509274035844783E+03
    0.300306227592757313E+01    0.399990345791331081E+00   -0.299987039292310653E+01    0.604511500621342293E+03
    0.299727137460470017E+01    0.399755269290095305E+00   -0.300003417918408832E+01    0.604513810544809871E+03
    0.300021425855411383E+01    0.400363881375050745E+00   -0.300000381153144158E+01    0.604514391193587471E+03
    0.300316829599562851E+01    0.400293001022549944E+00   -0.300004423775008444E+01    0.604519442275355800E+03
    0.299331187651025932E+01    0.400040499645022141E+00   -0.299997226204871792E+01    0.604519924341070691E+03
    0.300140672226458305E+01    0.399925295844078821E+00   -0.300013921567557240E+01    0.604523689975107231E+03
    0.300454086270428800E+01    0.399861566337363139E+00   -0.300010116796173643E+01    0.604525579172071843E+03
    0.300454086270428800E+01    0.399861566337363139E+00   -0.300010116796173643E+01    0.604525579172071843E+03
    0.300097468880445994E+01    0.400206057219036238E+00   -0.299991546220903116E+01    0.604527633911114094E+03
    0.300672311504185119E+01    0.399820722417482122E+00   -0.299996621985123690E+01    0.604530562025453946E+03
    0.299975803516184492E+01    0.400384246493432294E+00   -0.300011363577013501E+01    0.604531015197552279E+03
    0.299975803516184492E+01    0.400384246493432294E+00   -0.300011363577013501E+01    0.604531015197552279E+03
    0.299836868491414732E+01    0.400222285765747310E+00   -0.300016280659495571E+01    0.604537113495912081E+03
    0.300441327357576071E+01    0.400134997666549364E+00   -0.300011591601610617E+01    0.604541233291375420E+03
    0.300384741693518142E+01    0.399730708852680694E+00   -0.299986427970989089E+01    0.604546844747359955E+03
    0.300529210161826255E+01    0.399750117139277439E+00   -0.299989588997337320E+01    0.604547331824291291E+03
    0.299907294982727057E+01    0.399871163770974536E+00   -0.300011290331203018E+01    0.604548022330576487E+03
    0.300405579511821585E+01    0.399617736781581245E+00   -0.299997539993261908E+01    0.604548477532592415E+03
    0.300405579511821585E+01    0.399617736781581245E+00   -0.299997539993261908E+01    0.604548477532592415E+03
    0.300111746517342359E+01    0.400357401025840109E+00   -0.300003358669100795E+01    0.604548670005561348E+03
    0.299752903765267131E+01    0.400179655948593671E+00   -0.299989490788397672E+01    0.604551992393468026E+03
    0.299907724568646294E+01    0.399955115609682998E+00   -0.300013620273938653E+01    0.604553782165660891E+03
    0.299623402084297563E+01    0.400322125448310251E+00   -0.299996828415445282E+01    0.604557600554647934E+03
    0.300237571836516182E+01    0.400079632176999378E+00   -0.299988974553748466E+01    0.604561298006440325E+03
    0.300501031277173691E+01    0.399760432071785077E+00   -0.299989108588805165E+01    0.604574002969897265E+03
    0.300164933566719538E+01    0.400087898025260846E+00   -0.299988482960534153E+01    0.604579084010236215E+03
    0.300363000851607653E+01    0.399782324554514956E+00   -0.299986233144015069E+01    0.604582893226474084E+03
    0.299878260613037728E+01    0.400401403347729279E+00   -0.300006791865822553E+01    0.604585932167231817E+03
    0.299578838395557279E+01    0.399784096345703943E+00   -0.299993313081558322E+01    0.604586367232887255E+03
    0.299920027154212665E+01    0.400248672415273177E+00   -0.299992670012380946E+01    0.604586741153024946E+03
    0.300379773778230685E+01    0.399627674881408712E+00   -0.299990996640065077E+01    0.604593102118028924E+03
    0.300070326637986318E+01    0.400340575772351437E+00   -0.300001093164506827E+01    0.604600759819914970E+03
    0.300477155348865921E+01    0.399789328158097867E+00   -0.300006446245054992E+01    0.604603921458136710E+03
    0.299968358642711586E+01    0.400137358325799830E+00   -0.299988809283380009E+01    0.604610328821418193E+03
    0.299968358642711586E+01    0.400137358325799830E+00   -0.299988809283380009E+01    0.604610328821418193E+03
    0.299906912520177649E+01    0.399684994464622412E+00   -0.300000799043416899E+01    0.604614076270073610E+03
    0.299943122715618804E+01    0.399734654625478691E+00   -0.300004929192466196E+01    0.604616009905075657E+03
    0.299637470881931867E+01    0.399882860850527821E+00   -0.300006538021399249E+01    0.604617709327596799E+03
    0.299400232484584272E+01    0.399986053806930753E+00   -0.299995613878218670E+01    0.604618890229895214E+03
    0.300293098348937848E+01    0.399664177099786022E+00   -0.299987972313578499E+01    0.604629713687480034E+03
    0.300293098348937848E+01    0.399664177099786022E+00   -0.299987972313578499E+01    0.604629713687480034E+03
    0.300051036462096476E+01    0.399672372210714832E+00   -0.299986874333106135E+01    0.604632416344153512E+03
    0.300051036462096476E+01    0.399672372210714832E+00   -0.299986874333106135E+01    0.604632416344153512E+03
    0.299438161837064909E+01    0.400228206420641608E+00   -0.299997548553061977E+01    0.604634456791179900E+03
    0.300150831900586157E+01    0.400140130567250951E+00   -0.299990723840112272E+01    0.604637845022091938E+03
    0.299491297937547252E+01    0.399942888391897677E+00   -0.300003887239953215E+01    0.604638621767564587E+03
    0.300604165757573538E+01    0.399770620535375099E+00   -0.299998690049086614E+01    0.604643265792397870E+03
    0.300040619788615714E+01    0.400008945277174510E+00   -0.299986178240503687E+01    0.604643770277176941E+03
    0.300026436615536118E+01    0.399623542693767819E+00   -0.299993703014263113E+01    0.604644265980443265E+03
    0.300115356135168376E+01    0.400307025311411935E+00   -0.299999844887698508E+01    0.604644690716084483E+03
    0.300582040577721976E+01    0.399745299486175876E+00   -0.299998434652970536E+01    0.604647753916966167E+03
    0.300341572403839674E+01    0.400246028990238922E+00   -0.300004946403010031E+01    0.604648901085262992E+03
    0.299387059200715688E+01    0.400185345451148533E+00   -0.299999327495023005E+01    0.604650128952649538E+03
    0.300429829264839299E+01    0.400152816532212019E+00   -0.300009151411763675E+01    0.604650790491030307E+03
    0.299991829366921703E+01    0.399754614900534821E+00   -0.300006084622732061E+01    0.604652611861014407E+03
    0.300602075965812787E+01    0.399773436826860007E+00   -0.299997797237882668E+01    0.604654462345037246E+03
    0.299844460694381887E+01    0.399749970833098045E+00   -0.300003559209021020E+01    0.604659317651247648E+03
    0.300195503874298097E+01    0.400223346523059742E+00   -0.299995732380333502E+01    0.604660900884957755E+03
    0.299880307043907912E+01    0.399684727869360878E+00   -0.299998852820541462E+01    0.604662803542629831E+03
    0.300040631682299441E+01    0.399634164979398021E+00   -0.299990759044650579E+01    0.604663785686274423E+03
    0.299828348819831048E+01    0.399720578828412554E+00   -0.299988297657102043E+01    0.604665259025487899E+03
    0.299828348819831048E+01    0.399720578828412554E+00   -0.299988297657102043E+01    0.604665259025487899E+03
    0.299457211973894744E+01    0.399943649006320734E+00   -0.300000939539574851E+01    0.604666914238057984E+03
    0.299511417904436161E+01    0.400137969699118856E+00   -0.300009582627731541E+01    0.604667935030121953E+03
    0.300340440580437562E+01    0.400047227289670626E+00   -0.299990967786656748E+01    0.604668710168546568E+03
    0.300487376886444757E+01    0.399763404209480255E+00   -0.300003940544964909E+01    0.604669844549410072E+03
    0.299632822276339583E+01    0.400010378132356126E+00   -0.299988160932584469E+01    0.604671451096857368E+03
    0.299543884728063592E+01    0.399889399023165282E+00   -0.300002567856320024E+01    0.604672625662779410E+03
    0.300260827991287460E+01    0.399949940687112204E+00   -0.300012456123094129E+01    0.604672631723815243E+03
    0.300332001769339874E+01    0.399638954870140617E+00   -0.299991698820552743E+01    0.604675468276763127E+03
    0.300197546076080224E+01    0.400303134286895068E+00   -0.300007473157516724E+01    0.604678288643406290E+03
    0.299641990375336720E+01    0.399776521120670136E+00   -0.299997182311866739E+01    0.604680540914704579E+03
    0.299405713467580981E+01    0.400123781979181747E+00   -0.300004361197123837E+01    0.604681596140286160E+03
    0.299410884888385009E+01    0.400095000068053264E+00   -0.299995919755123586E+01    0.604683770697739760E+03
    0.299881843236991319E+01    0.399730757767039979E+00   -0.299987345267164285E+01    0.604692475877042057E+03
    0.300428192624954260E+01    0.400009419882930262E+00   -0.299992325131448423E+01    0.604699022846343382E+03
    0.300123264748912044E+01    0.400173257783995540E+00   -0.300014446733166373E+01    0.604699901304065520E+03
    0.299944450826281273E+01    0.399708194463192390E+00   -0.299987585170685822E+01    0.604702807387154280E+03
    0.300400840020622439E+01    0.399774761649636323E+00   -0.300005594747258941E+01    0.604705678298447310E+03
    0.300545574311004415E+01    0.399816930353636468E+00   -0.300003484269312137E+01    0.604706431339161668E+03
    0.300030666532000723E+01    0.400225948579351898E+00   -0.299993943066845414E+01    0.604708366344521892E+03
    0.299807310833312579E+01    0.399700691983128908E+00   -0.299993569418172168E+01    0.604711790032280192E+03
    0.300314562499865056E+01    0.399643737964733070E+00   -0.299996439423511063E+01    0.604716844712555712E+03
    0.300162070390377833E+01    0.400189803080386708E+00   -0.299994048133910063E+01    0.604716986261718489E+03
    0.300005088457004065E+01    0.400030626545395063E+00   -0.299987224482607306E+01    0.604718620934120395E+03
    0.300527761789251002E+01    0.400056972185062143E+00   -0.300000294444114335E+01    0.604721820098990747E+03
    0.300567439271604853E+01    0.399788732430180038E+00   -0.299999533513395678E+01    0.604726696315688173E+03
    0.300566149088773615E+01    0.399994436999365488E+00   -0.300003371329234403E+01    0.604728405716919383E+03
    0.300394928663561478E+01    0.399756993164307628E+00   -0.300004404555153537E+01    0.604732345500685028E+03
    0.299496657595372584E+01    0.400153086955829906E+00   -0.299994613609767713E+01    0.604733660056881831E+03
    0.300572658749325550E+01    0.399981994352864190E+00   -0.300002280009283595E+01    0.604735524863131104E+03
    0.299626909885624571E+01    0.399991059414947558E+00   -0.300008575724009230E+01    0.604740240958947311E+03
    0.300355359119739607E+01    0.399674851652897123E+00   -0.299999055161375461E+01    0.604740893917975768E+03
    0.299618378486347092E+01    0.400142022380024442E+00   -0.299991835602992163E+01    0.604746228738302420E+03
    0.299546992000257273E+01    0.399877220722345772E+00   -0.299999367260294614E+01    0.604746696427461643E+03
    0.300388879123918873E+01    0.400058288909311444E+00   -0.299993844726382886E+01    0.604755816252291879E+03
    0.299514078117380667E+01    0.399911233278425482E+00   -0.299999429853299748E+01    0.604756227632501918E+03
    0.299882287165608608E+01    0.399800044479485361E+00   -0.299986631649972102E+01    0.604759234569893806E+03
    0.300534321278451610E+01    0.399772430368539045E+00   -0.299999411488611756E+01    0.604761112983538737E+03
    0.300437077371052785E+01    0.399906722587844710E+00   -0.299991079961717411E+01    0.604763716689502871E+03
    0.300161967763187398E+01    0.400261837811269616E+00   -0.300010564406440672E+01    0.604763719233357278E+03
    0.300019175249082126E+01    0.400028759785457211E+00   -0.299987769619693179E+01    0.604768761013465109E+03
    0.299767849924053431E+01    0.399893445366706790E+00   -0.299987151450509337E+01    0.604769434643812247E+03
    0.299874472582831153E+01    0.400090123499017181E+00   -0.299988958978755971E+01    0.604769546827107547E+03
    0.300055114357631325E+01    0.400049441620318968E+00   -0.299988453273767952E+01    0.604770219467839297E+03
    0.299439657005093274E+01    0.400170478400422858E+00   -0.300003092814351824E+01    0.604773308898454161E+03
    0.299733876590922144E+01    0.400343055807279857E+00   -0.300003372498804755E+01    0.604774491532784850E+03
    0.300330073271636788E+01    0.399778242576764531E+00   -0.299988456371223489E+01    0.604775760117881418E+03
    0.300151075470564077E+01    0.400102830707030677E+00   -0.300013519025751307E+01    0.604778776440615729E+03
    0.300484280044204510E+01    0.399904079304284954E+00   -0.300006455660355575E+01    0.604783256607829458E+03
    0.299693303263296951E+01    0.400105293129165318E+00   -0.300011480505143791E+01    0.604791432138670984E+03
    0.299965198230489216E+01    0.400318029613205839E+00   -0.300009738767197431E+01    0.604792039507390314E+03
    0.300119748925831820E+01    0.399971129995031871E+00   -0.299987543150484326E+01    0.604795720629298899E+03
    0.300123339711392845E+01    0.399685998277299614E+00   -0.299989495305008891E+01    0.604797013061014695E+03
    0.299621817721889672E+01    0.400282983569245521E+00   -0.299999501978194782E+01    0.604802807080909133E+03
    0.299854495072520955E+01    0.399972572310507257E+00   -0.299991499601212253E+01    0.605105578383876605E+03
    0.299902335660257258E+01    0.400116033931657844E+00   -0.299998276131129638E+01    0.605256518424103092E+03
    0.300057725218499005E+01    0.399845882402263431E+00   -0.299998169421847605E+01    0.605252804888429864E+03
    0.299941091253152248E+01    0.400334894059524382E+00   -0.300005295936107252E+01    0.604808196402215231E+03
    0.299900978617099634E+01    0.400145781678677315E+00   -0.300006370166899572E+01    0.605206430053242684E+03
    0.299900978617099634E+01    0.400145781678677315E+00   -0.300006370166899572E+01    0.605206430053242684E+03
    0.300060754938159358E+01    0.400207616774875596E+00   -0.299995012020308094E+01    0.604824003643139918E+03
    0.300300430781851091E+01    0.399938764606412089E+00   -0.300000493146334701E+01    0.605205075467320171E+03
    0.299845464482538926E+01    0.400240569008123215E+00   -0.300006556188767792E+01    0.605063676169795713E+03
    0.299673008231209437E+01    0.400123877431901809E+00   -0.299997229243875507E+01    0.605096852858449097E+03
    0.299568299456150999E+01    0.400042551874260688E+00   -0.300004044627269284E+01    0.604953565305259758E+03
    0.299828369018576790E+01    0.399944127223086809E+00   -0.300005546027690562E+01    0.605096455337789166E+03
    0.299706895265335671E+01    0.400256182977366815E+00   -0.300006231731729445E+01    0.604979080924938444E+03
    0.299826783965418064E+01    0.400219699742703605E+00   -0.300009807746757451E+01    0.604983101421939182E+03
    0.299847869710946391E+01    0.400218680160612794E+00   -0.299994945921215983E+01    0.604873613462883327E+03
    0.299990433674670820E+01    0.399782744630049036E+00   -0.299994769827067831E+01    0.605110126391966105E+03
    0.299858261148223049E+01    0.400060729296899453E+00   -0.300008204099766385E+01    0.605121610424528171E+03
    0.300393664056247101E+01    0.400005649861556956E+00   -0.299997227549397971E+01    0.604999351586592184E+03
    0.300309859571944271E+01    0.400180848609653694E+00   -0.300006276797230065E+01    0.604877053171633747E+03
    0.300069781123377899E+01    0.400206464195396572E+00   -0.300002754084622580E+01    0.605100849395817590E+03
    0.299607670451894226E+01    0.400196878492884600E+00   -0.300005679228689548E+01    0.604973781752033801E+03
    0.299585734335647347E+01    0.400134468702996293E+00   -0.300004802414268035E+01    0.604997725205537904E+03
    0.300411468378065694E+01    0.399772057408438797E+00   -0.300001408534455649E+01    0.604881176848642895E+03
    0.299843888137735970E+01    0.399924099089694229E+00   -0.299997121774100917E+01    0.605262481427931334E+03
    0.299938601851624931E+01    0.400200680035638245E+00   -0.300011493060800039E+01    0.604936755818073721E+03
    0.299763109159667973E+01    0.399833888177792529E+00   -0.299991874302568506E+01    0.604962132991046815E+03
    0.300022937954337454E+01    0.399800751341580440E+00   -0.299989542148812083E+01    0.604991559829389530E+03
    0.299781439087302282E+01    0.400078787880455145E+00   -0.300010399906446823E+01    0.604941065409276689E+03
    0.299798108475209890E+01    0.399932662964305630E+00   -0.299991701276086653E+01    0.605082908748273780E+03
    0.299588657826489957E+01    0.400048691408509294E+00   -0.300002690809905825E+01    0.605028948076348911E+03
    0.300401067227158336E+01    0.399870146084842171E+00   -0.300003241150890787E+01    0.604995499399706659E+03
    0.300265165679013712E+01    0.399881897437174949E+00   -0.299993813920438024E+01    0.605133517729695882E+03
    0.300265165679013712E+01    0.399881897437174949E+00   -0.299993813920438024E+01    0.605133517729695882E+03
    0.299544816306410544E+01    0.400121204698470567E+00   -0.299999905691678714E+01    0.604986967604465235E+03
    0.300513058610448436E+01    0.400011168450013832E+00   -0.299999051238978653E+01    0.604810712926857036E+03
    0.299913188752081972E+01    0.400148757217234974E+00   -0.299994501720818718E+01    0.605036394738040599E+03
    0.299826568710575092E+01    0.400254181661859887E+00   -0.300011136613989304E+01    0.604874021682068246E+03
    0.299732796702664439E+01    0.399989803982228609E+00   -0.300000573187969444E+01    0.605213295579156579E+03
    0.299769605357435864E+01    0.400024816333825084E+00   -0.300004628175802290E+01    0.605186963777270762E+03
    0.299975456705032739E+01    0.399755041932309485E+00   -0.299997388001063658E+01    0.605029048130535898E+03
    0.299770825671904628E+01    0.400216723058318180E+00   -0.299995774818976413E+01    0.604915070787531477E+03
    0.299754427345244645E+01    0.400142869204777596E+00   -0.300003263775016293E+01    0.605204016504102469E+03
    0.300274909154854841E+01    0.399781999172284963E+00   -0.299993015478537206E+01    0.605033597775642420E+03
    0.300151913694398775E+01    0.400192126107434709E+00   -0.300009443493381767E+01    0.604957398951709024E+03
    0.300119721369799430E+01    0.399753826638302556E+00   -0.299988890624568194E+01    0.604899089173357993E+03
    0.299721711059644313E+01    0.400182479856186823E+00   -0.300001965813936433E+01    0.605139617550208413E+03
    0.299721711059644313E+01    0.400182479856186823E+00   -0.300001965813936433E+01    0.605139617550208413E+03
    0.300029896884499658E+01    0.400125709643461169E+00   -0.300000863656753758E+01    0.605268307978823032E+03
    0.300301692809402088E+01    0.399691095277215247E+00   -0.299991413733547541E+01    0.604815936572829742E+03
    0.300295026374366802E+01    0.400178025752605970E+00   -0.300003657689035341E+01    0.604923598076041799E+03
    0.299829708268418260E+01    0.400151778040295003E+00   -0.300001358690000730E+01    0.605238393233317993E+03
    0.300137762628035532E+01    0.400076261916526121E+00   -0.300004387761001823E+01    0.605254332757393399E+03
    0.300165910132187141E+01    0.399875988164087925E+00   -0.300005082540737966E+01    0.605106053340838230E+03
    0.299726021176576829E+01    0.399835565598085751E+00   -0.299995133704761630E+01    0.604985102419608893E+03
    0.300446703316366692E+01    0.399883302133654639E+00   -0.299997621121759472E+01    0.604997266462679590E+03
    0.300048808463110550E+01    0.399978998235268612E+00   -0.299988566556984537E+01    0.604909047540212441E+03
    0.299774723175257840E+01    0.400196107374081733E+00   -0.300009833747881061E+01    0.604977116081770873E+03
    0.299936222144959075E+01    0.399890765181400432E+00   -0.299998876711202556E+01    0.605280456671165553E+03
    0.300481887073685439E+01    0.399898756530827015E+00   -0.299995961988414317E+01    0.604905378558541884E+03
    0.299799978123474364E+01    0.400045108902158497E+00   -0.299990726430423660E+01    0.604968823392986678E+03
    0.299753578512998153E+01    0.400049711581517586E+00   -0.300005895166003622E+01    0.605141845025340558E+03
    0.299988896392883309E+01    0.399751057700943879E+00   -0.299989424783866454E+01    0.604902063746448107E+03
    0.299516728019580292E+01    0.400077280770895605E+00   -0.300006246761356410E+01    0.604808643907724786E+03
    0.299872123463913542E+01    0.399966243086113837E+00   -0.299998059513323190E+01    0.605318229447209092E+03
    0.299989417775177403E+01    0.400273299348089417E+00   -0.300007534940132992E+01    0.604954060235665338E+03
    0.300225165821242435E+01    0.399914993658064766E+00   -0.300004508758126676E+01    0.605163660832490450E+03
    0.299828687890962575E+01    0.399903002772673322E+00   -0.300003822368406148E+01    0.605096809149916112E+03
    0.300467860298607681E+01    0.399973157553646264E+00   -0.300002304083959181E+01    0.604949449017420648E+03
    0.299892679005868734E+01    0.400059413704814126E+00   -0.300000739499119984E+01    0.605339793708705088E+03
    0.299892679005868734E+01    0.400059413704814126E+00   -0.300000739499119984E+01    0.605339793708705088E+03
    0.300213949265258462E+01    0.399995841141988606E+00   -0.299995421541756624E+01    0.605184887063544579E+03
    0.300227388580064858E+01    0.400100305767906395E+00   -0.299997250647754221E+01    0.605070210078295872E+03
    0.300213307313406164E+01    0.400118894477853426E+00   -0.300003793124262019E+01    0.605149373216201298E+03
    0.299857869703107838E+01    0.399904958643105601E+00   -0.299999567928239586E+01    0.605244584460634087E+03
    0.300392668149624731E+01    0.400100554724419188E+00   -0.300003617853404236E+01    0.604929415790802409E+03
    0.299656741739984733E+01    0.400284484472008484E+00   -0.300003581859622326E+01    0.604901338019166133E+03
    0.300376663232863805E+01    0.399875471129758964E+00   -0.299999664842225000E+01    0.605097598496447517E+03
    0.300376663232863805E+01    0.399875471129758964E+00   -0.299999664842225000E+01    0.605097598496447517E+03
    0.300176356025316782E+01    0.399979253247014277E+00   -0.299996851637846573E+01    0.605273012848985445E+03
    0.300176356025316782E+01    0.399979253247014277E+00   -0.299996851637846573E+01    0.605273012848985445E+03
    0.300066712472539798E+01    0.400288235940874870E+00   -0.300005671157849996E+01    0.604882607531376948E+03
    0.300133379275004497E+01    0.399858645469691854E+00   -0.299993499576217326E+01    0.605196702382070839E+03
    0.299828759445739301E+01    0.400191936831291561E+00   -0.300008844688959275E+01    0.605055388532147504E+03
    0.300215507764178469E+01    0.399894656375856639E+00   -0.300007287687665425E+01    0.604999228065812417E+03
    0.299994734850512579E+01    0.400124750796542528E+00   -0.300004319677535980E+01    0.605271698142699620E+03
    0.300202521784168352E+01    0.399809224748049474E+00   -0.300001386958571103E+01    0.605109065481422135E+03
    0.300298479361628123E+01    0.399825388336015830E+00   -0.299991674287364107E+01    0.605002168339187733E+03
    0.300078973181410147E+01    0.399739681090041155E+00   -0.299998547803682314E+01    0.605009970932955866E+03
    0.299638150751868215E+01    0.400244768915561711E+00   -0.299998393571439870E+01    0.604880442974565085E+03
    0.299917498646519354E+01    0.400030854796322610E+00   -0.299996934885646294E+01    0.605313706923553013E+03
    0.299889749181801335E+01    0.399857806616468858E+00   -0.299988742256293639E+01    0.604950731630321798E+03
    0.299976129740688924E+01    0.400163199495395416E+00   -0.299993745282697422E+01    0.604934966869516188E+03
    0.299895393282838940E+01    0.400297655098167837E+00   -0.300005683122779931E+01    0.604939968498545227E+03
    0.300121745727585987E+01    0.399816336475191547E+00   -0.299992448845924420E+01    0.605128646868617238E+03
    0.300121745727585987E+01    0.399816336475191547E+00   -0.299992448845924420E+01    0.605128646868617238E+03
    0.299725743726007021E+01    0.399924747655610868E+00   -0.299998931104391753E+01    0.605145701811717800E+03
    0.300003207168749420E+01    0.399866528958716938E+00   -0.299999018861053868E+01    0.605268884792035806E+03
    0.300003207168749420E+01    0.399866528958716938E+00   -0.299999018861053868E+01    0.605268884792035806E+03
    0.300067938932931799E+01    0.399756508299896840E+00   -0.299999074918985276E+01    0.605043867676572631E+03
    0.299842851215248185E+01    0.399932956810770623E+00   -0.300000855845184855E+01    0.605252853939523675E+03
    0.299954551394981017E+01    0.400176619657219623E+00   -0.299995487854793552E+01    0.605010472605696236E+03
    0.299985782648527222E+01    0.400030795177127640E+00   -0.299989442717457111E+01    0.604920273475077693E+03
    0.299786506570228273E+01    0.400236946041020392E+00   -0.300007612205036800E+01    0.605025245924966953E+03
    0.299666587921428462E+01    0.399923476335950656E+00   -0.299992746211520922E+01    0.604979212371613926E+03
    0.299896104321867085E+01    0.399893836793593804E+00   -0.299989888104655478E+01    0.605038431586458728E+03
    0.300104063996734816E+01    0.400286327017655263E+00   -0.300002489883024648E+01    0.604824043882090677E+03
    0.299850109334210968E+01    0.400084017800752034E+00   -0.299991188542777687E+01    0.604957949095138474E+03
    0.300356802290002012E+01    0.399997106258137003E+00   -0.299994416949687759E+01    0.604963106218101075E+03
    0.299946723408876448E+01    0.399981788758379364E+00   -0.300009723789958382E+01    0.604983014192918517E+03
    0.300145523960595062E+01    0.399980906262296820E+00   -0.300007766432083933E+01    0.605116252769777930E+03
    0.299914640788166054E+01    0.400116445502810059E+00   -0.299994541853293484E+01    0.605109862471842007E+03
    0.299720515835269152E+01    0.400268776797206960E+00   -0.299998614219476023E+01    0.604876968113966541E+03
    0.300150890678441984E+01    0.399829345089979471E+00   -0.299988518355957146E+01    0.604936055779758476E+03
    0.300021063065580229E+01    0.400059639815251333E+00   -0.299995182341738342E+01    0.605218609578104292E+03
    0.299691372382098287E+01    0.400055059959664061E+00   -0.299995392607314271E+01    0.605117281218026960E+03
    0.299691372382098287E+01    0.400055059959664061E+00   -0.299995392607314271E+01    0.605117281218026960E+03
    0.299773450327076230E+01    0.400206916828477532E+00   -0.299999422846852948E+01    0.605086791100718870E+03
    0.300499616981288531E+01    0.399780425799018235E+00   -0.299999951099268092E+01    0.604819176453546220E+03
    0.300174751982596177E+01    0.399765213710271017E+00   -0.299992157887909494E+01    0.605037172923631942E+03
    0.300255928418388507E+01    0.399862038228522343E+00   -0.299996271495451650E+01    0.605194598895544573E+03
    0.299868930836154668E+01    0.400108430939812854E+00   -0.300002682086696026E+01    0.605296264974807173E+03
    0.299747717992251905E+01    0.400066054546661776E+00   -0.300000240686205943E+01    0.605252491767324727E+03
    0.299606302525077517E+01    0.399896007206713144E+00   -0.299991727867076685E+01    0.604823033655965787E+03
    0.299913567722164576E+01    0.399787199137033977E+00   -0.299996964388542908E+01    0.605076551822558031E+03
    0.299914657242031879E+01    0.400329434514899829E+00   -0.300008722056810484E+01    0.604803199689813482E+03
    0.299885385947100191E+01    0.400144554731404090E+00   -0.300008376790792841E+01    0.605129627050311910E+03
    0.299751988192819718E+01    0.400007824083119912E+00   -0.299992986062143396E+01    0.605099667099344742E+03
    0.299751988192819718E+01    0.400007824083119912E+00   -0.299992986062143396E+01    0.605099667099344742E+03
    0.300366141404445441E+01    0.399822665965122559E+00   -0.299989582789140874E+01    0.604817168604756262E+03
    0.299869370705100380E+01    0.400224643563650007E+00   -0.299998855563920142E+01    0.605044322980216180E+03
    0.300059874892552481E+01    0.400080666823937892E+00   -0.299998767086328622E+01    0.605288339118693784E+03
    0.300059874892552481E+01    0.400080666823937892E+00   -0.299998767086328622E+01    0.605288339118693784E+03
    0.299916765724625156E+01    0.399989364852432083E+00   -0.300005497116849718E+01    0.605225560005064494E+03
    0.299966930747005245E+01    0.400266120374396572E+00   -0.300005630376881616E+01    0.605007012296388098E+03
    0.300163335769963124E+01    0.400081826782409500E+00   -0.300010076369063317E+01    0.605013577094855009E+03
    0.299869270927900766E+01    0.400024873512524970E+00   -0.300008645341624991E+01    0.605072045160077664E+03
    0.300430403786270794E+01    0.399854566100469488E+00   -0.300000282106252047E+01    0.605006167343383254E+03
    0.299936005053800336E+01    0.400195038557998872E+00   -0.299997540800348927E+01    0.605064773524869452E+03
    0.299818321317601599E+01    0.400043703232794090E+00   -0.299989424417328854E+01    0.604883157898526633E+03
    0.299768482441667272E+01    0.400035835223753189E+00   -0.300003652289749656E+01    0.605223486983636690E+03
    0.299768482441667272E+01    0.400035835223753189E+00   -0.300003652289749656E+01    0.605223486983636690E+03
    0.300156077412534428E+01    0.400048670437194442E+00   -0.300008036239901177E+01    0.605129242684351652E+03
    0.300444195954048254E+01    0.399793079353079728E+00   -0.299999864858412879E+01    0.604917891883960237E+03
    0.299806564310632684E+01    0.400047418653546205E+00   -0.299997121685864743E+01    0.605264350398661804E+03
    0.299806564310632684E+01    0.400047418653546205E+00   -0.299997121685864743E+01    0.605264350398661804E+03
    0.300342313259129057E+01    0.399876738941610632E+00   -0.299993566838087489E+01    0.605042286629919545E+03
    0.300195140389183912E+01    0.400039537967590841E+00   -0.299998517600477221E+01    0.605242340339701059E+03
    0.300014454608520342E+01    0.399976951555843063E+00   -0.299996960072180840E+01    0.605340134470680027E+03
    0.300014454608520342E+01    0.399976951555843063E+00   -0.299996960072180840E+01    0.605340134470680027E+03
    0.300306424453876675E+01    0.399779609802873526E+00   -0.299994356234818982E+01    0.605037446451472647E+03
    0.300026982483791738E+01    0.399820759001488446E+00   -0.299991405436662584E+01    0.605099016575259384E+03
    0.299611883305124715E+01    0.399999597123147088E+00   -0.299999989687205204E+01    0.605066340872435717E+03
    0.299611883305124715E+01    0.399999597123147088E+00   -0.299999989687205204E+01    0.605066340872435717E+03
    0.299885402765195241E+01    0.399824718339079177E+00   -0.299993000961384659E+01    0.605095942936218307E+03
    0.299885402765195241E+01    0.399824718339079177E+00   -0.299993000961384659E+01    0.605095942936218307E+03
    0.300265947579358583E+01    0.399823337073321017E+00   -0.300006103857582751E+01    0.604897578048663149E+03
    0.300218325937584130E+01    0.400004905231275631E+00   -0.300009479972250936E+01    0.604993913744836050E+03
    0.300304135391687321E+01    0.400196007799606068E+00   -0.300000595848666407E+01    0.604811812198970756E+03
    0.300157599569499789E+01    0.399699727973641394E+00   -0.299989074302391501E+01    0.604807896565335568E+03
    0.299945828334065645E+01    0.399869793595209189E+00   -0.300001387998546498E+01    0.605205983715370735E+03
    0.299735691142018901E+01    0.399968058972452301E+00   -0.299992052743682924E+01    0.605049148104395272E+03
    0.300334453643051535E+01    0.399970597578498566E+00   -0.300007010950343300E+01    0.605005939802399553E+03
    0.300272040306436772E+01    0.399853738432041195E+00   -0.299990938941947549E+01    0.604999152094311285E+03
    0.300138489386264018E+01    0.400080815822702163E+00   -0.300003903868882382E+01    0.605258452748475634E+03
    0.300138489386264018E+01    0.400080815822702163E+00   -0.300003903868882382E+01    0.605258452748475634E+03
    0.299845329550659567E+01    0.400108612931933227E+00   -0.300006561970254904E+01    0.605199554687613499E+03
    0.300278905099694793E+01    0.399853113147034978E+00   -0.299997607156849977E+01    0.605181572833863584E+03
    0.300078806871423565E+01    0.400054141554253118E+00   -0.299994026400474079E+01    0.605146456917811634E+03
    0.300078806871423565E+01    0.400054141554253118E+00   -0.299994026400474079E+01    0.605146456917811634E+03
    0.299764364677333184E+01    0.399929195924005221E+00   -0.300005663597068795E+01    0.604991387547206728E+03
    0.299747834609815023E+01    0.400170925853618076E+00   -0.299994538130153421E+01    0.604954138192518371E+03
    0.300209970232758838E+01    0.400146251576841638E+00   -0.299994804382032809E+01    0.604851247624693997E+03
    0.300027558389118720E+01    0.399777244807130949E+00   -0.300002621702145067E+01    0.604965969955359469E+03
    0.299777279215254300E+01    0.400099905275363987E+00   -0.300000340846276670E+01    0.605259560896557446E+03
    0.299777279215254300E+01    0.400099905275363987E+00   -0.300000340846276670E+01    0.605259560896557446E+03
    0.299785092196973801E+01    0.399785482870102626E+00   -0.299992368176103730E+01    0.604908133063421360E+03
    0.300082963143628811E+01    0.399932807847160898E+00   -0.299996894220301202E+01    0.605325545012815951E+03
    0.300082963143628811E+01    0.399932807847160898E+00   -0.299996894220301202E+01    0.605325545012815951E+03
    0.300178028035059263E+01    0.400263310017485996E+00   -0.300007590452180484E+01    0.604825814902957632E+03
    0.299923535292921262E+01    0.400169313124000670E+00   -0.299997443528089569E+01    0.605127668008424848E+03
    0.299923535292921262E+01    0.400169313124000670E+00   -0.299997443528089569E+01    0.605127668008424848E+03
    0.300284600803137458E+01    0.399756100775550627E+00   -0.299993718640629847E+01    0.605006280924181738E+03
    0.300094094830917335E+01    0.400225439571348318E+00   -0.300009973301820754E+01    0.604924010806891602E+03
    0.299849549787030156E+01    0.399958353222781338E+00   -0.299990632490069098E+01    0.605058664721220225E+03
    0.300298576837205200E+01    0.400104592009943860E+00   -0.300010367494317842E+01    0.604860721331747982E+03
    0.299968130121755649E+01    0.400242762867436042E+00   -0.300005044763218010E+01    0.605068894218893774E+03
    0.299977878310855495E+01    0.399787644680132503E+00   -0.299990999698638650E+01    0.605025110689796065E+03
    0.299875844023458082E+01    0.400003227931820526E+00   -0.299999288179805301E+01    0.605338153016054548E+03
    0.300385260809737353E+01    0.399706194071651477E+00   -0.299998893329104677E+01    0.604814108425987683E+03
    0.299723383965891488E+01    0.400113830358805433E+00   -0.299993021579563557E+01    0.604966243304383738E+03
    0.299937569118167779E+01    0.400083318659322951E+00   -0.299990944424527139E+01    0.604945454895928606E+03
    0.299884249797622005E+01    0.399933761209715244E+00   -0.299996544311879232E+01    0.605290102238947725E+03
    0.300069238407562944E+01    0.399903483443138974E+00   -0.299988300850514999E+01    0.604947862054946768E+03
    0.300039101530786345E+01    0.400228260198833286E+00   -0.300004781133715692E+01    0.605071743641278431E+03
    0.299519915234483625E+01    0.399984065094638408E+00   -0.299997959315439999E+01    0.604896365975644812E+03
    0.300141952949222901E+01    0.399807778809226078E+00   -0.299991075242217953E+01    0.605062121826862040E+03
    0.300141952949222901E+01    0.399807778809226078E+00   -0.299991075242217953E+01    0.605062121826862040E+03
    0.299634901333997927E+01    0.400147430832391737E+00   -0.300001543682120442E+01    0.605096847353927728E+03
    0.299649575268136559E+01    0.400008579282694898E+00   -0.299994298143383942E+01    0.605045650229507260E+03
    0.300237500472713537E+01    0.399947895997025848E+00   -0.300007637033868191E+01    0.605042376847209994E+03
    0.300237500472713537E+01    0.399947895997025848E+00   -0.300007637033868191E+01    0.605042376847209994E+03
    0.300116493219543878E+01    0.399836255737215318E+00   -0.299987077044987815E+01    0.604850984778503403E+03
    0.300189833605106271E+01    0.399989209788895406E+00   -0.299999930990046293E+01    0.605300088026349158E+03
    0.299716748653519094E+01    0.399843068840795401E+00   -0.299999075571015528E+01    0.604968081816102767E+03
    0.300242582344177755E+01    0.399953988450380160E+00   -0.300007532634965735E+01    0.605051073754297022E+03
    0.299751116575827581E+01    0.400037825313001805E+00   -0.299994642361688957E+01    0.605154354565610561E+03
    0.299963145009737264E+01    0.400157468168734987E+00   -0.300006649535859804E+01    0.605190407957160232E+03
    0.300267938495509235E+01    0.399723424624728818E+00   -0.299996172313611753E+01    0.604971747489010227E+03
    0.300042624648152323E+01    0.400084398509031713E+00   -0.300007269354455097E+01    0.605205037842592219E+03
    0.299776603479091852E+01    0.399861625317416591E+00   -0.299991494516909984E+01    0.605002472658468491E+03
    0.299826352399991514E+01    0.400216700656491731E+00   -0.299995053378417253E+01    0.604885379402999092E+03
    0.300508182027744741E+01    0.399874747752498039E+00   -0.299996413281400320E+01    0.604873723297879110E+03
    0.299695748784919003E+01    0.400145536262906609E+00   -0.300010809100033704E+01    0.604863583784554294E+03
    0.299610456498627231E+01    0.400153894627445605E+00   -0.300009509189396262E+01    0.604838351319089497E+03
