    0.467134118080139160E+00   -0.155735254945329231E+02
    0.435426236478495265E+00   -0.148610669709647709E+02
    0.428751145471950645E+00   -0.147161050176330583E+02
    0.416264680682260024E+00   -0.144499063944206831E+02
    0.413114160361631455E+00   -0.143837887971278011E+02
    0.403169393539428711E+00   -0.141779338477207659E+02
    0.381754094062843885E+00   -0.137498736717722956E+02
    0.363127134666056894E+00   -0.133953516721837609E+02
    0.362149600539826033E+00   -0.133772228526862662E+02
    0.351746465172618816E+00   -0.131873210559355680E+02
    0.347312120725663254E+00   -0.131080841193619815E+02
    0.342951952083556055E+00   -0.130311866752806065E+02
    0.335956668041487105E+00   -0.129099471293101153E+02
    0.329856644556192125E+00   -0.128064022819297776E+02
    0.328501778002218359E+00   -0.127836831851735013E+02
    0.324230753465039323E+00   -0.127127354539578974E+02
    0.312076493808176259E+00   -0.125165004990334729E+02
    0.305406640263824969E+00   -0.124124491862381934E+02
    0.303223321243819122E+00   -0.123789589890439800E+02
    0.303033086074584401E+00   -0.123760543706945771E+02
    0.297572575496503178E+00   -0.122936036235887336E+02
    0.295984673025082079E+00   -0.122699641895989338E+02
    0.295063019323179687E+00   -0.122563134644667784E+02
    0.294333913672492509E+00   -0.122455511833251194E+02
    0.291327367341256638E+00   -0.122015145598808239E+02
    0.291265906561609556E+00   -0.122006201231025742E+02
    0.289590856817394049E+00   -0.121763326028862338E+02
    0.286495836522259850E+00   -0.121319118395144514E+02
    0.286379882732668067E+00   -0.121302591726660118E+02
    0.285825372935751665E+00   -0.121223674122953078E+02
    0.283957065004562748E+00   -0.120959187800699386E+02
    0.283275147096882396E+00   -0.120863195639756231E+02
    0.283218194698095116E+00   -0.120855191744396553E+02
    0.282434268672555555E+00   -0.120745228108500022E+02
    0.275707556275388010E+00   -0.119817590082954766E+02
    0.275250919651008563E+00   -0.119755659864656341E+02
    0.273399185867000905E+00   -0.119505890532343066E+02
    0.273387308388028938E+00   -0.119504295544989247E+02
    0.270408444081122301E+00   -0.119107140693302735E+02
    0.269102593221245634E+00   -0.118934846012690087E+02
    0.265633375291122631E+00   -0.118482499115214104E+02
    0.264028525191401409E+00   -0.118275904889309835E+02
    0.263513215310563931E+00   -0.118209926966288172E+02
    0.260737591811567748E+00   -0.117857558146650145E+02
    0.260441224979414188E+00   -0.117820234823689702E+02
    0.258605173273571187E+00   -0.117590308098838214E+02
    0.256552762377424859E+00   -0.117335943113620083E+02
    0.256431075895794280E+00   -0.117320950266217334E+02
    0.253800849020368702E+00   -0.116999309156799196E+02
    0.253490428707474680E+00   -0.116961655662888635E+02
    0.253239478739822110E+00   -0.116931263281089244E+02
    0.252859353031656076E+00   -0.116885307377389154E+02
    0.251461267471313477E+00   -0.116717122993696698E+02
    0.251274788531968329E+00   -0.116694790208904795E+02
    0.249777592073752219E+00   -0.116516339946354375E+02
    0.249348847039946003E+00   -0.116465518377255215E+02
    0.248653784180409121E+00   -0.116383394435309953E+02
    0.247562132446222799E+00   -0.116255077051077205E+02
    0.245376980091912167E+00   -0.116000673221171553E+02
    0.243965056104779060E+00   -0.115838034562250378E+02
    0.243965056104779060E+00   -0.115838034562250378E+02
    0.243226190118655511E+00   -0.115753472264439647E+02
    0.237379429696534194E+00   -0.115097659918612614E+02
    0.237028273350537583E+00   -0.115059030072770039E+02
    0.234240281914928322E+00   -0.114755400311474034E+02
    0.233934989342253541E+00   -0.114722484213322478E+02
    0.233633724447839281E+00   -0.114690066817741112E+02
    0.233135831470371174E+00   -0.114636631842834955E+02
    0.231600403785705566E+00   -0.114472950319570081E+02
    0.230693897349410648E+00   -0.114377098348844743E+02
    0.230152950068504114E+00   -0.114320177924464730E+02
    0.230152950068504114E+00   -0.114320177924464730E+02
    0.229846369446105619E+00   -0.114288010828320541E+02
    0.229220261661831348E+00   -0.114222526206392345E+02
    0.227955876345265235E+00   -0.114091136749198849E+02
    0.227955876345265235E+00   -0.114091136749198849E+02
    0.226851944785602555E+00   -0.113977355663438296E+02
    0.226851944785602555E+00   -0.113977355663438296E+02
    0.226582059048509366E+00   -0.113949671643793220E+02
    0.226057767868041992E+00   -0.113896040902067437E+02
    0.225287567757461560E+00   -0.113817613779518876E+02
    0.223254671656449327E+00   -0.113612662139082872E+02
    0.222405352107959808E+00   -0.113527919735400182E+02
    0.221636661661237022E+00   -0.113451672600500029E+02
    0.220617722715780507E+00   -0.113351263945125105E+02
    0.220617722715780507E+00   -0.113351263945125105E+02
    0.220076680631395433E+00   -0.113298255140085669E+02
    0.220076680631395433E+00   -0.113298255140085669E+02
    0.219591259956359863E+00   -0.113250877241691157E+02
    0.219591259956359863E+00   -0.113250877241691157E+02
    0.218412024557127216E+00   -0.113136497589579896E+02
    0.218412024557127216E+00   -0.113136497589579896E+02
    0.217986326374991601E+00   -0.113095456607566689E+02
    0.217359453891352611E+00   -0.113035262058462909E+02
    0.217192769050598145E+00   -0.113019304812821719E+02
    0.217192769050598145E+00   -0.113019304812821719E+02
    0.214375407829291015E+00   -0.112752676894483166E+02
    0.213497693088433554E+00   -0.112670806377821950E+02
    0.213117551489663049E+00   -0.112635524546293642E+02
    0.211719025132643429E+00   -0.112506644586184468E+02
    0.211719025132643429E+00   -0.112506644586184468E+02
    0.211563484273705055E+00   -0.112492400437764282E+02
    0.196888832678475531E-03   -0.112446794648193311E+02
    0.196888832678475531E-03   -0.112446794648193311E+02
    0.104214310709711908E-02   -0.112358886125421318E+02
    0.209940220990893212E+00   -0.112344817579127376E+02
    0.120251091565040397E-02   -0.112342297868988883E+02
    0.120251091565040397E-02   -0.112342297868988883E+02
    0.208596505327900417E+00   -0.112224134911544375E+02
    0.208596505327900417E+00   -0.112224134911544375E+02
    0.269346606798050127E-02   -0.112189453203788823E+02
    0.208160380251858318E+00   -0.112185255119170559E+02
    0.208160380251858318E+00   -0.112185255119170559E+02
    0.207591545050453741E+00   -0.112134758213860035E+02
    0.207574739873925301E+00   -0.112133270059852563E+02
    0.382902983106906325E-02   -0.112074707970246106E+02
    0.382902983106906325E-02   -0.112074707970246106E+02
    0.388647088870468531E-02   -0.112068941960649617E+02
    0.388647088870468531E-02   -0.112068941960649617E+02
    0.206699283778777942E+00   -0.112056038158954756E+02
    0.413162116031525264E-02   -0.112044374803572495E+02
    0.413162116031525264E-02   -0.112044374803572495E+02
    0.206000918973426622E+00   -0.111994841320337759E+02
    0.206000918973426622E+00   -0.111994841320337759E+02
    0.205981124642077351E+00   -0.111993112105783794E+02
    0.205981124642077351E+00   -0.111993112105783794E+02
    0.205900460160285986E+00   -0.111986068375687786E+02
    0.488774355337732135E-02   -0.111969023564799155E+02
    0.205565661838165575E+00   -0.111956885619632551E+02
    0.205545126098315323E+00   -0.111955098361673908E+02
    0.507590734864537749E-02   -0.111950371057294475E+02
    0.205384821688825658E+00   -0.111941157718523705E+02
    0.205384821688825658E+00   -0.111941157718523705E+02
    0.596336259165043420E-02   -0.111862929296011622E+02
    0.204329662810130097E+00   -0.111849880153766748E+02
    0.203924921436955175E+00   -0.111815090310580647E+02
    0.203924921436955175E+00   -0.111815090310580647E+02
    0.203432387890079169E+00   -0.111772921038118724E+02
    0.203432387890079169E+00   -0.111772921038118724E+02
    0.202873220426387224E+00   -0.111725268976881065E+02
    0.202852143899882292E+00   -0.111723477467162056E+02
    0.778208511138584521E-02   -0.111686461589891604E+02
    0.201128368477449471E+00   -0.111578095482042876E+02
    0.896719807211508908E-02   -0.111573444050191100E+02
    0.200390595045980419E+00   -0.111516561382812522E+02
    0.200367741629189189E+00   -0.111514661899033509E+02
    0.102397359912285678E-01   -0.111453817495817162E+02
    0.197204341786352488E+00   -0.111255575951888375E+02
    0.197083067451583882E+00   -0.111245795699844088E+02
    0.136609251165156799E-01   -0.111141047592129389E+02
    0.136609251165156799E-01   -0.111141047592129389E+02
    0.195590257644653320E+00   -0.111126331177715088E+02
    0.195161910423898521E+00   -0.111092368092799507E+02
    0.145914221164815221E-01   -0.111058202908497954E+02
    0.145914221164815221E-01   -0.111058202908497954E+02
    0.194191932678222656E+00   -0.111015981927133929E+02
    0.194191932678222656E+00   -0.111015981927133929E+02
    0.193730797176125014E+00   -0.110979921676234508E+02
    0.193730797176125014E+00   -0.110979921676234508E+02
    0.163940971518185680E-01   -0.110900400623151985E+02
    0.166754770427770191E-01   -0.110876089401383382E+02
    0.166754770427770191E-01   -0.110876089401383382E+02
    0.191549658775329590E+00   -0.110811586448732378E+02
    0.191549658775329590E+00   -0.110811586448732378E+02
    0.176552822649998914E-01   -0.110792107697106754E+02
    0.189737740013274592E+00   -0.110674551843455173E+02
    0.201874024350461451E-01   -0.110579908673370291E+02
    0.209233039119186351E-01   -0.110519542519351521E+02
    0.209233039119186351E-01   -0.110519542519351521E+02
    0.210398435592651367E-01   -0.110510036527644502E+02
    0.210398435592651367E-01   -0.110510036527644502E+02
    0.214338620886104746E-01   -0.110478005759218263E+02
    0.214338620886104746E-01   -0.110478005759218263E+02
    0.215484002740579279E-01   -0.110468726157772696E+02
    0.232779979705810547E-01   -0.110330320969480216E+02
    0.248267622723701183E-01   -0.110209122945359734E+02
    0.183273579637828810E+00   -0.110206569259895861E+02
    0.183010274521939131E+00   -0.110188203145124390E+02
    0.252669628030307222E-01   -0.110175146062360767E+02
    0.253027677536010742E-01   -0.110172391611661524E+02
    0.182703738174264635E+00   -0.110166890561552382E+02
    0.182387344373868554E+00   -0.110144970527189390E+02
    0.265409820469308215E-01   -0.110077983120715643E+02
    0.180179508893685558E+00   -0.109994217268774275E+02
    0.179697354834237877E+00   -0.109961810135584628E+02
    0.281498444002786750E-01   -0.109957768079528524E+02
    0.281498444002786750E-01   -0.109957768079528524E+02
    0.179513615775909768E+00   -0.109949509105919478E+02
    0.179210990422463134E+00   -0.109929307418695128E+02
    0.178257330909901285E+00   -0.109866123458146259E+02
    0.297148165144034901E-01   -0.109843486356479474E+02
    0.297370716853326209E-01   -0.109841880015479667E+02
    0.298688807118760828E-01   -0.109832377078829726E+02
    0.177233273974508582E+00   -0.109799083652372893E+02
    0.177116299199433447E+00   -0.109791479255116524E+02
    0.177116299199433447E+00   -0.109791479255116524E+02
    0.307172412300838471E-01   -0.109771656193962173E+02
    0.309058257237661005E-01   -0.109758262417864820E+02
    0.176110681970170352E+00   -0.109726557116339869E+02
    0.176110681970170352E+00   -0.109726557116339869E+02
    0.175380931197707562E+00   -0.109679952374263845E+02
    0.174886334894854556E+00   -0.109648608623543211E+02
    0.326547444435192694E-01   -0.109635849416481097E+02
    0.174648761749267578E+00   -0.109633622948580616E+02
    0.174568204202804722E+00   -0.109628551832518273E+02
    0.174550082872122370E+00   -0.109627411809800570E+02
    0.174198081701920360E+00   -0.109605319642646961E+02
    0.174198081701920360E+00   -0.109605319642646961E+02
    0.330990103432197841E-01   -0.109605270493827121E+02
    0.174095557703396908E+00   -0.109598903824118583E+02
    0.174095557703396908E+00   -0.109598903824118583E+02
    0.173682457959460801E+00   -0.109573138358334727E+02
    0.337454697802064690E-01   -0.109561147915711281E+02
    0.172733566618225698E+00   -0.109514476002299794E+02
    0.350637916827433727E-01   -0.109472538544082578E+02
    0.171774320913006567E+00   -0.109455912604499090E+02
    0.171713274098360819E+00   -0.109452210789610511E+02
    0.358297835150699975E-01   -0.109421896184012688E+02
    0.170454497558055362E+00   -0.109376552753226566E+02
    0.170454497558055362E+00   -0.109376552753226566E+02
    0.169827219108426242E+00   -0.109339330351973452E+02
    0.169050290115349611E+00   -0.109293671039889020E+02
    0.382587555948983027E-01   -0.109265394207331816E+02
    0.382587555948983027E-01   -0.109265394207331816E+02
    0.168386273757810179E+00   -0.109255036821481397E+02
    0.388017965880959187E-01   -0.109231253138315587E+02
    0.167906606610827458E+00   -0.109227352051454609E+02
    0.395435103424468595E-01   -0.109185120942882712E+02
    0.167115709218576214E+00   -0.109182114126440659E+02
    0.167010237104825432E+00   -0.109176119920461137E+02
    0.399756472787524200E-01   -0.109158509025659995E+02
    0.399756472787524200E-01   -0.109158509025659995E+02
    0.399813774217185822E-01   -0.109158157463990602E+02
    0.402522269772692121E-01   -0.109141579200354446E+02
    0.166346106781721903E+00   -0.109138584943647583E+02
    0.166346106781721903E+00   -0.109138584943647583E+02
    0.166218752991471069E+00   -0.109131428465049893E+02
    0.421376686088131489E-01   -0.109028297908471643E+02
    0.421376686088131489E-01   -0.109028297908471643E+02
    0.163689243968828918E+00   -0.108992041872047665E+02
    0.427901199201066867E-01   -0.108989960697026671E+02
    0.427901199201066867E-01   -0.108989960697026671E+02
    0.163602391458340213E+00   -0.108987349293165803E+02
    0.163561744874962806E+00   -0.108985155320530875E+02
    0.431944782351188841E-01   -0.108966423549445341E+02
    0.432996981451256799E-01   -0.108960326731233206E+02
    0.162989515458707102E+00   -0.108954412630243809E+02
    0.162570283474137184E+00   -0.108932060930635526E+02
    0.162375443997586189E+00   -0.108921722250439608E+02
    0.162304249963345415E+00   -0.108917952328660590E+02
    0.443755685298539287E-01   -0.108898647282204664E+02
    0.161403043619409131E+00   -0.108870592858839395E+02
    0.161299538090815653E+00   -0.108865196498974584E+02
    0.450319990090208983E-01   -0.108861604514230095E+02
    0.450608792537136177E-01   -0.108859985047376959E+02
    0.161073827608675779E+00   -0.108853459603602776E+02
    0.160587366968665157E+00   -0.108828307142559702E+02
    0.160587366968665157E+00   -0.108828307142559702E+02
    0.460876702323973764E-01   -0.108802968974932011E+02
    0.460876702323973764E-01   -0.108802968974932011E+02
    0.463419912232688330E-01   -0.108789015571321439E+02
    0.159704449749747707E+00   -0.108783156835530654E+02
    0.159494649215845219E+00   -0.108772523222378759E+02
    0.159478595775338489E+00   -0.108771711068536607E+02
    0.159406418392851357E+00   -0.108768062212587058E+02
    0.159382053014052449E+00   -0.108766831421782246E+02
    0.468985676164856979E-01   -0.108758712168664289E+02
    0.159066142152759160E+00   -0.108750918174259983E+02
    0.471226749738189107E-01   -0.108746600800053006E+02
    0.471275850591754489E-01   -0.108746336026479540E+02
    0.473783352461599680E-01   -0.108732847562572985E+02
    0.157982360234918295E+00   -0.108696955962991808E+02
    0.480723667853267950E-01   -0.108695852257706100E+02
    0.497248307863276950E-01   -0.108609765408808272E+02
    0.503244879172651122E-01   -0.108579220157811083E+02
    0.155494689936833380E+00   -0.108576797024506657E+02
    0.503936147134085577E-01   -0.108575722728279196E+02
    0.155220624511935745E+00   -0.108563875546122102E+02
    0.506731701850902591E-01   -0.108561628813140221E+02
    0.154958154939856457E+00   -0.108551559768024024E+02
    0.509114835019583711E-01   -0.108549677459634815E+02
    0.511916191832192946E-01   -0.108535703204235876E+02
    0.516949560174275458E-01   -0.108510796912182350E+02
    0.154074388647769844E+00   -0.108510515800930278E+02
    0.518306386586469964E-01   -0.108504127426145569E+02
    0.518306386586469964E-01   -0.108504127426145569E+02
    0.520929852621248302E-01   -0.108491285224152865E+02
    0.522229882064997042E-01   -0.108484947517051999E+02
    0.153213797041182626E+00   -0.108471178387479128E+02
    0.153161352249920113E+00   -0.108468801279066991E+02
    0.525558634164364213E-01   -0.108468798506151263E+02
    0.534906327955708555E-01   -0.108424055012834710E+02
    0.535294907806637688E-01   -0.108422214365240208E+02
    0.538137093875057926E-01   -0.108408798191855276E+02
    0.539469997492766570E-01   -0.108402534782560647E+02
    0.546884335907357744E-01   -0.108368024910301859E+02
    0.150355777231727356E+00   -0.108345015339042785E+02
    0.150206415735404941E+00   -0.108338611690280153E+02
    0.150073006013956678E+00   -0.108332907915281176E+02
    0.149896248832365131E+00   -0.108325374080503973E+02
    0.556878510150452255E-01   -0.108322393212237298E+02
    0.149485494141996411E+00   -0.108307968898400304E+02
    0.560228335400463351E-01   -0.108307325814436464E+02
    0.149264031781233236E+00   -0.108298644062149823E+02
    0.149259433116709223E+00   -0.108298450872739664E+02
    0.563776346385132937E-01   -0.108291491322603601E+02
    0.566442794195994373E-01   -0.108279675314993629E+02
    0.566745549072083382E-01   -0.108278338259760147E+02
    0.569094862628845150E-01   -0.108267994608004336E+02
    0.148286505738565277E+00   -0.108257981854210463E+02
    0.147983003282884329E+00   -0.108245522163794465E+02
    0.147961642318323511E+00   -0.108244648181570895E+02
    0.147756317112083563E+00   -0.108236267108420297E+02
    0.576475552645465406E-01   -0.108235862762812740E+02
    0.582321666600016247E-01   -0.108210803421665496E+02
    0.583466092194254993E-01   -0.108205938339034198E+02
    0.584026072129866791E-01   -0.108203562629594590E+02
    0.586782356841006950E-01   -0.108191915349142214E+02
    0.145712079367935121E+00   -0.108154782825158122E+02
    0.595924737521505293E-01   -0.108153832003620849E+02
    0.145080855408928205E+00   -0.108130342597118023E+02
    0.144630480624785202E+00   -0.108113112941016229E+02
    0.144489190121991573E+00   -0.108107743472879516E+02
    0.609109390213350838E-01   -0.108100395683823827E+02
    0.143152175683904842E+00   -0.108057779901570186E+02
    0.620745966998728221E-01   -0.108054688041585170E+02
    0.142842967074603644E+00   -0.108046443336870119E+02
    0.623313311995595323E-01   -0.108044787014778727E+02
    0.630117404416815768E-01   -0.108018867007043173E+02
    0.630602708485995672E-01   -0.108017036004257392E+02
    0.141980056482716444E+00   -0.108015241025415740E+02
    0.631804280551987729E-01   -0.108012512760160035E+02
    0.141814156489944138E+00   -0.108009315609917635E+02
    0.140936496927337507E+00   -0.107978362945482544E+02
    0.641449251812804266E-01   -0.107976729130776956E+02
    0.140646342889973852E+00   -0.107968276091856641E+02
    0.140360788556961380E+00   -0.107958420088701637E+02
    0.964444875717163086E-01   -0.107305811163221154E+02
    0.970494747161865234E-01   -0.107302810827451403E+02
    0.660330057144165039E-01   -0.107909373978332148E+02
    0.831371545791625977E-01   -0.107459704900054991E+02
    0.114130793143957882E+00   -0.107358708805119907E+02
    0.135010851387640407E+00   -0.107786828890329343E+02
    0.103340650650147525E+00   -0.107291944184720620E+02
    0.693803123142432004E-01   -0.107798695275094030E+02
    0.968656696359301989E-01   -0.107303685945342231E+02
    0.961031369273209202E-01   -0.107307656138247882E+02
    0.708563131058338597E-01   -0.107753424196690766E+02
    0.101289129692888308E+00   -0.107291424019567980E+02
    0.117962547539708557E+00   -0.107408028505939992E+02
    0.993539707342829259E-01   -0.107294532513645056E+02
    0.745760349493977681E-01   -0.107648874997936819E+02
    0.684122366418024874E-01   -0.107829559971424889E+02
    0.109709889825290008E+00   -0.107318413765641658E+02
    0.113886642857094933E+00   -0.107356018022089561E+02
    0.673981798578954794E-01   -0.107862888784790467E+02
    0.118505960137175237E+00   -0.107416098972158949E+02
    0.940989266607405173E-01   -0.107320706422486563E+02
    0.747823948550119383E-01   -0.107643473478562122E+02
    0.114774917013552247E+00   -0.107366067981637734E+02
    0.110685770048642843E+00   -0.107325770925534041E+02
    0.845120853168173092E-01   -0.107435952772070813E+02
    0.100840806062468410E+00   -0.107291832695787015E+02
    0.786329796569253670E-01   -0.107550331538549511E+02
    0.837562449735234360E-01   -0.107448784278161629E+02
    0.797495960274513804E-01   -0.107526028318616831E+02
    0.101607451985382971E+00   -0.107291247716450258E+02
    0.664593234643822001E-01   -0.107894658132156831E+02
    0.116607423677942107E+00   -0.107389065447431697E+02
    0.942223402023986412E-01   -0.107319793167859157E+02
    0.107825097874791748E+00   -0.107306680529364673E+02
    0.117030657814483699E+00   -0.107394809629736123E+02
    0.776123237173393654E-01   -0.107573608812679637E+02
    0.873017528102109086E-01   -0.107393353132663361E+02
    0.758500847544784917E-01   -0.107616193572738723E+02
    0.805683701678462372E-01   -0.107508978153047057E+02
    0.136083529239763273E+00   -0.107819239280009125E+02
    0.132791487884044490E+00   -0.107722963731496328E+02
    0.815967238914073190E-01   -0.107488485571894863E+02
    0.110094398297521268E+00   -0.107321208299546917E+02
    0.103270216553006611E+00   -0.107291861393608041E+02
    0.759817822708795387E-01   -0.107612906047141728E+02
    0.923108683128776863E-01   -0.107335556527843625E+02
    0.819661215971660556E-01   -0.107481374612934530E+02
    0.122012923550214258E+00   -0.107474577995785090E+02
    0.122348512630282596E+00   -0.107480752905900410E+02
    0.138085553175753550E+00   -0.107882408894882609E+02
    0.849944301120865303E-01   -0.107428052042311002E+02
    0.115178554338424957E+00   -0.107370871801938463E+02
    0.869672536737946256E-01   -0.107398066749884684E+02
    0.100580685110687934E+00   -0.107292155854868092E+02
    0.113288417559021443E+00   -0.107349654440104310E+02
    0.127588858523562276E+00   -0.107590215918126209E+02
    0.115763235767550890E+00   -0.107378092654440689E+02
    0.120310539375313413E+00   -0.107444809487034902E+02
    0.769894975230759337E-01   -0.107588312599130376E+02
    0.661016003449767936E-01   -0.107906993960182191E+02
    0.805576504762369749E-01   -0.107509197173406292E+02
    0.122015865665469875E+00   -0.107474631692970348E+02
    0.913423701298366753E-01   -0.107344866663417502E+02
    0.850912392495539877E-01   -0.107426493318448895E+02
    0.870441807648340143E-01   -0.107396973227265615E+02
    0.113845035163793379E+00   -0.107355564875278571E+02
    0.133166589540778008E+00   -0.107733454985815627E+02
    0.877553580788971999E-01   -0.107387132432287409E+02
    0.102443603181679666E+00   -0.107291234560371791E+02
    0.989332202301908409E-01   -0.107295672130234525E+02
    0.899224390807382978E-01   -0.107360129691215569E+02
    0.912400775700638600E-01   -0.107345902059230447E+02
    0.681282845956334010E-01   -0.107838789541610787E+02
    0.672288379045700990E-01   -0.107868554161786978E+02
    0.758718093958862666E-01   -0.107615650097156017E+02
    0.674218726794724305E-01   -0.107862098411127967E+02
    0.918834249102518930E-01   -0.107339555647189435E+02
    0.887248828051013239E-01   -0.107374496907282619E+02
    0.132037230628743091E+00   -0.107702241431236327E+02
    0.908899709937469880E-01   -0.107349521155363519E+02
    0.110879012217732928E+00   -0.107327331328887485E+02
    0.648764822950915754E-01   -0.107950208871296969E+02
    0.788068244447774485E-01   -0.107546468017617141E+02
    0.124827582362768336E+00   -0.107529487870309914E+02
    0.722722844144987470E-01   -0.107712018562025982E+02
    0.735932833591860097E-01   -0.107675172681289588E+02
    0.103045243758895996E+00   -0.107291627842520061E+02
    0.124323679970317333E+00   -0.107519137582654558E+02
    0.877785989709878867E-01   -0.107386819016799198E+02
    0.120690160328433438E+00   -0.107451222261758943E+02
    0.739348359146879408E-01   -0.107665925380714693E+02
    0.961222961677367510E-01   -0.107307549675678988E+02
    0.881906416116605973E-01   -0.107381348262791345E+02
    0.930247838254125159E-01   -0.107329263919285314E+02
    0.677034745419109601E-01   -0.107852747159576019E+02
    0.139815858503797602E+00   -0.107939807100709633E+02
    0.136808285438823063E+00   -0.107841704952448811E+02
    0.860279564248697531E-01   -0.107411876900476351E+02
    0.139335159593253100E+00   -0.107923601152884441E+02
    0.711941510010445644E-01   -0.107743365339672845E+02
    0.861261690034450522E-01   -0.107410393258807026E+02
    0.139511199150897158E+00   -0.107929512830681222E+02
    0.996589474140344017E-01   -0.107293810131645859E+02
    0.104226805104604012E+00   -0.107293379525553281E+02
    0.125025925313318353E+00   -0.107533623951927204E+02
    0.114473490946223055E+00   -0.107362577186953789E+02
    0.127688758398635471E+00   -0.107592539856106484E+02
    0.780471669151504982E-01   -0.107563567472886241E+02
    0.920615379689172786E-01   -0.107337868149309088E+02
    0.117314108244759435E+00   -0.107398747288081999E+02
    0.776861940255865469E-01   -0.107571889998555079E+02
    0.885145608698903741E-01   -0.107377161596515975E+02
    0.110441792243076792E+00   -0.107323849708218386E+02
    0.119889427546948812E+00   -0.107437847405644700E+02
    0.108980414960899386E+00   -0.107313485147644023E+02
    0.857597491163274300E-01   -0.107415975773023931E+02
    0.870926028023255860E-01   -0.107396287815759841E+02
    0.107150979759233891E+00   -0.107303278043536245E+02
    0.113510218906931554E+00   -0.107351975803869468E+02
    0.917787344526263538E-01   -0.107340561581433391E+02
    0.967823228707260230E-01   -0.107304093246009007E+02
    0.108985019541280620E+00   -0.107313514724577050E+02
    0.667160930118720352E-01   -0.107885882255758645E+02
    0.804872385149760089E-01   -0.107510638574835458E+02
    0.109759749097656248E+00   -0.107318768477111917E+02
    0.107847592461162878E+00   -0.107306801288460356E+02
    0.688704157926703642E-01   -0.107814836156332898E+02
    0.772737774007690587E-01   -0.107581554267866544E+02
    0.659333906606117542E-01   -0.107912838665271913E+02
    0.744099657109014295E-01   -0.107653252259606589E+02
    0.133460163354631289E+00   -0.107741751993506210E+02
    0.823235860704225053E-01   -0.107474619156052764E+02
    0.965126162052128839E-01   -0.107305456073079029E+02
    0.136688748188357023E+00   -0.107837968105954989E+02
    0.111139035166195277E+00   -0.107329484947499960E+02
    0.121059540967947660E+00   -0.107457586325515795E+02
    0.690194468575197062E-01   -0.107810091875016827E+02
    0.133363698079256299E+00   -0.107739017355768762E+02
    0.700495502525313452E-01   -0.107777901514693450E+02
    0.101603446545601578E+00   -0.107291249347721536E+02
    0.107000597309936468E+00   -0.107302576191099401E+02
    0.923025838078600364E-01   -0.107335632388073066E+02
    0.139267813651091671E+00   -0.107921346665174998E+02
    0.991873022749845679E-01   -0.107294964101676875E+02
    0.830966335316246918E-01   -0.107460432588650789E+02
    0.116250647118212036E+00   -0.107384349243788364E+02
    0.935109941610766382E-01   -0.107325254999769211E+02
    0.128346528875162263E+00   -0.107608062038728498E+02
    0.139306993139361318E+00   -0.107922657768870014E+02
    0.134118784265121832E+00   -0.107760640534570005E+02
    0.728575156761420567E-01   -0.107695483001997339E+02
    0.119254428480789335E+00   -0.107427650962334376E+02
    0.872500482854168952E-01   -0.107394074721458885E+02
    0.131131420729816373E+00   -0.107678015799411924E+02
    0.110341752707499019E+00   -0.107323077713191033E+02
    0.136917390636496550E+00   -0.107845126533133779E+02
    0.122191564608240058E+00   -0.107477852472452131E+02
    0.124513725383763985E+00   -0.107523014577795912E+02
    0.993543333449210531E-01   -0.107294531603031587E+02
    0.707917523332005499E-01   -0.107755359282399077E+02
    0.129816255888805077E+00   -0.107644127453501710E+02
    0.102089482066910486E+00   -0.107291160608833263E+02
    0.696093179317994470E-01   -0.107791529942923408E+02
    0.111383176991615929E+00   -0.107331563370411427E+02
    0.823659051239609974E-01   -0.107473827586004695E+02
    0.968999700745530879E-01   -0.107303520224169837E+02
