    0.100742507386206737E+01   -0.400181101520271287E+01   -0.251197308740704495E+01    0.107795710701984348E+03
    0.987166192183903668E+00   -0.399399051775626779E+01   -0.249477618999763928E+01    0.110539743789247240E+03
    0.994835202629854365E+00   -0.400079331477965106E+01   -0.249193674324118630E+01    0.111111669317827491E+03
    0.990017996007284684E+00   -0.399694962142180854E+01   -0.249426323197308397E+01    0.111216380302019488E+03
    0.987058572082851637E+00   -0.399264941059099243E+01   -0.249568007874590192E+01    0.111453209279058939E+03
    0.987767688803919408E+00   -0.399195917786892629E+01   -0.249912962290190155E+01    0.111603747636503698E+03
    0.992566359358541206E+00   -0.399127910238924644E+01   -0.250073670535183501E+01    0.111886065834175412E+03
    0.991690939553325324E+00   -0.399118726682478187E+01   -0.250114312283961482E+01    0.111980882547614684E+03
    0.100089852520907563E+01   -0.400534540647517812E+01   -0.249531210645158197E+01    0.112073360653916964E+03
    0.100900698621755858E+01   -0.400361369987159854E+01   -0.250252643913911710E+01    0.112163085617960846E+03
    0.996260702212257265E+00   -0.399642781500889921E+01   -0.250708490952384144E+01    0.112184412408502254E+03
    0.996426133737430941E+00   -0.399805163373260308E+01   -0.250661254712092729E+01    0.112275699415462128E+03
    0.994617550738091771E+00   -0.399904019506998720E+01   -0.249110812565270923E+01    0.112325952679696300E+03
    0.100420969302824492E+01   -0.399895810063119628E+01   -0.250096276558074404E+01    0.112367796180523825E+03
    0.100122491420121840E+01   -0.400135621018841903E+01   -0.250833267996678533E+01    0.112375300534891124E+03
    0.987802266943755614E+00   -0.399193785168461357E+01   -0.249566149280217919E+01    0.112397204985272197E+03
    0.998771386084408852E+00   -0.399594362412972615E+01   -0.250660148612886013E+01    0.112415520383534272E+03
    0.988414098444620137E+00   -0.399207784488007356E+01   -0.249767013290998774E+01    0.112730895003214926E+03
    0.100466578607794399E+01   -0.400051209574414912E+01   -0.250752623020654930E+01    0.112810932942814389E+03
    0.100935497037007971E+01   -0.400749003542834981E+01   -0.250604603819605565E+01    0.112844729714530345E+03
    0.100455196719658213E+01   -0.400306327073359824E+01   -0.249405545528403128E+01    0.112858805051507417E+03
    0.994692626303342320E+00   -0.400026764197148577E+01   -0.249869016388014042E+01    0.112915532803643316E+03
    0.995241379958841543E+00   -0.399816324480531726E+01   -0.249105000501687579E+01    0.112932480109465189E+03
    0.100696372951714164E+01   -0.400612673301374578E+01   -0.249569436964290192E+01    0.112997860760348445E+03
    0.994566940571561364E+00   -0.399939035269381060E+01   -0.249245870984175788E+01    0.113064124569519365E+03
    0.993800191696931234E+00   -0.399658954358271501E+01   -0.249127027580728022E+01    0.113071965943504580E+03
    0.999528233031893865E+00   -0.399649349123983022E+01   -0.249610803211994892E+01    0.113094705944918587E+03
    0.100348860438894638E+01   -0.400458878072431723E+01   -0.249373485542551832E+01    0.113223893403607363E+03
    0.998449279838935388E+00   -0.400328760411192874E+01   -0.249812628975302875E+01    0.113227473383959790E+03
    0.100947507958740812E+01   -0.400513382884409719E+01   -0.250338369562573471E+01    0.113260720204038634E+03
    0.989694264764874321E+00   -0.399461175865352924E+01   -0.249720798901128660E+01    0.113299979201407851E+03
    0.998620164599692939E+00   -0.399535387586696089E+01   -0.250381870031638520E+01    0.113303573269596470E+03
    0.100008488562362885E+01   -0.399608784802107486E+01   -0.250258112946621436E+01    0.113309479509237093E+03
    0.100913710490567010E+01   -0.400759837199267199E+01   -0.250492989725346504E+01    0.113314488366988229E+03
    0.100571847389309976E+01   -0.400127376697422044E+01   -0.250611197054617607E+01    0.113385929969976033E+03
    0.100848059088916853E+01   -0.400441529681436670E+01   -0.250579843420124293E+01    0.113419702174694478E+03
    0.989614799162454872E+00   -0.399293265150183885E+01   -0.249881786454335897E+01    0.113426874489762781E+03
    0.100666146254521416E+01   -0.400647641378847741E+01   -0.249619655126122897E+01    0.113435402937357225E+03
    0.100367329399794114E+01   -0.399892464834139361E+01   -0.250248889868634228E+01    0.113455231291107722E+03
    0.998400029297776270E+00   -0.400180098588004718E+01   -0.250327180837198560E+01    0.113485891201119202E+03
    0.100397683016995720E+01   -0.399941493572849094E+01   -0.250018710153935553E+01    0.113494182119728563E+03
    0.995396294459579334E+00   -0.399460660013669955E+01   -0.249418837261876369E+01    0.113496127465354931E+03
    0.100857037332186583E+01   -0.400754410553778939E+01   -0.249866296461446513E+01    0.113536641658285575E+03
    0.991780153990420299E+00   -0.399594289344210329E+01   -0.250060635277919552E+01    0.113544618257815969E+03
    0.997472849249586568E+00   -0.400206533153300370E+01   -0.250004288705043276E+01    0.113560064962229148E+03
    0.989785044468001418E+00   -0.399453029411324323E+01   -0.249644339912713553E+01    0.113563136610118818E+03
    0.993334588364720994E+00   -0.399868689991034998E+01   -0.249808446459733791E+01    0.113567345239264441E+03
    0.995400804819603802E+00   -0.399363756729312680E+01   -0.250232029148352897E+01    0.113599880817077221E+03
    0.100094467037416734E+01   -0.400292705250779779E+01   -0.250507446615596363E+01    0.113614508711882138E+03
    0.100358996592102079E+01   -0.400625258181510358E+01   -0.249729162559383155E+01    0.113629683951295760E+03
    0.100175166208720690E+01   -0.400371162617684995E+01   -0.250478612302729076E+01    0.113636025939349167E+03
    0.998019016911374623E+00   -0.399805426436524325E+01   -0.249248783195084922E+01    0.113642099669146987E+03
    0.100714154652520049E+01   -0.400733565782275036E+01   -0.249775422990410734E+01    0.113661341308366318E+03
    0.100736534816564305E+01   -0.400420137964616885E+01   -0.250684187556169302E+01    0.113674241067941225E+03
    0.100678919244655640E+01   -0.400729238250233788E+01   -0.249769609385570357E+01    0.113686159895488530E+03
    0.990115594660537557E+00   -0.399207129869817390E+01   -0.249689239051295298E+01    0.113687757380609185E+03
    0.995644981349008251E+00   -0.399847391907040128E+01   -0.249179120514347430E+01    0.113690242696807275E+03
    0.992174466903905650E+00   -0.399620323334315808E+01   -0.250084105752483321E+01    0.113690922546598046E+03
    0.100075758739321530E+01   -0.399921595246205630E+01   -0.250736031616097144E+01    0.113716962198365849E+03
    0.997285346804737793E+00   -0.399455799490477226E+01   -0.249870838798373907E+01    0.113724955612975435E+03
    0.992047271723810464E+00   -0.399565150064160779E+01   -0.250119750600713031E+01    0.113749562397657328E+03
    0.100366767313205463E+01   -0.400626551188030167E+01   -0.250027757636237968E+01    0.113779779505587499E+03
    0.993413071353980159E+00   -0.399310285900238116E+01   -0.249570588497780266E+01    0.113799268781542267E+03
    0.995279319933216167E+00   -0.399414993091939863E+01   -0.249548403484818859E+01    0.113801340753475898E+03
    0.100396097395778838E+01   -0.400643745714339872E+01   -0.249990441121866169E+01    0.113817718293244880E+03
    0.990861509499874504E+00   -0.399341153177106234E+01   -0.249394960287592937E+01    0.113822880659931116E+03
    0.100178663262864576E+01   -0.399897220341172721E+01   -0.250681057559716169E+01    0.113838801799188346E+03
    0.100300821754270264E+01   -0.400340858545510159E+01   -0.250639494281522435E+01    0.113842329745008868E+03
    0.991816437689487240E+00   -0.399575217566718877E+01   -0.250044401924008897E+01    0.113843374646033169E+03
    0.998176407984598724E+00   -0.399635155750655491E+01   -0.249498819474582012E+01    0.113848386710590830E+03
    0.998769419025793526E+00   -0.399786749505223105E+01   -0.250654337865674393E+01    0.113883071106237949E+03
    0.997758186376502154E+00   -0.400239704204194080E+01   -0.249621834254271535E+01    0.113890486890786832E+03
    0.100656629438326450E+01   -0.400638985849118878E+01   -0.249684236042418561E+01    0.113928350254614728E+03
    0.998286255781275056E+00   -0.400044752765524603E+01   -0.249233099645959300E+01    0.113964240011567924E+03
    0.100054912234111582E+01   -0.399801987056778207E+01   -0.250631079195872886E+01    0.113965154370262624E+03
    0.999078372338299547E+00   -0.399675195979491527E+01   -0.249578435881584593E+01    0.113969089249175511E+03
    0.100037502737329387E+01   -0.400079799983294038E+01   -0.249285189322838674E+01    0.113975411932358909E+03
    0.993731499697068976E+00   -0.399321468164817794E+01   -0.249621887133446085E+01    0.113975428393528617E+03
    0.100938820558781983E+01   -0.400647354898714791E+01   -0.250247161108493810E+01    0.113995410831126165E+03
    0.998993361699180848E+00   -0.399573570639338982E+01   -0.249953901282363722E+01    0.114004802107878476E+03
    0.100687935975598375E+01   -0.400289524553895060E+01   -0.249995024535261123E+01    0.114023125573258142E+03
    0.991051386760216868E+00   -0.399267951980099145E+01   -0.249933040502628812E+01    0.114052573095835029E+03
    0.100063498683705165E+01   -0.400430675044319972E+01   -0.249922705868978534E+01    0.114076676675892045E+03
    0.998697085195782153E+00   -0.400298060590794957E+01   -0.249666442740904326E+01    0.114106709805810752E+03
    0.100150529324677140E+01   -0.400342935751047690E+01   -0.249392351730321193E+01    0.114139315804675803E+03
    0.994435812570717670E+00   -0.399348471950369532E+01   -0.249693299068283370E+01    0.114145757753739900E+03
    0.997797737824041464E+00   -0.400045288833070867E+01   -0.250385710582918763E+01    0.114151247487288629E+03
    0.998301378711884846E+00   -0.399594995130509556E+01   -0.250428663895295633E+01    0.114192315756377880E+03
    0.100846062732354169E+01   -0.400550358387772398E+01   -0.250473595879824096E+01    0.114206568443674712E+03
    0.999489256597951847E+00   -0.399908653103551170E+01   -0.250648414037150280E+01    0.114214546100806189E+03
    0.100188411658408616E+01   -0.399990361231754132E+01   -0.250692886610007060E+01    0.114238245341233466E+03
    0.100105341170092621E+01   -0.399827806106374295E+01   -0.249649648908562405E+01    0.114257253963495870E+03
    0.998894426245433675E+00   -0.399713806942268945E+01   -0.249511183782226009E+01    0.114278179022666322E+03
    0.100449583633263329E+01   -0.400216473136776596E+01   -0.249619940606403157E+01    0.114287340498407872E+03
    0.100095210723566019E+01   -0.399759368633115653E+01   -0.249829750537064132E+01    0.114288525998189584E+03
    0.992548790648292267E+00   -0.399542956270889693E+01   -0.249315829753667551E+01    0.114316060617049558E+03
    0.995324732759435449E+00   -0.399824071197684550E+01   -0.250290570798293865E+01    0.114330603747457104E+03
    0.992558889658161414E+00   -0.399283472044561405E+01   -0.249934197155331006E+01    0.114339713309496332E+03
    0.100351900317390763E+01   -0.400589683570553312E+01   -0.249884234288579776E+01    0.114344673462442529E+03
    0.100759361579994566E+01   -0.400441218371083973E+01   -0.249966298429407541E+01    0.114372830870191265E+03
    0.100326078234231475E+01   -0.400539001311625675E+01   -0.249659406020752872E+01    0.114386290903913661E+03
    0.100279247950876638E+01   -0.400188030389980032E+01   -0.249453163651846754E+01    0.114400225927200253E+03
    0.992724157484041303E+00   -0.399569134938312898E+01   -0.250131365008359863E+01    0.114400876444943137E+03
    0.992782143736408607E+00   -0.399647503111952318E+01   -0.249337076292387128E+01    0.114411645146113770E+03
    0.100177648864148461E+01   -0.400027589489542734E+01   -0.250681418193547190E+01    0.114415283125998656E+03
    0.994214675020226202E+00   -0.399820939532352160E+01   -0.250065451599884225E+01    0.114420346927381289E+03
    0.100453360172342165E+01   -0.400297527034077127E+01   -0.250671946365883791E+01    0.114440540963143349E+03
    0.994702693612145250E+00   -0.399421070919132415E+01   -0.249573183847625568E+01    0.114493463935737196E+03
    0.990891669090516847E+00   -0.399313618221976441E+01   -0.249752396507667296E+01    0.114501395385527218E+03
    0.993007134738513986E+00   -0.399740871017126143E+01   -0.249888621612685924E+01    0.114513581141020680E+03
    0.100228648112299634E+01   -0.399915118161244010E+01   -0.249755363347156312E+01    0.114534219417515757E+03
    0.100087885123465736E+01   -0.399921444821017236E+01   -0.249496715530402113E+01    0.114535123019565233E+03
    0.998851909272076122E+00   -0.400253742968100390E+01   -0.249529666636617309E+01    0.114556702181139357E+03
    0.993135869624279133E+00   -0.399575616187377625E+01   -0.249334568827642045E+01    0.114610087308675446E+03
    0.100044048270024843E+01   -0.399721092922813259E+01   -0.249906080613958803E+01    0.114627969851075889E+03
    0.100667878012429002E+01   -0.400655463237741394E+01   -0.250293780421750478E+01    0.114628113746573987E+03
    0.100386608051208159E+01   -0.400129340497229613E+01   -0.250639631581256772E+01    0.114632374870466478E+03
    0.992269614399152844E+00   -0.399509138814679687E+01   -0.250052036889076312E+01    0.114642328095322682E+03
    0.100079418216754346E+01   -0.400402399658360597E+01   -0.249967783869580984E+01    0.114655202682825333E+03
    0.997454819202108434E+00   -0.399507580898235926E+01   -0.250000725758109033E+01    0.114656371192121213E+03
    0.994317164709517254E+00   -0.399845346074747399E+01   -0.249982781274867172E+01    0.114666540553195603E+03
    0.994008488019884062E+00   -0.399393976114354032E+01   -0.249596395605621879E+01    0.114672905581178910E+03
    0.100744949413043328E+01   -0.400675922522398942E+01   -0.249992639131176064E+01    0.114683867693890960E+03
    0.100200193933239889E+01   -0.400095014511506175E+01   -0.250649490327745283E+01    0.114687637224524323E+03
    0.100543052575417935E+01   -0.400273447615437483E+01   -0.249769703529434928E+01    0.114699861044332351E+03
    0.100058159132328561E+01   -0.399745493046126654E+01   -0.249868467711106401E+01    0.114725426029338337E+03
    0.100569618800901872E+01   -0.400504424924402080E+01   -0.250503724313513532E+01    0.114729773866938899E+03
    0.100130812177150474E+01   -0.399772426796317770E+01   -0.250120958374559255E+01    0.114732116531848519E+03
    0.100426854775529995E+01   -0.400034046162855983E+01   -0.250083391094652852E+01    0.114733948783263145E+03
    0.993881646883980618E+00   -0.399759253963256977E+01   -0.250050588774253102E+01    0.114734076334280800E+03
    0.998796549536308698E+00   -0.399914653233911421E+01   -0.250548350852866086E+01    0.114739839853767990E+03
    0.998957617976527046E+00   -0.399808446893530300E+01   -0.250559578550561435E+01    0.114754919184939936E+03
    0.100089727121463357E+01   -0.399854817647274885E+01   -0.249634602414337659E+01    0.114755498132128508E+03
    0.100812865598342372E+01   -0.400561232036444892E+01   -0.250109398277929351E+01    0.114757456873434080E+03
    0.992349706648871344E+00   -0.399583303614916652E+01   -0.249969133068364346E+01    0.114759836159537741E+03
    0.996474474838627389E+00   -0.399509822760380562E+01   -0.249661352592233676E+01    0.114760068264171309E+03
    0.100683040305987359E+01   -0.400311058244466977E+01   -0.250181089456678896E+01    0.114773549678532817E+03
    0.100200142247165114E+01   -0.400467708370996167E+01   -0.250013134001096438E+01    0.114778189777611658E+03
    0.991539838423083353E+00   -0.399554266352124721E+01   -0.249655141975593642E+01    0.114780011742506844E+03
    0.100012676118172994E+01   -0.400329477107168508E+01   -0.250064926462529780E+01    0.114796031666111091E+03
    0.100446375989093273E+01   -0.400120923025687780E+01   -0.250541495930575930E+01    0.114806118913041402E+03
    0.994477526554703672E+00   -0.399731514556231193E+01   -0.250195363524305625E+01    0.114819911892555837E+03
    0.100022151673058568E+01   -0.400107784061946248E+01   -0.249361789613155116E+01    0.114821884829552147E+03
    0.100563688551871233E+01   -0.400212475290465619E+01   -0.249975642880812909E+01    0.114829544406609187E+03
    0.997496300220374499E+00   -0.399642241470625414E+01   -0.250436836442650534E+01    0.114837311038004017E+03
    0.997268928009386268E+00   -0.400005498360382461E+01   -0.249337905694167361E+01    0.114840108515821697E+03
    0.999682138266893117E+00   -0.400252447689822333E+01   -0.250200037166578548E+01    0.114850382728845020E+03
    0.100047725518778785E+01   -0.399908641619936045E+01   -0.249502244188532618E+01    0.114869400356012335E+03
    0.100285792164143572E+01   -0.400361215440206930E+01   -0.249506846403908078E+01    0.114891161503500740E+03
    0.993514217891804607E+00   -0.399797983239169419E+01   -0.249633569453465443E+01    0.114895949053968124E+03
    0.993310135856852794E+00   -0.399774061593911778E+01   -0.249713759349476394E+01    0.114899576937888739E+03
    0.100174652781291029E+01   -0.400020313105758074E+01   -0.250617779815651609E+01    0.114900888622381771E+03
    0.997214926793645651E+00   -0.399510896128593673E+01   -0.250043245750687282E+01    0.114922441509506427E+03
    0.993185500806535448E+00   -0.399492454808465425E+01   -0.249435366861528340E+01    0.114952897971422004E+03
    0.997337947338176156E+00   -0.399553383554067532E+01   -0.249745456828872170E+01    0.114955098150811224E+03
    0.100478688502542468E+01   -0.400305354630869115E+01   -0.249670369693039795E+01    0.114963037425215703E+03
    0.100675268648030758E+01   -0.400506992737112721E+01   -0.249854008314113774E+01    0.114974244272998078E+03
    0.100058793675847468E+01   -0.399742251382254388E+01   -0.250258014239470583E+01    0.114981179089862565E+03
    0.100486894652114800E+01   -0.400105797336671820E+01   -0.250162605568410079E+01    0.114994282837611834E+03
    0.100202053547065306E+01   -0.399974855691587194E+01   -0.250570662853225734E+01    0.115011616635618566E+03
    0.997908915585811074E+00   -0.399662246845211566E+01   -0.249567137610070411E+01    0.115013933688656294E+03
    0.100065269340123564E+01   -0.400054171673589920E+01   -0.249417710913925639E+01    0.115024880384795111E+03
    0.100114612489594168E+01   -0.400408200533793135E+01   -0.249824212833887893E+01    0.115034517694593077E+03
    0.992902117937528361E+00   -0.399357521689609296E+01   -0.249855714022885511E+01    0.115074595712448144E+03
    0.993781080112167370E+00   -0.399498531205589114E+01   -0.250165823431363554E+01    0.115087087635347089E+03
    0.100276104822760681E+01   -0.399963999773290624E+01   -0.250460672672004669E+01    0.115095233383029026E+03
    0.100449699828248384E+01   -0.400532273026924379E+01   -0.250265398829739061E+01    0.115099143621416019E+03
    0.100429540673582451E+01   -0.400562590984997868E+01   -0.250092220255181363E+01    0.115099400330609782E+03
    0.992672885940351968E+00   -0.399559165418660722E+01   -0.249989501809110237E+01    0.115102100897160994E+03
    0.999318532602461729E+00   -0.399818963644922842E+01   -0.249508928335806779E+01    0.115112523036688202E+03
    0.995818777882985118E+00   -0.399816225016583182E+01   -0.250264378923199882E+01    0.115113343426295643E+03
    0.100124730389220584E+01   -0.400057502551013133E+01   -0.250580845888312620E+01    0.115116290185746820E+03
    0.100591454663048796E+01   -0.400597070658597154E+01   -0.250237913864710304E+01    0.115120965254881810E+03
    0.100679749168807486E+01   -0.400414461896503937E+01   -0.250428743228815698E+01    0.115122377513394156E+03
    0.992793375402777345E+00   -0.399613095352093861E+01   -0.249465248870259781E+01    0.115123592295394772E+03
    0.100749939039422021E+01   -0.400567241896696835E+01   -0.250280981129473146E+01    0.115127826302692256E+03
    0.100703204804940794E+01   -0.400388252163396174E+01   -0.250271357309211373E+01    0.115142866346393419E+03
    0.996591605993069174E+00   -0.399621809718429866E+01   -0.249496812554486258E+01    0.115144291188987097E+03
    0.996591605993069174E+00   -0.399621809718429866E+01   -0.249496812554486258E+01    0.115144291188987097E+03
    0.995648940896534107E+00   -0.399594754486579973E+01   -0.249453686419701004E+01    0.115144488999512689E+03
    0.999538184448301337E+00   -0.400119809131342219E+01   -0.249393542229997411E+01    0.115159706083451880E+03
    0.995820496972549929E+00   -0.399901097537716010E+01   -0.249391508802458572E+01    0.115168887247736308E+03
    0.995820496972549929E+00   -0.399901097537716010E+01   -0.249391508802458572E+01    0.115168887247736308E+03
    0.994225180946707199E+00   -0.399683628977984595E+01   -0.249378978378895910E+01    0.115175919725330687E+03
    0.994994258875897430E+00   -0.399470785322459232E+01   -0.249627513429163006E+01    0.115176466857795219E+03
    0.993218830759345472E+00   -0.399573342139785748E+01   -0.250066460358624454E+01    0.115179045153905435E+03
    0.996595783059881057E+00   -0.400047406339238343E+01   -0.249558629611973037E+01    0.115189549298091137E+03
    0.999124783706125119E+00   -0.399801597475103110E+01   -0.250497799627683237E+01    0.115191085500600138E+03
    0.998604365863365651E+00   -0.400191503381428948E+01   -0.250036264260379815E+01    0.115203151443310105E+03
    0.992587625442105659E+00   -0.399374489665126831E+01   -0.249809047806048756E+01    0.115206411756472207E+03
    0.993087003490791820E+00   -0.399711859878162734E+01   -0.249640854310967786E+01    0.115222573112180953E+03
    0.100104906572712982E+01   -0.400167199057972311E+01   -0.249439788159884657E+01    0.115224198980618539E+03
    0.992719210472798652E+00   -0.399385778583259210E+01   -0.249704526877876765E+01    0.115228249320153552E+03
    0.100104355509531162E+01   -0.400047534641888802E+01   -0.250560622732576332E+01    0.115233048464595043E+03
    0.100104355509531162E+01   -0.400047534641888802E+01   -0.250560622732576332E+01    0.115233048464595043E+03
    0.999191742341728695E+00   -0.399656324919351347E+01   -0.250155801388722709E+01    0.115242220878706334E+03
    0.993654004940893065E+00   -0.399405205562345378E+01   -0.249992644638687622E+01    0.115247712631509657E+03
    0.996878165940219163E+00   -0.399861748740335265E+01   -0.249351467093106693E+01    0.115256898710004819E+03
    0.100618261317423108E+01   -0.400327905793875871E+01   -0.250421594715265750E+01    0.115259623255592018E+03
    0.995450709590006255E+00   -0.399912983877330142E+01   -0.249986366585748776E+01    0.115272989916354462E+03
    0.100401465340856411E+01   -0.400292775781063792E+01   -0.249630689056041355E+01    0.115281786093059949E+03
    0.100688676435624624E+01   -0.400574751853802091E+01   -0.250266863089673341E+01    0.115282662002466594E+03
    0.998004430384513253E+00   -0.400155476137325916E+01   -0.249598548149623634E+01    0.115286044403059876E+03
    0.100400796751557930E+01   -0.400433341212073390E+01   -0.249645682461270724E+01    0.115288901733168302E+03
    0.100538012816666544E+01   -0.400532229881799395E+01   -0.250313859885682444E+01    0.115304492226564349E+03
    0.994999478382100122E+00   -0.399828066609863786E+01   -0.249422140915960799E+01    0.115306383653564851E+03
    0.100226514681736467E+01   -0.399913236666269611E+01   -0.250367776706716727E+01    0.115310189680638331E+03
    0.100501185718340680E+01   -0.400565316950753214E+01   -0.249876713031732045E+01    0.115312250185108567E+03
    0.997110934147213079E+00   -0.400095898427196950E+01   -0.249822753038934176E+01    0.115324669872737786E+03
    0.997110934147213079E+00   -0.400095898427196950E+01   -0.249822753038934176E+01    0.115324669872737786E+03
    0.100159035551238085E+01   -0.399851058725745068E+01   -0.250312089991077391E+01    0.115342589426930886E+03
    0.100102981930419421E+01   -0.400139024819381817E+01   -0.250493135217667273E+01    0.115349688855422798E+03
    0.997061346658832948E+00   -0.400074284355811560E+01   -0.249929437752941963E+01    0.115354713809925883E+03
    0.993637695549571376E+00   -0.399755257222419580E+01   -0.249597689127959121E+01    0.115360030137833803E+03
    0.100448144331810951E+01   -0.400546490143520373E+01   -0.250088651146521190E+01    0.115390945606389622E+03
    0.997465869309562825E+00   -0.399698190994875846E+01   -0.249509479968229320E+01    0.115394878914799250E+03
    0.992290097696199913E+00   -0.399428101852543493E+01   -0.249767395456958763E+01    0.115398627474474566E+03
    0.100537900259786928E+01   -0.400264457468316515E+01   -0.249914088464373085E+01    0.115403204373098191E+03
    0.996635506632721602E+00   -0.399679865198375683E+01   -0.250356887856722432E+01    0.115406793070286653E+03
    0.996635506632721602E+00   -0.399679865198375683E+01   -0.250356887856722432E+01    0.115406793070286653E+03
    0.997352772428461209E+00   -0.399967263043228449E+01   -0.249393654195259984E+01    0.115425311682095980E+03
    0.997352772428461209E+00   -0.399967263043228449E+01   -0.249393654195259984E+01    0.115425311682095980E+03
    0.999367182215264993E+00   -0.400183143445972611E+01   -0.250200733909596096E+01    0.115430979589480188E+03
    0.100249080618571762E+01   -0.399936913643629666E+01   -0.250341652541871929E+01    0.115446048863133598E+03
    0.996826699105446523E+00   -0.399788086832647860E+01   -0.249393322307516074E+01    0.115449048551691121E+03
    0.997742662988418738E+00   -0.399597633407900155E+01   -0.249814851060676446E+01    0.115450411588864966E+03
    0.100338806143434067E+01   -0.400017434479935474E+01   -0.250354542321699158E+01    0.115454189147279010E+03
    0.100344079914189166E+01   -0.400360177768753278E+01   -0.250425592801174934E+01    0.115456487813605833E+03
    0.996591260786090949E+00   -0.399889454998199723E+01   -0.250239424138898592E+01    0.115457630840200210E+03
    0.996925920001664689E+00   -0.400042508665537433E+01   -0.249544132625814719E+01    0.115468681539124788E+03
    0.100271351726198477E+01   -0.400011919285815143E+01   -0.250471915218478891E+01    0.115468723158798369E+03
    0.994224825735605555E+00   -0.399713497352157976E+01   -0.250049981137448629E+01    0.115477898187209277E+03
    0.100034024212659589E+01   -0.400226098221038562E+01   -0.249502085663297324E+01    0.115479938051586743E+03
    0.100034024212659589E+01   -0.400226098221038562E+01   -0.249502085663297324E+01    0.115479938051586743E+03
    0.100330633986542272E+01   -0.400152211613700093E+01   -0.250534392383032323E+01    0.115496836487824453E+03
    0.100658141838247417E+01   -0.400510970685683798E+01   -0.249987944217183244E+01    0.115521398328432440E+03
    0.100658141838247417E+01   -0.400510970685683798E+01   -0.249987944217183244E+01    0.115521398328432440E+03
    0.994584956181862601E+00   -0.399820161315108535E+01   -0.249534016193681207E+01    0.115528116652943268E+03
    0.994584956181862601E+00   -0.399820161315108535E+01   -0.249534016193681207E+01    0.115528116652943268E+03
    0.100353567775587149E+01   -0.400045885653044309E+01   -0.250377404973779027E+01    0.115533230760951326E+03
    0.100267653887890429E+01   -0.399993830430310116E+01   -0.250422782353959139E+01    0.115568822819799692E+03
    0.100326433256545311E+01   -0.400248015140890434E+01   -0.250505093979922311E+01    0.115568864353721594E+03
    0.100326433256545311E+01   -0.400248015140890434E+01   -0.250505093979922311E+01    0.115568864353721594E+03
    0.100600067597879961E+01   -0.400312102892584498E+01   -0.250085693103859796E+01    0.115569087523943637E+03
    0.100285265117688804E+01   -0.400005085670381710E+01   -0.250413425273024970E+01    0.115577805260735232E+03
    0.992747310953948636E+00   -0.399466234986611113E+01   -0.249865904063752353E+01    0.115577885523896285E+03
    0.100065457578470318E+01   -0.400198125190372611E+01   -0.250350911444952162E+01    0.115583223928905070E+03
    0.100156363304380913E+01   -0.400055217455305900E+01   -0.249565445592537927E+01    0.115584332105040787E+03
    0.100558778643749447E+01   -0.400513337368942857E+01   -0.249868447480663969E+01    0.115584503096532003E+03
    0.100257237426072976E+01   -0.400140434223392916E+01   -0.250526367804300198E+01    0.115588313108700348E+03
    0.100610465975532803E+01   -0.400465151657438323E+01   -0.249911733532139024E+01    0.115589353580272714E+03
    0.992867157017042423E+00   -0.399506104814631424E+01   -0.249599011980782137E+01    0.115593630222017865E+03
    0.993382356573055736E+00   -0.399438573573420141E+01   -0.249729670003047532E+01    0.115611308223030193E+03
    0.994823242963116083E+00   -0.399597166619441557E+01   -0.250176698828665778E+01    0.115637834441796855E+03
    0.100185228567343043E+01   -0.400267766433747152E+01   -0.250376551305352102E+01    0.115638984033181799E+03
    0.994363008364417378E+00   -0.399585785387849857E+01   -0.250126845492260186E+01    0.115645720073543131E+03
    0.994363008364417378E+00   -0.399585785387849857E+01   -0.250126845492260186E+01    0.115645720073543131E+03
    0.993514720706408117E+00   -0.399591404891768587E+01   -0.249517299368069656E+01    0.115646927067888001E+03
    0.100347942921221356E+01   -0.400461860948314907E+01   -0.249778160317284392E+01    0.115650595596385003E+03
    0.998727172917878603E+00   -0.399919852338330362E+01   -0.250421485934644616E+01    0.115655918840857012E+03
    0.100482167336337591E+01   -0.400485138708976507E+01   -0.250272337601537620E+01    0.115669057860206237E+03
    0.100008452898847455E+01   -0.399855418476384195E+01   -0.250441558037420986E+01    0.115678350476638968E+03
    0.100273252362097254E+01   -0.400000003841698692E+01   -0.249881073929452846E+01    0.115688208566561826E+03
    0.100273252362097254E+01   -0.400000003841698692E+01   -0.249881073929452846E+01    0.115688208566561826E+03
    0.993638392261519732E+00   -0.399627055993273306E+01   -0.249519163431473201E+01    0.115693291846131814E+03
    0.100179396591426673E+01   -0.400126579561889173E+01   -0.250494029247535588E+01    0.115706333693390249E+03
    0.100179396591426673E+01   -0.400126579561889173E+01   -0.250494029247535588E+01    0.115706333693390249E+03
    0.993584659208232246E+00   -0.399621167433409585E+01   -0.249965927625824813E+01    0.115709211732876000E+03
    0.998093273904457012E+00   -0.400026843226028284E+01   -0.249448752771661475E+01    0.115710267114330165E+03
    0.100037896070982857E+01   -0.399840867400553845E+01   -0.250399259811142239E+01    0.115716613714913720E+03
    0.994348246235388311E+00   -0.399468515293427728E+01   -0.249982072395822819E+01    0.115718023316013159E+03
    0.998167833983559905E+00   -0.400036085134690200E+01   -0.249454159435647993E+01    0.115720078411361541E+03
    0.998167833983559905E+00   -0.400036085134690200E+01   -0.249454159435647993E+01    0.115720078411361541E+03
    0.992920311891194451E+00   -0.399502536287657462E+01   -0.249850061902971587E+01    0.115727561405578925E+03
    0.100325657765918130E+01   -0.400466667667118514E+01   -0.249879757249248469E+01    0.115729196815666754E+03
    0.996013282876429207E+00   -0.399527896113451630E+01   -0.250086539047707612E+01    0.115733068609165329E+03
    0.994262227220787720E+00   -0.399632954043917810E+01   -0.250078174459333669E+01    0.115741661727633158E+03
    0.994262227220787720E+00   -0.399632954043917810E+01   -0.250078174459333669E+01    0.115741661727633158E+03
    0.100629003520642701E+01   -0.400505504519042610E+01   -0.250212766727638680E+01    0.115742324902037112E+03
    0.100064140671452884E+01   -0.400215099423158271E+01   -0.250292214407006641E+01    0.115745971906470174E+03
    0.100318420806831843E+01   -0.400457811772062655E+01   -0.250050868974542428E+01    0.115750020411928347E+03
    0.999237255028033067E+00   -0.399773898855140697E+01   -0.249674415408373829E+01    0.115762076399561792E+03
    0.100507612427653892E+01   -0.400446718315255357E+01   -0.250333771404676320E+01    0.115769028430150570E+03
    0.100507612427653892E+01   -0.400446718315255357E+01   -0.250333771404676320E+01    0.115769028430150570E+03
    0.100204974146198000E+01   -0.400241690430454433E+01   -0.249564475963874521E+01    0.115771567869030903E+03
    0.100204974146198000E+01   -0.400241690430454433E+01   -0.249564475963874521E+01    0.115771567869030903E+03
    0.995277165536235242E+00   -0.399849144722932692E+01   -0.249521737886522965E+01    0.115773289794774584E+03
    0.100529030000449349E+01   -0.400520071248110821E+01   -0.250155841287199809E+01    0.115781624187369658E+03
    0.999777632421474882E+00   -0.399772336135422801E+01   -0.249796030692169913E+01    0.115781979484583701E+03
    0.999972358556021179E+00   -0.399779197390654417E+01   -0.249825594898723402E+01    0.115782313836391992E+03
    0.999972358556021179E+00   -0.399779197390654417E+01   -0.249825594898723402E+01    0.115782313836391992E+03
    0.100560496636683405E+01   -0.400281167138341321E+01   -0.250122588051752803E+01    0.115790542067908362E+03
    0.100560496636683405E+01   -0.400281167138341321E+01   -0.250122588051752803E+01    0.115790542067908362E+03
    0.997376056639486142E+00   -0.400065305771484070E+01   -0.249932418670695533E+01    0.115804891515795674E+03
    0.997376056639486142E+00   -0.400065305771484070E+01   -0.249932418670695533E+01    0.115804891515795674E+03
    0.100161622246219117E+01   -0.399872552140969351E+01   -0.250109841064741945E+01    0.115814286393876984E+03
    0.100018143024272832E+01   -0.399898853393829423E+01   -0.250446598138229648E+01    0.115814748179559373E+03
    0.100280665965006976E+01   -0.400394490142804305E+01   -0.249710612344017147E+01    0.115819781706587875E+03
    0.999533288315970214E+00   -0.399755639352917314E+01   -0.249800119910463669E+01    0.115826368139079150E+03
    0.100119123326240667E+01   -0.399854528701234369E+01   -0.250263210143824510E+01    0.115829761919406508E+03
    0.999885723023078654E+00   -0.399811423203999494E+01   -0.250368689484629137E+01    0.115833858051221668E+03
    0.995139551443085968E+00   -0.399865735855224536E+01   -0.249635243903769455E+01    0.115841408947501634E+03
    0.995139551443085968E+00   -0.399865735855224536E+01   -0.249635243903769455E+01    0.115841408947501634E+03
    0.993981289194710849E+00   -0.399472883233969700E+01   -0.249910073230355589E+01    0.115843127524951385E+03
    0.997693095410360775E+00   -0.400103503648718828E+01   -0.249788413367055018E+01    0.115851801490034191E+03
    0.995448465864950838E+00   -0.399671452848075281E+01   -0.249483502153712777E+01    0.115852464763536503E+03
    0.995448465864950838E+00   -0.399671452848075281E+01   -0.249483502153712777E+01    0.115852464763536503E+03
    0.995047808273247458E+00   -0.399594410940459888E+01   -0.249546159599411821E+01    0.115862394901341759E+03
    0.995047808273247458E+00   -0.399594410940459888E+01   -0.249546159599411821E+01    0.115862394901341759E+03
    0.100446641511528911E+01   -0.400502205795046784E+01   -0.250036541925312239E+01    0.115862892159851754E+03
    0.100446641511528911E+01   -0.400502205795046784E+01   -0.250036541925312239E+01    0.115862892159851754E+03
    0.999678203992935055E+00   -0.399804875941192694E+01   -0.249707358395519563E+01    0.115875329506823519E+03
    0.994246832587653895E+00   -0.399630008738662923E+01   -0.249521399249441966E+01    0.115876324395532677E+03
    0.999330649762389722E+00   -0.400114397856236081E+01   -0.249501848774326396E+01    0.115887748544870064E+03
    0.996253936567223164E+00   -0.399976441046799014E+01   -0.249775280033098257E+01    0.115888411430272456E+03
    0.998078552677183817E+00   -0.399646693178974033E+01   -0.250164367628977669E+01    0.115890369442521518E+03
    0.998078552677183817E+00   -0.399646693178974033E+01   -0.250164367628977669E+01    0.115890369442521518E+03
    0.100453673754895045E+01   -0.400471945828391984E+01   -0.250202600094362548E+01    0.115891494854409373E+03
    0.100080094405716546E+01   -0.400254376200426343E+01   -0.249595466591365511E+01    0.115894962277777964E+03
    0.993636833479754733E+00   -0.399631479829436032E+01   -0.249900319852683994E+01    0.115895595299418162E+03
    0.999057443259754208E+00   -0.400144163128544506E+01   -0.249557161164900387E+01    0.115911165286099290E+03
    0.997550384231634002E+00   -0.399915447973004756E+01   -0.249448854945901699E+01    0.115921485582212924E+03
    0.997550384231634002E+00   -0.399915447973004756E+01   -0.249448854945901699E+01    0.115921485582212924E+03
    0.100258712818260820E+01   -0.399968822896601717E+01   -0.250065386185489213E+01    0.115930298091706007E+03
    0.100501523887567634E+01   -0.400257865361625775E+01   -0.250342426190957612E+01    0.115932187909024606E+03
    0.100058672092728673E+01   -0.399866525673062423E+01   -0.249756982314907194E+01    0.115937252682674313E+03
    0.100586821842145935E+01   -0.400442135998692716E+01   -0.250002939365977150E+01    0.115942360244347739E+03
    0.100577122885896197E+01   -0.400366934750741432E+01   -0.250276744429792775E+01    0.115948414164391281E+03
    0.998324590899758002E+00   -0.399990270536008863E+01   -0.250278074881962187E+01    0.115951513100894772E+03
    0.997995959915472186E+00   -0.400091941134722795E+01   -0.249607631472541680E+01    0.115957266688180454E+03
    0.100179599442868161E+01   -0.399940425786288589E+01   -0.250350606230232797E+01    0.115958840132077540E+03
    0.100179599442868161E+01   -0.399940425786288589E+01   -0.250350606230232797E+01    0.115958840132077540E+03
    0.100477864276369400E+01   -0.400411741436377877E+01   -0.249824955190248366E+01    0.115960497714867770E+03
    0.100477864276369400E+01   -0.400411741436377877E+01   -0.249824955190248366E+01    0.115960497714867770E+03
    0.100385054020778419E+01   -0.400273178614152503E+01   -0.250429072382633544E+01    0.115964857854448610E+03
    0.100385054020778419E+01   -0.400273178614152503E+01   -0.250429072382633544E+01    0.115964857854448610E+03
    0.999160671536006961E+00   -0.399915450875908096E+01   -0.249512458097364576E+01    0.115970030375877258E+03
    0.994378062339558833E+00   -0.399499255374224393E+01   -0.249751715645610384E+01    0.115979738562340671E+03
    0.994378062339558833E+00   -0.399499255374224393E+01   -0.249751715645610384E+01    0.115979738562340671E+03
    0.994982425494926326E+00   -0.399595195537245917E+01   -0.250112910717828552E+01    0.115983813418461139E+03
    0.998233626371000771E+00   -0.399725440115332198E+01   -0.249659303105457919E+01    0.115984449965973937E+03
    0.998233626371000771E+00   -0.399725440115332198E+01   -0.249659303105457919E+01    0.115984449965973937E+03
    0.996245413621211995E+00   -0.399898997216992758E+01   -0.249512816351423261E+01    0.115987679778398615E+03
    0.999221786678195389E+00   -0.399713905492833543E+01   -0.250109547197502868E+01    0.116000669737821255E+03
    0.100157236803997285E+01   -0.400338440159569497E+01   -0.249740280401343506E+01    0.116005014000593178E+03
    0.100516509023816303E+01   -0.400483306515880599E+01   -0.250156460020627325E+01    0.116007025449093732E+03
    0.997269890680592352E+00   -0.399988769512017228E+01   -0.250088686873284427E+01    0.116007807471651773E+03
    0.100336037913827214E+01   -0.400180584628229941E+01   -0.249747673014771010E+01    0.116009060974066927E+03
    0.100315512203698698E+01   -0.400261718062358707E+01   -0.249679510894372170E+01    0.116036612093599331E+03
    0.997453950139346901E+00   -0.399661895289904612E+01   -0.249696944073749094E+01    0.116044057441489969E+03
    0.995772237340615263E+00   -0.399633162578980627E+01   -0.249571387078623319E+01    0.116044314969933495E+03
    0.995772237340615263E+00   -0.399633162578980627E+01   -0.249571387078623319E+01    0.116044314969933495E+03
    0.100368932053278770E+01   -0.400425018068805549E+01   -0.250180460012988304E+01    0.116049050929028425E+03
    0.994169619546695582E+00   -0.399505967529110118E+01   -0.249785819022674138E+01    0.116066905747364231E+03
    0.100430639269270694E+01   -0.400357685079058534E+01   -0.249790438522062352E+01    0.116067158121594275E+03
    0.100430639269270694E+01   -0.400357685079058534E+01   -0.249790438522062352E+01    0.116067158121594275E+03
    0.994001815095378993E+00   -0.399522872487596725E+01   -0.249717789576012761E+01    0.116073767655130709E+03
    0.998180388254763296E+00   -0.399815191824058003E+01   -0.249538694993946919E+01    0.116075215435594387E+03
    0.100180930553018843E+01   -0.400077929328487159E+01   -0.249648281199614530E+01    0.116076509226525559E+03
    0.100180930553018843E+01   -0.400077929328487159E+01   -0.249648281199614530E+01    0.116076509226525559E+03
    0.100394557753412017E+01   -0.400336482254670845E+01   -0.250357073540835406E+01    0.116089053652878263E+03
    0.100421638061846519E+01   -0.400212436208690292E+01   -0.250369457545534857E+01    0.116105000929482088E+03
    0.996483951285367153E+00   -0.399856655420985874E+01   -0.249489457278416626E+01    0.116105032648602474E+03
    0.996547200268314670E+00   -0.399944787109221966E+01   -0.249574852002874570E+01    0.116108806662238138E+03
    0.100206637583124891E+01   -0.399962799272533287E+01   -0.250304107014912613E+01    0.116110279200232327E+03
    0.997754077804514417E+00   -0.400062527935316137E+01   -0.249971180934893100E+01    0.116113884519163690E+03
    0.997754077804514417E+00   -0.400062527935316137E+01   -0.249971180934893100E+01    0.116113884519163690E+03
    0.995410947863174966E+00   -0.399580725983820706E+01   -0.249654386973508124E+01    0.116120733808649476E+03
    0.999684590219378610E+00   -0.400029632088706855E+01   -0.249516893756822977E+01    0.116123865459005827E+03
    0.999684590219378610E+00   -0.400029632088706855E+01   -0.249516893756822977E+01    0.116123865459005827E+03
    0.100251814975704145E+01   -0.400037891236448662E+01   -0.249835558375403854E+01    0.116124462809349737E+03
    0.100213147549391213E+01   -0.400187655586462743E+01   -0.249626399188256265E+01    0.116125694446368399E+03
    0.995892572443804025E+00   -0.399589290023009669E+01   -0.249683056396443215E+01    0.116126065995507943E+03
    0.100166226806837533E+01   -0.400285503106591367E+01   -0.250220978184299447E+01    0.116127510644059271E+03
    0.100144811330450612E+01   -0.400083768713402677E+01   -0.250427754526770352E+01    0.116130570218162234E+03
    0.999818375153393890E+00   -0.399778228747807685E+01   -0.250204776641875304E+01    0.116134803831099433E+03
    0.999818375153393890E+00   -0.399778228747807685E+01   -0.250204776641875304E+01    0.116134803831099433E+03
    0.100535267660797900E+01   -0.400410318221900940E+01   -0.250244016124966606E+01    0.116141076432328276E+03
    0.100535267660797900E+01   -0.400410318221900940E+01   -0.250244016124966606E+01    0.116141076432328276E+03
    0.995204497060607873E+00   -0.399581122848886494E+01   -0.250069054661208723E+01    0.116158198074138596E+03
    0.100021185365755816E+01   -0.399841696533816293E+01   -0.250308769324358105E+01    0.116165751811554458E+03
    0.100021185365755816E+01   -0.399841696533816293E+01   -0.250308769324358105E+01    0.116165751811554458E+03
    0.100238918515336173E+01   -0.400383939486683360E+01   -0.249981203163890564E+01    0.116168639334797319E+03
    0.994110728557140888E+00   -0.399686425369474652E+01   -0.249816110643713207E+01    0.116171739519668478E+03
    0.100121660768551068E+01   -0.400318445567016301E+01   -0.249826583707298244E+01    0.116171999681955768E+03
    0.999210241144371736E+00   -0.400179569548647063E+01   -0.249956931894497814E+01    0.116173891892466699E+03
    0.996938391639253130E+00   -0.399983962868547138E+01   -0.249610372973394901E+01    0.116174199743359551E+03
    0.996300787840253554E+00   -0.399575140354910197E+01   -0.249832518897955413E+01    0.116181261085875079E+03
    0.100318791900844628E+01   -0.400272268795591835E+01   -0.249710677013432836E+01    0.116189061620282786E+03
    0.100318791900844628E+01   -0.400272268795591835E+01   -0.249710677013432836E+01    0.116189061620282786E+03
    0.100243741559374966E+01   -0.400365949986550707E+01   -0.250098507368344469E+01    0.116200613309013221E+03
    0.993814247753748825E+00   -0.399603006945891170E+01   -0.249803244626014243E+01    0.116204687594834425E+03
    0.100309093827648654E+01   -0.400244240656962447E+01   -0.250385181359571618E+01    0.116205181974109891E+03
    0.999980284798854147E+00   -0.399781932131578888E+01   -0.250076924675606715E+01    0.116213373592737497E+03
    0.999980284798854147E+00   -0.399781932131578888E+01   -0.250076924675606715E+01    0.116213373592737497E+03
    0.994070185683340268E+00   -0.399540449892215221E+01   -0.249797275296023003E+01    0.116213650493815564E+03
    0.996730644296771162E+00   -0.399733248048863121E+01   -0.250228526212030467E+01    0.116215216108748749E+03
    0.996730644296771162E+00   -0.399733248048863121E+01   -0.250228526212030467E+01    0.116215216108748749E+03
    0.100400715237843485E+01   -0.400253576803282485E+01   -0.250366862460987871E+01    0.116235094099463197E+03
    0.100420268647457811E+01   -0.400266626497265499E+01   -0.249855843070030215E+01    0.116236277752495454E+03
    0.100420268647457811E+01   -0.400266626497265499E+01   -0.249855843070030215E+01    0.116236277752495454E+03
    0.100384096566957703E+01   -0.400418148580353161E+01   -0.250142865323911767E+01    0.116239171448875268E+03
    0.996664480592289959E+00   -0.399944227535301877E+01   -0.249979118171228176E+01    0.116241246616315422E+03
    0.995877971576982990E+00   -0.399564215950762858E+01   -0.249982990525957360E+01    0.116241550474970822E+03
    0.997273043647830981E+00   -0.400012088164714008E+01   -0.249640842376852312E+01    0.116247306742606625E+03
    0.997273043647830981E+00   -0.400012088164714008E+01   -0.249640842376852312E+01    0.116247306742606625E+03
    0.100398853799631627E+01   -0.400336563075564822E+01   -0.250316023244441377E+01    0.116253027738319375E+03
    0.999609978574640845E+00   -0.400197838865029798E+01   -0.249982716249923875E+01    0.116255686113016026E+03
    0.100530339187397799E+01   -0.400340801608518682E+01   -0.250166968949759738E+01    0.116259032314551305E+03
    0.997396470844655991E+00   -0.399854878163610117E+01   -0.250240599561238097E+01    0.116261634238751583E+03
    0.997396470844655991E+00   -0.399854878163610117E+01   -0.250240599561238097E+01    0.116261634238751583E+03
    0.100469532905802739E+01   -0.400444867488733003E+01   -0.250009995565218857E+01    0.116264076148673880E+03
    0.100218004112235226E+01   -0.400347914077620270E+01   -0.250084023633911290E+01    0.116264612847150076E+03
    0.996682258173982705E+00   -0.399781991538598369E+01   -0.250204680250883316E+01    0.116265243324644175E+03
    0.994352546439014606E+00   -0.399606712877360382E+01   -0.249938007854673971E+01    0.116275484012848850E+03
    0.100300845425290586E+01   -0.400390955933171533E+01   -0.250081689810415764E+01    0.116276528006789022E+03
    0.998865055048841044E+00   -0.400155219540362062E+01   -0.249818602404212342E+01    0.116277508135783009E+03
    0.100517925036860656E+01   -0.400411214517499303E+01   -0.250028938894641106E+01    0.116287677102101185E+03
    0.100517925036860656E+01   -0.400411214517499303E+01   -0.250028938894641106E+01    0.116287677102101185E+03
    0.996784435689823778E+00   -0.399608882746367922E+01   -0.250044516418700358E+01    0.116288471940845398E+03
    0.996784435689823778E+00   -0.399608882746367922E+01   -0.250044516418700358E+01    0.116288471940845398E+03
    0.996769887477594874E+00   -0.399735876526750378E+01   -0.249561256429837375E+01    0.116293862153559658E+03
    0.996769887477594874E+00   -0.399735876526750378E+01   -0.249561256429837375E+01    0.116293862153559658E+03
    0.997493087976763504E+00   -0.399663664857397993E+01   -0.250141539914850952E+01    0.116316924910638605E+03
    0.998903194327596222E+00   -0.399727421324642229E+01   -0.249913829021023615E+01    0.116323949681671280E+03
    0.998903194327596222E+00   -0.399727421324642229E+01   -0.249913829021023615E+01    0.116323949681671280E+03
    0.100517605853646952E+01   -0.400407838173285668E+01   -0.250108954581782639E+01    0.116326749360870252E+03
    0.100150734503999317E+01   -0.400265050997166849E+01   -0.249682766005413104E+01    0.116331459142727013E+03
    0.999785679594101362E+00   -0.400214971291047661E+01   -0.249872221404579342E+01    0.116333091234389272E+03
    0.100519506455609697E+01   -0.400372208976371979E+01   -0.250071308773447942E+01    0.116334279835292193E+03
    0.100519506455609697E+01   -0.400372208976371979E+01   -0.250071308773447942E+01    0.116334279835292193E+03
    0.100003548971780276E+01   -0.400129032916485272E+01   -0.249580945570114032E+01    0.116334310324125269E+03
    0.998836712181367936E+00   -0.400145991472053186E+01   -0.249789093419545516E+01    0.116339308629967618E+03
    0.999216911903198168E+00   -0.399973593381037151E+01   -0.249545513607845493E+01    0.116344792381872537E+03
    0.100503435354319426E+01   -0.400407192419204083E+01   -0.250143383123811702E+01    0.116345372302721671E+03
    0.100474646580077853E+01   -0.400256985109266150E+01   -0.250144079018287258E+01    0.116348410468587517E+03
    0.100474646580077853E+01   -0.400256985109266150E+01   -0.250144079018287258E+01    0.116348410468587517E+03
    0.100291752032730574E+01   -0.400107102783473501E+01   -0.249845204789429332E+01    0.116350353163110228E+03
    0.994344762303965402E+00   -0.399670484409352333E+01   -0.249836082368086032E+01    0.116351905178008280E+03
    0.994344762303965402E+00   -0.399670484409352333E+01   -0.249836082368086032E+01    0.116351905178008280E+03
    0.996497506934210131E+00   -0.399872772329778314E+01   -0.250066796124846213E+01    0.116353925274428818E+03
    0.100380219299368734E+01   -0.400265634247786029E+01   -0.249823941054719523E+01    0.116366052570246822E+03
    0.100335541644145887E+01   -0.400098611343122723E+01   -0.250239925259371176E+01    0.116371220437108065E+03
    0.996779241017131890E+00   -0.399896835673546391E+01   -0.250078257869262677E+01    0.116371613160895436E+03
    0.999114684535029163E+00   -0.399851245088040219E+01   -0.249639144245723887E+01    0.116373027038691234E+03
    0.998094635220258652E+00   -0.399962058256763742E+01   -0.250202606017407359E+01    0.116373412356747366E+03
    0.996706831470864030E+00   -0.399607124945966863E+01   -0.249926186955751284E+01    0.116378910776868764E+03
    0.996284703602167032E+00   -0.399648412234819528E+01   -0.249669623133193497E+01    0.116387005089737215E+03
    0.100380696387363288E+01   -0.400172313727875384E+01   -0.250288747143636847E+01    0.116387103213297976E+03
    0.100235355550103300E+01   -0.400011024202084098E+01   -0.250261672706760097E+01    0.116390656386053280E+03
    0.100073474863976064E+01   -0.400015003633208011E+01   -0.250373155585897056E+01    0.116393446522594672E+03
    0.994464585342178520E+00   -0.399629261324476781E+01   -0.249898258633732784E+01    0.116393895892178023E+03
    0.100241915305542317E+01   -0.400050941600599863E+01   -0.250330233874285835E+01    0.116394977262730691E+03
    0.100428880757191008E+01   -0.400257979291310928E+01   -0.250285249962218082E+01    0.116410496540383903E+03
    0.994397880685703006E+00   -0.399669901687101792E+01   -0.249794609634828335E+01    0.116410947562769209E+03
    0.100167464321749344E+01   -0.399937776403090695E+01   -0.250176544981775351E+01    0.116413357792640895E+03
    0.100167464321749344E+01   -0.399937776403090695E+01   -0.250176544981775351E+01    0.116413357792640895E+03
    0.999686061738281451E+00   -0.399970454505784989E+01   -0.250338598084530339E+01    0.116415181878808681E+03
    0.994482444671235810E+00   -0.399601747231007476E+01   -0.249880244343219760E+01    0.116415401768143553E+03
    0.100373533082486155E+01   -0.400344742107394502E+01   -0.250245884629369808E+01    0.116418364176492787E+03
    0.100400140108924396E+01   -0.400167710179156266E+01   -0.250117085680396656E+01    0.116419428638003907E+03
    0.100400140108924396E+01   -0.400167710179156266E+01   -0.250117085680396656E+01    0.116419428638003907E+03
    0.100255488795420988E+01   -0.400356079817464927E+01   -0.249856873617917730E+01    0.116419610047499276E+03
    0.100071517880577732E+01   -0.399870092903144059E+01   -0.250204668523740725E+01    0.116421492172537512E+03
    0.994965527852751608E+00   -0.399606897538417494E+01   -0.249693794085915277E+01    0.116422830678236451E+03
    0.997037081592796248E+00   -0.399675111507622915E+01   -0.249706625002172355E+01    0.116424661637690974E+03
    0.998255553837834042E+00   -0.399694853776858139E+01   -0.250069178265462888E+01    0.116425286219425388E+03
    0.100210302839422827E+01   -0.400330419974568841E+01   -0.250059517515227414E+01    0.116432257296674948E+03
    0.100127657899722200E+01   -0.400015674383585740E+01   -0.250365232554944406E+01    0.116434933977362007E+03
    0.100291195118078513E+01   -0.400370129534148766E+01   -0.249881658521195638E+01    0.116436330811489071E+03
    0.997432257945897405E+00   -0.399853414174877786E+01   -0.249541753988900128E+01    0.116438022452133211E+03
    0.998382724043665126E+00   -0.400088323846308302E+01   -0.249701044925011661E+01    0.116448133101827580E+03
    0.100343349361550382E+01   -0.400226093401657934E+01   -0.250334991192545653E+01    0.116450100511002887E+03
    0.100412468964463564E+01   -0.400249412834510743E+01   -0.249929600430997834E+01    0.116456774679790371E+03
    0.100391936728511055E+01   -0.400309244440633627E+01   -0.249852059921135927E+01    0.116457700879774336E+03
    0.995894123408866960E+00   -0.399802617933914295E+01   -0.249585754486020139E+01    0.116460563943782688E+03
    0.997505206095781083E+00   -0.399734290897470101E+01   -0.250209231488216011E+01    0.116461728936558856E+03
    0.997505206095781083E+00   -0.399734290897470101E+01   -0.250209231488216011E+01    0.116461728936558856E+03
    0.100343268246729966E+01   -0.400262628467034443E+01   -0.249800296253013876E+01    0.116462452260791522E+03
    0.100092469148622887E+01   -0.399884624660360100E+01   -0.250169979348647820E+01    0.116472375006880952E+03
    0.100157863132284564E+01   -0.400270780616355726E+01   -0.250144918919838011E+01    0.116476198154656501E+03
    0.996253239455244688E+00   -0.399621579238792091E+01   -0.249768105036657539E+01    0.116476648049808844E+03
    0.100297877982060712E+01   -0.400062367309231259E+01   -0.250106339181928483E+01    0.116482869452065685E+03
    0.100297877982060712E+01   -0.400062367309231259E+01   -0.250106339181928483E+01    0.116482869452065685E+03
    0.996493886126064599E+00   -0.399805323569797011E+01   -0.250118109135579214E+01    0.116484194815903464E+03
    0.998829345812307867E+00   -0.399974919710959398E+01   -0.250255488885824384E+01    0.116486201709687847E+03
    0.996725752652881880E+00   -0.399897556990112024E+01   -0.250029214406381550E+01    0.116498342784611552E+03
    0.998671091034650349E+00   -0.399770405539181795E+01   -0.249753292400666993E+01    0.116499441432418891E+03
    0.100095894271735397E+01   -0.400030883123497549E+01   -0.249670560427878030E+01    0.116503540443935435E+03
    0.999664479475149137E+00   -0.399791515743499648E+01   -0.250103348852586027E+01    0.116508373559878578E+03
    0.999892678530481915E+00   -0.400195893431310523E+01   -0.249967098348271888E+01    0.116512596019121560E+03
    0.997605404075075364E+00   -0.399704125511355990E+01   -0.250152794257285027E+01    0.116521677088557908E+03
    0.996995090302741249E+00   -0.399866917966686675E+01   -0.249563634739976514E+01    0.116526608632766809E+03
    0.999362258989363372E+00   -0.399776210721054248E+01   -0.249932958335144306E+01    0.116526808854561878E+03
    0.100396889100555176E+01   -0.400214803480352366E+01   -0.250249484090407659E+01    0.116530252875765385E+03
    0.994687428746760083E+00   -0.399622416702169714E+01   -0.249790093385548984E+01    0.116539199033751046E+03
    0.994687428746760083E+00   -0.399622416702169714E+01   -0.249790093385548984E+01    0.116539199033751046E+03
    0.998963378053233431E+00   -0.400106513262634600E+01   -0.250031473126813664E+01    0.116543595008266493E+03
    0.999220754463899685E+00   -0.399783974383408491E+01   -0.249850945094093468E+01    0.116546559079695513E+03
    0.995383231642471444E+00   -0.399608756908241025E+01   -0.249765078454677747E+01    0.116548651955058403E+03
    0.995383231642471444E+00   -0.399608756908241025E+01   -0.249765078454677747E+01    0.116548651955058403E+03
    0.100233698958629236E+01   -0.400125930328970636E+01   -0.249764649952616224E+01    0.116549865378214875E+03
    0.100233698958629236E+01   -0.400125930328970636E+01   -0.249764649952616224E+01    0.116549865378214875E+03
    0.995553978690968178E+00   -0.399680939532352131E+01   -0.250028920228593110E+01    0.116550408837931101E+03
    0.999260498982902368E+00   -0.400138663550404683E+01   -0.249715814629086807E+01    0.116555267532649609E+03
    0.995857103336627136E+00   -0.399610400148640910E+01   -0.249957637308280844E+01    0.116562337967736184E+03
    0.997290504858433624E+00   -0.399892557408486216E+01   -0.249569622945619596E+01    0.116562675386777443E+03
    0.997290504858433624E+00   -0.399892557408486216E+01   -0.249569622945619596E+01    0.116562675386777443E+03
    0.996061720654709770E+00   -0.399865277129950014E+01   -0.249876748590675302E+01    0.116564168208817520E+03
    0.100259288660871348E+01   -0.400034595353238664E+01   -0.250092743152894847E+01    0.116564718114411832E+03
    0.100379891910085761E+01   -0.400257325471725522E+01   -0.249891492488638445E+01    0.116570393858497738E+03
    0.100205583131444320E+01   -0.400085923905317209E+01   -0.249771503314712540E+01    0.116571801121527827E+03
    0.100205583131444320E+01   -0.400085923905317209E+01   -0.249771503314712540E+01    0.116571801121527827E+03
    0.999748980282244570E+00   -0.400075026250775689E+01   -0.250230274217160131E+01    0.116574324627938594E+03
    0.999140203221487333E+00   -0.399957140661361965E+01   -0.249589013937838500E+01    0.116574953746472815E+03
    0.996797494685223828E+00   -0.399887921966739457E+01   -0.250039793027897650E+01    0.116577253633387798E+03
    0.998854371103288896E+00   -0.399818818175998469E+01   -0.249700847246940327E+01    0.116577309334011218E+03
    0.996766306136565028E+00   -0.399845488236125490E+01   -0.249580553009257589E+01    0.116583101989965627E+03
    0.996739021158719485E+00   -0.399693847740053521E+01   -0.249687510470263829E+01    0.116597730961551051E+03
    0.999433959645718462E+00   -0.399794813368208324E+01   -0.250144919333567328E+01    0.116600207739941453E+03
    0.100388568071176554E+01   -0.400272392397182930E+01   -0.249910600334022348E+01    0.116603897355142223E+03
    0.100257345186091396E+01   -0.400273123592063218E+01   -0.250226692865268108E+01    0.116608869887141694E+03
    0.996144778308512668E+00   -0.399651779653802919E+01   -0.250039537632941133E+01    0.116611662920187769E+03
    0.100169814844949556E+01   -0.399973287915202658E+01   -0.249951117939836642E+01    0.116615592631896689E+03
    0.100325588143160838E+01   -0.400343249546062729E+01   -0.250129163226977758E+01    0.116618506182932819E+03
    0.998552173473365778E+00   -0.399729964370856994E+01   -0.250029057733357618E+01    0.116621225919991460E+03
    0.100241615648903437E+01   -0.400177365194922618E+01   -0.250313383891906582E+01    0.116623555022743261E+03
    0.996549461213175447E+00   -0.399644537863712213E+01   -0.249808783517873589E+01    0.116624040242998149E+03
    0.997130768774091458E+00   -0.399821236872054975E+01   -0.249587018335109967E+01    0.116624254477257921E+03
    0.100126919212244592E+01   -0.400250631162454518E+01   -0.250086621168860646E+01    0.116633381766508052E+03
    0.100196128751843760E+01   -0.400095407012207716E+01   -0.249761822125189425E+01    0.116634821460509855E+03
    0.100146847752309065E+01   -0.400090283589723494E+01   -0.250325811818644128E+01    0.116635686251223035E+03
    0.100193350630296640E+01   -0.400084428320134400E+01   -0.249770025145788743E+01    0.116635937772118268E+03
    0.100210922751437348E+01   -0.400315398272359246E+01   -0.249903193515542199E+01    0.116637121825195990E+03
    0.100325081101300095E+01   -0.400181461926948590E+01   -0.250281931260091817E+01    0.116640109417508825E+03
    0.100388592608754834E+01   -0.400358861036003333E+01   -0.249975283480545585E+01    0.116641716293831465E+03
    0.997639381261993030E+00   -0.399864570668507291E+01   -0.250179973615731566E+01    0.116645835741906112E+03
    0.100183668495785727E+01   -0.400062735108619716E+01   -0.249784658707692353E+01    0.116646533429967477E+03
    0.100183668495785727E+01   -0.400062735108619716E+01   -0.249784658707692353E+01    0.116646533429967477E+03
    0.100429595384799586E+01   -0.400274772578225946E+01   -0.250126303892386170E+01    0.116647794556816592E+03
    0.999229452995673784E+00   -0.399774623058369860E+01   -0.250041317634181670E+01    0.116648093579258457E+03
    0.995772534949508792E+00   -0.399758234962759040E+01   -0.249641021969910604E+01    0.116648646178173394E+03
    0.100425722861677569E+01   -0.400350562796041753E+01   -0.250062475792222072E+01    0.116650215344167037E+03
    0.100347453951347632E+01   -0.400215599351661933E+01   -0.250269021545507986E+01    0.116650243192880424E+03
    0.998524722295018763E+00   -0.400004424270925618E+01   -0.250143652179431797E+01    0.116650998835386901E+03
    0.997769894650928246E+00   -0.399886347451605229E+01   -0.249584291341636089E+01    0.116655118417206921E+03
    0.997220667828494056E+00   -0.399709603418193105E+01   -0.250124152484033857E+01    0.116656079875978421E+03
    0.100376117817523092E+01   -0.400231474989968916E+01   -0.249945316471155454E+01    0.116657440947999746E+03
    0.100359087042591311E+01   -0.400304688549454379E+01   -0.249881871312492487E+01    0.116658095738264308E+03
    0.100297071854517328E+01   -0.400093390925076609E+01   -0.250179711420680917E+01    0.116659526733707551E+03
    0.995271233001909117E+00   -0.399741550928849865E+01   -0.249729182267615313E+01    0.116661046832669641E+03
    0.100425149761963683E+01   -0.400301708480770291E+01   -0.250027079245576367E+01    0.116667571024044165E+03
    0.100295468065601145E+01   -0.400188189567051111E+01   -0.250292468417924008E+01    0.116668839346435817E+03
    0.100352964979824866E+01   -0.400284358747421987E+01   -0.249875825927412842E+01    0.116673897391682871E+03
    0.100306044378383308E+01   -0.400106245450182385E+01   -0.250030536557127547E+01    0.116674523329443389E+03
    0.100417596341851167E+01   -0.400274530490932712E+01   -0.250038016833557286E+01    0.116678187659696277E+03
    0.100122273983906984E+01   -0.400194097525720505E+01   -0.250201500686107181E+01    0.116681615339823963E+03
    0.997007003849861295E+00   -0.399671377275376383E+01   -0.250035185435258667E+01    0.116685326110797803E+03
    0.996365477997559590E+00   -0.399812235374945146E+01   -0.250031497708768891E+01    0.116690048933035754E+03
    0.996051886517346330E+00   -0.399707215533189020E+01   -0.249666319322895891E+01    0.116692478680384752E+03
    0.996542692990994405E+00   -0.399888893304642323E+01   -0.249918850755140864E+01    0.116692983938388267E+03
    0.100167894174975469E+01   -0.400050723647187834E+01   -0.250303868656925577E+01    0.116698064717987307E+03
    0.100269177393343845E+01   -0.400204100758744730E+01   -0.249794946092107972E+01    0.116698991476901057E+03
    0.100004960830947454E+01   -0.400124829755577416E+01   -0.249660772877600579E+01    0.116699664200249771E+03
    0.100085346333860703E+01   -0.399905436039673479E+01   -0.249964771238852412E+01    0.116701495690563419E+03
    0.996943200981327493E+00   -0.399857688811291379E+01   -0.249607808194911707E+01    0.116701722008512405E+03
    0.100234336818094949E+01   -0.400032420452957904E+01   -0.250151562648778159E+01    0.116703307109232711E+03
    0.996498968825680453E+00   -0.399664039575454444E+01   -0.249774909309395809E+01    0.116705043275106689E+03
    0.995778535977114077E+00   -0.399643590696878181E+01   -0.249778821697806075E+01    0.116705588361419018E+03
    0.100124599024555594E+01   -0.399932505143963191E+01   -0.250109833051971009E+01    0.116713777939185789E+03
    0.100173434295153707E+01   -0.400044351472046511E+01   -0.249812357772214488E+01    0.116714415604976637E+03
    0.100408885396728698E+01   -0.400304342664078572E+01   -0.250141266877875479E+01    0.116718525321829276E+03
    0.999409656061474139E+00   -0.399880878475389023E+01   -0.250257519220682045E+01    0.116720176527472518E+03
    0.996667326587409197E+00   -0.399702232064733076E+01   -0.249708580154241755E+01    0.116724336973363748E+03
    0.996789478492500769E+00   -0.399926330456829415E+01   -0.249792089643872739E+01    0.116725898068707352E+03
    0.998051171226274958E+00   -0.399825517327206814E+01   -0.249645714858173262E+01    0.116729663792194941E+03
    0.996266490484167822E+00   -0.399860748320975112E+01   -0.249877996329114849E+01    0.116729995192168104E+03
    0.998249198533311732E+00   -0.400051698069909278E+01   -0.249907214042644288E+01    0.116731381293500732E+03
    0.997390640492359259E+00   -0.399890029421273407E+01   -0.250102371485270503E+01    0.116732399651240883E+03
    0.999548282152218470E+00   -0.399851338416459390E+01   -0.249788450477439827E+01    0.116732703981756430E+03
    0.998305459248200133E+00   -0.399728578561382974E+01   -0.250001135134253349E+01    0.116733413468689108E+03
    0.100410744634862192E+01   -0.400297569886450333E+01   -0.250114941555596815E+01    0.116735416293733707E+03
    0.996769990042186027E+00   -0.399658718729842022E+01   -0.249886394570203141E+01    0.116737551638004447E+03
    0.100018920826955693E+01   -0.399951136981662447E+01   -0.250283785700369910E+01    0.116738579642592072E+03
    0.100409932035580951E+01   -0.400295656074431250E+01   -0.250111814502123009E+01    0.116739594563174279E+03
    0.100112366469108638E+01   -0.400075032755630744E+01   -0.249704603956819504E+01    0.116740663050338682E+03
    0.997564245650148118E+00   -0.399973796720683783E+01   -0.249970716667179671E+01    0.116742400613595052E+03
    0.995449503944902725E+00   -0.399736653126355979E+01   -0.249735424150599217E+01    0.116745491981560718E+03
    0.100055603398935600E+01   -0.400187308332921354E+01   -0.249735435554412621E+01    0.116747223504728126E+03
    0.100254982457395259E+01   -0.400115329659360253E+01   -0.249870180952824850E+01    0.116748237678048298E+03
    0.996325570928345727E+00   -0.399805839186791712E+01   -0.250010457113208817E+01    0.116749967874260150E+03
    0.995906337418026699E+00   -0.399713741928058797E+01   -0.250000596441532785E+01    0.116750237422907446E+03
    0.100391485778465528E+01   -0.400236914703294744E+01   -0.250083931519024194E+01    0.116751313931224146E+03
    0.100113513888509731E+01   -0.400045250769367655E+01   -0.249731007178990883E+01    0.116751994811764789E+03
    0.100234959538071777E+01   -0.400284722602355458E+01   -0.249835263188277246E+01    0.116757727132236766E+03
    0.999999064392184334E+00   -0.400175044980967076E+01   -0.249972217293050747E+01    0.116758638561052521E+03
    0.998928725687416308E+00   -0.399896249577881058E+01   -0.250242500170304272E+01    0.116758820702658014E+03
    0.999806800106760818E+00   -0.399889139306601837E+01   -0.249762008249904355E+01    0.116760377836031878E+03
    0.999283675784357728E+00   -0.400006571370621877E+01   -0.250212718889920760E+01    0.116765691728008122E+03
    0.100036367715035457E+01   -0.399870893483293832E+01   -0.249983294155843305E+01    0.116767240009968020E+03
    0.100320599653583598E+01   -0.400167673005475244E+01   -0.249951720836218172E+01    0.116772520789818500E+03
    0.996265240723485102E+00   -0.399825843983161500E+01   -0.249674740243976778E+01    0.116773743473527901E+03
    0.100052694260776764E+01   -0.400152201544603070E+01   -0.250158927194480318E+01    0.116774887499969154E+03
    0.999339727435481606E+00   -0.399797551304680976E+01   -0.250043422743179722E+01    0.116778563290724406E+03
    0.100165722838625904E+01   -0.400166428251031547E+01   -0.250251629304225087E+01    0.116782257033021310E+03
    0.997098411720208078E+00   -0.399875200949995246E+01   -0.249631326799659226E+01    0.116786482407874075E+03
    0.100188806656595863E+01   -0.400195971723817667E+01   -0.249750716658228811E+01    0.116786558714227638E+03
    0.100303150709207678E+01   -0.400244080360771992E+01   -0.250223877105913539E+01    0.116792630058502766E+03
    0.100185957975609208E+01   -0.400271880259676749E+01   -0.250055950937589966E+01    0.116793544994777093E+03
    0.100367024733696875E+01   -0.400304398700013842E+01   -0.250131811854806729E+01    0.116795864035839870E+03
    0.995926164984938467E+00   -0.399708533593482507E+01   -0.249981143878360879E+01    0.116798856052520591E+03
    0.996005636012358364E+00   -0.399753105332050707E+01   -0.249979558962282145E+01    0.116799885339999491E+03
    0.996918891209718327E+00   -0.399724008748962945E+01   -0.250081074661868819E+01    0.116803069946139829E+03
    0.996931554116240459E+00   -0.399882127966567369E+01   -0.249656502879611120E+01    0.116803380106279931E+03
    0.999458418876894572E+00   -0.399998086835343969E+01   -0.249639655564221963E+01    0.116808562531139103E+03
    0.997088829910762087E+00   -0.399757350362734210E+01   -0.250107023214818636E+01    0.116815356476077156E+03
    0.997117636453153544E+00   -0.399819871846297614E+01   -0.250102051944119541E+01    0.116817710064893618E+03
    0.100231186357086988E+01   -0.400047877010833020E+01   -0.250025356696453693E+01    0.116819398240555515E+03
    0.100064415191436251E+01   -0.400155247544783954E+01   -0.249710139802610076E+01    0.116820367876692131E+03
    0.998768250146360836E+00   -0.400001137843596943E+01   -0.250140844629932735E+01    0.116822208033672254E+03
    0.100006015552542227E+01   -0.399871716051899995E+01   -0.250165371763837374E+01    0.116825006398940545E+03
    0.997088477123367456E+00   -0.399923888109519199E+01   -0.249928610119397776E+01    0.116828109814211587E+03
    0.100221233841566759E+01   -0.400175220549794730E+01   -0.249788470520920480E+01    0.116828647264074931E+03
    0.996987641104430278E+00   -0.399784668393785703E+01   -0.249721677705669531E+01    0.117010934494479969E+03
    0.100321087764739159E+01   -0.400256830638196792E+01   -0.250163366563080869E+01    0.116889111212123922E+03
    0.100146106527314638E+01   -0.400122470506415606E+01   -0.249832374888107944E+01    0.117140860822246282E+03
    0.100330014754487307E+01   -0.400239290656009938E+01   -0.250023083838169136E+01    0.116971200960317105E+03
    0.100076871655563870E+01   -0.400039940624700296E+01   -0.250245923334353870E+01    0.116940413588523185E+03
    0.100237031699904522E+01   -0.400162768551109416E+01   -0.249978320039328583E+01    0.117167238272426303E+03
    0.100237031699904522E+01   -0.400162768551109416E+01   -0.249978320039328583E+01    0.117167238272426303E+03
    0.998973162997359165E+00   -0.399922381024451212E+01   -0.250131148773754619E+01    0.117151562879570903E+03
    0.100188417505207661E+01   -0.400101268688625034E+01   -0.250163064095239873E+01    0.117122155259200085E+03
    0.998347998127781855E+00   -0.399978688350297862E+01   -0.250073130114693454E+01    0.116935963376171060E+03
    0.100079576992204000E+01   -0.399957965151243044E+01   -0.249841720105355503E+01    0.116876969184096410E+03
    0.100298758320146830E+01   -0.400157062041086320E+01   -0.250018070289120775E+01    0.116945942133960870E+03
    0.997505572352433867E+00   -0.399903327663723740E+01   -0.249841337572562594E+01    0.117188988306183290E+03
    0.999770871952311957E+00   -0.399972582746035510E+01   -0.249843100919797045E+01    0.117345215617803063E+03
    0.100007763528474936E+01   -0.399963474734095570E+01   -0.250222285600019845E+01    0.116980755499410918E+03
    0.998474907479905971E+00   -0.399903914341712241E+01   -0.249914583397665524E+01    0.117404859275509139E+03
    0.998474907479905971E+00   -0.399903914341712241E+01   -0.249914583397665524E+01    0.117404859275509139E+03
    0.998387499841518755E+00   -0.399819496861557511E+01   -0.249757665569867227E+01    0.116986752324362016E+03
    0.100005082503824583E+01   -0.399896484169417477E+01   -0.250123972992767429E+01    0.117036168252925478E+03
    0.100269941254717243E+01   -0.400186249809656580E+01   -0.249880879797298672E+01    0.116926624266824689E+03
    0.996993405112568953E+00   -0.399851449534331005E+01   -0.249767351520225400E+01    0.117099075611783917E+03
    0.100204405251625794E+01   -0.400230018692008294E+01   -0.249994860139044395E+01    0.117108905778177046E+03
    0.100376076566758710E+01   -0.400293639552906466E+01   -0.250024534637173002E+01    0.116830121447826173E+03
    0.997542918458153460E+00   -0.399848227184391902E+01   -0.250012354471299680E+01    0.117163305889197702E+03
    0.997548445694551034E+00   -0.399797784862734940E+01   -0.249702080548639538E+01    0.116944449579019178E+03
    0.995897724248962835E+00   -0.399719323299115414E+01   -0.249903250055960413E+01    0.116907266085942908E+03
    0.100259570773042195E+01   -0.400125663500085604E+01   -0.249897083665357567E+01    0.116839452725073841E+03
    0.999619709446646243E+00   -0.399906160178871506E+01   -0.249764557303798274E+01    0.116966917027649956E+03
    0.997917078458364526E+00   -0.399850618121055490E+01   -0.250019490966196756E+01    0.117237220335581867E+03
    0.100191378674919385E+01   -0.400022403483328848E+01   -0.249976480514713684E+01    0.116864146667184272E+03
    0.100204289344198005E+01   -0.400236156051307823E+01   -0.249833897769761970E+01    0.116928435375702122E+03
    0.100216010878746054E+01   -0.400180923927745980E+01   -0.250086654554776189E+01    0.117183817175421282E+03
    0.100126945815459867E+01   -0.400112719472639178E+01   -0.249829407401378134E+01    0.117172675000994076E+03
    0.999534822965886804E+00   -0.400006343047373747E+01   -0.249755164059874035E+01    0.117209122940345054E+03
    0.100194120613872828E+01   -0.400128895029947174E+01   -0.249866365279056346E+01    0.117084600621989111E+03
    0.996486022707909314E+00   -0.399783548921933951E+01   -0.249668077608924399E+01    0.116847681681273144E+03
    0.100271354913449384E+01   -0.400160917195843169E+01   -0.249940182834443414E+01    0.116988746340772238E+03
    0.100105884650022281E+01   -0.400135373624381163E+01   -0.249975040814815408E+01    0.117323030127121868E+03
    0.100105884650022281E+01   -0.400135373624381163E+01   -0.249975040814815408E+01    0.117323030127121868E+03
    0.100157431494729154E+01   -0.400168991112148653E+01   -0.249784461200261720E+01    0.116978956134472014E+03
    0.100227399138135476E+01   -0.400124860173160002E+01   -0.250249556075725854E+01    0.116876442052196666E+03
    0.998048603056906458E+00   -0.400017523371653461E+01   -0.249838850419846104E+01    0.116894666824234235E+03
    0.998354080219403306E+00   -0.399967751364120705E+01   -0.249825686280110837E+01    0.117257559365555636E+03
    0.100302490850886272E+01   -0.400256559479827079E+01   -0.250014335513383390E+01    0.117016813886410816E+03
    0.999512696682557822E+00   -0.400073551426306828E+01   -0.249884292610528869E+01    0.117233219109138574E+03
    0.999935595283376055E+00   -0.400040112355536248E+01   -0.249914788385196651E+01    0.117421995089026453E+03
    0.998387685492555965E+00   -0.399833641068792911E+01   -0.249920405897487852E+01    0.117292693999989538E+03
    0.998387685492555965E+00   -0.399833641068792911E+01   -0.249920405897487852E+01    0.117292693999989538E+03
    0.100054933210154573E+01   -0.400011251311127403E+01   -0.250074396459099635E+01    0.117347065197509096E+03
    0.997564602016963620E+00   -0.399839227736061353E+01   -0.250010537496370056E+01    0.117180760745495888E+03
    0.100152667071858303E+01   -0.400138725532858697E+01   -0.249867535093543847E+01    0.117205116151299649E+03
    0.100152667071858303E+01   -0.400138725532858697E+01   -0.249867535093543847E+01    0.117205116151299649E+03
    0.996742391527169036E+00   -0.399860284678094446E+01   -0.249771242190891929E+01    0.116998474010260011E+03
    0.100100630722281947E+01   -0.400081088094405946E+01   -0.250125104658534436E+01    0.117255996208703309E+03
    0.998825381042888649E+00   -0.400007576689255373E+01   -0.249730843638818500E+01    0.117105133209317046E+03
    0.997189974777861865E+00   -0.399812290444980079E+01   -0.250003809232238394E+01    0.117110770798718391E+03
    0.100005379237772596E+01   -0.399928788377048239E+01   -0.250223137896563808E+01    0.116919135076366473E+03
    0.100025207483616008E+01   -0.400068312075347166E+01   -0.249785173562549723E+01    0.117213278660178560E+03
    0.100025207483616008E+01   -0.400068312075347166E+01   -0.249785173562549723E+01    0.117213278660178560E+03
    0.999210915570046598E+00   -0.399900281542841496E+01   -0.249705310051978913E+01    0.116898625364077219E+03
    0.998480369882254859E+00   -0.399796289358173151E+01   -0.249864917306438983E+01    0.117053407719183696E+03
    0.997339620397788007E+00   -0.399804769887664824E+01   -0.249957534097403133E+01    0.117210579309914664E+03
    0.100053766354060047E+01   -0.400053448357924069E+01   -0.250139645433561597E+01    0.117224029638660383E+03
    0.100053766354060047E+01   -0.400053448357924069E+01   -0.250139645433561597E+01    0.117224029638660383E+03
    0.100221197338907797E+01   -0.400192447525663120E+01   -0.249803531660974887E+01    0.116886872728670980E+03
    0.100168327300742144E+01   -0.400014266871936286E+01   -0.249917930632564111E+01    0.116861550554267211E+03
    0.999919905791574082E+00   -0.399879680568781248E+01   -0.250051365672463710E+01    0.117072086876357218E+03
    0.997441502071734432E+00   -0.399801368263309786E+01   -0.249711495367213265E+01    0.116998085946387320E+03
    0.999497355658301334E+00   -0.399945847801199594E+01   -0.249974214189119870E+01    0.117432892382598865E+03
    0.999173483741827684E+00   -0.399862961102593717E+01   -0.250096707431631149E+01    0.117144607138071862E+03
    0.999633496701574198E+00   -0.399946092351584070E+01   -0.249747070127751458E+01    0.117073381037524641E+03
    0.995975221045041104E+00   -0.399702824427680525E+01   -0.249963294662266655E+01    0.116842591050885375E+03
    0.996312607284836282E+00   -0.399727361752778831E+01   -0.249985719239328485E+01    0.116908637038837455E+03
    0.100176106970849110E+01   -0.400152574652792836E+01   -0.250092601382063684E+01    0.117229351662777020E+03
    0.996218888097001209E+00   -0.399788245840850731E+01   -0.249870869734780099E+01    0.116980377391229283E+03
    0.100062015519968450E+01   -0.399924832982256406E+01   -0.250191863772585821E+01    0.116858440657191153E+03
    0.997544029454144332E+00   -0.399891888664148620E+01   -0.250007232348152186E+01    0.117076129909829945E+03
    0.100342256954981468E+01   -0.400253255266482100E+01   -0.249962731189642673E+01    0.116879404427031062E+03
    0.997464595160503897E+00   -0.399789655861670123E+01   -0.249940102058368652E+01    0.117217533193838648E+03
    0.997464595160503897E+00   -0.399789655861670123E+01   -0.249940102058368652E+01    0.117217533193838648E+03
    0.998719713842161072E+00   -0.399987242373307783E+01   -0.249831077164957405E+01    0.117298836846721926E+03
    0.100122990811927570E+01   -0.400085317978098232E+01   -0.250174945520596248E+01    0.117146329455400959E+03
    0.999349799394477545E+00   -0.399928064136521222E+01   -0.249757332292655088E+01    0.117132456813064422E+03
    0.998311386686506208E+00   -0.399875076438119903E+01   -0.249991115851672818E+01    0.117338430389466538E+03
    0.100254655993683750E+01   -0.400286439696971996E+01   -0.250059975414009106E+01    0.116889084405161853E+03
    0.998423372117826835E+00   -0.400037554474282597E+01   -0.249859186015595380E+01    0.116968562613655905E+03
    0.100133566512230510E+01   -0.400137214214121695E+01   -0.249723378941893515E+01    0.116832099662462298E+03
    0.999137277006925340E+00   -0.399899038440622290E+01   -0.250173608021920302E+01    0.117039258643394547E+03
    0.100113026910318448E+01   -0.399989186229508675E+01   -0.250122865428806662E+01    0.117094226947915104E+03
    0.100247556677120575E+01   -0.400237136510772551E+01   -0.249969610679246657E+01    0.117090920529337168E+03
    0.999901837131672133E+00   -0.399889851143082264E+01   -0.250014087763229798E+01    0.117148451586055018E+03
    0.996871696482426684E+00   -0.399857949338849572E+01   -0.249949311784511963E+01    0.116987482037715225E+03
    0.100079686471042950E+01   -0.399986763470206652E+01   -0.249924270527821513E+01    0.117202739888053870E+03
    0.100298258616199987E+01   -0.400175336616207300E+01   -0.249981314135230237E+01    0.116963770835750509E+03
    0.999583587974809840E+00   -0.400044923428758459E+01   -0.249937277422911430E+01    0.117358055966588580E+03
    0.999583587974809840E+00   -0.400044923428758459E+01   -0.249937277422911430E+01    0.117358055966588580E+03
    0.100149183778759876E+01   -0.400172296717510001E+01   -0.250070441053762682E+01    0.117190343366725074E+03
    0.100251460313032181E+01   -0.400132468940234620E+01   -0.249970577979916797E+01    0.117044346303583552E+03
    0.100102077493865926E+01   -0.400003033801192043E+01   -0.250065824590198593E+01    0.117235782888855510E+03
    0.997599451187797359E+00   -0.399841326553013898E+01   -0.249876897603652459E+01    0.117300095576335423E+03
    0.997599451187797359E+00   -0.399841326553013898E+01   -0.249876897603652459E+01    0.117300095576335423E+03
    0.100229403562689878E+01   -0.400246519356641883E+01   -0.250059419745282163E+01    0.117034567149031147E+03
    0.997232344715683228E+00   -0.399858752161284681E+01   -0.249665089069885227E+01    0.116929423449759383E+03
    0.997061363205103746E+00   -0.399746814626916969E+01   -0.249872562972458701E+01    0.117114072813760018E+03
    0.100088934836210086E+01   -0.400098392731913233E+01   -0.250206238660873126E+01    0.116994597205292123E+03
    0.995699935357749366E+00   -0.399755958086807350E+01   -0.249813088179088094E+01    0.116850810250804727E+03
    0.996880217446016625E+00   -0.399788259411897862E+01   -0.249903287302134602E+01    0.117162949798016854E+03
    0.999832359415812943E+00   -0.399979502763258088E+01   -0.250092221607902543E+01    0.117322949394152829E+03
    0.999832359415812943E+00   -0.399979502763258088E+01   -0.250092221607902543E+01    0.117322949394152829E+03
    0.100059318889819582E+01   -0.400007449916994862E+01   -0.250204251692721469E+01    0.117070295884568978E+03
    0.100022269637034977E+01   -0.400062823974354487E+01   -0.249731310276593588E+01    0.117066758639342368E+03
    0.999229353239126206E+00   -0.399928816694870459E+01   -0.250037246715131012E+01    0.117371524651925583E+03
    0.999057338795183880E+00   -0.399965554172392768E+01   -0.250150126168330189E+01    0.117049893753217859E+03
    0.998399349349360143E+00   -0.399930041141655135E+01   -0.249900724014699360E+01    0.117376731643303557E+03
    0.998399349349360143E+00   -0.399930041141655135E+01   -0.249900724014699360E+01    0.117376731643303557E+03
    0.100064763431238246E+01   -0.399945140252630171E+01   -0.250065409289962348E+01    0.117125947082364959E+03
    0.100190263000061863E+01   -0.400192037130884160E+01   -0.250036760487505871E+01    0.117203505953714441E+03
    0.100327348420241247E+01   -0.400292808700562830E+01   -0.250066375727637169E+01    0.116907384783241682E+03
    0.100004726019129175E+01   -0.399976006316731603E+01   -0.250176199860704251E+01    0.117131504406433663E+03
    0.100168577907867418E+01   -0.400002240191858416E+01   -0.249971418103797394E+01    0.116874242283764005E+03
    0.997968957141849522E+00   -0.399736265055925699E+01   -0.249868795038459268E+01    0.116863763817765189E+03
    0.100244084220680740E+01   -0.400212881879481230E+01   -0.250201365536992482E+01    0.116908950729896446E+03
    0.100066297285799455E+01   -0.399971161019610832E+01   -0.249825098854842054E+01    0.116983174470198023E+03
    0.100165872543214451E+01   -0.400031925244798270E+01   -0.249882678349998955E+01    0.116902361316512227E+03
    0.100338163202293007E+01   -0.400234661780374346E+01   -0.249949023847913754E+01    0.116857617012382178E+03
    0.999970214264492285E+00   -0.399954512246894112E+01   -0.250173820753802989E+01    0.117119533773818574E+03
    0.100280009700432382E+01   -0.400130120465726247E+01   -0.250128370608391259E+01    0.116951174588536702E+03
    0.998048721586273668E+00   -0.399915512949702112E+01   -0.249790205227969953E+01    0.117263897891268627E+03
    0.100004628322672273E+01   -0.400070330508693139E+01   -0.249966228093100495E+01    0.117366869682906028E+03
    0.100004628322672273E+01   -0.400070330508693139E+01   -0.249966228093100495E+01    0.117366869682906028E+03
    0.997681173220273276E+00   -0.399906867081852457E+01   -0.249903816341746099E+01    0.117227285287642502E+03
    0.997681173220273276E+00   -0.399906867081852457E+01   -0.249903816341746099E+01    0.117227285287642502E+03
    0.998625683656694352E+00   -0.399945998385584822E+01   -0.250057819263375247E+01    0.117218382346801832E+03
    0.999297969326465418E+00   -0.400118025731507654E+01   -0.249799228524428063E+01    0.116848308775214321E+03
    0.100027886180927372E+01   -0.400133871866515634E+01   -0.249804200822649136E+01    0.117090665214397987E+03
    0.100075776395480220E+01   -0.399952289107278824E+01   -0.250140233136948087E+01    0.117040250786161906E+03
    0.999765515105859315E+00   -0.399901018201820957E+01   -0.249817498395161142E+01    0.117026672302620355E+03
    0.999642546058229886E+00   -0.399905730590702913E+01   -0.249977143900592935E+01    0.117306364411821036E+03
    0.999642546058229886E+00   -0.399905730590702913E+01   -0.249977143900592935E+01    0.117306364411821036E+03
    0.100285473654079116E+01   -0.400233296978407971E+01   -0.250146160679407714E+01    0.116983538728880617E+03
    0.997229464561094181E+00   -0.399897071723539277E+01   -0.249689424536155524E+01    0.116932471700139089E+03
    0.997932075183825429E+00   -0.399919721189342514E+01   -0.250042266680484815E+01    0.117071998961602532E+03
    0.999277022794494152E+00   -0.399992280756641083E+01   -0.250065995448518574E+01    0.117273944894733816E+03
    0.999277022794494152E+00   -0.399992280756641083E+01   -0.250065995448518574E+01    0.117273944894733816E+03
    0.100015838899510690E+01   -0.400028823936727917E+01   -0.250010569638549240E+01    0.117427373443054393E+03
    0.100015838899510690E+01   -0.400028823936727917E+01   -0.250010569638549240E+01    0.117427373443054393E+03
    0.998855735734238803E+00   -0.400019618111472397E+01   -0.249682937829224283E+01    0.116948383388383633E+03
    0.999866748421912477E+00   -0.400070757653741449E+01   -0.249687925899001506E+01    0.116931448620527917E+03
    0.999901076841545611E+00   -0.400091194515658621E+01   -0.250097461887535122E+01    0.117030369911055487E+03
    0.997131818290517336E+00   -0.399862541160520291E+01   -0.249928247556358185E+01    0.117120720929274270E+03
    0.997443942943591511E+00   -0.399961649327498847E+01   -0.249771616745151892E+01    0.116881622002978943E+03
    0.997457830562792802E+00   -0.399801585508917334E+01   -0.249700486594373183E+01    0.116965210018879489E+03
    0.996207445381671164E+00   -0.399700277559202810E+01   -0.249862184727584014E+01    0.116960587856097092E+03
    0.999427681678984325E+00   -0.400076684488995760E+01   -0.249828749996084287E+01    0.117161121742963104E+03
    0.100302200012342202E+01   -0.400200623759079122E+01   -0.249945067073250815E+01    0.116948334958056250E+03
    0.100015058764571640E+01   -0.399911952690347627E+01   -0.250065871304804244E+01    0.117147429007628105E+03
    0.100070296367109335E+01   -0.400129092373157835E+01   -0.249800497498035412E+01    0.117144289197334871E+03
    0.100181088550308472E+01   -0.400228128736336242E+01   -0.249831474854039115E+01    0.116949805230794880E+03
    0.100187513717170895E+01   -0.400023304499467969E+01   -0.250092406437541070E+01    0.116951710534667839E+03
    0.998283336054932691E+00   -0.399826878826375109E+01   -0.250162883660473723E+01    0.116911428949895921E+03
    0.997779961275388150E+00   -0.399978879450336411E+01   -0.249884201002884465E+01    0.116967602010334247E+03
    0.100320945279774043E+01   -0.400250444515406567E+01   -0.249957075480316115E+01    0.116938357083742034E+03
    0.100009639763056368E+01   -0.399887206283865693E+01   -0.250002266845099097E+01    0.117048537384541419E+03
    0.999920435754958925E+00   -0.400005847967579165E+01   -0.250089559416031060E+01    0.117322426071042585E+03
    0.999920435754958925E+00   -0.400005847967579165E+01   -0.250089559416031060E+01    0.117322426071042585E+03
    0.100172309789810798E+01   -0.400232015619407644E+01   -0.249916814530717435E+01    0.117043039553833395E+03
    0.999175532386423315E+00   -0.400097914731790549E+01   -0.249823098691869694E+01    0.116944630284984513E+03
    0.100002014545329287E+01   -0.399926143210296736E+01   -0.249791704878656340E+01    0.116969898864544490E+03
    0.996713932431976146E+00   -0.399810977780825283E+01   -0.249991404372833603E+01    0.116970756307996126E+03
    0.998335245262633286E+00   -0.399842302254349136E+01   -0.250020165455533183E+01    0.117266400881287723E+03
    0.995773704692977102E+00   -0.399748264872343917E+01   -0.249860072998094251E+01    0.116878053988813022E+03
    0.100055601832216579E+01   -0.400149465806758009E+01   -0.250002189910173334E+01    0.117149261517416818E+03
    0.100055601832216579E+01   -0.400149465806758009E+01   -0.250002189910173334E+01    0.117149261517416818E+03
    0.100147085318369777E+01   -0.400193817588503009E+01   -0.249875866729904983E+01    0.117125076992755012E+03
    0.999560513758173785E+00   -0.400001663445186750E+01   -0.249908512377575143E+01    0.117440551320762594E+03
    0.999560513758173785E+00   -0.400001663445186750E+01   -0.249908512377575143E+01    0.117440551320762594E+03
    0.999963361505065262E+00   -0.400093151630654464E+01   -0.249950380697674124E+01    0.117273480497263691E+03
    0.100291094974022399E+01   -0.400285145629124983E+01   -0.250041106930039847E+01    0.116946950594225655E+03
    0.100216101291222981E+01   -0.400203073476463089E+01   -0.250227378356902985E+01    0.116831554099479035E+03
    0.999264423097005472E+00   -0.399922994754483341E+01   -0.249936456610804125E+01    0.117418269069997393E+03
    0.999264423097005472E+00   -0.399922994754483341E+01   -0.249936456610804125E+01    0.117418269069997393E+03
    0.998634272891408936E+00   -0.399893550789677965E+01   -0.250067341766323858E+01    0.117260878645134781E+03
    0.997398682708800388E+00   -0.399864367418996114E+01   -0.249900845263176619E+01    0.117234758543894671E+03
    0.100049572406216392E+01   -0.400120491717494442E+01   -0.249746379435472132E+01    0.117023762070138929E+03
    0.998417579753828388E+00   -0.399843503858945093E+01   -0.250126908427770234E+01    0.117055970377592985E+03
    0.100081058102136966E+01   -0.400160937066472933E+01   -0.249810455262185549E+01    0.117077492575522641E+03
    0.100081058102136966E+01   -0.400160937066472933E+01   -0.249810455262185549E+01    0.117077492575522641E+03
    0.997272687201140040E+00   -0.399780553794093496E+01   -0.249834667014544554E+01    0.117178964969594261E+03
    0.100005394882850274E+01   -0.399935791666170148E+01   -0.249881414464370311E+01    0.117214373478066420E+03
    0.999811897347483325E+00   -0.399970246839627919E+01   -0.249990444991324257E+01    0.117434390726680164E+03
    0.100177912325397411E+01   -0.400094004139880521E+01   -0.250043049766944536E+01    0.117258558704043736E+03
    0.997641469671354364E+00   -0.399901582630444175E+01   -0.249630998266418569E+01    0.116835385399464386E+03
    0.998668496122353311E+00   -0.399952075817168673E+01   -0.249788577023922453E+01    0.117298385317931135E+03
    0.999405301394541201E+00   -0.400044258044491663E+01   -0.249905290120346324E+01    0.117321374205060479E+03
    0.999405301394541201E+00   -0.400044258044491663E+01   -0.249905290120346324E+01    0.117321374205060479E+03
    0.100206570741994039E+01   -0.400112773067368099E+01   -0.249910454617796152E+01    0.117091007226242823E+03
    0.100020768614384181E+01   -0.400090306538158380E+01   -0.249681185610016421E+01    0.116866934294681684E+03
    0.996992248126756797E+00   -0.399733837796755687E+01   -0.249925995283849467E+01    0.117072807281582243E+03
    0.100101480596168635E+01   -0.399961350477150379E+01   -0.249940576020629601E+01    0.116978965843796260E+03
    0.100346187649903285E+01   -0.400272124218800940E+01   -0.250169323628244378E+01    0.116829560307425609E+03
    0.997733575903448244E+00   -0.399802048789728559E+01   -0.249704416661182016E+01    0.116931378335021506E+03
    0.100362488431398011E+01   -0.400260927033273539E+01   -0.250011290834101185E+01    0.116866892014073869E+03
    0.100158345104176538E+01   -0.400070505379804064E+01   -0.249842475445512546E+01    0.117015427939863486E+03
    0.997519391729390970E+00   -0.399914372883570124E+01   -0.249680107748936786E+01    0.116943183469956892E+03
    0.998838629898773811E+00   -0.399922201438042535E+01   -0.249908853098642325E+01    0.117428307848569233E+03
    0.996212614195197688E+00   -0.399815456404794389E+01   -0.249850599142661078E+01    0.116918821078477563E+03
    0.998241292439915995E+00   -0.399855337167520730E+01   -0.249867911242285823E+01    0.117336104847011015E+03
    0.100209776871258005E+01   -0.400101450999834896E+01   -0.250173300980347424E+01    0.117059448965946800E+03
    0.100067325854195222E+01   -0.400127734727843709E+01   -0.250173199204090579E+01    0.116928602771896081E+03
    0.100133630303228260E+01   -0.400086948014558619E+01   -0.249825233855312545E+01    0.117114097034134886E+03
    0.999353043233104366E+00   -0.399852411513147610E+01   -0.249783658898468008E+01    0.116837109769241906E+03
    0.998190622662751270E+00   -0.400024573490249047E+01   -0.249755328731391346E+01    0.116872925989115700E+03
    0.100059570247514862E+01   -0.399984980998707806E+01   -0.249812594738928340E+01    0.117048399126750468E+03
    0.100290296710933080E+01   -0.400256206392381131E+01   -0.250171799636489833E+01    0.116879096334045656E+03
    0.997288827490444341E+00   -0.399846170702161441E+01   -0.250023565527657787E+01    0.117057260230662905E+03
    0.100069899924989469E+01   -0.400108654777747397E+01   -0.249730208967269096E+01    0.116981601001790111E+03
