    0.300252012566652526E+01    0.399467668532862863E+00   -0.300035107047294547E+01    0.388160455584661179E+03
    0.301411873408375230E+01    0.400583251379357796E+00   -0.300016246711307577E+01    0.388953833571906728E+03
    0.300379047468954408E+01    0.399257516745293362E+00   -0.299954394522088119E+01    0.389729005189369957E+03
    0.300948451262195649E+01    0.399097723093529699E+00   -0.300012216681636801E+01    0.389761299580173613E+03
    0.300443912328929308E+01    0.399168023231080971E+00   -0.300016934629379506E+01    0.389823682273193356E+03
    0.301603486740090920E+01    0.399328539252249481E+00   -0.300011475088116120E+01    0.389891342140997892E+03
    0.301343381375560693E+01    0.399536483717383595E+00   -0.299968455794974487E+01    0.390294376416512648E+03
    0.301619998870785322E+01    0.399617983001443633E+00   -0.300016218632991016E+01    0.390520787589128247E+03
    0.299069843177310357E+01    0.400828907323034334E+00   -0.299990035012282874E+01    0.390814562890769537E+03
    0.298963941351557061E+01    0.400263976921760189E+00   -0.300033607196915408E+01    0.390827574575823803E+03
    0.299381110100945946E+01    0.400526749763274514E+00   -0.299975081072765670E+01    0.390992477849476700E+03
    0.301519847890455583E+01    0.399968663978256755E+00   -0.300017336154260050E+01    0.391294374175404812E+03
    0.300577650829634013E+01    0.400117356880692998E+00   -0.300037899382027096E+01    0.391353668873627953E+03
    0.298879907491455121E+01    0.400454532320278667E+00   -0.300031160048036538E+01    0.391382806363894190E+03
    0.300536477386753376E+01    0.399931626757451253E+00   -0.300035539901502935E+01    0.391432959568826902E+03
    0.301485103751295824E+01    0.399966546644595133E+00   -0.299989862148195785E+01    0.391451949171745468E+03
    0.298473985647398843E+01    0.400016082366144388E+00   -0.299986684703783935E+01    0.391558047464860579E+03
    0.299696190063600421E+01    0.399142826564144848E+00   -0.299974421639488842E+01    0.391584001064414451E+03
    0.299261527008760542E+01    0.400695186943902659E+00   -0.300035182741647244E+01    0.391586084985126604E+03
    0.299975076974338517E+01    0.400617671041598122E+00   -0.299983159621643747E+01    0.391624210265469912E+03
    0.299768837795073662E+01    0.399221564873684709E+00   -0.299967822922820826E+01    0.391668515122542317E+03
    0.299227687374224738E+01    0.400066876368930457E+00   -0.300030846081657554E+01    0.391674194483791553E+03
    0.300911516852324423E+01    0.400368717249766359E+00   -0.300030794813475055E+01    0.391703990461203432E+03
    0.301008316723505542E+01    0.400003127727845242E+00   -0.299975971078116510E+01    0.391757462848912269E+03
    0.299354285139932585E+01    0.400879466382808525E+00   -0.300029171564248864E+01    0.391797578298224153E+03
    0.298504135095336620E+01    0.400535431038120504E+00   -0.299997925524593834E+01    0.391847967808856424E+03
    0.300757752561993152E+01    0.399042131044939463E+00   -0.299982603976833895E+01    0.391915581078052355E+03
    0.300616167557911718E+01    0.399548447000984741E+00   -0.299964474759529187E+01    0.392048896664930624E+03
    0.298942890650431892E+01    0.399782977683094454E+00   -0.299973067358102075E+01    0.392059156192710873E+03
    0.301478269859082504E+01    0.399732029894144414E+00   -0.300009080884718626E+01    0.392201907196483148E+03
    0.300022713168731814E+01    0.399147408687049232E+00   -0.299996176117886293E+01    0.392227941683901804E+03
    0.300903620602037858E+01    0.400191284802028979E+00   -0.300029432834939813E+01    0.392292955408136265E+03
    0.298882582122826701E+01    0.400495446345560779E+00   -0.299985727538848002E+01    0.392296602693764271E+03
    0.299378984282545524E+01    0.400896241758898209E+00   -0.300021933375250516E+01    0.392306615615336739E+03
    0.300680463961125977E+01    0.400642361686976090E+00   -0.300009176771941544E+01    0.392360604871568910E+03
    0.300154541016003673E+01    0.399147868966069963E+00   -0.299976124625054119E+01    0.392541801232807131E+03
    0.298653830842977808E+01    0.400570172446534645E+00   -0.300004648908456106E+01    0.392617125436139872E+03
    0.299149163214887093E+01    0.400840191027360404E+00   -0.300010936073806533E+01    0.392663393180288267E+03
    0.299677412342523919E+01    0.399519553191861720E+00   -0.300014197542875305E+01    0.392701758341070843E+03
    0.298670627744544603E+01    0.400563171191464285E+00   -0.300005821454896093E+01    0.392721998105735508E+03
    0.299253212795230095E+01    0.399525789443377577E+00   -0.300003886686800403E+01    0.392727780600816402E+03
    0.300336687421073467E+01    0.400613071828596456E+00   -0.300028989503038890E+01    0.392747104730989349E+03
    0.300042603481058912E+01    0.399537732877083274E+00   -0.299965249383907384E+01    0.392760794792583226E+03
    0.299257152602674115E+01    0.399433996113207013E+00   -0.299985586572124596E+01    0.392840005013584744E+03
    0.299708575838800328E+01    0.400808854112637669E+00   -0.300024111200160437E+01    0.392870620482255958E+03
    0.299517224285144756E+01    0.399523666903566332E+00   -0.300010353365151383E+01    0.392872765314592527E+03
    0.300327855831387547E+01    0.400047472970749496E+00   -0.300031816184823086E+01    0.392916576439902485E+03
    0.299939462005759205E+01    0.399248058878058698E+00   -0.299975227335867300E+01    0.392919070300834733E+03
    0.298665518424123144E+01    0.400450605295821493E+00   -0.300009311766180176E+01    0.392920768740263156E+03
    0.299127288312901518E+01    0.399539265528847609E+00   -0.299994648367482286E+01    0.392946823153769856E+03
    0.300712271913559315E+01    0.399172376690649200E+00   -0.299990056345057843E+01    0.392988684813176121E+03
    0.300975187433141755E+01    0.400383147827645058E+00   -0.300007885605532776E+01    0.392991298326480319E+03
    0.301187704174899640E+01    0.399682433872186493E+00   -0.300013239739775184E+01    0.393007343305615620E+03
    0.298845411480564405E+01    0.400597744624957453E+00   -0.300015322910353355E+01    0.393035840987312099E+03
    0.300139797765066207E+01    0.400744522723884944E+00   -0.300007682068387149E+01    0.393104067100576742E+03
    0.299103116269278679E+01    0.399708636656185723E+00   -0.300007064319848382E+01    0.393110917306359056E+03
    0.300484456331272298E+01    0.400474687487788528E+00   -0.300028079570701101E+01    0.393111707925548785E+03
    0.299372133972887022E+01    0.399423833344735690E+00   -0.299982759254092191E+01    0.393118712640064587E+03
    0.300872715132870017E+01    0.400265699150318177E+00   -0.299991110753572121E+01    0.393124560233078228E+03
    0.300506170280705742E+01    0.399668542034415208E+00   -0.299969166786222807E+01    0.393149329641334134E+03
    0.300182930376493218E+01    0.400442862684167233E+00   -0.299985273445544864E+01    0.393212318826747264E+03
    0.299339181197085358E+01    0.400377135633073700E+00   -0.300028944014791144E+01    0.393212873921271409E+03
    0.300103865779528078E+01    0.399225659967305302E+00   -0.299978909252720127E+01    0.393221126308817304E+03
    0.300493443308830033E+01    0.400588732433119266E+00   -0.300003016039907244E+01    0.393226561365071291E+03
    0.300684560121953748E+01    0.400253938480517157E+00   -0.300027249787516848E+01    0.393256347283506557E+03
    0.298751447255358826E+01    0.400455166135895990E+00   -0.300009769180589903E+01    0.393269407308403345E+03
    0.298946943312900437E+01    0.400612674650335343E+00   -0.300016333743617736E+01    0.393270170393443550E+03
    0.299274943531200144E+01    0.400779250615086680E+00   -0.300010048193781298E+01    0.393281786809503160E+03
    0.298809251948380972E+01    0.399941260573970558E+00   -0.299988966317691830E+01    0.393314113803199120E+03
    0.300276368862841148E+01    0.400602599640715706E+00   -0.299997996552509560E+01    0.393344735221323731E+03
    0.299976519336146552E+01    0.400195657539724081E+00   -0.300031681953210194E+01    0.393350633150015938E+03
    0.299644031819689305E+01    0.399922107668636173E+00   -0.299970141955850389E+01    0.393351624081368470E+03
    0.298803555489035810E+01    0.400105553408629577E+00   -0.299987677534756614E+01    0.393357696619974774E+03
    0.299038717557087486E+01    0.400690988117023861E+00   -0.300010080917056365E+01    0.393385328996904207E+03
    0.299099851488432389E+01    0.399970166129452631E+00   -0.300016525574387138E+01    0.393389469873306098E+03
    0.298878248986859862E+01    0.400172853622592140E+00   -0.299985368199377289E+01    0.393389591551858132E+03
    0.299667182889846506E+01    0.400668421080478454E+00   -0.299995327258423483E+01    0.393393701420352443E+03
    0.299163529185534305E+01    0.400459722844681121E+00   -0.299987069323967992E+01    0.393404437786597441E+03
    0.298733059850228155E+01    0.400394447486172811E+00   -0.300003002874808544E+01    0.393409049040718230E+03
    0.300490295127565332E+01    0.399517868029352852E+00   -0.299970641681814465E+01    0.393413524338557920E+03
    0.300686290054248806E+01    0.399228814507822660E+00   -0.299986025463970751E+01    0.393417617408675142E+03
    0.300910241988657612E+01    0.399904961456763963E+00   -0.299980637497571134E+01    0.393418064152556155E+03
    0.298840981380036652E+01    0.400097394508725279E+00   -0.300010572367962869E+01    0.393420272448481853E+03
    0.300948864911185154E+01    0.400189463790215361E+00   -0.299992689766810683E+01    0.393432149061858411E+03
    0.300443477219419286E+01    0.400549831137389900E+00   -0.299999342141337078E+01    0.393437954756295198E+03
    0.299097393446849891E+01    0.400256760579403847E+00   -0.300022315064259404E+01    0.393441402249649173E+03
    0.298785291150232002E+01    0.400473715476326153E+00   -0.300005907724526732E+01    0.393449846760939067E+03
    0.300249779267876349E+01    0.400491895282438781E+00   -0.299990546563758986E+01    0.393469358428445048E+03
    0.300373982700271647E+01    0.400363518810729069E+00   -0.299986180686212922E+01    0.393516839317797462E+03
    0.298778283159796265E+01    0.400306868819890138E+00   -0.300009384932790102E+01    0.393520312904290563E+03
    0.300009640770363673E+01    0.399253738940803460E+00   -0.299988850607599833E+01    0.393522640670347130E+03
    0.300165746720842330E+01    0.400008956198997512E+00   -0.299972647631194311E+01    0.393527004461414947E+03
    0.299181459397791061E+01    0.399610817482613179E+00   -0.299984265802705474E+01    0.393543606437936944E+03
    0.300961962927233628E+01    0.400265290460844025E+00   -0.300014066029830495E+01    0.393550206526898251E+03
    0.299873384600832127E+01    0.400585578904691431E+00   -0.299992136299657863E+01    0.393556149033323834E+03
    0.299265695975395918E+01    0.399610170000539000E+00   -0.300002290019197648E+01    0.393561051597573339E+03
    0.300471740340967353E+01    0.400238293491024522E+00   -0.299982776648531813E+01    0.393567759220025437E+03
    0.299174832881410557E+01    0.400702946709839525E+00   -0.300010946351639163E+01    0.393613180964346896E+03
    0.300219450861737691E+01    0.399237650636522445E+00   -0.299988010303538433E+01    0.393625115595063278E+03
    0.300543620645820031E+01    0.400481274702775170E+00   -0.300021448514308098E+01    0.393628539350607753E+03
    0.300017446404622667E+01    0.400654073825480739E+00   -0.300000001027442220E+01    0.393635047790482986E+03
    0.300391476500806043E+01    0.399469873070526116E+00   -0.300011587481701714E+01    0.393637815033856270E+03
    0.299302856485371960E+01    0.399620877214036108E+00   -0.300003659614174323E+01    0.393658690746940295E+03
    0.299553247788819688E+01    0.399866210555838653E+00   -0.299971980607782607E+01    0.393663994947312460E+03
    0.298853364433923074E+01    0.399966657630706102E+00   -0.300001212687153629E+01    0.393664345157280934E+03
    0.300734335774602712E+01    0.399853686226690597E+00   -0.299977546901607095E+01    0.393712583239093476E+03
    0.299489290357558113E+01    0.399632987880369106E+00   -0.300009685878403598E+01    0.393723147911223919E+03
    0.299738607379737054E+01    0.400120790340207921E+00   -0.300027977926522338E+01    0.393729435773333307E+03
    0.299719498146298902E+01    0.399748603423937698E+00   -0.299970879595672235E+01    0.393735375920923389E+03
    0.300245162774045449E+01    0.399264723975601810E+00   -0.299992666504672734E+01    0.393751161198977627E+03
    0.300706368091123721E+01    0.400389185332164388E+00   -0.299999667764595834E+01    0.393762533347752026E+03
    0.299807741438503905E+01    0.400732893513509270E+00   -0.300015263886475303E+01    0.393765281941565377E+03
    0.301169948616858374E+01    0.399584011493180180E+00   -0.299994498323271408E+01    0.393782686851632434E+03
    0.300607498700804232E+01    0.399278153332887686E+00   -0.299984927770410659E+01    0.393783053117766315E+03
    0.300677082453842814E+01    0.399984694780410599E+00   -0.300023675773209053E+01    0.393793010065766907E+03
    0.298811697043999569E+01    0.400274039852771102E+00   -0.300005458114995260E+01    0.393822728382265666E+03
    0.299121367666787696E+01    0.400574147442534612E+00   -0.299998554711807497E+01    0.393844316535003884E+03
    0.299887676601277597E+01    0.400539580523379846E+00   -0.299991626522869792E+01    0.393846256618622647E+03
    0.300207443314387934E+01    0.399344608471465190E+00   -0.299977047452453505E+01    0.393848161549850659E+03
    0.299210572311052037E+01    0.400505387087004561E+00   -0.300021529308003920E+01    0.393850958122528084E+03
    0.298824634487260443E+01    0.400334444444573556E+00   -0.300003097726523826E+01    0.393874815380801067E+03
    0.299263471697262062E+01    0.399818285202427071E+00   -0.299977723987469824E+01    0.393875734406270396E+03
    0.300897128041141748E+01    0.399572853746442969E+00   -0.299980529534542306E+01    0.393885639488137201E+03
    0.298833496850019698E+01    0.400322402862138327E+00   -0.300005671222836501E+01    0.393888815299632029E+03
    0.300890558557708498E+01    0.400122696701569303E+00   -0.299991291684343020E+01    0.393896368299207381E+03
    0.299057413222659907E+01    0.399824516178799105E+00   -0.300003283745632254E+01    0.393900403768576894E+03
    0.300385481519093833E+01    0.399353919202859953E+00   -0.299977640078261221E+01    0.393918865813862794E+03
    0.299061384525862906E+01    0.400331510804347479E+00   -0.299988728797634252E+01    0.393947844536586217E+03
    0.299855189663756727E+01    0.400697164889720736E+00   -0.300007952812325218E+01    0.393951990398766668E+03
    0.300373802426450442E+01    0.400208983384405859E+00   -0.299982490806525792E+01    0.393956754864456400E+03
    0.301117328769882509E+01    0.399573053919218268E+00   -0.299996486873656254E+01    0.393957859767390119E+03
    0.301026074541306743E+01    0.399606046559361716E+00   -0.300006144767663141E+01    0.393968051487849891E+03
    0.299607957294548877E+01    0.399540579805052254E+00   -0.300004678730396401E+01    0.393971928037454347E+03
    0.299701974862836940E+01    0.399550103936773426E+00   -0.300007430499848482E+01    0.393980492892040331E+03
    0.300460759337038219E+01    0.399405357636368141E+00   -0.299976712533179635E+01    0.393981858378423510E+03
    0.300257503907491952E+01    0.399300772196587273E+00   -0.299993909491349076E+01    0.393985745911582683E+03
    0.300285804403098977E+01    0.399710661713244930E+00   -0.299972326384103782E+01    0.394012431834745485E+03
    0.301144464104005216E+01    0.399807915997689167E+00   -0.300004344759223684E+01    0.394014756367912582E+03
    0.300146443567437249E+01    0.400539533652748414E+00   -0.300023511173891944E+01    0.394034156163370142E+03
    0.299330756520588492E+01    0.400288431820117918E+00   -0.300023237226995931E+01    0.394042282703676676E+03
    0.300131049900859814E+01    0.399371676120621466E+00   -0.300000223181895187E+01    0.394057667147149175E+03
    0.300826141396443347E+01    0.399401604643255470E+00   -0.299997648725822996E+01    0.394062830467700962E+03
    0.300774853128827635E+01    0.399974265791445904E+00   -0.300019999619170719E+01    0.394077394666717055E+03
    0.301052227739238720E+01    0.399824847288688168E+00   -0.299989966504764416E+01    0.394086297021915811E+03
    0.300719227086799279E+01    0.400123173312910752E+00   -0.300021395477366415E+01    0.394086848285237977E+03
    0.299407692201827569E+01    0.400319684210680482E+00   -0.300024279101206259E+01    0.394088089654971895E+03
    0.299407692201827569E+01    0.400319684210680482E+00   -0.300024279101206259E+01    0.394088089654971895E+03
    0.299524456617463519E+01    0.399844227296637100E+00   -0.300017057224325168E+01    0.394091891481066909E+03
    0.299404978673473288E+01    0.399542919763887672E+00   -0.299987964484049296E+01    0.394092581870804281E+03
    0.301101200556863802E+01    0.399808922283118762E+00   -0.299993041196956955E+01    0.394094821668614600E+03
    0.300317361554057793E+01    0.399442299924397004E+00   -0.299975769156687733E+01    0.394106508038980508E+03
    0.301110756744108521E+01    0.399683151892958777E+00   -0.299993708990326136E+01    0.394113334835575870E+03
    0.300496834291668291E+01    0.400330814264934332E+00   -0.300023225949822470E+01    0.394118506812877854E+03
    0.300496834291668291E+01    0.400330814264934332E+00   -0.300023225949822470E+01    0.394118506812877854E+03
    0.299363641404635716E+01    0.399595573830511475E+00   -0.299984565744034937E+01    0.394122445177017369E+03
    0.300471496380415903E+01    0.399319462832673833E+00   -0.299993768268816607E+01    0.394128672179840521E+03
    0.300363991196329350E+01    0.400187555961336483E+00   -0.299982837828970395E+01    0.394156828933328200E+03
    0.299918313289485106E+01    0.400565940262013032E+00   -0.300023340440061936E+01    0.394159682750330035E+03
    0.299918313289485106E+01    0.400565940262013032E+00   -0.300023340440061936E+01    0.394159682750330035E+03
    0.299364421907226230E+01    0.399684934303860318E+00   -0.299980307423321824E+01    0.394170729268395746E+03
    0.299539956799362406E+01    0.399942750931416457E+00   -0.300019819503832252E+01    0.394171514299915202E+03
    0.300946708700742604E+01    0.399491439912621538E+00   -0.299989254768564173E+01    0.394190275707539513E+03
    0.300946708700742604E+01    0.399491439912621538E+00   -0.299989254768564173E+01    0.394190275707539513E+03
    0.300300085525402771E+01    0.400310823061559962E+00   -0.299987083578364455E+01    0.394195607624349179E+03
    0.300527905960641650E+01    0.399613362854150167E+00   -0.300013589657172330E+01    0.394201864661734021E+03
    0.298982028111533538E+01    0.399926881186605188E+00   -0.299996327936480967E+01    0.394209919368655051E+03
    0.298977724620708551E+01    0.399981243040374412E+00   -0.300002313704030321E+01    0.394217480352676148E+03
    0.300589797354066679E+01    0.400421627286960236E+00   -0.300013610614033865E+01    0.394225868462298820E+03
    0.300589797354066679E+01    0.400421627286960236E+00   -0.300013610614033865E+01    0.394225868462298820E+03
    0.301060011103518743E+01    0.399939884046460192E+00   -0.299997172299580139E+01    0.394228134440715394E+03
    0.301060011103518743E+01    0.399939884046460192E+00   -0.299997172299580139E+01    0.394228134440715394E+03
    0.300964137946421584E+01    0.399555838640270833E+00   -0.299987870197041362E+01    0.394232861688715275E+03
    0.299625236147569085E+01    0.400172068675624770E+00   -0.299979194603390509E+01    0.394232903463413322E+03
    0.299430809412481569E+01    0.400516771642256131E+00   -0.300021755946781088E+01    0.394237918047859921E+03
    0.300471430257849281E+01    0.399536167246887675E+00   -0.299976149395713820E+01    0.394249945384744876E+03
    0.300501038559773725E+01    0.399725802223356352E+00   -0.299975888543721458E+01    0.394259323272568622E+03
    0.299134699276193938E+01    0.400186188121745501E+00   -0.300015808002635431E+01    0.394277674319723928E+03
    0.300960672024669229E+01    0.399608288888025298E+00   -0.299987224238386263E+01    0.394283523990938932E+03
    0.299260665910586576E+01    0.400555237892194826E+00   -0.300015750225735811E+01    0.394303403489392906E+03
    0.299757535003349762E+01    0.399424858654718440E+00   -0.299990429000687664E+01    0.394307258123951613E+03
    0.300086884334822734E+01    0.400168564366077839E+00   -0.299980255891303971E+01    0.394314398735983218E+03
    0.300323086354528757E+01    0.399553751598846874E+00   -0.300010786795154072E+01    0.394320602390303407E+03
    0.299257333917538126E+01    0.400178020840226745E+00   -0.299983793104128305E+01    0.394344680198441267E+03
    0.300423025997747395E+01    0.400455768098820497E+00   -0.300001339374669662E+01    0.394349891708508210E+03
    0.299610049792550681E+01    0.400413176248185454E+00   -0.299988162602393515E+01    0.394355214260335401E+03
    0.299313074460647766E+01    0.400588840758065223E+00   -0.300003430969753460E+01    0.394365823758397255E+03
    0.299232848062493062E+01    0.400029691842011592E+00   -0.300014389506203560E+01    0.394379598053656480E+03
    0.299835423552491598E+01    0.400075727138675175E+00   -0.299977532459834695E+01    0.394390188467199948E+03
    0.299431409158009565E+01    0.400237840959821900E+00   -0.300022005329074659E+01    0.394401764385099909E+03
    0.300845893351456839E+01    0.399820741055673556E+00   -0.299984996067116150E+01    0.394410122802374303E+03
    0.300963392533956142E+01    0.399855668571651390E+00   -0.300009792848345036E+01    0.394430879907899964E+03
    0.300963392533956142E+01    0.399855668571651390E+00   -0.300009792848345036E+01    0.394430879907899964E+03
    0.299189288731362302E+01    0.400088183068242009E+00   -0.300014092243234476E+01    0.394437930414650396E+03
    0.299557695547448066E+01    0.400629766734474091E+00   -0.300006671936429736E+01    0.394456552675580326E+03
    0.299557695547448066E+01    0.400629766734474091E+00   -0.300006671936429736E+01    0.394456552675580326E+03
    0.299260512239766507E+01    0.399964752079641994E+00   -0.299982183402453417E+01    0.394460718705152829E+03
    0.300805762131891363E+01    0.399456399352084213E+00   -0.299994131837019795E+01    0.394461024009976711E+03
    0.300805762131891363E+01    0.399456399352084213E+00   -0.299994131837019795E+01    0.394461024009976711E+03
    0.300650140855455383E+01    0.399778503822957321E+00   -0.299980114950569154E+01    0.394470322540917493E+03
    0.299001591839318559E+01    0.400234578770838234E+00   -0.299995273474607282E+01    0.394489764201724938E+03
    0.300552128645578698E+01    0.400391396940225963E+00   -0.300013408568582030E+01    0.394493140349370663E+03
    0.300552128645578698E+01    0.400391396940225963E+00   -0.300013408568582030E+01    0.394493140349370663E+03
    0.299237088025984566E+01    0.400552794335183038E+00   -0.300007242053161782E+01    0.394494442949735173E+03
    0.300967231409449409E+01    0.399685359335745782E+00   -0.299990300683443722E+01    0.394495238181210482E+03
    0.299917746542123353E+01    0.399814299567830767E+00   -0.300018137172969102E+01    0.394506583513676048E+03
    0.299917746542123353E+01    0.399814299567830767E+00   -0.300018137172969102E+01    0.394506583513676048E+03
    0.300945560174701665E+01    0.400059230000022970E+00   -0.300005701551619808E+01    0.394512696598719685E+03
    0.300945560174701665E+01    0.400059230000022970E+00   -0.300005701551619808E+01    0.394512696598719685E+03
    0.300222557779872457E+01    0.400104335983137438E+00   -0.300024212234945287E+01    0.394522321553258280E+03
    0.300222557779872457E+01    0.400104335983137438E+00   -0.300024212234945287E+01    0.394522321553258280E+03
    0.300938342048966057E+01    0.400006013544923433E+00   -0.299996509822098867E+01    0.394527868424672647E+03
    0.299332207997828270E+01    0.400157033177502786E+00   -0.300018270655845765E+01    0.394534870038536098E+03
    0.299332207997828270E+01    0.400157033177502786E+00   -0.300018270655845765E+01    0.394534870038536098E+03
    0.299825605848638821E+01    0.400292558675793664E+00   -0.300024888978160575E+01    0.394548576770619093E+03
    0.300977108933089710E+01    0.399634845442070896E+00   -0.299997548128139924E+01    0.394549838330914042E+03
    0.300376518878648202E+01    0.399411793765339529E+00   -0.299982967393067401E+01    0.394560455370771649E+03
    0.300376518878648202E+01    0.399411793765339529E+00   -0.299982967393067401E+01    0.394560455370771649E+03
    0.299361458360159327E+01    0.400436179140793991E+00   -0.299993115866546001E+01    0.394566241504939512E+03
    0.299361458360159327E+01    0.400436179140793991E+00   -0.299993115866546001E+01    0.394566241504939512E+03
    0.299309692521438375E+01    0.400047577065273274E+00   -0.299982544375902505E+01    0.394566669270972966E+03
    0.299186357752957566E+01    0.400438673653474242E+00   -0.299997559494089749E+01    0.394574479681474543E+03
    0.299186357752957566E+01    0.400438673653474242E+00   -0.299997559494089749E+01    0.394574479681474543E+03
    0.300365722833890292E+01    0.399441893463588549E+00   -0.299981232805640863E+01    0.394579537425685942E+03
    0.300365722833890292E+01    0.399441893463588549E+00   -0.299981232805640863E+01    0.394579537425685942E+03
    0.300879963906511660E+01    0.399868112843531243E+00   -0.299989031741198531E+01    0.394585084573587721E+03
    0.300032633302556562E+01    0.400151593098308722E+00   -0.300024544038450713E+01    0.394585746554019295E+03
    0.299783196889487957E+01    0.399462488462394405E+00   -0.299988046969079658E+01    0.394586317556100084E+03
    0.299726056734276591E+01    0.399878973730082077E+00   -0.299976420946824618E+01    0.394589482445919259E+03
    0.299244887566940854E+01    0.399750482849971722E+00   -0.299991115150480647E+01    0.394591307404634335E+03
    0.299514953662591354E+01    0.399604873505566061E+00   -0.299998743217706076E+01    0.394592601396207613E+03
    0.300391368471931708E+01    0.399899853121956639E+00   -0.299978700188641501E+01    0.394604766631644054E+03
    0.299275423478313751E+01    0.400341359703603017E+00   -0.300017484891260100E+01    0.394610230962880166E+03
    0.300998387147823721E+01    0.399847354704488733E+00   -0.299997494034426815E+01    0.394613588218217785E+03
    0.299519620305767731E+01    0.399621507770964168E+00   -0.299983551295728379E+01    0.394613749666515162E+03
    0.300417973747481648E+01    0.399388354503605991E+00   -0.299992116763894900E+01    0.394619252554637853E+03
    0.299777914317726957E+01    0.399569646699020120E+00   -0.299979389741252822E+01    0.394620839898804434E+03
    0.300705222037093201E+01    0.400245875259500505E+00   -0.300000005670194358E+01    0.394622427319086341E+03
    0.300331111727265121E+01    0.400465460038400278E+00   -0.300003703818969703E+01    0.394640324367790299E+03
    0.300331111727265121E+01    0.400465460038400278E+00   -0.300003703818969703E+01    0.394640324367790299E+03
    0.300827285736947792E+01    0.399850707523532356E+00   -0.300012167009854291E+01    0.394645895421802038E+03
    0.300071465361136802E+01    0.399680988728987052E+00   -0.300013375189286924E+01    0.394646986275961979E+03
    0.300480617075407697E+01    0.400409388145248901E+00   -0.300005660834938670E+01    0.394652155294285819E+03
    0.300110058843260674E+01    0.400546511122021220E+00   -0.300013787350321248E+01    0.394653014401402913E+03
    0.299576485354467614E+01    0.399856149579383813E+00   -0.300014404071018781E+01    0.394655272852867597E+03
    0.300175122986758902E+01    0.400177682464863849E+00   -0.299983460535745294E+01    0.394656443721161054E+03
    0.299064419010369953E+01    0.399985229047073676E+00   -0.299995490196042480E+01    0.394661866888952090E+03
    0.300316515202327050E+01    0.399745842379080230E+00   -0.300015949150939232E+01    0.394667202292352670E+03
    0.300316515202327050E+01    0.399745842379080230E+00   -0.300015949150939232E+01    0.394667202292352670E+03
    0.300487995578485378E+01    0.399990628972747730E+00   -0.299982440836996656E+01    0.394683671045795734E+03
    0.300614212490254884E+01    0.400219285465696517E+00   -0.299994360599865084E+01    0.394689098188567300E+03
    0.300614212490254884E+01    0.400219285465696517E+00   -0.299994360599865084E+01    0.394689098188567300E+03
    0.300067406176731577E+01    0.400546494215191839E+00   -0.300005459317618683E+01    0.394690056613880188E+03
    0.300067406176731577E+01    0.400546494215191839E+00   -0.300005459317618683E+01    0.394690056613880188E+03
    0.300262553555252687E+01    0.399987064395809111E+00   -0.300021599484419177E+01    0.394691674034018774E+03
    0.300262553555252687E+01    0.399987064395809111E+00   -0.300021599484419177E+01    0.394691674034018774E+03
    0.299163028196288838E+01    0.399892521820345348E+00   -0.300001236480154532E+01    0.394701549066443079E+03
    0.300380113944429716E+01    0.399780978896588646E+00   -0.300016523361496601E+01    0.394705212795791283E+03
    0.300380113944429716E+01    0.399780978896588646E+00   -0.300016523361496601E+01    0.394705212795791283E+03
    0.299475315632665096E+01    0.400259653202724164E+00   -0.300020498607243136E+01    0.394709222848476657E+03
    0.300241005020308327E+01    0.399557859426595774E+00   -0.299978123059609914E+01    0.394713326329551307E+03
    0.300241005020308327E+01    0.399557859426595774E+00   -0.299978123059609914E+01    0.394713326329551307E+03
    0.299605418584378214E+01    0.400496348953555126E+00   -0.300019396372811897E+01    0.394717527924782644E+03
    0.299938829594533773E+01    0.400573105436146992E+00   -0.300007398068852460E+01    0.394726218723555519E+03
    0.300682253264207899E+01    0.400261265983641701E+00   -0.300010525103586145E+01    0.394730529914349347E+03
    0.300900498116007276E+01    0.399919537808396508E+00   -0.299993792244051072E+01    0.394736926068210892E+03
    0.299030586357246930E+01    0.400160111833892218E+00   -0.299999656415270444E+01    0.394738254415043514E+03
    0.299608610960647104E+01    0.400093324971540598E+00   -0.299980836347664592E+01    0.394740037261013072E+03
    0.300753625516842416E+01    0.399566512167457644E+00   -0.300002385741083843E+01    0.394744426252727749E+03
    0.300753625516842416E+01    0.399566512167457644E+00   -0.300002385741083843E+01    0.394744426252727749E+03
    0.300625427080594854E+01    0.399504687870531283E+00   -0.300001154864524144E+01    0.394744464997933676E+03
    0.300336441652722286E+01    0.400422307298870184E+00   -0.300016473902094072E+01    0.394745848038752058E+03
    0.299268257348461564E+01    0.400327835916277741E+00   -0.299991727033734934E+01    0.394746430273786132E+03
    0.299268257348461564E+01    0.400327835916277741E+00   -0.299991727033734934E+01    0.394746430273786132E+03
    0.300342468049184452E+01    0.400379647204365086E+00   -0.299996980183276563E+01    0.394748982131451157E+03
    0.299432145405072347E+01    0.400321783656662267E+00   -0.300019517481331821E+01    0.394750130074419076E+03
    0.300344770209662038E+01    0.399465693201256800E+00   -0.299982264628873985E+01    0.394752129829247963E+03
    0.300344770209662038E+01    0.399465693201256800E+00   -0.299982264628873985E+01    0.394752129829247963E+03
    0.299827148142803379E+01    0.400005640384822059E+00   -0.300020669435495657E+01    0.394767823133111278E+03
    0.299827148142803379E+01    0.400005640384822059E+00   -0.300020669435495657E+01    0.394767823133111278E+03
    0.299643773881331077E+01    0.399607087182617005E+00   -0.299982746263830569E+01    0.394783775896589702E+03
    0.299643773881331077E+01    0.399607087182617005E+00   -0.299982746263830569E+01    0.394783775896589702E+03
    0.299861601530565247E+01    0.400015547129552840E+00   -0.299978863870756474E+01    0.394789677513471702E+03
    0.300607100953462281E+01    0.399750663651696869E+00   -0.299981727923537411E+01    0.394793608662360327E+03
    0.300607100953462281E+01    0.399750663651696869E+00   -0.299981727923537411E+01    0.394793608662360327E+03
    0.300905194927743302E+01    0.399928893991945644E+00   -0.300006876371104969E+01    0.394799191235146736E+03
    0.299420021959954319E+01    0.400546880271335226E+00   -0.300009807182491350E+01    0.394800674800990691E+03
    0.299420021959954319E+01    0.400546880271335226E+00   -0.300009807182491350E+01    0.394800674800990691E+03
    0.299645363960984490E+01    0.400167704559720339E+00   -0.300021253570348900E+01    0.394806773326450752E+03
    0.299328532661225033E+01    0.399740607087497646E+00   -0.299990998738222592E+01    0.394824350711347279E+03
    0.300313878775091503E+01    0.399718586492786909E+00   -0.300013864945750264E+01    0.394825466350470776E+03
    0.299777654134571492E+01    0.400072211248308607E+00   -0.300021064190568598E+01    0.394829128199652700E+03
    0.300036107874580349E+01    0.399755819211681407E+00   -0.300014734005458372E+01    0.394829269879401011E+03
    0.300036107874580349E+01    0.399755819211681407E+00   -0.300014734005458372E+01    0.394829269879401011E+03
    0.299081913833086688E+01    0.400063363275473982E+00   -0.299995901199175430E+01    0.394829457419089749E+03
    0.299305597815264823E+01    0.400026789643864344E+00   -0.300012156193503410E+01    0.394837018208084544E+03
    0.299305597815264823E+01    0.400026789643864344E+00   -0.300012156193503410E+01    0.394837018208084544E+03
    0.299129886761187347E+01    0.400068311107640351E+00   -0.300005976954140596E+01    0.394837067120888491E+03
    0.299931106022962979E+01    0.399999157337664279E+00   -0.300020692005141720E+01    0.394839217142976793E+03
    0.300518436889555307E+01    0.399850851287964326E+00   -0.300016203828282002E+01    0.394843138640536665E+03
    0.300495189658494422E+01    0.399500521328528646E+00   -0.299983744127014873E+01    0.394844696108128346E+03
    0.299179687613175105E+01    0.399954131241009481E+00   -0.300003649975949527E+01    0.394850234735350455E+03
    0.299915302569550946E+01    0.399566226751093545E+00   -0.300003828428856245E+01    0.394857440465758827E+03
    0.299915302569550946E+01    0.399566226751093545E+00   -0.300003828428856245E+01    0.394857440465758827E+03
    0.300199464394945892E+01    0.400225372057386619E+00   -0.299986950329046875E+01    0.394861750053641742E+03
    0.300800019492987181E+01    0.399600879269391862E+00   -0.300000507220038548E+01    0.394862979806285466E+03
    0.300800019492987181E+01    0.399600879269391862E+00   -0.300000507220038548E+01    0.394862979806285466E+03
    0.299839991639057102E+01    0.400478293851176503E+00   -0.300019306222194659E+01    0.394866679836275352E+03
    0.299252383905240960E+01    0.399827954272859831E+00   -0.299991191630527654E+01    0.394870679712623030E+03
    0.300307855600012985E+01    0.399804039342407325E+00   -0.299978587348529224E+01    0.394875236911969694E+03
    0.299681236858047439E+01    0.399761632251322274E+00   -0.299979077748927736E+01    0.394875673108105957E+03
    0.299506880470761416E+01    0.399638589936135935E+00   -0.299988877033811896E+01    0.394877578697683475E+03
    0.300876015547809494E+01    0.399658554893313533E+00   -0.299994168365731939E+01    0.394877842304442993E+03
    0.300229955679285831E+01    0.400476917175382363E+00   -0.300006940461087046E+01    0.394880404344917622E+03
    0.300673385859880282E+01    0.399778376042410510E+00   -0.300011746330726892E+01    0.394887784063859726E+03
    0.299563899176687354E+01    0.400041517405489433E+00   -0.300017583977958679E+01    0.394897776021495474E+03
    0.300240936354073540E+01    0.400260492902562659E+00   -0.300021393960057470E+01    0.394897834269298755E+03
    0.300240936354073540E+01    0.400260492902562659E+00   -0.300021393960057470E+01    0.394897834269298755E+03
    0.300462621554041043E+01    0.399483445128853809E+00   -0.299999262162547708E+01    0.394898267697047061E+03
    0.300462621554041043E+01    0.399483445128853809E+00   -0.299999262162547708E+01    0.394898267697047061E+03
    0.300105451824264335E+01    0.400484110517782543E+00   -0.300015684351697898E+01    0.394900526088316212E+03
    0.300615742280172871E+01    0.399863205872939997E+00   -0.299984065665673461E+01    0.394901936596984115E+03
    0.299258926580598050E+01    0.399949452759258584E+00   -0.300006850935807856E+01    0.394908459352486602E+03
    0.300318928096447113E+01    0.400317270093315136E+00   -0.299993953626607324E+01    0.394912297100705530E+03
    0.300318928096447113E+01    0.400317270093315136E+00   -0.299993953626607324E+01    0.394912297100705530E+03
    0.299410245812280040E+01    0.399747891098387265E+00   -0.299986488636443660E+01    0.394921000716642538E+03
    0.299122663850017734E+01    0.400207082015814175E+00   -0.299995883172454292E+01    0.394932346653382524E+03
    0.299122663850017734E+01    0.400207082015814175E+00   -0.299995883172454292E+01    0.394932346653382524E+03
    0.300162771320177857E+01    0.399739842900367959E+00   -0.299977926588786659E+01    0.394939733761905245E+03
    0.299976352407430280E+01    0.399665582873917957E+00   -0.300009627140681179E+01    0.394942203332952829E+03
    0.299976352407430280E+01    0.399665582873917957E+00   -0.300009627140681179E+01    0.394942203332952829E+03
    0.299592823691901833E+01    0.399746175249541091E+00   -0.299981381388835411E+01    0.394950720431546586E+03
    0.300624006385022824E+01    0.400202350628493464E+00   -0.299997408019227674E+01    0.394952983304866166E+03
    0.300381747040294966E+01    0.400378388148490028E+00   -0.300014049502733426E+01    0.394953116681617871E+03
    0.300703391253032759E+01    0.399611318155010942E+00   -0.299986866184861611E+01    0.394955041239779916E+03
    0.299266985651619288E+01    0.400195437758685768E+00   -0.300013066907381454E+01    0.394955893876881191E+03
    0.300563944850610509E+01    0.400304354820321506E+00   -0.300007284553560050E+01    0.394961592828339974E+03
    0.300563944850610509E+01    0.400304354820321506E+00   -0.300007284553560050E+01    0.394961592828339974E+03
    0.299254534160513597E+01    0.400374783227681497E+00   -0.299997787341893618E+01    0.394970098775814392E+03
    0.299618580065312790E+01    0.400467100471321003E+00   -0.300017384229724371E+01    0.394971451894003678E+03
    0.299386551668357992E+01    0.400498469262344337E+00   -0.300007767896654887E+01    0.394974998794360886E+03
    0.299386551668357992E+01    0.400498469262344337E+00   -0.300007767896654887E+01    0.394974998794360886E+03
    0.299838355670527790E+01    0.399557147174685157E+00   -0.299983715336336720E+01    0.394979186909880639E+03
    0.299838355670527790E+01    0.399557147174685157E+00   -0.299983715336336720E+01    0.394979186909880639E+03
    0.300512863564916355E+01    0.400072632140567153E+00   -0.299987708584227253E+01    0.394981524935722121E+03
    0.299748279924420213E+01    0.400110124424475078E+00   -0.300020290467546147E+01    0.394982899744350334E+03
    0.299767646056831616E+01    0.400323299318724291E+00   -0.300021141029792293E+01    0.394990008980442326E+03
    0.299438646438595679E+01    0.400187005006930330E+00   -0.299986597458498094E+01    0.394994160128564999E+03
    0.299956482928001034E+01    0.400526283960840890E+00   -0.300008533046524528E+01    0.395002662203292971E+03
    0.299956482928001034E+01    0.400526283960840890E+00   -0.300008533046524528E+01    0.395002662203292971E+03
    0.300000953896082923E+01    0.400475089397808570E+00   -0.300000669606724601E+01    0.395010927340920318E+03
    0.300000953896082923E+01    0.400475089397808570E+00   -0.300000669606724601E+01    0.395010927340920318E+03
    0.299437746910907343E+01    0.400373662847482381E+00   -0.300016479222661836E+01    0.395011648070549086E+03
    0.300440669158774165E+01    0.400143744702753434E+00   -0.299989027112239048E+01    0.395012093020147177E+03
    0.300092867366461613E+01    0.400261203406945432E+00   -0.299988453694389356E+01    0.395017634261305375E+03
    0.300092867366461613E+01    0.400261203406945432E+00   -0.299988453694389356E+01    0.395017634261305375E+03
    0.299149763038963279E+01    0.400198891991368544E+00   -0.299995833851798022E+01    0.395018722792946505E+03
    0.299161482602383444E+01    0.400313118568209059E+00   -0.300004649652796962E+01    0.395029175317175316E+03
    0.299659404673275187E+01    0.400245620056991880E+00   -0.299986676560616061E+01    0.395029430932363823E+03
    0.300712655642752225E+01    0.399844913664170187E+00   -0.300010840975969995E+01    0.395036072327112038E+03
    0.300712655642752225E+01    0.399844913664170187E+00   -0.300010840975969995E+01    0.395036072327112038E+03
    0.299308073276577868E+01    0.400436776522367976E+00   -0.300003353329825195E+01    0.395047785324344773E+03
    0.299308073276577868E+01    0.400436776522367976E+00   -0.300003353329825195E+01    0.395047785324344773E+03
    0.300660205454017682E+01    0.399767990701311748E+00   -0.300009944503723824E+01    0.395053423337916115E+03
    0.299571597236327714E+01    0.400119345667523607E+00   -0.299984007775278316E+01    0.395053477376542730E+03
    0.300372908092151381E+01    0.399755223507111679E+00   -0.300013021614325570E+01    0.395058270190579151E+03
    0.300372908092151381E+01    0.399755223507111679E+00   -0.300013021614325570E+01    0.395058270190579151E+03
    0.300609778513314385E+01    0.399787392359688853E+00   -0.300011426007152870E+01    0.395059307155814054E+03
    0.299659611071484422E+01    0.400524063504820838E+00   -0.300011839692610494E+01    0.395059402917114937E+03
    0.299655957374413129E+01    0.400212426501425467E+00   -0.300019711149293622E+01    0.395068352477725455E+03
    0.300861234758389795E+01    0.399782162095713045E+00   -0.299996621789118878E+01    0.395073086294517907E+03
    0.300719576773530894E+01    0.399650235877692939E+00   -0.300002882478135380E+01    0.395085662561135109E+03
    0.300435998606683441E+01    0.400189597934412167E+00   -0.300017530797595811E+01    0.395095064793518645E+03
    0.300140602814139701E+01    0.400442428164522357E+00   -0.300002284047051315E+01    0.395096642215928057E+03
    0.300377998202642260E+01    0.399707245144745760E+00   -0.300010905358636215E+01    0.395098760442343462E+03
    0.300049768911145431E+01    0.400470540033092737E+00   -0.300013872385587232E+01    0.395103181820030102E+03
    0.299341835594041994E+01    0.399814914535104204E+00   -0.299991378992824886E+01    0.395111696626551861E+03
    0.299404734745783863E+01    0.399797126520918367E+00   -0.300001427177626478E+01    0.395115539544096521E+03
    0.299862526492684722E+01    0.400153532933717360E+00   -0.299984224552619283E+01    0.395116758254350543E+03
    0.300362222057756334E+01    0.400130614800911721E+00   -0.300018836382435383E+01    0.395118723234515357E+03
    0.299743844701937245E+01    0.400460075789136671E+00   -0.300016515105964343E+01    0.395120285375610138E+03
    0.299743844701937245E+01    0.400460075789136671E+00   -0.300016515105964343E+01    0.395120285375610138E+03
    0.299830401566134208E+01    0.400050454259703925E+00   -0.300019004522699317E+01    0.395125564018018110E+03
    0.299622672533922874E+01    0.400507015305963388E+00   -0.300011372396375897E+01    0.395126903399470564E+03
    0.300673043545742225E+01    0.399705895992987004E+00   -0.300006364401568604E+01    0.395135771312568352E+03
    0.299364224677393587E+01    0.400007946113343338E+00   -0.300009935635843350E+01    0.395154338680326134E+03
    0.299187284752693339E+01    0.400145426523399794E+00   -0.300004943463297646E+01    0.395165189451597882E+03
    0.299571620394002691E+01    0.400340840817983157E+00   -0.300017479889978844E+01    0.395166333303679721E+03
    0.299571620394002691E+01    0.400340840817983157E+00   -0.300017479889978844E+01    0.395166333303679721E+03
    0.300802882026666873E+01    0.399913552369630665E+00   -0.299995998696333510E+01    0.395169264658048462E+03
    0.300751054815580599E+01    0.399954399080719614E+00   -0.300008769866162472E+01    0.395170771237372378E+03
    0.299605454268051252E+01    0.399872448373721989E+00   -0.300011072556661906E+01    0.395181512469193478E+03
    0.300326362105943456E+01    0.399645884735409573E+00   -0.299981783487003728E+01    0.395188658629539930E+03
    0.299725560818321846E+01    0.400502810378296770E+00   -0.300005517476371697E+01    0.395191082684456546E+03
    0.300030564392005239E+01    0.400027189000218164E+00   -0.300018971155074432E+01    0.395196446290463939E+03
    0.300030564392005239E+01    0.400027189000218164E+00   -0.300018971155074432E+01    0.395196446290463939E+03
    0.299929824141196333E+01    0.400171893633536224E+00   -0.300020220411662430E+01    0.395197426331676638E+03
    0.299929824141196333E+01    0.400171893633536224E+00   -0.300020220411662430E+01    0.395197426331676638E+03
    0.300429276090393049E+01    0.400055552097344558E+00   -0.300017085823980967E+01    0.395200576508007543E+03
    0.300309613710400614E+01    0.400286820971433532E+00   -0.300016566238101401E+01    0.395222717298492171E+03
    0.300309613710400614E+01    0.400286820971433532E+00   -0.300016566238101401E+01    0.395222717298492171E+03
    0.299595960049071586E+01    0.399674409120994056E+00   -0.299997173580409404E+01    0.395233884669859776E+03
    0.299865467930985297E+01    0.399986360026026333E+00   -0.300017220167960108E+01    0.395236192438534204E+03
    0.300062378651718520E+01    0.399782158100095875E+00   -0.300012568766041143E+01    0.395241635794341732E+03
    0.300289192867048982E+01    0.399825946158567258E+00   -0.300013971567436366E+01    0.395249491637112328E+03
    0.300781535733554373E+01    0.399843506193217624E+00   -0.300004341012633891E+01    0.395250216952788890E+03
    0.300670533514770133E+01    0.399844137287122703E+00   -0.300009265641464484E+01    0.395250386882078431E+03
    0.299654082579795977E+01    0.399859390861961428E+00   -0.299982256908615508E+01    0.395253579567777592E+03
    0.299654082579795977E+01    0.399859390861961428E+00   -0.299982256908615508E+01    0.395253579567777592E+03
    0.300572844955451890E+01    0.400038841260383859E+00   -0.300013672048166224E+01    0.395261702148399252E+03
    0.300572844955451890E+01    0.400038841260383859E+00   -0.300013672048166224E+01    0.395261702148399252E+03
    0.300289235655291176E+01    0.400170059438661019E+00   -0.299989552419849126E+01    0.395268254279885468E+03
    0.300289235655291176E+01    0.400170059438661019E+00   -0.299989552419849126E+01    0.395268254279885468E+03
    0.300362148177194266E+01    0.399663670208504351E+00   -0.300007343433404117E+01    0.395271040504862583E+03
    0.300362148177194266E+01    0.399663670208504351E+00   -0.300007343433404117E+01    0.395271040504862583E+03
    0.299415248786871802E+01    0.400216450747981622E+00   -0.300013694511131579E+01    0.395277345948869993E+03
    0.300309589098392271E+01    0.400189009785470229E+00   -0.300017698934170696E+01    0.395279616365601328E+03
    0.300309589098392271E+01    0.400189009785470229E+00   -0.300017698934170696E+01    0.395279616365601328E+03
    0.299459092830428020E+01    0.399756921902013118E+00   -0.299993465909266810E+01    0.395282710697500079E+03
    0.300741241496664813E+01    0.400017724796140395E+00   -0.300005098685394023E+01    0.395286923201497473E+03
    0.300436989103319663E+01    0.399552406234399637E+00   -0.299998557962155976E+01    0.395288203535454329E+03
    0.299377411097439827E+01    0.400373515859150320E+00   -0.299999852437920600E+01    0.395291248554425920E+03
    0.300602829425638030E+01    0.400080899208547003E+00   -0.300011973484812255E+01    0.395296475616027180E+03
    0.300602829425638030E+01    0.400080899208547003E+00   -0.300011973484812255E+01    0.395296475616027180E+03
    0.300576944015451364E+01    0.400074621066567993E+00   -0.299993129170219408E+01    0.395299976909035024E+03
    0.300622836649066461E+01    0.400109699787025430E+00   -0.300010380299344881E+01    0.395300196999272373E+03
    0.299803130139808305E+01    0.399604622026450695E+00   -0.299987746751157447E+01    0.395301029194775651E+03
    0.300718469327652960E+01    0.399801631515519507E+00   -0.299991478251470012E+01    0.395304215749363891E+03
    0.299987511534068396E+01    0.400461448962765476E+00   -0.300006953411349597E+01    0.395307430783618997E+03
    0.300605368486978186E+01    0.399770513806746941E+00   -0.300008109038979232E+01    0.395308685804567688E+03
    0.300752910691965614E+01    0.399979844221553249E+00   -0.300004379328481896E+01    0.395310466303669727E+03
    0.300617863248536743E+01    0.399951344644612294E+00   -0.300011547176341242E+01    0.395311328718060395E+03
    0.300745107928142730E+01    0.399708680484770318E+00   -0.299996204351207352E+01    0.395315880121085399E+03
    0.299293982100897349E+01    0.400036297926340600E+00   -0.299991863882533139E+01    0.395318180864522105E+03
    0.299494647972245431E+01    0.399742022405247421E+00   -0.299994379619983187E+01    0.395320461951369055E+03
    0.300091080381356878E+01    0.399904409394795435E+00   -0.300015651047650511E+01    0.395324237334531176E+03
    0.300621860900443227E+01    0.400132346189511490E+00   -0.299999532237234323E+01    0.395326253923750414E+03
    0.299286645956073860E+01    0.400288876077270428E+00   -0.300006914721609252E+01    0.395335792067416321E+03
    0.300454899177506496E+01    0.399605288458530550E+00   -0.300002092556188060E+01    0.395337965746857037E+03
    0.299509190230865308E+01    0.400196744054417852E+00   -0.299989270062344771E+01    0.395338798700955408E+03
    0.299243193138767571E+01    0.400184767063883839E+00   -0.300004832187794079E+01    0.395341662278385741E+03
    0.300200917527404876E+01    0.400237792550616811E+00   -0.300017827038154650E+01    0.395342260397545544E+03
    0.299821872339901807E+01    0.399699042996791210E+00   -0.300005181540147525E+01    0.395345860511998353E+03
    0.299364298354593439E+01    0.399893761294155159E+00   -0.300001353010397143E+01    0.395347775318641141E+03
    0.300311714016137721E+01    0.400329876511041960E+00   -0.300001771198624478E+01    0.395362212123277857E+03
    0.300091879588628085E+01    0.399940194341978583E+00   -0.300016100176399902E+01    0.395370071182718334E+03
    0.299434345080139730E+01    0.400380700145290869E+00   -0.300010039918275639E+01    0.395371099179787507E+03
    0.299434345080139730E+01    0.400380700145290869E+00   -0.300010039918275639E+01    0.395371099179787507E+03
    0.299544874260716076E+01    0.399946940696754905E+00   -0.300010345571941484E+01    0.395385127452373865E+03
    0.300114373475872132E+01    0.399546060882448650E+00   -0.299989188419848363E+01    0.395390623104445751E+03
    0.300718705036721223E+01    0.399957418565188183E+00   -0.300005584196925446E+01    0.395391633912427892E+03
    0.300272026589398111E+01    0.400351655373289872E+00   -0.300003728239666412E+01    0.395395029651010418E+03
    0.300678384200729631E+01    0.399957204766041075E+00   -0.300007899035071190E+01    0.395403172762837244E+03
    0.300471707054754633E+01    0.400160468366801136E+00   -0.300013240731551489E+01    0.395405316127814956E+03
    0.300346227587661341E+01    0.399814806842726245E+00   -0.299983539745340089E+01    0.395411125277055532E+03
    0.299793309222658344E+01    0.399629870711471213E+00   -0.299988671845066923E+01    0.395413010176172577E+03
    0.300730057569325249E+01    0.399806795956370697E+00   -0.300002191638446769E+01    0.395414771227876486E+03
    0.300665904668024098E+01    0.400073184470268628E+00   -0.300001756667650454E+01    0.395415642971569866E+03
    0.300665904668024098E+01    0.400073184470268628E+00   -0.300001756667650454E+01    0.395415642971569866E+03
    0.300154835750937643E+01    0.400056908577072712E+00   -0.299985472563866873E+01    0.395419057171278780E+03
    0.300154835750937643E+01    0.400056908577072712E+00   -0.299985472563866873E+01    0.395419057171278780E+03
    0.300023395914846391E+01    0.399856101601995417E+00   -0.300013307304072008E+01    0.395421891872991750E+03
    0.300572218550936965E+01    0.399738502634508053E+00   -0.299987943075816377E+01    0.395422366998354050E+03
    0.300638750751216532E+01    0.399840957089927007E+00   -0.300007536826692700E+01    0.395427843199363735E+03
    0.300199205448405948E+01    0.400343867389998886E+00   -0.300000151360517897E+01    0.395430702927577613E+03
    0.300199205448405948E+01    0.400343867389998886E+00   -0.300000151360517897E+01    0.395430702927577613E+03
    0.299525803433619231E+01    0.399771457001077801E+00   -0.299990424622149998E+01    0.395434857344898944E+03
    0.300203736382431607E+01    0.400377095966720165E+00   -0.300006476919274068E+01    0.395437145573287864E+03
    0.300083036622938781E+01    0.399965826797681057E+00   -0.299983275418739392E+01    0.395443638488658394E+03
    0.299534990663736256E+01    0.399797024412512469E+00   -0.299988551861346719E+01    0.395445288152079740E+03
    0.300081314705580926E+01    0.399578598760592707E+00   -0.299987356233101243E+01    0.395446319426396315E+03
    0.299327594559124410E+01    0.399999954130897450E+00   -0.300002931309534304E+01    0.395450756331888783E+03
    0.300730886122698671E+01    0.399914788289448042E+00   -0.300000852155184816E+01    0.395457227867271456E+03
    0.299885335006320863E+01    0.400351678886865181E+00   -0.300015938938730198E+01    0.395468686216830974E+03
    0.300000925188917966E+01    0.399578107918226844E+00   -0.299995024477149386E+01    0.395474015160743988E+03
    0.299875082978437169E+01    0.399786346121185909E+00   -0.299982786600500617E+01    0.395485857551928120E+03
    0.300660602154496281E+01    0.400027797279376429E+00   -0.300005369441211478E+01    0.395491154812860827E+03
    0.300216703461732637E+01    0.400114743242807436E+00   -0.300016753411125192E+01    0.395498153219837207E+03
    0.300216703461732637E+01    0.400114743242807436E+00   -0.300016753411125192E+01    0.395498153219837207E+03
    0.299382437033275295E+01    0.400253555829942875E+00   -0.300009089134539275E+01    0.395499337302408776E+03
    0.299618820465289870E+01    0.399741149019767927E+00   -0.299989162255427733E+01    0.395499840872332129E+03
    0.300145849911434226E+01    0.400020456503913213E+00   -0.300016353149158377E+01    0.395500559852527317E+03
    0.299334523914715955E+01    0.400034011238353249E+00   -0.299993898639979628E+01    0.395505906149234534E+03
    0.299436409391578673E+01    0.399848669215765951E+00   -0.299995983221731022E+01    0.395513757183505618E+03
    0.299862757136056191E+01    0.400237110010971509E+00   -0.300017177318562833E+01    0.395515388875938925E+03
    0.300201179897685133E+01    0.399891038205156646E+00   -0.299983678455322300E+01    0.395517450142564940E+03
    0.299818580038619054E+01    0.400041884414111149E+00   -0.300015561895536287E+01    0.395518535673086433E+03
    0.299800633000243621E+01    0.400170256313189310E+00   -0.300016778628804648E+01    0.395523194239454654E+03
    0.300129203058211402E+01    0.400224918249446504E+00   -0.299992157763941680E+01    0.395527656756460772E+03
    0.300235522474526295E+01    0.400128076969247404E+00   -0.300016277062194936E+01    0.395529763905404877E+03
    0.299416063951549383E+01    0.399986675379764733E+00   -0.299990549429981401E+01    0.395529765180288734E+03
    0.300618602737305407E+01    0.399834286152360552E+00   -0.299991429748663352E+01    0.395532706896137256E+03
    0.299492818458220622E+01    0.400258887932570195E+00   -0.300011981625232993E+01    0.395545078708808887E+03
    0.300426616331794172E+01    0.400139214393068376E+00   -0.300012811793021683E+01    0.395546596805254012E+03
    0.300426616331794172E+01    0.400139214393068376E+00   -0.300012811793021683E+01    0.395546596805254012E+03
    0.300631129489339699E+01    0.399936920794697559E+00   -0.299994304434065517E+01    0.395550249126524307E+03
    0.300404618958557723E+01    0.399924867085388991E+00   -0.299987143188521221E+01    0.395551811365750723E+03
    0.300013756966481404E+01    0.400055527690634238E+00   -0.299985683198955577E+01    0.395555540918494557E+03
    0.299499783213300041E+01    0.400364233095830968E+00   -0.300008139934702900E+01    0.395559593621071542E+03
    0.299499783213300041E+01    0.400364233095830968E+00   -0.300008139934702900E+01    0.395559593621071542E+03
    0.300423014374689057E+01    0.399629703494263078E+00   -0.299989310027496359E+01    0.395562699209941172E+03
    0.300096829869220905E+01    0.400332504829696623E+00   -0.300013540880975205E+01    0.395566930398876366E+03
    0.299897641027506356E+01    0.400118744780143865E+00   -0.300016599866592504E+01    0.395567401129461189E+03
    0.299897641027506356E+01    0.400118744780143865E+00   -0.300016599866592504E+01    0.395567401129461189E+03
    0.300645380023284625E+01    0.399742601448134005E+00   -0.299994978672309998E+01    0.395568408199220869E+03
    0.299357469583453195E+01    0.399974103560268524E+00   -0.299998993968441807E+01    0.395570503420457328E+03
    0.300432444818931943E+01    0.399860064274208449E+00   -0.299986966341431271E+01    0.395572021018852411E+03
    0.300549427900628974E+01    0.399800688553270722E+00   -0.299989487560382040E+01    0.395575654675436056E+03
    0.299401625129335658E+01    0.400263795569000380E+00   -0.300007927121858575E+01    0.395576825403260557E+03
    0.299401625129335658E+01    0.400263795569000380E+00   -0.300007927121858575E+01    0.395576825403260557E+03
    0.300629172329314276E+01    0.400041691009029587E+00   -0.300001435062494659E+01    0.395577631855503000E+03
    0.299586173842809567E+01    0.399760055518021906E+00   -0.299992788739502192E+01    0.395582202186032475E+03
    0.300329601591366080E+01    0.400021935309711585E+00   -0.299988373557395960E+01    0.395586481787061075E+03
    0.299326996902488807E+01    0.400159545128329130E+00   -0.299998492357132163E+01    0.395587153687905186E+03
    0.300439313709239775E+01    0.399717854279442286E+00   -0.300005124827282899E+01    0.395589213101581151E+03
    0.300070724516040510E+01    0.399627564044984951E+00   -0.299987099867707174E+01    0.395590016495146415E+03
    0.300188883709061871E+01    0.400281222058164021E+00   -0.299997387458117659E+01    0.395590710229992965E+03
    0.299976736070860506E+01    0.400169741720662608E+00   -0.300016783952928190E+01    0.395591579178712948E+03
    0.299630615230080632E+01    0.400003720309131172E+00   -0.299986587548122063E+01    0.395599694226755787E+03
    0.299633001119899056E+01    0.400365235017718035E+00   -0.300011189364878472E+01    0.395605312236645034E+03
    0.299477148179258101E+01    0.400342264580897056E+00   -0.300006724724126794E+01    0.395606941839510398E+03
    0.299614342251126065E+01    0.399831352801861883E+00   -0.299987656322595742E+01    0.395609738030771894E+03
    0.300222117661689136E+01    0.400196307460029044E+00   -0.299993257874220243E+01    0.395610120606566511E+03
    0.300465403530291653E+01    0.400179794578636006E+00   -0.300008104931057762E+01    0.395614473955204801E+03
    0.299896524575845813E+01    0.399739230883242536E+00   -0.300005356099150156E+01    0.395614784286617407E+03
    0.300143301165176979E+01    0.400341170973792071E+00   -0.300010520170919470E+01    0.395616057096826296E+03
    0.300343390210901573E+01    0.400149704074139745E+00   -0.300013588130960773E+01    0.395616451933613916E+03
    0.300025455337010527E+01    0.399641851600913589E+00   -0.299987164691909536E+01    0.395616532320071485E+03
    0.300288143893636139E+01    0.400079646436409642E+00   -0.300014763430038034E+01    0.395617410234264469E+03
    0.300359140826722504E+01    0.400084867056228144E+00   -0.299991350501501763E+01    0.395619113811334728E+03
    0.300118821188271490E+01    0.400110899223902305E+00   -0.299988595883745157E+01    0.395625991290846798E+03
    0.299451155869514807E+01    0.399904186520019189E+00   -0.300000642513016791E+01    0.395627229283137410E+03
    0.300212920930409588E+01    0.400264692508332243E+00   -0.300013219070049963E+01    0.395630579626693418E+03
    0.300460080001122787E+01    0.399630937105405704E+00   -0.299994542711845735E+01    0.395631640569530816E+03
    0.300061138721012544E+01    0.399602807123356218E+00   -0.299994661981077737E+01    0.395633228172162546E+03
    0.300475410473357218E+01    0.399680152216955076E+00   -0.300001152414377525E+01    0.395637769017144819E+03
    0.300417021068191614E+01    0.399709356927329063E+00   -0.300004230283101858E+01    0.395637842722651556E+03
    0.299487245559560522E+01    0.400341647147213098E+00   -0.300004862330115207E+01    0.395638087853484933E+03
    0.300638105993089555E+01    0.399822564752077447E+00   -0.300001874035256266E+01    0.395646251246913096E+03
    0.299774516448981920E+01    0.399730913920640807E+00   -0.299987539572027950E+01    0.395648645349491574E+03
    0.300029179429708304E+01    0.400091309767564629E+00   -0.300015861974589360E+01    0.395652472806426715E+03
    0.299633147506533959E+01    0.400368534388475861E+00   -0.300009561592623397E+01    0.395654391239043605E+03
    0.300082939043043861E+01    0.399672001042564673E+00   -0.299986129411714320E+01    0.395654880710724740E+03
    0.300505428766327354E+01    0.399664948435863754E+00   -0.299993580427920925E+01    0.395656860651479462E+03
    0.300298134224009194E+01    0.400015940164802797E+00   -0.300013845399691537E+01    0.395656937018648875E+03
    0.299528138624179663E+01    0.399831309742134378E+00   -0.299998351885208070E+01    0.395657382081090418E+03
    0.300030699201894091E+01    0.400099894841873360E+00   -0.299987884932666748E+01    0.395658076504440544E+03
    0.299770499575705562E+01    0.399698482648729037E+00   -0.299997795807853773E+01    0.395659823862312635E+03
    0.300590482305610207E+01    0.399770233962854382E+00   -0.300002025463266353E+01    0.395660992475795183E+03
    0.299578304033264464E+01    0.400001412444348337E+00   -0.300009539625694410E+01    0.395663120924346742E+03
    0.299799885285030587E+01    0.400028019603777873E+00   -0.300013747311119561E+01    0.395665124805080382E+03
    0.300280992107249345E+01    0.400247006652480253E+00   -0.299998905090474777E+01    0.395665620920856952E+03
    0.299910181188093583E+01    0.400185233833335763E+00   -0.299990203866833793E+01    0.395665698116017438E+03
    0.300480154810607303E+01    0.400028959988628696E+00   -0.299993220058603116E+01    0.395666116534534808E+03
    0.300371442058116056E+01    0.399833987063818064E+00   -0.300009448522432276E+01    0.395667619160916445E+03
    0.300346945048416858E+01    0.399697246175359011E+00   -0.299987340401475056E+01    0.395668911029697426E+03
    0.300321981143457339E+01    0.399718934757903821E+00   -0.299986600386970759E+01    0.395672260733442272E+03
    0.299764777643184654E+01    0.400080414435287746E+00   -0.300014135253497471E+01    0.395675142547316113E+03
    0.299643811495238888E+01    0.399860416290829412E+00   -0.299987411835424478E+01    0.395676680828578469E+03
    0.300241937800321068E+01    0.399680338270143487E+00   -0.299986687011126829E+01    0.395677641317402617E+03
    0.300004847457091461E+01    0.399657590290670939E+00   -0.300000077164812273E+01    0.395680149957577726E+03
    0.299662582584195425E+01    0.400312803620004043E+00   -0.300012309274693223E+01    0.395682073389814605E+03
    0.299740972039351794E+01    0.399791649031018548E+00   -0.299986790925248270E+01    0.395682144209284388E+03
    0.300192271319265913E+01    0.400014520538172436E+00   -0.299987304159660217E+01    0.395686576273451067E+03
    0.299823800258262674E+01    0.399820041301566731E+00   -0.300007422576440863E+01    0.395686938537309629E+03
    0.300440487279095736E+01    0.399953130458240158E+00   -0.300010749725000903E+01    0.395688235090617809E+03
    0.299757764640609325E+01    0.400175957173674768E+00   -0.300014711521198851E+01    0.395689102876640902E+03
    0.299395093210489449E+01    0.400022597424908199E+00   -0.300001965143764782E+01    0.395690359719052992E+03
    0.300305260035562060E+01    0.400261377448836275E+00   -0.300008241566948630E+01    0.395696118970134933E+03
    0.300482785665923524E+01    0.399967680333153275E+00   -0.300009838246923888E+01    0.395697471250580065E+03
    0.299635558021962467E+01    0.400369416184828297E+00   -0.300007304232720262E+01    0.395700814910792019E+03
    0.299938925578312610E+01    0.400371766327788314E+00   -0.300003436411176239E+01    0.395702331030241567E+03
    0.299809896344597249E+01    0.400105746556914887E+00   -0.300014589942929710E+01    0.395702571732046238E+03
    0.300305931429375672E+01    0.399644196196210444E+00   -0.299989689347227761E+01    0.395708354842275355E+03
    0.300354666339878795E+01    0.400125819746144251E+00   -0.299994214978105678E+01    0.395709010271192255E+03
    0.300496181033767407E+01    0.399890706123051054E+00   -0.299990822519287637E+01    0.395714399350504493E+03
    0.299908403044419414E+01    0.400368907340867941E+00   -0.300009676382878521E+01    0.395719317017376454E+03
    0.300155120061838199E+01    0.399681378835514634E+00   -0.299986894128482939E+01    0.395719605577835182E+03
    0.299790699673461569E+01    0.399695853713468996E+00   -0.299993958236909908E+01    0.395731729153906713E+03
    0.299742553119335620E+01    0.400328576343135456E+00   -0.300011808267982794E+01    0.395733809221526883E+03
    0.300394400916321302E+01    0.400204736323134247E+00   -0.300004110166027704E+01    0.395734656385275343E+03
    0.299613760726310829E+01    0.400332059256433503E+00   -0.300000478284257266E+01    0.395736181505453089E+03
    0.299605660500982474E+01    0.400230152591579291E+00   -0.299994250716056055E+01    0.395743471916644125E+03
    0.299937279795647882E+01    0.399652784107492942E+00   -0.299994386915542011E+01    0.395743617194335172E+03
    0.299851963903133889E+01    0.399680833915687483E+00   -0.299992079449719196E+01    0.395745683244110012E+03
    0.300008201438606958E+01    0.400010211585864528E+00   -0.299986508530457874E+01    0.395746486549816666E+03
    0.300148661733888833E+01    0.399687936807559152E+00   -0.300002639193296705E+01    0.395747133750747821E+03
    0.299475221338955411E+01    0.400274528725039769E+00   -0.300005920284883931E+01    0.395747383561564334E+03
    0.299716874816080736E+01    0.399786218895141043E+00   -0.300001960930676326E+01    0.395755596615127274E+03
    0.299916164432294874E+01    0.400292783127077223E+00   -0.300013354943050770E+01    0.395757095875750679E+03
    0.300598918711831065E+01    0.399946523289436195E+00   -0.299999377168367243E+01    0.395759893906571733E+03
    0.300251897973061466E+01    0.399902542591553389E+00   -0.299986776085482854E+01    0.395760499252984687E+03
    0.299391992000591189E+01    0.400089875769544079E+00   -0.299999823893823736E+01    0.395761719042608888E+03
    0.300567763110097719E+01    0.400015027351168895E+00   -0.300002914003806209E+01    0.395767667121437853E+03
    0.299728333211814313E+01    0.400336815741127172E+00   -0.300000092185968636E+01    0.395768550061013059E+03
    0.300341731224202668E+01    0.399733712812541442E+00   -0.299988212062877313E+01    0.395771187563796957E+03
    0.300238431811926976E+01    0.400276800105571984E+00   -0.300004328085751526E+01    0.395772118480505014E+03
    0.300209734126595595E+01    0.399982679373483418E+00   -0.299987744101982168E+01    0.395775451348928812E+03
    0.299796718307991128E+01    0.400009581169063488E+00   -0.299987023772751771E+01    0.395776213898244407E+03
    0.300426814248122964E+01    0.400139194301802836E+00   -0.300008083140869175E+01    0.395776559041158009E+03
    0.300552466041288913E+01    0.400019262388846886E+00   -0.300000463128069406E+01    0.395792386856267399E+03
    0.299734701984307028E+01    0.399740060829081312E+00   -0.299993729313691082E+01    0.395796373119234886E+03
    0.299538645877890275E+01    0.400028004498214074E+00   -0.299991337391497481E+01    0.395804079109943814E+03
    0.299543523528032729E+01    0.399902573181258048E+00   -0.300001380123410666E+01    0.395809247671465300E+03
    0.300228854890525998E+01    0.399819381331589674E+00   -0.299993162058997731E+01    0.396168160590661159E+03
    0.300241062474523090E+01    0.399942485359822020E+00   -0.300003608813807077E+01    0.396266354429314561E+03
    0.299686840105175989E+01    0.399946889301654784E+00   -0.299999165506437038E+01    0.396182561929090070E+03
    0.299864156597195386E+01    0.400131058927749528E+00   -0.299997770875204806E+01    0.396272452906643878E+03
    0.299552976514938951E+01    0.400073036184604047E+00   -0.299992386739913730E+01    0.395856350571549399E+03
    0.300186762864641477E+01    0.400051104016014847E+00   -0.299990317151364438E+01    0.395876886555129943E+03
    0.299758588500673762E+01    0.399775491066638955E+00   -0.299997228272779060E+01    0.395928847998290564E+03
    0.299785262045884915E+01    0.399859825569262195E+00   -0.300006298004049343E+01    0.395854770300527662E+03
    0.300136007507437563E+01    0.399823334391417928E+00   -0.300004191485948013E+01    0.396099996612930340E+03
    0.299890993482560209E+01    0.399819284887638460E+00   -0.300005012429006257E+01    0.395930513158274380E+03
    0.300131662590244908E+01    0.400076407129368150E+00   -0.299996259495212048E+01    0.396233597658507961E+03
    0.299910719698669448E+01    0.399735565406801607E+00   -0.300000492958766918E+01    0.395891674748777916E+03
    0.300258635645145500E+01    0.400214273212447069E+00   -0.300005424979510504E+01    0.395939270882119786E+03
    0.300278345251409551E+01    0.400226807147698371E+00   -0.300009144400323402E+01    0.395809532277520020E+03
    0.299669759961005466E+01    0.399795218578037792E+00   -0.299993987702369358E+01    0.395852237765138909E+03
    0.300216591260978660E+01    0.400112175760398148E+00   -0.300008473587641511E+01    0.396095877284707512E+03
    0.300281626748111741E+01    0.400189446062059029E+00   -0.299999910774792378E+01    0.395908042911595260E+03
    0.299891515302440759E+01    0.400043015098869970E+00   -0.299987746086348084E+01    0.395817870035396197E+03
    0.299827737768222580E+01    0.399848055553674975E+00   -0.299993126849760205E+01    0.396146900869469903E+03
    0.300267976984853391E+01    0.399840477824629559E+00   -0.300003703936752331E+01    0.396115910683988602E+03
    0.299879571105877307E+01    0.399927467057708208E+00   -0.299992095054865526E+01    0.396211245169481685E+03
    0.299879571105877307E+01    0.399927467057708208E+00   -0.299992095054865526E+01    0.396211245169481685E+03
    0.300164674157986866E+01    0.400036903461632010E+00   -0.300003262292608541E+01    0.396337979631340886E+03
    0.299883052140621498E+01    0.400150079835740913E+00   -0.300011478279785937E+01    0.396014691454487320E+03
    0.300141850867803228E+01    0.399872837941813386E+00   -0.299999037208146468E+01    0.396335476478938403E+03
    0.300559339525142688E+01    0.399872664119609644E+00   -0.300001229487360987E+01    0.395852906933719908E+03
    0.299792718969348071E+01    0.399962631090708509E+00   -0.300001330109260422E+01    0.396295747787100481E+03
    0.299792718969348071E+01    0.399962631090708509E+00   -0.300001330109260422E+01    0.396295747787100481E+03
    0.300189062530516759E+01    0.400081910517615935E+00   -0.300010470795704620E+01    0.396030994743465953E+03
    0.299907841778423112E+01    0.400082230922322424E+00   -0.299992446560888659E+01    0.396112156792618293E+03
    0.299800353159470756E+01    0.400272348577647707E+00   -0.300000377590498424E+01    0.396009908360594466E+03
    0.299759529536703484E+01    0.400010146025165103E+00   -0.300002112523459186E+01    0.396292663263186967E+03
    0.299996655941670243E+01    0.399837215611811625E+00   -0.299990347565916293E+01    0.396122130695316230E+03
    0.299856712233138767E+01    0.399858447301549125E+00   -0.299993695664070481E+01    0.396200253333246451E+03
    0.300250582301902602E+01    0.399980202090234993E+00   -0.299998192516455209E+01    0.396293926058193904E+03
    0.300328393278271744E+01    0.399947650835846213E+00   -0.299989983453904063E+01    0.395869764841663937E+03
    0.300002572541067769E+01    0.400098359562564510E+00   -0.300000328866350685E+01    0.396368478618479799E+03
    0.300002572541067769E+01    0.400098359562564510E+00   -0.300000328866350685E+01    0.396368478618479799E+03
    0.299908853398036479E+01    0.399869013349288149E+00   -0.300005675551131024E+01    0.396050409647610024E+03
    0.299950083929506572E+01    0.400212334450544938E+00   -0.300011190489097723E+01    0.396000035510953182E+03
    0.300204453062762333E+01    0.399852260335220699E+00   -0.299998088111465266E+01    0.396289917531260755E+03
    0.300204453062762333E+01    0.399852260335220699E+00   -0.299998088111465266E+01    0.396289917531260755E+03
    0.299686864361462968E+01    0.399966079975885125E+00   -0.300002241742730247E+01    0.396156425524643169E+03
    0.300368670024907836E+01    0.399984688505154173E+00   -0.300007226281473560E+01    0.396018498716875627E+03
    0.300334464273797552E+01    0.399867098111737762E+00   -0.299994522645084416E+01    0.396141812358949721E+03
    0.300334464273797552E+01    0.399867098111737762E+00   -0.299994522645084416E+01    0.396141812358949721E+03
    0.299929539189111649E+01    0.400030887233255139E+00   -0.300006090713064344E+01    0.396297573343281442E+03
    0.300148820142425521E+01    0.399688365496482678E+00   -0.299994181003361904E+01    0.395964209662657424E+03
    0.300155259676375197E+01    0.400267325696719189E+00   -0.300004027699972209E+01    0.395914484668550870E+03
    0.300132901290977427E+01    0.400002307424828174E+00   -0.299988707844505020E+01    0.395894619557567808E+03
    0.300001210429242260E+01    0.399748996680742374E+00   -0.299992798344412215E+01    0.396070247850560406E+03
    0.299810532593015600E+01    0.400031457589374639E+00   -0.299992429781423953E+01    0.396154050663389341E+03
    0.299845019018986481E+01    0.400155246734242742E+00   -0.299996383789872478E+01    0.396172655272014197E+03
    0.299845019018986481E+01    0.400155246734242742E+00   -0.299996383789872478E+01    0.396172655272014197E+03
    0.299990263529877188E+01    0.399799896387963427E+00   -0.299989059767860500E+01    0.396017135062649970E+03
    0.300274626954764257E+01    0.400166590498553965E+00   -0.300006995957504152E+01    0.396002488433824851E+03
    0.300099039439837156E+01    0.400197571819125297E+00   -0.300002818800405713E+01    0.396159623045641183E+03
    0.300099039439837156E+01    0.400197571819125297E+00   -0.300002818800405713E+01    0.396159623045641183E+03
    0.299511807546506814E+01    0.400193794099161004E+00   -0.300003883925129333E+01    0.395933190116543585E+03
    0.299693103485497980E+01    0.399936954277579804E+00   -0.300004890164635230E+01    0.396011355453042142E+03
    0.300051805461768950E+01    0.399993742233817895E+00   -0.299988458298573368E+01    0.395936681282767211E+03
    0.300461523442956890E+01    0.400082179823939510E+00   -0.300005062459218941E+01    0.395875755413397030E+03
    0.300022308335644317E+01    0.400123514341295949E+00   -0.299996520016228141E+01    0.396220969645379057E+03
    0.300487613932108877E+01    0.400005383576459539E+00   -0.300001422540018847E+01    0.395951615886650245E+03
    0.299654616950640262E+01    0.400197837089321329E+00   -0.299994971687024581E+01    0.395912339463677938E+03
    0.299786810337117471E+01    0.400114300326340766E+00   -0.299993977911181453E+01    0.396115610364599661E+03
    0.299786810337117471E+01    0.400114300326340766E+00   -0.299993977911181453E+01    0.396115610364599661E+03
    0.300363279028441221E+01    0.399876043910900258E+00   -0.300005410354375623E+01    0.396018901610524324E+03
    0.299520292084789297E+01    0.400162496371226750E+00   -0.299997017434478552E+01    0.395912861892751209E+03
    0.299925000517181184E+01    0.400279864024430054E+00   -0.300002035707412773E+01    0.396017629407738525E+03
    0.299899061452188986E+01    0.400002869443932485E+00   -0.300000332181657114E+01    0.396406567338184857E+03
    0.299899061452188986E+01    0.400002869443932485E+00   -0.300000332181657114E+01    0.396406567338184857E+03
    0.300090467687587514E+01    0.399713726853639706E+00   -0.299996911459768434E+01    0.396021687386671829E+03
    0.300005264394442150E+01    0.400017709672322086E+00   -0.300011357997250894E+01    0.395985661708643022E+03
    0.300156594604510829E+01    0.400079364783919311E+00   -0.300008793901465021E+01    0.396147127757958401E+03
    0.300156594604510829E+01    0.400079364783919311E+00   -0.300008793901465021E+01    0.396147127757958401E+03
    0.299920796799478584E+01    0.399979270336789927E+00   -0.299992284843288637E+01    0.396225714883209434E+03
    0.299815900042190453E+01    0.399943423984017721E+00   -0.299987668013568509E+01    0.395899955962683634E+03
    0.299474876765514830E+01    0.400049369720425929E+00   -0.300002451511169843E+01    0.395887066467644615E+03
    0.299607347792670264E+01    0.400200176075628800E+00   -0.300008197343631000E+01    0.395947669194757509E+03
    0.300330787976619185E+01    0.399945703504996419E+00   -0.300000332732169372E+01    0.396230826628269483E+03
    0.300080129505279469E+01    0.399903678646376437E+00   -0.299997961188389883E+01    0.396380082511284343E+03
    0.300080129505279469E+01    0.399903678646376437E+00   -0.299997961188389883E+01    0.396380082511284343E+03
    0.300313862182349389E+01    0.400201032414257307E+00   -0.300002038509978597E+01    0.395871080999695096E+03
    0.299820484134420351E+01    0.400184593729799865E+00   -0.300001647893444590E+01    0.396245186434311961E+03
    0.300375079957916746E+01    0.399948532722100569E+00   -0.299996260866234365E+01    0.396118685733775578E+03
    0.299665462352234613E+01    0.400176983753892102E+00   -0.299997744026676161E+01    0.396085963064937630E+03
    0.300118015056823895E+01    0.399950542596993863E+00   -0.300009776045167431E+01    0.396013342795192500E+03
    0.299818664212873376E+01    0.399872733278901826E+00   -0.299994411290904717E+01    0.396203299731828395E+03
    0.299632706954251438E+01    0.400253336527636838E+00   -0.300003512178205201E+01    0.396006504122285605E+03
    0.299774828161786910E+01    0.400183812778883430E+00   -0.300013372763652209E+01    0.395814489035165536E+03
    0.299959775481659818E+01    0.400162992035756282E+00   -0.300006245941417493E+01    0.396254080686276268E+03
    0.300112869378119873E+01    0.399719652392556191E+00   -0.299999150301184780E+01    0.396000062678263475E+03
    0.300056969782154592E+01    0.400267945970641803E+00   -0.300009502428919150E+01    0.395936739049460925E+03
    0.300487355767543107E+01    0.400051617092517908E+00   -0.299998834852447516E+01    0.395848926437587977E+03
    0.300292236019832703E+01    0.399683698127925979E+00   -0.299997037241754194E+01    0.395904947439545083E+03
    0.300241357507390294E+01    0.399695067664261883E+00   -0.299992116962514244E+01    0.395934145550634071E+03
    0.300204797655953826E+01    0.399809162982664612E+00   -0.299997441991113778E+01    0.396230464504104589E+03
    0.300502470714878189E+01    0.399779655601880279E+00   -0.299995586240338641E+01    0.395880224280819675E+03
    0.299980697834024390E+01    0.400019911688145546E+00   -0.300009185575361048E+01    0.396139674023238570E+03
    0.299593010783454705E+01    0.399891255172546811E+00   -0.299999809779703730E+01    0.395921400037496142E+03
    0.299718083181409733E+01    0.399854170627476524E+00   -0.300005081459093237E+01    0.395818880295436315E+03
    0.300495470778910745E+01    0.400026632876642085E+00   -0.300000719346387257E+01    0.395906497520233870E+03
    0.299746945888885552E+01    0.399872053203212674E+00   -0.299995948355981090E+01    0.396147270046409176E+03
    0.300092292487613976E+01    0.399718651194377106E+00   -0.299988775361987470E+01    0.395894069737677171E+03
    0.300086456598570006E+01    0.399940507089826980E+00   -0.299995338477977880E+01    0.396350508051347788E+03
    0.300086456598570006E+01    0.399940507089826980E+00   -0.299995338477977880E+01    0.396350508051347788E+03
    0.300105168687400514E+01    0.400001182706278102E+00   -0.299998802804135511E+01    0.396396875077053096E+03
    0.300105168687400514E+01    0.400001182706278102E+00   -0.299998802804135511E+01    0.396396875077053096E+03
    0.300239008093004944E+01    0.400008300947582940E+00   -0.299993479190856815E+01    0.396114231733605493E+03
    0.299914390942719278E+01    0.399851365340049947E+00   -0.299997924792470538E+01    0.396269481322267950E+03
    0.299972441863282269E+01    0.399995963307553382E+00   -0.300011882181958933E+01    0.395902003442350860E+03
    0.299770947487206652E+01    0.400230922690838542E+00   -0.299996533052817771E+01    0.395973171163082100E+03
    0.300222563430509615E+01    0.399764205336727019E+00   -0.299991351282074969E+01    0.396047649699396572E+03
    0.300144340501126594E+01    0.399712012771203051E+00   -0.299994020938035577E+01    0.396027495158440274E+03
    0.300394712298734934E+01    0.399935617045342473E+00   -0.299999552195614472E+01    0.396147485228695871E+03
    0.300394712298734934E+01    0.399935617045342473E+00   -0.299999552195614472E+01    0.396147485228695871E+03
    0.299973320739954596E+01    0.399872949820351542E+00   -0.300007563071914474E+01    0.395980181730639288E+03
    0.300015629795279004E+01    0.399758685206797304E+00   -0.299987148215619914E+01    0.395860283091807730E+03
    0.300211047616839100E+01    0.399816834346716887E+00   -0.299991031755776882E+01    0.396095381133607589E+03
    0.299646293033119093E+01    0.400114149610485859E+00   -0.300008089050218185E+01    0.396011128762392616E+03
    0.299612695088675896E+01    0.400198036036492566E+00   -0.300005113608243157E+01    0.396049827191869269E+03
    0.299914829527485116E+01    0.400071506215747275E+00   -0.300002729420546466E+01    0.396387732580291470E+03
    0.300263321397800054E+01    0.400029882038078100E+00   -0.300007169991174560E+01    0.396144609795356757E+03
    0.299562836536714228E+01    0.400113487254030287E+00   -0.299999532761925725E+01    0.396073879128762201E+03
    0.299562836536714228E+01    0.400113487254030287E+00   -0.299999532761925725E+01    0.396073879128762201E+03
    0.300338023041354374E+01    0.399777867029319056E+00   -0.299999114832324976E+01    0.396075632842568893E+03
    0.299466648212682207E+01    0.400214006284290935E+00   -0.300003873161521017E+01    0.395839957721615121E+03
    0.299817402876442651E+01    0.400058004424747871E+00   -0.299998326347754407E+01    0.396347320136729593E+03
    0.299952450654121439E+01    0.400059379312450947E+00   -0.299994681707191546E+01    0.396268830581316706E+03
    0.299952450654121439E+01    0.400059379312450947E+00   -0.299994681707191546E+01    0.396268830581316706E+03
    0.299749596278295405E+01    0.399981453159108158E+00   -0.300006143651726376E+01    0.396105955834358213E+03
    0.299693564003697510E+01    0.399823499108714897E+00   -0.299991527630228294E+01    0.395900021240411377E+03
    0.299604274079382504E+01    0.400254496626173961E+00   -0.300002660399007226E+01    0.395973480041361199E+03
    0.300373879887306128E+01    0.399970742709364058E+00   -0.300000483007660179E+01    0.396168226372261415E+03
    0.299913353297649188E+01    0.399944611318694576E+00   -0.300002036168805830E+01    0.396348278147278393E+03
    0.299740389411454622E+01    0.400048946420052121E+00   -0.300001150056302945E+01    0.396302910112777511E+03
    0.300320550441292156E+01    0.400014797450667370E+00   -0.300002807016259299E+01    0.396203980120063193E+03
    0.299590727040606897E+01    0.400008957951210109E+00   -0.299990194644049613E+01    0.395821819517459289E+03
    0.300044700909166506E+01    0.399678941924694775E+00   -0.299991250541662424E+01    0.395874934229353869E+03
    0.299975185269236277E+01    0.399796092461042918E+00   -0.299997903470807881E+01    0.396188828321350343E+03
    0.299562195337869674E+01    0.400039909575509833E+00   -0.299992252848831997E+01    0.395885498894639511E+03
    0.299906475057554012E+01    0.400019978019698963E+00   -0.299997472530959985E+01    0.396386833961679258E+03
    0.299906475057554012E+01    0.400019978019698963E+00   -0.299997472530959985E+01    0.396386833961679258E+03
    0.299987171483962189E+01    0.400164359834994765E+00   -0.300004915126457306E+01    0.396274143006447503E+03
    0.300230474672187597E+01    0.400245168654530192E+00   -0.300003461468686350E+01    0.395882999250707485E+03
    0.299909174996535643E+01    0.400248885323022940E+00   -0.299999810364095998E+01    0.396060179115777714E+03
    0.300280872196656023E+01    0.399956858270397730E+00   -0.300010321215416287E+01    0.395903088081678334E+03
    0.299855752678485565E+01    0.400061918829995755E+00   -0.300007771323183103E+01    0.396202493319841722E+03
    0.299847876030308491E+01    0.399858039074880767E+00   -0.299989837941014859E+01    0.396045094870368871E+03
    0.300217765963641448E+01    0.399917106298456004E+00   -0.300005071320121175E+01    0.396206334173233131E+03
    0.299484131459628866E+01    0.399941274002838798E+00   -0.299995877510686482E+01    0.395814819950558558E+03
    0.300242710522521561E+01    0.400180974610381712E+00   -0.300007874786093964E+01    0.395993917917891338E+03
    0.299968760754293795E+01    0.399874414868260697E+00   -0.300007762857256743E+01    0.395967065191651898E+03
    0.300067490458524810E+01    0.399860396071993196E+00   -0.299988222193530740E+01    0.396008489758014207E+03
    0.300336963029159909E+01    0.400009140605781632E+00   -0.299995683743615471E+01    0.396088798193337766E+03
    0.300231111072865531E+01    0.400190737475890013E+00   -0.300000018974492777E+01    0.395982359201062479E+03
    0.299887765510984572E+01    0.399919532041043690E+00   -0.300008974558883335E+01    0.395934752003151175E+03
    0.300015935973146464E+01    0.399779083404959268E+00   -0.299987908311794271E+01    0.395933417893272917E+03
    0.300324885007098086E+01    0.399913511301564328E+00   -0.300006158322223015E+01    0.396069579415023384E+03
    0.299994467199629966E+01    0.400242238988431975E+00   -0.300004134736470807E+01    0.396120480117607144E+03
    0.300570851749843548E+01    0.399930160074921381E+00   -0.300001486111392524E+01    0.395832724479757360E+03
    0.299957172168706920E+01    0.400218343913638697E+00   -0.300000442825659741E+01    0.396150870080902507E+03
    0.299940553365939788E+01    0.399767159925588034E+00   -0.299995296013850821E+01    0.396108270784907972E+03
    0.300047566333813132E+01    0.399843926130720728E+00   -0.299985634607886409E+01    0.395811339655552842E+03
    0.299715857298729693E+01    0.399857557446019696E+00   -0.299997437646939602E+01    0.396079901071856625E+03
    0.300310395470899882E+01    0.399764756345252770E+00   -0.299992550358941124E+01    0.396028780606932685E+03
    0.300258732488863656E+01    0.399889116563548697E+00   -0.299987678792093559E+01    0.395841900335405683E+03
    0.299818226933682830E+01    0.400324587504223395E+00   -0.300010750056407449E+01    0.395815341103756339E+03
    0.299769523200886079E+01    0.399837935866025340E+00   -0.300005556819218722E+01    0.395812729774458830E+03
    0.300021535632986147E+01    0.400316495814956541E+00   -0.300003235635390908E+01    0.395861961755111736E+03
    0.299597300089229712E+01    0.400200484230598175E+00   -0.300000027874694997E+01    0.396033485372519408E+03
    0.299860567051224924E+01    0.400143443562248957E+00   -0.299997123936437005E+01    0.396228311302790985E+03
    0.299851711542533650E+01    0.400289525814738756E+00   -0.299999695036580905E+01    0.395934735926754627E+03
    0.300005826247582208E+01    0.399718005030136547E+00   -0.299998032298231676E+01    0.395980659725502790E+03
    0.300079239607006887E+01    0.400090880027960893E+00   -0.299996744400415771E+01    0.396262858631729159E+03
    0.299455348295662294E+01    0.400040229039050732E+00   -0.299999791272052274E+01    0.395874525371721802E+03
    0.299762204433051638E+01    0.400100093874426244E+00   -0.299989791498805847E+01    0.395845621243462347E+03
    0.300072153240989126E+01    0.400271250344400586E+00   -0.300002426614490281E+01    0.395964927369417808E+03
    0.300168016058946829E+01    0.399880528088138454E+00   -0.300007402306757953E+01    0.396040203626586958E+03
    0.299677213677637244E+01    0.399839380026289881E+00   -0.299992702479942475E+01    0.395939399606052916E+03
    0.299789756880806779E+01    0.400152694119806474E+00   -0.299993311412065244E+01    0.395999253487134865E+03
    0.299675973769620807E+01    0.400123687470741618E+00   -0.300010616271019392E+01    0.395903694971654431E+03
    0.299754738965794321E+01    0.399910901282449438E+00   -0.300006620456065409E+01    0.395937584119228234E+03
    0.299919879056432492E+01    0.400069782234466098E+00   -0.300003157244524576E+01    0.396383503879141188E+03
    0.299919879056432492E+01    0.400069782234466098E+00   -0.300003157244524576E+01    0.396383503879141188E+03
    0.299829612761186626E+01    0.399821573457026180E+00   -0.299997616428320368E+01    0.396137455535785307E+03
    0.299949840862890493E+01    0.400085988355867173E+00   -0.300004390579512670E+01    0.396359415226689805E+03
    0.299709935182965825E+01    0.399826834123789776E+00   -0.299995547240140414E+01    0.396004333261541603E+03
    0.300303806312605559E+01    0.399966279262631397E+00   -0.300005721623836896E+01    0.396151723168717069E+03
    0.300115543241240079E+01    0.399911575339337466E+00   -0.299999784881099529E+01    0.396376283819430000E+03
    0.300115543241240079E+01    0.399911575339337466E+00   -0.299999784881099529E+01    0.396376283819430000E+03
    0.300122409751251951E+01    0.400095246218376610E+00   -0.300004202348741966E+01    0.396309937544255831E+03
    0.299729242286441000E+01    0.400268458789852066E+00   -0.300005892531748941E+01    0.396033975094050959E+03
    0.300133256786967850E+01    0.399874299158969715E+00   -0.300007721880546452E+01    0.396010616553928116E+03
    0.299650482305765475E+01    0.399943613989765856E+00   -0.299990725971442584E+01    0.395938271978934324E+03
    0.300038099804929281E+01    0.400219419456739112E+00   -0.300009919438546024E+01    0.396028333865256513E+03
    0.300038099804929281E+01    0.400219419456739112E+00   -0.300009919438546024E+01    0.396028333865256513E+03
    0.300001178752306341E+01    0.400260417851568018E+00   -0.300005916905929393E+01    0.396063335194740716E+03
    0.300019764060005745E+01    0.400182473081627910E+00   -0.300004555523306848E+01    0.396238359284810315E+03
    0.299855444981565133E+01    0.399736807592717014E+00   -0.299992393646851907E+01    0.395925265935784125E+03
    0.300282303296683839E+01    0.399857459576297036E+00   -0.300004052220492312E+01    0.396122087421875278E+03
    0.300427491881068987E+01    0.399783092003552054E+00   -0.299996000010682984E+01    0.395996725664744076E+03
    0.299784762793253545E+01    0.400099106268564819E+00   -0.300009173457507217E+01    0.396093734275109284E+03
    0.299652410008527159E+01    0.399880211675413821E+00   -0.300001355470715758E+01    0.395959797811568706E+03
    0.299708564429071567E+01    0.399997412067182756E+00   -0.300008271635139367E+01    0.395955835265898259E+03
    0.299684456187504633E+01    0.400210342369226646E+00   -0.299994641730009004E+01    0.395884163403153366E+03
    0.299714014822910979E+01    0.400102696925713375E+00   -0.300011098608122584E+01    0.395900866010345965E+03
    0.299817491749597131E+01    0.400172639993215673E+00   -0.300002120183766241E+01    0.396266266066720846E+03
    0.300418528701565934E+01    0.399861339967489293E+00   -0.299990427613646160E+01    0.395845702640107504E+03
    0.300136860654554694E+01    0.399900393271394261E+00   -0.299989237857946955E+01    0.396046414780510588E+03
    0.299925877954813558E+01    0.399901098006294420E+00   -0.299986737399442793E+01    0.395888410917249189E+03
    0.299568128712452264E+01    0.400200899911837937E+00   -0.300001412945982260E+01    0.396014058878995513E+03
    0.300442761895186639E+01    0.400111558338533291E+00   -0.300004605461329632E+01    0.395868386523154527E+03
