    0.340113228545352353E+01    0.481649357589605420E+00   -0.299471043725114106E+01   -0.227362116190789180E+06
    0.346433760641716226E+01    0.475332011830006507E+00   -0.299458829983256436E+01   -0.227361786927109439E+06
    0.343980841145793992E+01    0.476391369958719668E+00   -0.299409857052657769E+01   -0.227361696869976615E+06
    0.343511283486862373E+01    0.473596119990237097E+00   -0.299445726039951410E+01   -0.227361658875231835E+06
    0.342442327792825862E+01    0.482211583539976063E+00   -0.299547693887074518E+01   -0.227361651101750002E+06
    0.340617495027652595E+01    0.483550230798202973E+00   -0.299503196941729444E+01   -0.227361129376011871E+06
    0.345112428115422354E+01    0.481844970597584743E+00   -0.299542355498306456E+01   -0.227361056765838031E+06
    0.345233385502177192E+01    0.478959607369397078E+00   -0.299433676194546861E+01   -0.227360903842976753E+06
    0.341996971973876418E+01    0.483003876913479846E+00   -0.299541507326575251E+01   -0.227360835668959422E+06
    0.343076340333223584E+01    0.474155991533168508E+00   -0.299437365456222260E+01   -0.227360721880903409E+06
    0.345576158013020818E+01    0.475804610439509612E+00   -0.299433113909381499E+01   -0.227360471773037949E+06
    0.342489624285610272E+01    0.477329540170738864E+00   -0.299503779812850679E+01   -0.227360442697913648E+06
    0.343356795881883770E+01    0.484714948286611103E+00   -0.299489922678611498E+01   -0.227360427413631318E+06
    0.346531138807891148E+01    0.480689943194021585E+00   -0.299492283700326301E+01   -0.227360365924932586E+06
    0.345457781954313825E+01    0.478741220402747025E+00   -0.299517262045850829E+01   -0.227360213153568940E+06
    0.340474483686289231E+01    0.479795781288843870E+00   -0.299477192337499387E+01   -0.227360194166470115E+06
    0.341743588708717416E+01    0.476522670049707886E+00   -0.299477215403371755E+01   -0.227360080255044304E+06
    0.344010409522398186E+01    0.477304409004834951E+00   -0.299508624606190565E+01   -0.227360062914957991E+06
    0.341595268090885895E+01    0.483519991878312627E+00   -0.299529319719950538E+01   -0.227360048788875283E+06
    0.342617420108773718E+01    0.476215343693175641E+00   -0.299486260056996656E+01   -0.227360034325171029E+06
    0.341795125236594100E+01    0.480597051590642754E+00   -0.299524276644137899E+01   -0.227360033666970179E+06
    0.345440311096332175E+01    0.481064571022591037E+00   -0.299529524270420877E+01   -0.227359994156511471E+06
    0.344487814430139938E+01    0.482722032808332258E+00   -0.299468452816139719E+01   -0.227359989923106361E+06
    0.342487448360820768E+01    0.478755356273836641E+00   -0.299515640383883408E+01   -0.227359812028473098E+06
    0.343470576612114886E+01    0.475085843080293502E+00   -0.299469469196713112E+01   -0.227359803065969725E+06
    0.341979734577739558E+01    0.475718538968770366E+00   -0.299441615005752171E+01   -0.227359772142463655E+06
    0.346001791739899156E+01    0.476340101565466634E+00   -0.299467261760899328E+01   -0.227359705796352937E+06
    0.342733943043134737E+01    0.475221360293613448E+00   -0.299461765311384553E+01   -0.227359659649013833E+06
    0.343287204029412374E+01    0.482893505357598063E+00   -0.299466794282980153E+01   -0.227359466318558261E+06
    0.341617059562324732E+01    0.482791153205098134E+00   -0.299474742609100053E+01   -0.227359417084852990E+06
    0.346319890585047663E+01    0.478133087228043374E+00   -0.299479406151104577E+01   -0.227359406707015878E+06
    0.343535740321240990E+01    0.484646978434211340E+00   -0.299501531618689709E+01   -0.227359405869558366E+06
    0.343728018877112795E+01    0.479086032387032124E+00   -0.299522336793663069E+01   -0.227359396442602476E+06
    0.342268301278900955E+01    0.483491661362844938E+00   -0.299478458577057349E+01   -0.227359395299873257E+06
    0.343464360917854528E+01    0.484915265219752756E+00   -0.299513922999847226E+01   -0.227359364005149662E+06
    0.341733083662340720E+01    0.478144264228669846E+00   -0.299436915053516239E+01   -0.227359340174396464E+06
    0.341629661713132027E+01    0.483205207643988999E+00   -0.299522970206695804E+01   -0.227359329967995291E+06
    0.342808832764334648E+01    0.484842874509687161E+00   -0.299522642363415548E+01   -0.227359280527905503E+06
    0.345801962182461464E+01    0.481711424692514267E+00   -0.299513020514964667E+01   -0.227359255756698898E+06
    0.341334940701222145E+01    0.477333679046025527E+00   -0.299455194889835186E+01   -0.227359201220157876E+06
    0.343028507403911664E+01    0.484508684782352539E+00   -0.299498658868346812E+01   -0.227359195613965829E+06
    0.343277056101920675E+01    0.484713207585956207E+00   -0.299527338035258905E+01   -0.227359187876450014E+06
    0.342262364142129449E+01    0.483158282953925267E+00   -0.299475038401163474E+01   -0.227359186085483874E+06
    0.342109558238736167E+01    0.484431343745603482E+00   -0.299513738641060723E+01   -0.227359173757453653E+06
    0.343488891278916464E+01    0.479645629959662589E+00   -0.299524893539723669E+01   -0.227359143151064200E+06
    0.344214114627929790E+01    0.475932470316479783E+00   -0.299428350074595784E+01   -0.227359125203540985E+06
    0.344619410904743617E+01    0.477122594293702851E+00   -0.299498834189103613E+01   -0.227359087153688190E+06
    0.341040369995124149E+01    0.480360785998284967E+00   -0.299464035785536709E+01   -0.227359074226565979E+06
    0.343358846918318861E+01    0.479206059914771554E+00   -0.299434109783287861E+01   -0.227359040649822273E+06
    0.342601239976041372E+01    0.483906686760547933E+00   -0.299487581428658034E+01   -0.227359037763764733E+06
    0.344955677681607886E+01    0.477727317656674477E+00   -0.299435969138984959E+01   -0.227359037331766391E+06
    0.345195463715236572E+01    0.476076359302733398E+00   -0.299475692029174567E+01   -0.227359023404306936E+06
    0.343563895418898824E+01    0.480832139412809445E+00   -0.299447107065918861E+01   -0.227359008231991233E+06
    0.341862167235290171E+01    0.476434363364225733E+00   -0.299452250122297725E+01   -0.227358957127192407E+06
    0.345355406001887211E+01    0.478913115990698024E+00   -0.299448277459097367E+01   -0.227358909280151129E+06
    0.344969989626162610E+01    0.476254902226094678E+00   -0.299437095063910252E+01   -0.227358906731456867E+06
    0.340942610168105631E+01    0.481207537502584770E+00   -0.299490732128970905E+01   -0.227358895369921403E+06
    0.345945321488763335E+01    0.478078861018612633E+00   -0.299459886339619974E+01   -0.227358861845835083E+06
    0.344570454935255199E+01    0.482729969150264504E+00   -0.299479205984943153E+01   -0.227358810263411055E+06
    0.342792519977232235E+01    0.478514674087491765E+00   -0.299432744708627929E+01   -0.227358809206484089E+06
    0.342170627975928276E+01    0.482087302081113056E+00   -0.299527044133240361E+01   -0.227358800776230986E+06
    0.342274953871617171E+01    0.482730339172475320E+00   -0.299529013986149373E+01   -0.227358795563582476E+06
    0.345640306487548976E+01    0.479780265514426540E+00   -0.299462087017910195E+01   -0.227358760584020551E+06
    0.344127519485934741E+01    0.479853688969055170E+00   -0.299443067066225632E+01   -0.227358711677638697E+06
    0.345474085767001604E+01    0.480219678064571942E+00   -0.299514870784502651E+01   -0.227358683964780503E+06
    0.344304618041588739E+01    0.483016144316827267E+00   -0.299531129507147975E+01   -0.227358618663928588E+06
    0.343423375050999269E+01    0.477712272212846845E+00   -0.299502473045354556E+01   -0.227358535861324868E+06
    0.341669209529170192E+01    0.481608703286515727E+00   -0.299467160606588001E+01   -0.227358533813953487E+06
    0.342971304448062764E+01    0.484319127730909182E+00   -0.299520189934592418E+01   -0.227358528255663288E+06
    0.345646535886411854E+01    0.481066360293345430E+00   -0.299481320417875674E+01   -0.227358524663203629E+06
    0.344416991160941777E+01    0.480942595237874748E+00   -0.299456427005194037E+01   -0.227358500344008586E+06
    0.342846243518114591E+01    0.483663563394682139E+00   -0.299528291293021542E+01   -0.227358450880319782E+06
    0.342381450482448768E+01    0.477819584509043993E+00   -0.299436205566978542E+01   -0.227358434163875645E+06
    0.342690438523480312E+01    0.483372537439413996E+00   -0.299483912954592713E+01   -0.227358393584519130E+06
    0.343993297346297933E+01    0.483180514867471433E+00   -0.299484422478403012E+01   -0.227358366139658145E+06
    0.341601796215613307E+01    0.482680063496862322E+00   -0.299509182903516669E+01   -0.227358353380966815E+06
    0.341215564909234326E+01    0.481583950595311838E+00   -0.299492440972457041E+01   -0.227358328924790432E+06
    0.344877820821891579E+01    0.479059567368573636E+00   -0.299511771621520007E+01   -0.227358315265919344E+06
    0.341638937556141542E+01    0.478501994566756628E+00   -0.299450005016997789E+01   -0.227358307297804480E+06
    0.341591426226594619E+01    0.477989628952385781E+00   -0.299453365972318553E+01   -0.227358298961710942E+06
    0.342960119877623759E+01    0.484153279667802749E+00   -0.299518309214101031E+01   -0.227358298517730698E+06
    0.345676004686363791E+01    0.477429400655759673E+00   -0.299476498568068328E+01   -0.227358255162224668E+06
    0.344673587887692179E+01    0.475719670007525020E+00   -0.299454311753621294E+01   -0.227358251094795734E+06
    0.341506398691281410E+01    0.480921744343789759E+00   -0.299466409108805021E+01   -0.227358244172089442E+06
    0.342631046790528959E+01    0.476083370397200445E+00   -0.299446606424698247E+01   -0.227358243441430910E+06
    0.343832902240567728E+01    0.477210050310093281E+00   -0.299494769859525301E+01   -0.227358228306957113E+06
    0.341630288736636301E+01    0.482323681778613400E+00   -0.299482772734824243E+01   -0.227358205680458836E+06
    0.344531233278110083E+01    0.476213542697463355E+00   -0.299439948406929712E+01   -0.227358204131213628E+06
    0.345768436272700974E+01    0.480387525466247522E+00   -0.299498466900984361E+01   -0.227358198804640997E+06
    0.343100481580078620E+01    0.483338470773345297E+00   -0.299484620890549280E+01   -0.227358189327792352E+06
    0.342428510201130676E+01    0.480399116791261127E+00   -0.299517673945731921E+01   -0.227358182991682086E+06
    0.344598222741488591E+01    0.477186719514758106E+00   -0.299492227491115726E+01   -0.227358179756548110E+06
    0.342312747056717637E+01    0.481014587577401620E+00   -0.299456619491240561E+01   -0.227358177236251300E+06
    0.341572827719286298E+01    0.481847208978372410E+00   -0.299476922078247831E+01   -0.227358177065752243E+06
    0.341390049806844331E+01    0.481548510971897104E+00   -0.299478868584756608E+01   -0.227358175308490085E+06
    0.343476412541255449E+01    0.480496518411417994E+00   -0.299449214624822480E+01   -0.227358169472810288E+06
    0.345197843648370650E+01    0.481168631955641413E+00   -0.299473898657074633E+01   -0.227358150898175780E+06
    0.345772043951089536E+01    0.480286200928610574E+00   -0.299496911954264489E+01   -0.227358146742711106E+06
    0.345011359479742774E+01    0.482496078483310886E+00   -0.299494239214942004E+01   -0.227358143788974296E+06
    0.342757744819735599E+01    0.477646516119160425E+00   -0.299493897836079626E+01   -0.227358132699830283E+06
    0.343430500029506769E+01    0.478638015456494925E+00   -0.299436881623515294E+01   -0.227358129393944721E+06
    0.341372591668952907E+01    0.481492993520219625E+00   -0.299480097446651827E+01   -0.227358122550780012E+06
    0.344609171830351357E+01    0.478680092095020826E+00   -0.299508596220778411E+01   -0.227358087503841729E+06
    0.341825939554491587E+01    0.477785855915838553E+00   -0.299450295473624317E+01   -0.227358072353944764E+06
    0.343541995862554961E+01    0.477360604242764885E+00   -0.299494844735530208E+01   -0.227358069471098686E+06
    0.342836143097696766E+01    0.482685510872275458E+00   -0.299527491871852947E+01   -0.227358063506832812E+06
    0.344711587111451445E+01    0.478563697639212804E+00   -0.299444236853810608E+01   -0.227358049952387024E+06
    0.344633027911334766E+01    0.479315696951182701E+00   -0.299447830304857154E+01   -0.227358047677922004E+06
    0.344581392829108601E+01    0.477872106734221647E+00   -0.299440249958733196E+01   -0.227358039438821637E+06
    0.341847572819572676E+01    0.479983028157697167E+00   -0.299454529131237157E+01   -0.227358038212491811E+06
    0.343669266852780320E+01    0.476883490916224673E+00   -0.299434277732058796E+01   -0.227358023467495397E+06
    0.345380027021353531E+01    0.478013652235613540E+00   -0.299453878193560463E+01   -0.227358005908947729E+06
    0.342413637774188606E+01    0.480628113265692880E+00   -0.299453796145157014E+01   -0.227357999348264275E+06
    0.342330994241408160E+01    0.477702594381769541E+00   -0.299487573748319713E+01   -0.227357991421303712E+06
    0.342833936821402485E+01    0.483797773001175380E+00   -0.299500466424079592E+01   -0.227357985883564194E+06
    0.341761149951940135E+01    0.479677607811244910E+00   -0.299454954480759117E+01   -0.227357964399674500E+06
    0.344840558879591930E+01    0.481651607720406216E+00   -0.299475386368236896E+01   -0.227357960951019340E+06
    0.343102922459909632E+01    0.478705377894345419E+00   -0.299438660263392142E+01   -0.227357952574821509E+06
    0.342939246183957591E+01    0.477853678557621675E+00   -0.299436464112705547E+01   -0.227357949384982523E+06
    0.341612980066179617E+01    0.478136327555714835E+00   -0.299460678915147316E+01   -0.227357946229776077E+06
    0.342072803847813045E+01    0.480934474353431896E+00   -0.299460236498555288E+01   -0.227357934067282360E+06
    0.343740115255952361E+01    0.478693040826381089E+00   -0.299509413816139602E+01   -0.227357917383242544E+06
    0.343401325573173422E+01    0.483068194375641025E+00   -0.299483203195679915E+01   -0.227357913897515158E+06
    0.344871991969746361E+01    0.479580605193510645E+00   -0.299453950905394350E+01   -0.227357893833943206E+06
    0.342723934128175101E+01    0.478399672117909291E+00   -0.299500727630468910E+01   -0.227357872058840323E+06
    0.345693567075543839E+01    0.479403882855805430E+00   -0.299474334444242762E+01   -0.227357858578156476E+06
    0.345406258928222254E+01    0.477122873625507538E+00   -0.299468209523404649E+01   -0.227357848391977634E+06
    0.341575352889358808E+01    0.482140682562476774E+00   -0.299492729919827472E+01   -0.227357845802025491E+06
    0.343424624683997504E+01    0.481803764286780900E+00   -0.299527072650824433E+01   -0.227357819293049426E+06
    0.344944979691864084E+01    0.481625453290329408E+00   -0.299516903826463698E+01   -0.227357799970207358E+06
    0.345629546661549547E+01    0.479602201317454901E+00   -0.299495680457171121E+01   -0.227357799836021382E+06
    0.342031915736917558E+01    0.477263107749942350E+00   -0.299457670941090326E+01   -0.227357781341980910E+06
    0.344376076787146701E+01    0.482690048971985086E+00   -0.299521671981364079E+01   -0.227357779137631442E+06
    0.341380029441717525E+01    0.480511083240603931E+00   -0.299488869772735589E+01   -0.227357777184022940E+06
    0.344711365492434041E+01    0.482669144556344076E+00   -0.299496216007362781E+01   -0.227357773206170416E+06
    0.343009564929313004E+01    0.483792261361432441E+00   -0.299510713357621272E+01   -0.227357771923060907E+06
    0.341635233695673657E+01    0.479052755012349452E+00   -0.299458546218650534E+01   -0.227357771168153413E+06
    0.343995433599066569E+01    0.475874234366691351E+00   -0.299459384693626918E+01   -0.227357764110157441E+06
    0.342670669977944664E+01    0.483390098558423909E+00   -0.299518132447359031E+01   -0.227357757188957359E+06
    0.344322651371389776E+01    0.476741099413677594E+00   -0.299440577458807722E+01   -0.227357753874912305E+06
    0.342613293395002350E+01    0.483606416084623236E+00   -0.299507622958602049E+01   -0.227357736797027668E+06
    0.345001456718053490E+01    0.477195807015327433E+00   -0.299482903383545862E+01   -0.227357736120212299E+06
    0.341915624949678820E+01    0.482811262418880893E+00   -0.299502061681857290E+01   -0.227357735699252487E+06
    0.344827205217810784E+01    0.480079638280926480E+00   -0.299514133808146532E+01   -0.227357716287183546E+06
    0.345296821747506311E+01    0.479870347473421111E+00   -0.299505433744612626E+01   -0.227357678603924811E+06
    0.345040056289467767E+01    0.478534338921762337E+00   -0.299452213129610367E+01   -0.227357675918101857E+06
    0.341878969264920851E+01    0.481185745892611039E+00   -0.299468620976683697E+01   -0.227357662012118439E+06
    0.341878969264920851E+01    0.481185745892611039E+00   -0.299468620976683697E+01   -0.227357662012118439E+06
    0.344303703666563932E+01    0.478006313407454309E+00   -0.299499500284345244E+01   -0.227357656211734051E+06
    0.344303703666563932E+01    0.478006313407454309E+00   -0.299499500284345244E+01   -0.227357656211734051E+06
    0.342455354678684420E+01    0.481104473276146860E+00   -0.299517399943257789E+01   -0.227357654520556272E+06
    0.345472888112530363E+01    0.477986199273937762E+00   -0.299481917360092753E+01   -0.227357647088404861E+06
    0.344347612103126544E+01    0.476080471094960822E+00   -0.299452319634738595E+01   -0.227357633702729887E+06
    0.344347612103126544E+01    0.476080471094960822E+00   -0.299452319634738595E+01   -0.227357633702729887E+06
    0.345146915238330410E+01    0.480263113946996223E+00   -0.299467777156944859E+01   -0.227357622109605814E+06
    0.342695102533411067E+01    0.478936552180282027E+00   -0.299443886369733914E+01   -0.227357618504877726E+06
    0.345626020253318833E+01    0.478552618430148125E+00   -0.299476799166897800E+01   -0.227357608872177254E+06
    0.345626020253318833E+01    0.478552618430148125E+00   -0.299476799166897800E+01   -0.227357608872177254E+06
    0.345215832379486498E+01    0.477830337767672864E+00   -0.299486841531378767E+01   -0.227357596529393952E+06
    0.342058155042076617E+01    0.480629668779441854E+00   -0.299508845084783637E+01   -0.227357592590913409E+06
    0.342556798385707317E+01    0.482301183059381966E+00   -0.299475634310918926E+01   -0.227357589744165889E+06
    0.343087953218185593E+01    0.477988468655068888E+00   -0.299496459580096630E+01   -0.227357582921763707E+06
    0.343089765719416961E+01    0.483094396411122395E+00   -0.299487616926874578E+01   -0.227357577660010109E+06
    0.344528464923336886E+01    0.482845891943839756E+00   -0.299502323699971962E+01   -0.227357569180144987E+06
    0.343302422950885866E+01    0.476497625216752541E+00   -0.299442292249707043E+01   -0.227357561095081357E+06
    0.343302422950885866E+01    0.476497625216752541E+00   -0.299442292249707043E+01   -0.227357561095081357E+06
    0.344623323142397675E+01    0.481827083744821583E+00   -0.299478818909516376E+01   -0.227357557930333074E+06
    0.342694089549297054E+01    0.476646672240189140E+00   -0.299465142575090715E+01   -0.227357551517747925E+06
    0.345098661569960941E+01    0.481872337885967450E+00   -0.299500972419154543E+01   -0.227357551381444267E+06
    0.345098661569960941E+01    0.481872337885967450E+00   -0.299500972419154543E+01   -0.227357551381444267E+06
    0.341859141468855121E+01    0.482291715904274720E+00   -0.299504031226575540E+01   -0.227357551318444253E+06
    0.344345177682016512E+01    0.481601879225375951E+00   -0.299521855204728604E+01   -0.227357549988584069E+06
    0.341972711971512089E+01    0.479051211757854312E+00   -0.299493497374490047E+01   -0.227357545593412156E+06
    0.345164275312635471E+01    0.480760763803909308E+00   -0.299508839079496925E+01   -0.227357523331377888E+06
    0.344910514782287869E+01    0.481415147591535197E+00   -0.299478761465448251E+01   -0.227357522837623634E+06
    0.342324664341721885E+01    0.479701158329712496E+00   -0.299505789370387410E+01   -0.227357518553338450E+06
    0.342324664341721885E+01    0.479701158329712496E+00   -0.299505789370387410E+01   -0.227357518553338450E+06
    0.345036110167050092E+01    0.476998776956447768E+00   -0.299456135661043410E+01   -0.227357513416085014E+06
    0.342304354212687834E+01    0.481655161551964084E+00   -0.299515706746120758E+01   -0.227357505700308073E+06
    0.342304354212687834E+01    0.481655161551964084E+00   -0.299515706746120758E+01   -0.227357505700308073E+06
    0.342837061717856662E+01    0.478966634205718722E+00   -0.299504686263168152E+01   -0.227357504285782954E+06
    0.341862712368764221E+01    0.480968413787928928E+00   -0.299468763976669416E+01   -0.227357497614535940E+06
    0.344228343862360742E+01    0.478258322978375838E+00   -0.299501160504323716E+01   -0.227357491516083246E+06
    0.342306355353979574E+01    0.480256248465461499E+00   -0.299509228566682806E+01   -0.227357470876840118E+06
    0.344762616226522045E+01    0.476588080944150450E+00   -0.299466941244678297E+01   -0.227357465739420237E+06
    0.345060979009439617E+01    0.476931491468667590E+00   -0.299462838527422948E+01   -0.227357459820105869E+06
    0.343307431364996773E+01    0.483542000070974198E+00   -0.299508317753295517E+01   -0.227357457459459576E+06
    0.341872221194452530E+01    0.482126549113866765E+00   -0.299503709286879394E+01   -0.227357454896637180E+06
    0.341548433430996479E+01    0.480153241222503413E+00   -0.299473038038879302E+01   -0.227357448480602819E+06
    0.343720860773310122E+01    0.476211202071160411E+00   -0.299464713917774494E+01   -0.227357445163150289E+06
    0.343446165359975453E+01    0.478187244163354508E+00   -0.299440513710526934E+01   -0.227357434101534076E+06
    0.343446165359975453E+01    0.478187244163354508E+00   -0.299440513710526934E+01   -0.227357434101534076E+06
    0.342826553387771193E+01    0.480797534618404521E+00   -0.299517470342080294E+01   -0.227357426523564325E+06
    0.344968170439827126E+01    0.481324553161009916E+00   -0.299511399608367190E+01   -0.227357416119926347E+06
    0.344968170439827126E+01    0.481324553161009916E+00   -0.299511399608367190E+01   -0.227357416119926347E+06
    0.343728021250376958E+01    0.478632219109306423E+00   -0.299442776723281945E+01   -0.227357411601077358E+06
    0.343852056817178209E+01    0.482762186641491009E+00   -0.299521091220818692E+01   -0.227357402807780250E+06
    0.341984229677364038E+01    0.479003493683026638E+00   -0.299491293654704238E+01   -0.227357401710392529E+06
    0.344123008240303463E+01    0.478136638426720162E+00   -0.299442829153856138E+01   -0.227357400741777587E+06
    0.344372818859168195E+01    0.476369558569227636E+00   -0.299465044060489616E+01   -0.227357378586911247E+06
    0.344493695251376586E+01    0.476438045033985291E+00   -0.299453789255312497E+01   -0.227357373759536684E+06
    0.345490352732924411E+01    0.480079167782353766E+00   -0.299489365837875310E+01   -0.227357372797820455E+06
    0.344817690490003503E+01    0.481645040828096838E+00   -0.299482794159808474E+01   -0.227357366026913020E+06
    0.341579666227926948E+01    0.480642875688364224E+00   -0.299489432977344849E+01   -0.227357356603123277E+06
    0.341579666227926948E+01    0.480642875688364224E+00   -0.299489432977344849E+01   -0.227357356603123277E+06
    0.343164966942402483E+01    0.483436194624217053E+00   -0.299508915715970492E+01   -0.227357347243107826E+06
    0.342905871908178383E+01    0.483148889711557616E+00   -0.299515596474360413E+01   -0.227357339003183384E+06
    0.344001412798641404E+01    0.481090648793993159E+00   -0.299520641244009322E+01   -0.227357337491880578E+06
    0.343118562881370881E+01    0.478997005123076025E+00   -0.299505580350448675E+01   -0.227357328969748429E+06
    0.345034041151192650E+01    0.480299626522829870E+00   -0.299469371467863077E+01   -0.227357321284127131E+06
    0.345034041151192650E+01    0.480299626522829870E+00   -0.299469371467863077E+01   -0.227357321284127131E+06
    0.343486773779366938E+01    0.479856508794631764E+00   -0.299514157527938574E+01   -0.227357319136283360E+06
    0.345234333055378650E+01    0.480723132710909995E+00   -0.299481668072133855E+01   -0.227357309646741982E+06
    0.343398711248237065E+01    0.482223946053803476E+00   -0.299475753509800491E+01   -0.227357300380685658E+06
    0.343335741738842248E+01    0.476632531924726099E+00   -0.299445257306589863E+01   -0.227357296973546559E+06
    0.342450202072854859E+01    0.482523266207436075E+00   -0.299484572166394658E+01   -0.227357294961102860E+06
    0.343468032324546169E+01    0.479841762973909902E+00   -0.299450329100853052E+01   -0.227357291760519001E+06
    0.342733609922957783E+01    0.477968752827347798E+00   -0.299444282769806458E+01   -0.227357285615080735E+06
    0.343802393078796076E+01    0.478069235198226472E+00   -0.299497655207330116E+01   -0.227357283468302980E+06
    0.341616611160892969E+01    0.479509472355378885E+00   -0.299475568708087447E+01   -0.227357281131223222E+06
    0.342870955099580099E+01    0.480618844650255006E+00   -0.299457460662544284E+01   -0.227357263557309023E+06
    0.342201436411874926E+01    0.478943271928154057E+00   -0.299452504402019626E+01   -0.227357257834581076E+06
    0.343825831951054761E+01    0.482787886443975578E+00   -0.299518507300784753E+01   -0.227357244505891576E+06
    0.343224135038089173E+01    0.477775407323142220E+00   -0.299441849744665234E+01   -0.227357243465087464E+06
    0.343224135038089173E+01    0.477775407323142220E+00   -0.299441849744665234E+01   -0.227357243465087464E+06
    0.344919288429428494E+01    0.477191293956366613E+00   -0.299456779907477344E+01   -0.227357239250615268E+06
    0.344919288429428494E+01    0.477191293956366613E+00   -0.299456779907477344E+01   -0.227357239250615268E+06
    0.342534593825690115E+01    0.477478761327850887E+00   -0.299477342523423085E+01   -0.227357238507322414E+06
    0.343147872707953372E+01    0.479491129507750080E+00   -0.299509327715684481E+01   -0.227357232457474223E+06
    0.343343539290855571E+01    0.478673906687764994E+00   -0.299502631885027926E+01   -0.227357220431634225E+06
    0.342860325920094589E+01    0.483138340606511230E+00   -0.299497597235588708E+01   -0.227357214423856232E+06
    0.342860325920094589E+01    0.483138340606511230E+00   -0.299497597235588708E+01   -0.227357214423856232E+06
    0.344681722678670344E+01    0.481437841198616323E+00   -0.299478469059907715E+01   -0.227357201533256128E+06
    0.344681722678670344E+01    0.481437841198616323E+00   -0.299478469059907715E+01   -0.227357201533256128E+06
    0.344202333268430838E+01    0.478352267485580240E+00   -0.299499558099586771E+01   -0.227357194566924212E+06
    0.343793408970499437E+01    0.476375378251510995E+00   -0.299451761217886681E+01   -0.227357186847195262E+06
    0.343793408970499437E+01    0.476375378251510995E+00   -0.299451761217886681E+01   -0.227357186847195262E+06
    0.345262377497302664E+01    0.480675776277916078E+00   -0.299497357134145581E+01   -0.227357186394112214E+06
    0.342016642341351540E+01    0.479301586141688996E+00   -0.299492461904882878E+01   -0.227357184426083957E+06
    0.342094682571273800E+01    0.478142496439841413E+00   -0.299476850524118943E+01   -0.227357176744787925E+06
    0.341923933373916622E+01    0.479733743194716455E+00   -0.299462282263053092E+01   -0.227357169446473534E+06
    0.344025695647097418E+01    0.482515476326379422E+00   -0.299517666815371753E+01   -0.227357165448085056E+06
    0.343693665108301394E+01    0.476348474665289290E+00   -0.299455269791401335E+01   -0.227357161584236834E+06
    0.343866777488671937E+01    0.476367018720495028E+00   -0.299453840540011562E+01   -0.227357161177848990E+06
    0.342641295272709767E+01    0.479109068970532348E+00   -0.299449239836165804E+01   -0.227357155524261732E+06
    0.344203869310135424E+01    0.482111320306073010E+00   -0.299517649996919344E+01   -0.227357138196115702E+06
    0.344866127909717335E+01    0.479812459359674981E+00   -0.299463378057580432E+01   -0.227357136553951132E+06
    0.344625265360615618E+01    0.482005916495549525E+00   -0.299489519853301100E+01   -0.227357131173149450E+06
    0.342039320181381656E+01    0.481379830920269203E+00   -0.299504694372183211E+01   -0.227357108174526424E+06
    0.344798118059748315E+01    0.479510351846694827E+00   -0.299504614748918119E+01   -0.227357094852767565E+06
    0.343882869091600973E+01    0.476809326207625284E+00   -0.299475045858173905E+01   -0.227357084354386869E+06
    0.343882869091600973E+01    0.476809326207625284E+00   -0.299475045858173905E+01   -0.227357084354386869E+06
    0.344222337439088300E+01    0.482665738788617960E+00   -0.299509402186839369E+01   -0.227357077038382529E+06
    0.342985174499743861E+01    0.479736779383003742E+00   -0.299451851325006579E+01   -0.227357063333925005E+06
    0.342736634009740682E+01    0.482127324812256730E+00   -0.299478167274636409E+01   -0.227357061111889634E+06
    0.341780708374950848E+01    0.479166404404823720E+00   -0.299474256805523797E+01   -0.227357054894733505E+06
    0.342331332122111487E+01    0.477817276070310548E+00   -0.299454924840018855E+01   -0.227357052349526493E+06
    0.342331332122111487E+01    0.477817276070310548E+00   -0.299454924840018855E+01   -0.227357052349526493E+06
    0.342988324851816850E+01    0.479252457570956969E+00   -0.299449144851402860E+01   -0.227357036587788054E+06
    0.342988324851816850E+01    0.479252457570956969E+00   -0.299449144851402860E+01   -0.227357036587788054E+06
    0.344362571004136742E+01    0.479930027290351446E+00   -0.299510771887472327E+01   -0.227357035607936210E+06
    0.344340577580744700E+01    0.479178191122107133E+00   -0.299452652216412885E+01   -0.227357034440783493E+06
    0.341735068689099286E+01    0.480252215674689731E+00   -0.299476532065618084E+01   -0.227357025933128258E+06
    0.342966686945954979E+01    0.482384445526171213E+00   -0.299481861372307501E+01   -0.227357025105279259E+06
    0.342972858316955609E+01    0.479767614494386485E+00   -0.299508426275680195E+01   -0.227357007802832726E+06
    0.342972858316955609E+01    0.479767614494386485E+00   -0.299508426275680195E+01   -0.227357007802832726E+06
    0.344268094508229350E+01    0.479882790397919423E+00   -0.299457232424207298E+01   -0.227357007743238762E+06
    0.344256820809357578E+01    0.481024650166085699E+00   -0.299515832682031968E+01   -0.227356997567850340E+06
    0.342922424149894312E+01    0.482072232698305458E+00   -0.299477249217861186E+01   -0.227356989342723362E+06
    0.344611404288250034E+01    0.478710487679639585E+00   -0.299453838756490942E+01   -0.227356983332363277E+06
    0.344609539696469414E+01    0.477510702045238822E+00   -0.299452304709041695E+01   -0.227356982335288893E+06
    0.343420658689382741E+01    0.477723339293450400E+00   -0.299444269633144522E+01   -0.227356981661813945E+06
    0.343950991750606727E+01    0.476920803166887841E+00   -0.299475730838247012E+01   -0.227356980795601790E+06
    0.343141648870206639E+01    0.478880940841025504E+00   -0.299501466377730674E+01   -0.227356979369505134E+06
    0.342631789152579103E+01    0.481210690709290678E+00   -0.299512952116254727E+01   -0.227356973809510353E+06
    0.342631789152579103E+01    0.481210690709290678E+00   -0.299512952116254727E+01   -0.227356973809510353E+06
    0.344334595250229558E+01    0.478125304447218902E+00   -0.299448779354480488E+01   -0.227356972068500007E+06
    0.342144834868291348E+01    0.478791102555513270E+00   -0.299457682113706980E+01   -0.227356966049333510E+06
    0.344115065508650098E+01    0.476980667142837267E+00   -0.299448994719476236E+01   -0.227356964298722363E+06
    0.342938911091087117E+01    0.479261971726204550E+00   -0.299450079607417718E+01   -0.227356962985980557E+06
    0.345054970637741043E+01    0.477876839544462140E+00   -0.299478634859791670E+01   -0.227356959635579551E+06
    0.344825982293671007E+01    0.477210518843619314E+00   -0.299465006084107621E+01   -0.227356956590502785E+06
    0.342752583819391976E+01    0.480010331267651247E+00   -0.299455892117390121E+01   -0.227356947998887685E+06
    0.342752583819391976E+01    0.480010331267651247E+00   -0.299455892117390121E+01   -0.227356947998887685E+06
    0.344411267603210458E+01    0.476964476196057918E+00   -0.299472578133156997E+01   -0.227356946191080322E+06
    0.344411267603210458E+01    0.476964476196057918E+00   -0.299472578133156997E+01   -0.227356946191080322E+06
    0.344964502529860706E+01    0.477483131889761936E+00   -0.299466761142586790E+01   -0.227356944519391604E+06
    0.344964502529860706E+01    0.477483131889761936E+00   -0.299466761142586790E+01   -0.227356944519391604E+06
    0.343522530143323834E+01    0.482696736003329296E+00   -0.299514944380831105E+01   -0.227356924896572018E+06
    0.345261980387645551E+01    0.479797176347216081E+00   -0.299480288670385253E+01   -0.227356922875337244E+06
    0.343825661125927828E+01    0.479588742190394157E+00   -0.299509174193700689E+01   -0.227356921797015384E+06
    0.342774470204598192E+01    0.477797249213317843E+00   -0.299482795446015349E+01   -0.227356908265684731E+06
    0.342774470204598192E+01    0.477797249213317843E+00   -0.299482795446015349E+01   -0.227356908265684731E+06
    0.342797465477010688E+01    0.478880080071897474E+00   -0.299497779404925168E+01   -0.227356906174177828E+06
    0.344580909847265460E+01    0.481982552489059246E+00   -0.299505805508372580E+01   -0.227356905629902147E+06
    0.344580909847265460E+01    0.481982552489059246E+00   -0.299505805508372580E+01   -0.227356905629902147E+06
    0.344888034915018871E+01    0.477572589243420553E+00   -0.299476139726775825E+01   -0.227356904657915002E+06
    0.344888034915018871E+01    0.477572589243420553E+00   -0.299476139726775825E+01   -0.227356904657915002E+06
    0.344906698382104970E+01    0.481340904884154819E+00   -0.299500521812119702E+01   -0.227356900314588856E+06
    0.342886153407354666E+01    0.481379360420409241E+00   -0.299468910473884842E+01   -0.227356899387743033E+06
    0.342886153407354666E+01    0.481379360420409241E+00   -0.299468910473884842E+01   -0.227356899387743033E+06
    0.341946506808036865E+01    0.480753616991728305E+00   -0.299496519689523266E+01   -0.227356898419752863E+06
    0.341946506808036865E+01    0.480753616991728305E+00   -0.299496519689523266E+01   -0.227356898419752863E+06
    0.342026506805763830E+01    0.480809462107802565E+00   -0.299499359962877909E+01   -0.227356893953282619E+06
    0.344598753717506945E+01    0.477128049108358987E+00   -0.299457392945994894E+01   -0.227356892100507685E+06
    0.343641674247547613E+01    0.482050199266347734E+00   -0.299517747423654601E+01   -0.227356883620399574E+06
    0.341945974092280736E+01    0.480707180548599344E+00   -0.299495818356665389E+01   -0.227356875626583904E+06
    0.343683333001844993E+01    0.481435659256400916E+00   -0.299470353266420108E+01   -0.227356875373953837E+06
    0.345040829319954856E+01    0.480287028989226095E+00   -0.299476757794746096E+01   -0.227356873914378783E+06
    0.344397683568969804E+01    0.477034420240147916E+00   -0.299454331539539220E+01   -0.227356872553757508E+06
    0.342344510398833446E+01    0.482330177230845925E+00   -0.299502172315447046E+01   -0.227356870232469577E+06
    0.345113744355068786E+01    0.480678120151157851E+00   -0.299492893805173743E+01   -0.227356864223169832E+06
    0.345113744355068786E+01    0.480678120151157851E+00   -0.299492893805173743E+01   -0.227356864223169832E+06
    0.344586050533133070E+01    0.477515095011756319E+00   -0.299480776064671472E+01   -0.227356851869681326E+06
    0.343371503996620708E+01    0.476742748230549351E+00   -0.299461729964464585E+01   -0.227356836705994123E+06
    0.344621628954938908E+01    0.479350264188150299E+00   -0.299502486088234576E+01   -0.227356835320162878E+06
    0.344672813029951275E+01    0.479480000931370831E+00   -0.299502742805553668E+01   -0.227356824548388802E+06
    0.343615838236364768E+01    0.482133666296312602E+00   -0.299481060606225347E+01   -0.227356823780432431E+06
    0.343615838236364768E+01    0.482133666296312602E+00   -0.299481060606225347E+01   -0.227356823780432431E+06
    0.343117517521255477E+01    0.476887260338132279E+00   -0.299458716097768285E+01   -0.227356822164436831E+06
    0.345078588919286666E+01    0.478088552946356937E+00   -0.299468523748900139E+01   -0.227356821919033537E+06
    0.341897943209477750E+01    0.480589324206435908E+00   -0.299491461465058162E+01   -0.227356817143855646E+06
    0.341897943209477750E+01    0.480589324206435908E+00   -0.299491461465058162E+01   -0.227356817143855646E+06
    0.343930371592632067E+01    0.477275469474234937E+00   -0.299480517040311023E+01   -0.227356816673859168E+06
    0.344111977365575594E+01    0.478806320407518859E+00   -0.299450888975933704E+01   -0.227356813303305476E+06
    0.344889624694789632E+01    0.478154331424239909E+00   -0.299460295597957549E+01   -0.227356807695840514E+06
    0.344889624694789632E+01    0.478154331424239909E+00   -0.299460295597957549E+01   -0.227356807695840514E+06
    0.342590116562547564E+01    0.478795207888698449E+00   -0.299492975778051163E+01   -0.227356804658647074E+06
    0.342590116562547564E+01    0.478795207888698449E+00   -0.299492975778051163E+01   -0.227356804658647074E+06
    0.342466580290130107E+01    0.481850214040264901E+00   -0.299508521251172288E+01   -0.227356793728715391E+06
    0.342093508216468489E+01    0.478951220048248361E+00   -0.299462785411110444E+01   -0.227356790840344038E+06
    0.342093508216468489E+01    0.478951220048248361E+00   -0.299462785411110444E+01   -0.227356790840344038E+06
    0.343313945516738794E+01    0.481604451546206402E+00   -0.299472448454097551E+01   -0.227356782130388543E+06
    0.343313945516738794E+01    0.481604451546206402E+00   -0.299472448454097551E+01   -0.227356782130388543E+06
    0.344312823210196184E+01    0.478182269924258940E+00   -0.299450979224563296E+01   -0.227356775367528578E+06
    0.342120524438448470E+01    0.481097168428359756E+00   -0.299476574290911168E+01   -0.227356765125444595E+06
    0.342573884669216078E+01    0.482055479280191546E+00   -0.299483260675549623E+01   -0.227356764362497692E+06
    0.342807442991798217E+01    0.477477758229080507E+00   -0.299453562874077495E+01   -0.227356747366690543E+06
    0.343403529873120617E+01    0.482339414253742105E+00   -0.299514729002832381E+01   -0.227356746786866570E+06
    0.342234557054485755E+01    0.479980242354485831E+00   -0.299463628819314165E+01   -0.227356746718647773E+06
    0.344816359675686890E+01    0.477736971887274764E+00   -0.299461345985115734E+01   -0.227356744874682336E+06
    0.343694762106320972E+01    0.479281563506803121E+00   -0.299452053975349886E+01   -0.227356726255211601E+06
    0.342721226426725645E+01    0.478228265836631694E+00   -0.299486223893089765E+01   -0.227356721032153902E+06
    0.342721226426725645E+01    0.478228265836631694E+00   -0.299486223893089765E+01   -0.227356721032153902E+06
    0.344342830410423684E+01    0.482090682138454851E+00   -0.299493999230390040E+01   -0.227356717388995516E+06
    0.344342830410423684E+01    0.482090682138454851E+00   -0.299493999230390040E+01   -0.227356717388995516E+06
    0.342651749238564740E+01    0.480067786286941522E+00   -0.299504494779694230E+01   -0.227356705283524934E+06
    0.344696259132943883E+01    0.477748853480568170E+00   -0.299458569827803300E+01   -0.227356703846108285E+06
    0.342075347977466793E+01    0.479988136465089810E+00   -0.299468149848928267E+01   -0.227356700290880020E+06
    0.344364791024447170E+01    0.480620338190078600E+00   -0.299510398267850997E+01   -0.227356698163986526E+06
    0.343006716472577988E+01    0.479519940967987945E+00   -0.299503698706797827E+01   -0.227356698037194263E+06
    0.343006716472577988E+01    0.479519940967987945E+00   -0.299503698706797827E+01   -0.227356698037194263E+06
    0.342922730379474894E+01    0.478786392808595418E+00   -0.299495703186081785E+01   -0.227356692298196809E+06
    0.342922730379474894E+01    0.478786392808595418E+00   -0.299495703186081785E+01   -0.227356692298196809E+06
    0.342531341810882628E+01    0.477712442705630735E+00   -0.299461079777428907E+01   -0.227356691393832851E+06
    0.344139547729722040E+01    0.482370133536162982E+00   -0.299503602499463817E+01   -0.227356687620905199E+06
    0.344139547729722040E+01    0.482370133536162982E+00   -0.299503602499463817E+01   -0.227356687620905199E+06
    0.342848569083657573E+01    0.479146234929583192E+00   -0.299452850531859927E+01   -0.227356684426171589E+06
    0.343278313644258226E+01    0.482421871906706823E+00   -0.299487887235785255E+01   -0.227356683980065980E+06
    0.344084705465504115E+01    0.479056171942790376E+00   -0.299453267288034430E+01   -0.227356683828106266E+06
    0.341955095891619099E+01    0.479435221198241668E+00   -0.299474014401688571E+01   -0.227356681933874293E+06
    0.342431513265537202E+01    0.478166686409830843E+00   -0.299457985301270213E+01   -0.227356678980683238E+06
    0.342431513265537202E+01    0.478166686409830843E+00   -0.299457985301270213E+01   -0.227356678980683238E+06
    0.343019497081487490E+01    0.481315505516398179E+00   -0.299513363682700540E+01   -0.227356676877288060E+06
    0.343019497081487490E+01    0.481315505516398179E+00   -0.299513363682700540E+01   -0.227356676877288060E+06
    0.344751646698417868E+01    0.480921377188954335E+00   -0.299504216678172730E+01   -0.227356676577952632E+06
    0.344751646698417868E+01    0.480921377188954335E+00   -0.299504216678172730E+01   -0.227356676577952632E+06
    0.344622375341207832E+01    0.477321233028896064E+00   -0.299467053989685050E+01   -0.227356669704716187E+06
    0.343564542625926395E+01    0.481997928588104307E+00   -0.299514788755293093E+01   -0.227356655430184241E+06
    0.343633327697987490E+01    0.479849248547832008E+00   -0.299456393021801226E+01   -0.227356651920795266E+06
    0.343633327697987490E+01    0.479849248547832008E+00   -0.299456393021801226E+01   -0.227356651920795266E+06
    0.343179965124376585E+01    0.480826295476387833E+00   -0.299512281450716822E+01   -0.227356628349000181E+06
    0.342397990881752046E+01    0.478042339193422317E+00   -0.299463904050370822E+01   -0.227356624710978882E+06
    0.345062089592782728E+01    0.479090007751139968E+00   -0.299487105461327019E+01   -0.227356616283460171E+06
    0.344383935962614585E+01    0.479642383811565154E+00   -0.299460684786589404E+01   -0.227356615939149022E+06
    0.343516112484862246E+01    0.482643950441290270E+00   -0.299498532462846345E+01   -0.227356615518795414E+06
    0.343516112484862246E+01    0.482643950441290270E+00   -0.299498532462846345E+01   -0.227356615518795414E+06
    0.344673054157791547E+01    0.477749682560170807E+00   -0.299460228373116877E+01   -0.227356612952450028E+06
    0.342390216860644436E+01    0.478696162910369316E+00   -0.299484779730999051E+01   -0.227356612777253176E+06
    0.343651684410631164E+01    0.482589963064981142E+00   -0.299506417491188115E+01   -0.227356611302073550E+06
    0.343371737585861947E+01    0.477770631175041760E+00   -0.299484689246581759E+01   -0.227356611046935344E+06
    0.343283940214879335E+01    0.482667830945465337E+00   -0.299498867377064482E+01   -0.227356606465650199E+06
    0.343130151151707885E+01    0.478397992833421770E+00   -0.299449930012646925E+01   -0.227356603260997799E+06
    0.343147452366212580E+01    0.477980194862599406E+00   -0.299486104024088240E+01   -0.227356601599523303E+06
    0.342177547486469624E+01    0.481506359445358578E+00   -0.299495475050302451E+01   -0.227356596209372336E+06
    0.345097808436266851E+01    0.479279849943537506E+00   -0.299485546475022391E+01   -0.227356593939352431E+06
    0.342604874052763630E+01    0.482017687848733889E+00   -0.299485752475448441E+01   -0.227356592629090679E+06
    0.344494492329118840E+01    0.477937210423668046E+00   -0.299484685460004485E+01   -0.227356586709344818E+06
    0.344494492329118840E+01    0.477937210423668046E+00   -0.299484685460004485E+01   -0.227356586709344818E+06
    0.343261950510861391E+01    0.478561684716278746E+00   -0.299450159796909920E+01   -0.227356575990400364E+06
    0.342598919110217803E+01    0.482271400319756682E+00   -0.299500150415200794E+01   -0.227356568250732555E+06
    0.342598919110217803E+01    0.482271400319756682E+00   -0.299500150415200794E+01   -0.227356568250732555E+06
    0.344648186655945166E+01    0.478285095429632434E+00   -0.299459021927776492E+01   -0.227356567662518733E+06
    0.344553107073353004E+01    0.478817075410935378E+00   -0.299495046161154477E+01   -0.227356566988697421E+06
    0.344178275074236995E+01    0.481483164153303111E+00   -0.299479604408546818E+01   -0.227356564857589285E+06
    0.344178275074236995E+01    0.481483164153303111E+00   -0.299479604408546818E+01   -0.227356564857589285E+06
    0.342681668593863620E+01    0.477928740209920877E+00   -0.299477049189091948E+01   -0.227356562603650964E+06
    0.343138418333325212E+01    0.482369177265087712E+00   -0.299489672445425681E+01   -0.227356554188946728E+06
    0.342819041266729219E+01    0.481998572842996353E+00   -0.299483506125237442E+01   -0.227356548189082096E+06
    0.343365879507369920E+01    0.481959600762603191E+00   -0.299513143788868907E+01   -0.227356547138926544E+06
    0.343365879507369920E+01    0.481959600762603191E+00   -0.299513143788868907E+01   -0.227356547138926544E+06
    0.343714498258429924E+01    0.478488306397501728E+00   -0.299495022608171624E+01   -0.227356545896527125E+06
    0.343714498258429924E+01    0.478488306397501728E+00   -0.299495022608171624E+01   -0.227356545896527125E+06
    0.343401081305879430E+01    0.482463748495500167E+00   -0.299508875329885216E+01   -0.227356544233904628E+06
    0.344850993819588902E+01    0.478264407446034046E+00   -0.299481588630843065E+01   -0.227356541373314714E+06
    0.342322444822279870E+01    0.478668463156514512E+00   -0.299462091099048733E+01   -0.227356537756650156E+06
    0.344157673239322159E+01    0.477108792479275234E+00   -0.299467075934031657E+01   -0.227356534625945205E+06
    0.344157673239322159E+01    0.477108792479275234E+00   -0.299467075934031657E+01   -0.227356534625945205E+06
    0.343369559607809549E+01    0.481305927187652083E+00   -0.299471645255230667E+01   -0.227356523304356349E+06
    0.345059998608607099E+01    0.479282185505071734E+00   -0.299478103465650003E+01   -0.227356520512088347E+06
    0.344087295020069694E+01    0.480822490359921639E+00   -0.299469971086469888E+01   -0.227356513305264962E+06
    0.344800546380769735E+01    0.480299940222685962E+00   -0.299499710321244139E+01   -0.227356511204635695E+06
    0.344232946565442166E+01    0.478434579162373697E+00   -0.299492755746177819E+01   -0.227356508354810067E+06
    0.344232946565442166E+01    0.478434579162373697E+00   -0.299492755746177819E+01   -0.227356508354810067E+06
    0.344237603897062883E+01    0.478322281081187073E+00   -0.299453907781866757E+01   -0.227356507227891678E+06
    0.344237603897062883E+01    0.478322281081187073E+00   -0.299453907781866757E+01   -0.227356507227891678E+06
    0.342559433584127726E+01    0.481420269388931787E+00   -0.299505720803534325E+01   -0.227356501579854492E+06
    0.343553169667170710E+01    0.479318793914748686E+00   -0.299454231383719804E+01   -0.227356494996523135E+06
    0.343553169667170710E+01    0.479318793914748686E+00   -0.299454231383719804E+01   -0.227356494996523135E+06
    0.344418284050319601E+01    0.481759405448647537E+00   -0.299496248203144733E+01   -0.227356486178061925E+06
    0.343267049178657668E+01    0.477930798297761583E+00   -0.299450897936200455E+01   -0.227356485388115194E+06
    0.344121232859609494E+01    0.477163836618810233E+00   -0.299459910573168475E+01   -0.227356484606390994E+06
    0.343356920577710101E+01    0.481841237959697577E+00   -0.299480044685715940E+01   -0.227356483695256436E+06
    0.344253165067726119E+01    0.480998742599911377E+00   -0.299474706178104144E+01   -0.227356479716945294E+06
    0.342079607716202494E+01    0.479670987085132727E+00   -0.299473521603490855E+01   -0.227356472083183733E+06
    0.343719209018251926E+01    0.477254510352581540E+00   -0.299473120287703143E+01   -0.227356471608167980E+06
    0.343082220512446634E+01    0.477541174273693692E+00   -0.299474306334099705E+01   -0.227356471002029895E+06
    0.342485992580264575E+01    0.481044141104602418E+00   -0.299503486765334515E+01   -0.227356465864608210E+06
    0.342818754649816970E+01    0.482261760000773643E+00   -0.299503780377756623E+01   -0.227356464720907039E+06
    0.343011000254019693E+01    0.480534239895191395E+00   -0.299464182262811329E+01   -0.227356462775953230E+06
    0.343556770376742593E+01    0.478405887189236212E+00   -0.299492702515072784E+01   -0.227356461277474649E+06
    0.344208136262613795E+01    0.477493700758380157E+00   -0.299456289178745205E+01   -0.227356456752720493E+06
    0.343309019111637692E+01    0.477199428878188059E+00   -0.299465770812089982E+01   -0.227356455738685705E+06
    0.343976489030612553E+01    0.479979446966341927E+00   -0.299506913450454260E+01   -0.227356453583348484E+06
    0.343976489030612553E+01    0.479979446966341927E+00   -0.299506913450454260E+01   -0.227356453583348484E+06
    0.342615884962225525E+01    0.478327757144935972E+00   -0.299481066739266666E+01   -0.227356451839231071E+06
    0.344682792905746060E+01    0.481155142814291614E+00   -0.299496041720700257E+01   -0.227356439384719211E+06
    0.344682792905746060E+01    0.481155142814291614E+00   -0.299496041720700257E+01   -0.227356439384719211E+06
    0.342929155293188970E+01    0.482129228409204913E+00   -0.299507115634332344E+01   -0.227356439171132311E+06
    0.342611459160448817E+01    0.482083728309945392E+00   -0.299494286463301540E+01   -0.227356432446023246E+06
    0.343588562743474535E+01    0.477685661521236593E+00   -0.299481467624910724E+01   -0.227356425619118701E+06
    0.345000863924667600E+01    0.479225372473822908E+00   -0.299482944443154109E+01   -0.227356422830900847E+06
    0.343387926789163433E+01    0.481488347949613371E+00   -0.299475488521396782E+01   -0.227356421528370003E+06
    0.343769821505380246E+01    0.478223932960606668E+00   -0.299490207900443473E+01   -0.227356420794852951E+06
    0.344156678452726394E+01    0.480862665703400805E+00   -0.299472492216620756E+01   -0.227356418443983450E+06
    0.342264479412240030E+01    0.480212871834981014E+00   -0.299470553890455049E+01   -0.227356416449907352E+06
    0.342421249062515853E+01    0.478881306123042916E+00   -0.299484196092406485E+01   -0.227356406719482795E+06
    0.343937894896316987E+01    0.482168045738703477E+00   -0.299504114301155200E+01   -0.227356405689323001E+06
    0.343937894896316987E+01    0.482168045738703477E+00   -0.299504114301155200E+01   -0.227356405689323001E+06
    0.342913116487783398E+01    0.480498082445046271E+00   -0.299464972506422589E+01   -0.227356404477261560E+06
    0.344668769907437511E+01    0.478644280283673451E+00   -0.299488668132152203E+01   -0.227356402109667193E+06
    0.344668769907437511E+01    0.478644280283673451E+00   -0.299488668132152203E+01   -0.227356402109667193E+06
    0.343774431470284370E+01    0.482203295433729862E+00   -0.299506310242175200E+01   -0.227356394414524868E+06
    0.344249729163197005E+01    0.481660538677191719E+00   -0.299488167302674668E+01   -0.227356393657806300E+06
    0.343292976124059024E+01    0.477349881210652804E+00   -0.299457642958116521E+01   -0.227356390364127466E+06
    0.343669089567402652E+01    0.481097756394790410E+00   -0.299511403959968492E+01   -0.227356388764254109E+06
    0.343835864827433912E+01    0.480383107922901509E+00   -0.299464669895331470E+01   -0.227356388707264763E+06
    0.342256401830662460E+01    0.481207592597762857E+00   -0.299485539006988910E+01   -0.227356379750637920E+06
    0.344468020892855220E+01    0.481432698307664719E+00   -0.299490431432473780E+01   -0.227356379230785678E+06
    0.343208448668007104E+01    0.478809510165173369E+00   -0.299494716957421714E+01   -0.227356378539481462E+06
    0.343047754234107138E+01    0.482343980256171756E+00   -0.299501653968485515E+01   -0.227356376131614728E+06
    0.344769498774923733E+01    0.479823230482811725E+00   -0.299473122315059959E+01   -0.227356372386502830E+06
    0.344876802426276985E+01    0.479850587742901125E+00   -0.299477843388233689E+01   -0.227356363063089462E+06
    0.342570595861684790E+01    0.481166095497742030E+00   -0.299503332729682414E+01   -0.227356359959555382E+06
    0.342772285319273662E+01    0.481696151200428357E+00   -0.299505930371883045E+01   -0.227356358615224628E+06
    0.343140903357014482E+01    0.482363816713804128E+00   -0.299500273070112932E+01   -0.227356356811797334E+06
    0.343191559655956357E+01    0.479441604874367155E+00   -0.299500626505009349E+01   -0.227356355639503221E+06
    0.344396103511844087E+01    0.480778799800020529E+00   -0.299505390681805173E+01   -0.227356352692823246E+06
    0.343370517428356425E+01    0.479596559562675939E+00   -0.299457337127789236E+01   -0.227356349650194519E+06
    0.343724317891775755E+01    0.479425511307565555E+00   -0.299502134832228117E+01   -0.227356347774819209E+06
    0.343724317891775755E+01    0.479425511307565555E+00   -0.299502134832228117E+01   -0.227356347774819209E+06
    0.344076796807250318E+01    0.478562179985088376E+00   -0.299492905359650363E+01   -0.227356345129006339E+06
    0.343207439838323847E+01    0.478346117780758529E+00   -0.299452936213275134E+01   -0.227356344655894907E+06
    0.342300875148719363E+01    0.479847391437498660E+00   -0.299490774187179953E+01   -0.227356342310929060E+06
    0.344825531393971119E+01    0.480283393027441829E+00   -0.299482544583810961E+01   -0.227356337521702168E+06
    0.343324994829649199E+01    0.481962234978131399E+00   -0.299484938555471158E+01   -0.227356335250337928E+06
    0.342412744121548140E+01    0.479700796077292435E+00   -0.299492276077931985E+01   -0.227356329770101554E+06
    0.344407930555674646E+01    0.478534334986844778E+00   -0.299459247832594411E+01   -0.227356321426717070E+06
    0.344407930555674646E+01    0.478534334986844778E+00   -0.299459247832594411E+01   -0.227356321426717070E+06
    0.343399967933349659E+01    0.480789741453597042E+00   -0.299468057523624331E+01   -0.227356316578536411E+06
    0.342155079210358704E+01    0.480442042686657800E+00   -0.299482549644046259E+01   -0.227356312019180623E+06
    0.343234010758595565E+01    0.479388624400299446E+00   -0.299456666973048469E+01   -0.227356310914366681E+06
    0.343234010758595565E+01    0.479388624400299446E+00   -0.299456666973048469E+01   -0.227356310914366681E+06
    0.343220722936409484E+01    0.482298511569177246E+00   -0.299498179307812551E+01   -0.227356295434997941E+06
    0.343220722936409484E+01    0.482298511569177246E+00   -0.299498179307812551E+01   -0.227356295434997941E+06
    0.342364863305164357E+01    0.480646569118871769E+00   -0.299474977653648500E+01   -0.227356294301271031E+06
    0.343962950652387889E+01    0.481697409914565888E+00   -0.299485431245624678E+01   -0.227356293764068250E+06
    0.343930902576207176E+01    0.481814168885838057E+00   -0.299487688607172631E+01   -0.227356290516075445E+06
    0.344631442677093558E+01    0.477990341339201430E+00   -0.299471365294518677E+01   -0.227356283975536935E+06
    0.343775247474382972E+01    0.477988360507015875E+00   -0.299484696857714416E+01   -0.227356282132846827E+06
    0.342347603906340670E+01    0.481191928444137995E+00   -0.299494189894317620E+01   -0.227356278998083028E+06
    0.342215108178972827E+01    0.479618702581000700E+00   -0.299473822176416782E+01   -0.227356275432191556E+06
    0.342660411008157961E+01    0.478090659571164422E+00   -0.299468521911091745E+01   -0.227356271580452187E+06
    0.342353873615928839E+01    0.480950179156717617E+00   -0.299495042437781755E+01   -0.227356256739056320E+06
    0.344754483233461873E+01    0.480439689124035285E+00   -0.299485429486576660E+01   -0.227356252412357164E+06
    0.344029916383995316E+01    0.477453070286654513E+00   -0.299461086214110139E+01   -0.227356248539659951E+06
    0.344414280505783266E+01    0.477908849015189152E+00   -0.299477416082162318E+01   -0.227356242871740396E+06
    0.343051067748307048E+01    0.477685376006381723E+00   -0.299461097273792776E+01   -0.227356241904037714E+06
    0.344862308302491316E+01    0.479759092743346716E+00   -0.299485565400643150E+01   -0.227356233675720199E+06
    0.344309026668187590E+01    0.481061659578407352E+00   -0.299504188029183815E+01   -0.227356232959199959E+06
    0.342953265018927977E+01    0.479193944815840989E+00   -0.299457966504664697E+01   -0.227356229721756215E+06
    0.342318307812550193E+01    0.479224044700588658E+00   -0.299480067426071184E+01   -0.227356229261745146E+06
    0.343599495112603748E+01    0.477371175277856885E+00   -0.299466583936863140E+01   -0.227356227757964982E+06
    0.344404183191065627E+01    0.481335212099078036E+00   -0.299498335096564494E+01   -0.227356226963801833E+06
    0.344404183191065627E+01    0.481335212099078036E+00   -0.299498335096564494E+01   -0.227356226963801833E+06
    0.342508920086246116E+01    0.481176052085905692E+00   -0.299480573403530403E+01   -0.227356226358001790E+06
    0.342695485857707549E+01    0.478156048931397404E+00   -0.299464614636846926E+01   -0.227356222929079551E+06
    0.343477338972986335E+01    0.481672166807803614E+00   -0.299481894174696439E+01   -0.227356222052805300E+06
    0.344029367302403344E+01    0.477983651426990119E+00   -0.299482930559587723E+01   -0.227356219156206469E+06
    0.342382270269501809E+01    0.480835897653498434E+00   -0.299495052826180475E+01   -0.227356218294168561E+06
    0.344518841436850831E+01    0.481127162440726508E+00   -0.299493305435529233E+01   -0.227356216552218393E+06
    0.344110897250357084E+01    0.477879068453917977E+00   -0.299457875407571716E+01   -0.227356215392454556E+06
    0.344360211476914113E+01    0.480956557738589030E+00   -0.299480803343307711E+01   -0.227356213139923027E+06
    0.343812424831153551E+01    0.477789816211379503E+00   -0.299479801087034536E+01   -0.227356211924317759E+06
    0.344025907016847254E+01    0.477516230705753053E+00   -0.299471445155297467E+01   -0.227356210176491179E+06
    0.342442449347338096E+01    0.481302650393535314E+00   -0.299494585491305720E+01   -0.227356207448432891E+06
    0.344229205489368972E+01    0.481170145181229247E+00   -0.299504586685641128E+01   -0.227356205126273591E+06
    0.343295084868543210E+01    0.481447192242099031E+00   -0.299508344028007301E+01   -0.227356196555601287E+06
    0.342583778378242698E+01    0.480724365339335213E+00   -0.299473534651745599E+01   -0.227356196438763029E+06
    0.342597756063894909E+01    0.478857813984763681E+00   -0.299483918791552783E+01   -0.227356195683652797E+06
    0.342929567913891242E+01    0.479097687072295497E+00   -0.299492849957279184E+01   -0.227356194854864007E+06
    0.342929567913891242E+01    0.479097687072295497E+00   -0.299492849957279184E+01   -0.227356194854864007E+06
    0.342233337887840250E+01    0.480006122146228287E+00   -0.299478520712654506E+01   -0.227356194567173225E+06
    0.343322122043974653E+01    0.480975149575778360E+00   -0.299508068022376017E+01   -0.227356191234973754E+06
    0.342575094618503950E+01    0.481574365688066275E+00   -0.299495586055377627E+01   -0.227356183843987237E+06
    0.343530734856755515E+01    0.478694635618758135E+00   -0.299455214883891241E+01   -0.227356179322759795E+06
    0.342629051288448006E+01    0.480943027010215352E+00   -0.299500648934604063E+01   -0.227356175808138883E+06
    0.342981004800037637E+01    0.480998343548140805E+00   -0.299473165053694546E+01   -0.227356175227048981E+06
    0.343181237100371783E+01    0.478903804515501186E+00   -0.299492909639434179E+01   -0.227356175148423295E+06
    0.344004134650043936E+01    0.481745856486040513E+00   -0.299491534362228373E+01   -0.227356168400703085E+06
    0.344264227931939004E+01    0.477829148371081813E+00   -0.299462217185044377E+01   -0.227356167634742509E+06
    0.343096700290039092E+01    0.477757583321380908E+00   -0.299470535108068647E+01   -0.227356160986222734E+06
    0.342334038868619928E+01    0.480741392509034693E+00   -0.299490407015993876E+01   -0.227356160224602907E+06
    0.342600666203663629E+01    0.481506535417166204E+00   -0.299487574884466357E+01   -0.227356157928530156E+06
    0.343889391543398748E+01    0.478393482342579501E+00   -0.299488633829168727E+01   -0.227356157340481353E+06
    0.344511636028824109E+01    0.478885086853226671E+00   -0.299465106179570784E+01   -0.227356154037900502E+06
    0.343165611881941057E+01    0.480438244054893049E+00   -0.299504736749869416E+01   -0.227356146192619519E+06
    0.342476617896537272E+01    0.479613303489448084E+00   -0.299467621921847460E+01   -0.227356143708147400E+06
    0.344453673455243603E+01    0.480184361106292867E+00   -0.299499508589650709E+01   -0.227356142105775565E+06
    0.343513279250230008E+01    0.482071882096460791E+00   -0.299500229173287158E+01   -0.227356140942275728E+06
    0.342775695824465299E+01    0.478404350765721298E+00   -0.299478988826182713E+01   -0.227356139026082266E+06
    0.344611213684665429E+01    0.479066336923031078E+00   -0.299468552122432863E+01   -0.227356139005663659E+06
    0.342561906305188391E+01    0.481478482298656307E+00   -0.299490652913408573E+01   -0.227356138490153680E+06
    0.344557847145631024E+01    0.480388754625356185E+00   -0.299497375264267873E+01   -0.227356135301010625E+06
    0.344607586803454824E+01    0.479046051359764136E+00   -0.299488753233082416E+01   -0.227356134128428967E+06
    0.344367208032804184E+01    0.478061481336487737E+00   -0.299478329122843823E+01   -0.227356128911890584E+06
    0.343604281320504645E+01    0.477587250083704618E+00   -0.299460149042376544E+01   -0.227356127624635963E+06
    0.343719998929190096E+01    0.479922265120608427E+00   -0.299503084057952318E+01   -0.227356120267978607E+06
    0.344567253730859280E+01    0.479960127558344385E+00   -0.299474392816538071E+01   -0.227356119128417777E+06
    0.343909239600299887E+01    0.478775356112411898E+00   -0.299457707913158622E+01   -0.227356115240899497E+06
    0.343925498208303093E+01    0.481818613686880115E+00   -0.299496339969426373E+01   -0.227356113213709730E+06
    0.343314964888489849E+01    0.479176001269394747E+00   -0.299457941838291353E+01   -0.227356111605480750E+06
    0.343475542027099445E+01    0.477552267266384445E+00   -0.299466932621603155E+01   -0.227356111164352333E+06
    0.344586781275565857E+01    0.478784617260065937E+00   -0.299485232481965724E+01   -0.227356102781823458E+06
    0.343768638977427310E+01    0.481885460732346449E+00   -0.299494005006718789E+01   -0.227356101312190527E+06
    0.342362496131076544E+01    0.479583606568410148E+00   -0.299482743665188789E+01   -0.227356099594122119E+06
    0.344069458703805342E+01    0.479922045861407298E+00   -0.299501661509698502E+01   -0.227356096700973983E+06
    0.344147670611037437E+01    0.479406798702125769E+00   -0.299463051050402873E+01   -0.227356095555006643E+06
    0.344563332922708510E+01    0.478322998435792179E+00   -0.299475927253935037E+01   -0.227356089278785163E+06
    0.342763989027380100E+01    0.481696427280580097E+00   -0.299493362338206426E+01   -0.227356087001953041E+06
    0.342571704362610463E+01    0.479963500017396738E+00   -0.299468950422635993E+01   -0.227356081375156005E+06
    0.344215557893525714E+01    0.479601551089040845E+00   -0.299465511310072818E+01   -0.227356073891114036E+06
    0.344431763046381789E+01    0.480995225967550843E+00   -0.299495065333531141E+01   -0.227356072912403120E+06
    0.344196242097637661E+01    0.481446429833423839E+00   -0.299494442906165803E+01   -0.227356072140000470E+06
    0.342649135910575042E+01    0.481428598963014098E+00   -0.299495807119748392E+01   -0.227356069977045176E+06
    0.343450410692912822E+01    0.478397982616925899E+00   -0.299456527765790659E+01   -0.227356067194468080E+06
    0.343236133714646163E+01    0.477812005968006270E+00   -0.299472042454040688E+01   -0.227356066251540964E+06
    0.344507670136257316E+01    0.480820662502130292E+00   -0.299490416077867527E+01   -0.227356065870880237E+06
    0.342845684035489295E+01    0.479525079065730997E+00   -0.299462942579010738E+01   -0.227356059741858451E+06
    0.344412414575378545E+01    0.480327095157096595E+00   -0.299498869450442262E+01   -0.227356058601066790E+06
    0.342553848112066017E+01    0.481077653653188997E+00   -0.299495073180543114E+01   -0.227356055269533681E+06
    0.344676632473023847E+01    0.479404581372632255E+00   -0.299475250994690034E+01   -0.227356053562774963E+06
    0.344650051442032934E+01    0.480260043407919446E+00   -0.299489470402230262E+01   -0.227356052715411060E+06
    0.342374301516102708E+01    0.479569463122097250E+00   -0.299479887664519140E+01   -0.227356050132742472E+06
    0.344599528078593620E+01    0.479849145235254015E+00   -0.299476219659246956E+01   -0.227356045063098660E+06
    0.344360071872113638E+01    0.480431640280753025E+00   -0.299476670936443901E+01   -0.227356041000321362E+06
    0.342927977776681292E+01    0.481344153609025383E+00   -0.299502406356778383E+01   -0.227356040198357165E+06
    0.343168889295383384E+01    0.481826862645946652E+00   -0.299501129644411312E+01   -0.227356039312767680E+06
    0.342515900436594922E+01    0.479946875389989758E+00   -0.299490726781060168E+01   -0.227356039002104255E+06
    0.343738539127421516E+01    0.480768053063705569E+00   -0.299472863833065794E+01   -0.227356038028028182E+06
    0.344584699827042762E+01    0.479480525579806804E+00   -0.299490776659110125E+01   -0.227356037752672331E+06
    0.344282191964630968E+01    0.478405214308260940E+00   -0.299483751650776453E+01   -0.227356032239084452E+06
    0.343172513704862148E+01    0.480972528252391063E+00   -0.299504841105088770E+01   -0.227356031464603235E+06
    0.343495471802313146E+01    0.477721180554702418E+00   -0.299462464464278844E+01   -0.227356022771202581E+06
    0.344563939844701217E+01    0.479211861638037084E+00   -0.299470880001273176E+01   -0.227356021983228362E+06
    0.344208417962611524E+01    0.480734892918914636E+00   -0.299478249663722673E+01   -0.227356021680438804E+06
    0.342381882913014746E+01    0.480004967605105359E+00   -0.299477661910935744E+01   -0.227356019703799626E+06
    0.343207398866102187E+01    0.478338878960382574E+00   -0.299458501129458554E+01   -0.227356018940239708E+06
    0.344126002814388077E+01    0.481295106628742864E+00   -0.299487291726607330E+01   -0.227356018738530023E+06
    0.342597534731979803E+01    0.479646754279259291E+00   -0.299489717368550501E+01   -0.227356016108255571E+06
    0.344016537833088965E+01    0.479345330786726143E+00   -0.299496552589658904E+01   -0.227356014203979226E+06
    0.343176725859030141E+01    0.480286887909214588E+00   -0.299502145144703658E+01   -0.227356010283276381E+06
    0.342950792090787804E+01    0.481081152553259228E+00   -0.299502416659406334E+01   -0.227356007756182458E+06
    0.342993256587904760E+01    0.478941111196672931E+00   -0.299488731957954535E+01   -0.227356005379484704E+06
    0.343224450886799159E+01    0.478777410573351991E+00   -0.299458515185437202E+01   -0.227356005001600483E+06
    0.344281056093357929E+01    0.478359676437000725E+00   -0.299463651092511718E+01   -0.227356004474316927E+06
    0.342386956945219101E+01    0.480286771750037922E+00   -0.299483584508589162E+01   -0.227356000540393317E+06
    0.343018845967184083E+01    0.481448458448540340E+00   -0.299483346529269445E+01   -0.227355997534468712E+06
    0.343218771955888835E+01    0.481846612203198521E+00   -0.299493580631793277E+01   -0.227355996647238731E+06
    0.343011294446537462E+01    0.481761539979539188E+00   -0.299494292748795621E+01   -0.227355993477241747E+06
    0.344018264043782285E+01    0.481479205462771120E+00   -0.299491120266133937E+01   -0.227355988486830669E+06
    0.343212510912908764E+01    0.479475029833003163E+00   -0.299461406779015782E+01   -0.227355988423199102E+06
    0.344513706130964659E+01    0.480000636524083479E+00   -0.299476678858605849E+01   -0.227355987991412752E+06
    0.344609653198629351E+01    0.478832790586710078E+00   -0.299479699183573489E+01   -0.227355985994687770E+06
    0.343432668692857845E+01    0.478641666800523724E+00   -0.299488507055279385E+01   -0.227355985750512802E+06
    0.342641189291966430E+01    0.479062547788111859E+00   -0.299482718621124766E+01   -0.227355984024750767E+06
    0.344171889567905431E+01    0.480923150027131430E+00   -0.299492306350573800E+01   -0.227355796464089944E+06
    0.343685870411197802E+01    0.481571924257997330E+00   -0.299494846739768583E+01   -0.227355854576626851E+06
    0.344259146401010607E+01    0.480803064999134833E+00   -0.299488317335164567E+01   -0.227355826904617570E+06
    0.342923756213897502E+01    0.481531199252502429E+00   -0.299492139598010132E+01   -0.227355910688302974E+06
    0.343721314793768418E+01    0.478949462839057760E+00   -0.299480359412459807E+01   -0.227355463768273796E+06
    0.343204199306237623E+01    0.480445679024166350E+00   -0.299487664873423087E+01   -0.227355434239151713E+06
    0.343954989186335425E+01    0.478936907129852985E+00   -0.299483336539267198E+01   -0.227355581391201238E+06
    0.343070226230045616E+01    0.480340682242695549E+00   -0.299496992253390726E+01   -0.227355749773982185E+06
    0.344165893470207340E+01    0.479182183836167730E+00   -0.299468098529456084E+01   -0.227355766867199331E+06
    0.342888420904410074E+01    0.479459466788516864E+00   -0.299482691180726590E+01   -0.227355606359714526E+06
    0.342892129248349153E+01    0.479596346608190727E+00   -0.299479588640862326E+01   -0.227355545678981434E+06
    0.342733033927188213E+01    0.479724761091932461E+00   -0.299477306228471774E+01   -0.227355665953635937E+06
    0.343456196588263651E+01    0.478375743912945128E+00   -0.299469131673185762E+01   -0.227355644150653854E+06
    0.344295364268117288E+01    0.480014267466682576E+00   -0.299474535044049484E+01   -0.227355855059907626E+06
    0.343304247882919356E+01    0.481362877647276199E+00   -0.299487953803755236E+01   -0.227355753673931555E+06
    0.343743487357258015E+01    0.480331154453454923E+00   -0.299503087271595980E+01   -0.227355961059763649E+06
    0.343591269107824182E+01    0.478180049528979356E+00   -0.299471987109613647E+01   -0.227355715502579318E+06
    0.343796756039477724E+01    0.481687117039912516E+00   -0.299493733812136398E+01   -0.227355973507532617E+06
    0.343682741773566924E+01    0.478470501747065902E+00   -0.299468368663620010E+01   -0.227355612202176068E+06
    0.343669341226698943E+01    0.479991813640945342E+00   -0.299473871634535405E+01   -0.227355518271095585E+06
    0.343080247781906555E+01    0.479904092746068434E+00   -0.299492357254461483E+01   -0.227355645616600086E+06
    0.343080247781906555E+01    0.479904092746068434E+00   -0.299492357254461483E+01   -0.227355645616600086E+06
    0.344509180096121348E+01    0.480387214153052577E+00   -0.299483871364681464E+01   -0.227355954095467634E+06
    0.343418962636176595E+01    0.479653109155824764E+00   -0.299470666488552295E+01   -0.227355518310388085E+06
    0.344100295808429424E+01    0.479993941545612202E+00   -0.299470438270265404E+01   -0.227355884016083437E+06
    0.343564890854686666E+01    0.479848836562401126E+00   -0.299490480800504288E+01   -0.227355450375189917E+06
    0.343564890854686666E+01    0.479848836562401126E+00   -0.299490480800504288E+01   -0.227355450375189917E+06
    0.342525739588577016E+01    0.479838163330197631E+00   -0.299486474398276492E+01   -0.227355922177683824E+06
    0.344020680224917363E+01    0.480076526667824299E+00   -0.299480938865506729E+01   -0.227355495782887214E+06
    0.344518615248154969E+01    0.479350981034698087E+00   -0.299471589459420828E+01   -0.227355973591025017E+06
    0.343723440789780232E+01    0.480500142325085089E+00   -0.299483596546535935E+01   -0.227355456358034950E+06
    0.342448874491760247E+01    0.480473781615644968E+00   -0.299485127177926458E+01   -0.227355951057916973E+06
    0.343429846100943958E+01    0.478317585983884352E+00   -0.299480134484699390E+01   -0.227355832855233341E+06
    0.343553098644195831E+01    0.478612229252511567E+00   -0.299484920958595824E+01   -0.227355790283596085E+06
    0.343872533512850742E+01    0.478669797862565138E+00   -0.299484513431414179E+01   -0.227355738072778215E+06
    0.343506498614563860E+01    0.478366591150646281E+00   -0.299476795436363075E+01   -0.227355686610191653E+06
    0.343414998799973459E+01    0.479256821915331532E+00   -0.299483684186565391E+01   -0.227355440617297048E+06
    0.343024724761569644E+01    0.480981318160911830E+00   -0.299485542009203964E+01   -0.227355661336030200E+06
    0.342735585036087720E+01    0.479699501064010381E+00   -0.299468767803010527E+01   -0.227355881247709360E+06
    0.344136791596772129E+01    0.480531084528459107E+00   -0.299485018319290619E+01   -0.227355654627070064E+06
    0.343880851452942826E+01    0.479069877627385565E+00   -0.299487379877189230E+01   -0.227355635872017185E+06
    0.343084951496274781E+01    0.479428068150441922E+00   -0.299482799506997743E+01   -0.227355492745199765E+06
    0.343906874193326484E+01    0.478962809302166892E+00   -0.299463010220721282E+01   -0.227355826162717014E+06
    0.343382459566593479E+01    0.479138209429588180E+00   -0.299482281444256859E+01   -0.227355458427842241E+06
    0.343373397995914420E+01    0.481100749297741159E+00   -0.299480876388896444E+01   -0.227355787208461057E+06
    0.342789417396209117E+01    0.481038101822739705E+00   -0.299481858562821879E+01   -0.227355891923019517E+06
    0.344026857565514099E+01    0.480430609745092996E+00   -0.299472448541933378E+01   -0.227355976888703241E+06
    0.343450321443159678E+01    0.480777745727468286E+00   -0.299479270699276201E+01   -0.227355648387633672E+06
    0.344061944031207911E+01    0.479217859351565467E+00   -0.299466554164758225E+01   -0.227355775239200913E+06
    0.343201648596033460E+01    0.479851446961508166E+00   -0.299491889820787538E+01   -0.227355582966623275E+06
    0.344210063230968144E+01    0.478538692459671788E+00   -0.299484102170697186E+01   -0.227355920629710890E+06
    0.343446677726956207E+01    0.480630896223570470E+00   -0.299495733206027026E+01   -0.227355557645478111E+06
    0.343446677726956207E+01    0.480630896223570470E+00   -0.299495733206027026E+01   -0.227355557645478111E+06
    0.343995603136268002E+01    0.479811385209423846E+00   -0.299492418688592865E+01   -0.227355606548617099E+06
    0.343995603136268002E+01    0.479811385209423846E+00   -0.299492418688592865E+01   -0.227355606548617099E+06
    0.343615478432720778E+01    0.479471689018734881E+00   -0.299486603794451067E+01   -0.227355426724483841E+06
    0.343502452286598148E+01    0.480211691223733417E+00   -0.299481985467726552E+01   -0.227355361806601577E+06
    0.343734061225847265E+01    0.479817784683917170E+00   -0.299474847368013508E+01   -0.227355449577109364E+06
    0.343734061225847265E+01    0.479817784683917170E+00   -0.299474847368013508E+01   -0.227355449577109364E+06
    0.343126527009021132E+01    0.479691220575763633E+00   -0.299472893827945974E+01   -0.227355512701668078E+06
    0.343126527009021132E+01    0.479691220575763633E+00   -0.299472893827945974E+01   -0.227355512701668078E+06
    0.343295195762947447E+01    0.478536605788933811E+00   -0.299468579888131803E+01   -0.227355634539409861E+06
    0.343295195762947447E+01    0.478536605788933811E+00   -0.299468579888131803E+01   -0.227355634539409861E+06
    0.344350509648348702E+01    0.479326606692930035E+00   -0.299474627098167323E+01   -0.227355722271704260E+06
    0.344350509648348702E+01    0.479326606692930035E+00   -0.299474627098167323E+01   -0.227355722271704260E+06
    0.343410869740278990E+01    0.479423191493046408E+00   -0.299466071822685320E+01   -0.227355667960858293E+06
    0.343410869740278990E+01    0.479423191493046408E+00   -0.299466071822685320E+01   -0.227355667960858293E+06
    0.342940457922565134E+01    0.481171192055644958E+00   -0.299488599092843710E+01   -0.227355749008609564E+06
    0.344431855585434565E+01    0.480030445158078189E+00   -0.299495845631921842E+01   -0.227355978492196620E+06
    0.343894525877594059E+01    0.480506861792614481E+00   -0.299494210430102648E+01   -0.227355572849242337E+06
    0.343374129572686382E+01    0.479188706879681015E+00   -0.299493301195689776E+01   -0.227355903611178393E+06
    0.343930130825404134E+01    0.480841920218898378E+00   -0.299481600998815933E+01   -0.227355756213280110E+06
    0.343930130825404134E+01    0.480841920218898378E+00   -0.299481600998815933E+01   -0.227355756213280110E+06
    0.343014525453147012E+01    0.479476763775291526E+00   -0.299474219220686866E+01   -0.227355518156879465E+06
    0.343938378871862582E+01    0.480678113452880695E+00   -0.299482213546977682E+01   -0.227355650667398877E+06
    0.343231354692604285E+01    0.479372538020901184E+00   -0.299461205517308438E+01   -0.227355961450685194E+06
    0.343315052862970260E+01    0.479320373762543939E+00   -0.299467692566701027E+01   -0.227355586653808045E+06
    0.343860099364754079E+01    0.477830782692981071E+00   -0.299469991500694643E+01   -0.227355921848180034E+06
    0.344100060908282268E+01    0.480726777736376676E+00   -0.299477390956296574E+01   -0.227355967550603411E+06
    0.342843498642301059E+01    0.481148339026073346E+00   -0.299490128125429678E+01   -0.227355787472468510E+06
    0.344384721747905331E+01    0.480521657814900083E+00   -0.299481028889459733E+01   -0.227355951820063288E+06
    0.343200370933505239E+01    0.478417327391153890E+00   -0.299480007519095492E+01   -0.227355850516491686E+06
    0.343265666794695701E+01    0.480161297529178022E+00   -0.299488852612359446E+01   -0.227355418074748595E+06
    0.343624678156275687E+01    0.480668885918028421E+00   -0.299502301283603600E+01   -0.227355836113963742E+06
    0.343557958575639688E+01    0.479990273051574989E+00   -0.299468868621683981E+01   -0.227355731911196868E+06
    0.344037413587251795E+01    0.479374358885954199E+00   -0.299471976646223759E+01   -0.227355576033591729E+06
    0.344037413587251795E+01    0.479374358885954199E+00   -0.299471976646223759E+01   -0.227355576033591729E+06
    0.344403353924957933E+01    0.479311089588765338E+00   -0.299472831622909919E+01   -0.227355812563429354E+06
    0.342805006618480501E+01    0.480510449956239927E+00   -0.299484046643449409E+01   -0.227355642601154716E+06
    0.343357157885524966E+01    0.480049811061195209E+00   -0.299497421071929892E+01   -0.227355732101969072E+06
    0.343252371351037189E+01    0.479829730359574935E+00   -0.299498448190329603E+01   -0.227355920087750419E+06
    0.343426899801889363E+01    0.479760370607828335E+00   -0.299465180360062577E+01   -0.227355835264039255E+06
    0.343639080600473079E+01    0.480385756714921786E+00   -0.299478420505150611E+01   -0.227355508464856277E+06
    0.342947089382457193E+01    0.481535693255479513E+00   -0.299489558739622552E+01   -0.227355925657181680E+06
    0.342907716594966239E+01    0.479492086808912421E+00   -0.299478224922274272E+01   -0.227355547039418539E+06
    0.344195373316428688E+01    0.480758028528831982E+00   -0.299496414076593043E+01   -0.227355825446689618E+06
    0.344131283607230953E+01    0.480174050583477285E+00   -0.299495605674132603E+01   -0.227355734981636400E+06
    0.343198054843311517E+01    0.481269978668038001E+00   -0.299495895161250436E+01   -0.227355719077039685E+06
    0.343198054843311517E+01    0.481269978668038001E+00   -0.299495895161250436E+01   -0.227355719077039685E+06
    0.342767654564492208E+01    0.479997092136139503E+00   -0.299480430469679515E+01   -0.227355621517045860E+06
    0.344416406200906300E+01    0.479288334692672902E+00   -0.299486742565088848E+01   -0.227355811625026923E+06
    0.343967042234936660E+01    0.479280395048362839E+00   -0.299477772728568326E+01   -0.227355436685585271E+06
    0.344210259646580319E+01    0.481025591392898244E+00   -0.299488654325318349E+01   -0.227355891834446462E+06
    0.343552707990989914E+01    0.478299328825740888E+00   -0.299464544268753929E+01   -0.227355737536396773E+06
    0.343772012742957322E+01    0.479151338161492024E+00   -0.299469257858426952E+01   -0.227355531531540852E+06
    0.343772012742957322E+01    0.479151338161492024E+00   -0.299469257858426952E+01   -0.227355531531540852E+06
    0.343697248117191467E+01    0.480796108164524838E+00   -0.299502017183579516E+01   -0.227355820119884709E+06
    0.342649086340114906E+01    0.479353960929279788E+00   -0.299468789820141268E+01   -0.227355907858364953E+06
    0.342951687080834411E+01    0.479503589611505965E+00   -0.299481990236659001E+01   -0.227355540309294476E+06
    0.342951687080834411E+01    0.479503589611505965E+00   -0.299481990236659001E+01   -0.227355540309294476E+06
    0.343831904803133126E+01    0.480237427098895775E+00   -0.299491641178648527E+01   -0.227355478608123434E+06
    0.343201640403884944E+01    0.480340194075208060E+00   -0.299483618705529153E+01   -0.227355414935960202E+06
    0.343201640403884944E+01    0.480340194075208060E+00   -0.299483618705529153E+01   -0.227355414935960202E+06
    0.342712378716157717E+01    0.478868062126304617E+00   -0.299475247023951807E+01   -0.227355859218993137E+06
    0.343402310125953480E+01    0.479452207858181823E+00   -0.299485757262931296E+01   -0.227355432434004935E+06
    0.343402310125953480E+01    0.479452207858181823E+00   -0.299485757262931296E+01   -0.227355432434004935E+06
    0.342906464008254908E+01    0.478535389996366911E+00   -0.299477374602144986E+01   -0.227355890140319825E+06
    0.343455634302520441E+01    0.480221359316276686E+00   -0.299481681106439313E+01   -0.227355367407094396E+06
    0.343455634302520441E+01    0.480221359316276686E+00   -0.299481681106439313E+01   -0.227355367407094396E+06
    0.343161587547820446E+01    0.479973140174955737E+00   -0.299474305162170973E+01   -0.227355516697848099E+06
    0.342804073492597627E+01    0.479537549270162844E+00   -0.299482858713930300E+01   -0.227355653834305529E+06
    0.344514598062299360E+01    0.479690456866475157E+00   -0.299475987570156477E+01   -0.227355908568341576E+06
    0.343635320668863109E+01    0.480207706811106749E+00   -0.299468302303843981E+01   -0.227355902689139359E+06
    0.342662822188084260E+01    0.479763787973535971E+00   -0.299480663759658006E+01   -0.227355714667270338E+06
    0.342830937929654089E+01    0.480314124048920710E+00   -0.299482633861684677E+01   -0.227355596321180346E+06
    0.342983254417471306E+01    0.480392511536164801E+00   -0.299474158024118742E+01   -0.227355740684071614E+06
    0.343694712213369691E+01    0.480881398735817034E+00   -0.299493197317871207E+01   -0.227355556824651751E+06
    0.343649602373196661E+01    0.480511499632930550E+00   -0.299472092482979590E+01   -0.227355865833330725E+06
    0.343731601165592471E+01    0.479103921270957078E+00   -0.299477231252816001E+01   -0.227355395490319759E+06
    0.343731601165592471E+01    0.479103921270957078E+00   -0.299477231252816001E+01   -0.227355395490319759E+06
    0.343065899575702993E+01    0.479873783871814119E+00   -0.299472402296525386E+01   -0.227355589242325776E+06
    0.343065899575702993E+01    0.479873783871814119E+00   -0.299472402296525386E+01   -0.227355589242325776E+06
    0.343476280890587082E+01    0.479017071839202946E+00   -0.299463542697817342E+01   -0.227355718056507845E+06
    0.343739614704654040E+01    0.481275881553173024E+00   -0.299485086899233188E+01   -0.227355837057184224E+06
    0.342795122858277557E+01    0.480902401566979831E+00   -0.299489225144168580E+01   -0.227355738554391486E+06
    0.343152507096829851E+01    0.480477572813038323E+00   -0.299480728819150777E+01   -0.227355504113279167E+06
    0.344386885988647196E+01    0.479925851784868074E+00   -0.299486736014507127E+01   -0.227355717695977190E+06
    0.344386885988647196E+01    0.479925851784868074E+00   -0.299486736014507127E+01   -0.227355717695977190E+06
    0.342622798359737057E+01    0.479429764118940505E+00   -0.299477437856486972E+01   -0.227355791702481627E+06
    0.342968298774891833E+01    0.480730818242013302E+00   -0.299492780271504344E+01   -0.227355641863198864E+06
    0.342968298774891833E+01    0.480730818242013302E+00   -0.299492780271504344E+01   -0.227355641863198864E+06
    0.344028054126811256E+01    0.479946893833487820E+00   -0.299470732211975665E+01   -0.227355796251764492E+06
    0.342589326610038558E+01    0.479908583333349514E+00   -0.299481016964538060E+01   -0.227355775732945767E+06
    0.343459898828163279E+01    0.479096544140722613E+00   -0.299470357894935590E+01   -0.227355470873336686E+06
    0.344034821453070006E+01    0.478349038184081199E+00   -0.299464908051828615E+01   -0.227355816933324997E+06
    0.343519422895468773E+01    0.479214397735318098E+00   -0.299494325797807504E+01   -0.227355914052652835E+06
    0.343074804610486428E+01    0.480711709040274660E+00   -0.299495819612814973E+01   -0.227355667002814502E+06
    0.343235318957721525E+01    0.481592715661839976E+00   -0.299492026098791042E+01   -0.227355845346412476E+06
    0.343274913524720438E+01    0.479295736184719379E+00   -0.299494986979324107E+01   -0.227355982844349608E+06
    0.343018101147790810E+01    0.479486821850332645E+00   -0.299478998357257620E+01   -0.227355479971462628E+06
    0.342655299875267483E+01    0.480825228285700401E+00   -0.299485931167473529E+01   -0.227355826821626426E+06
    0.343307346215397935E+01    0.479932896544972676E+00   -0.299480306637202842E+01   -0.227355353143624234E+06
    0.343483530129939574E+01    0.480750339317389475E+00   -0.299501549927431565E+01   -0.227355791472696350E+06
    0.343226813698851485E+01    0.480986262935791886E+00   -0.299489016985041534E+01   -0.227355568555710517E+06
    0.342718972522933818E+01    0.478809782292299591E+00   -0.299474925221457866E+01   -0.227355874442551663E+06
    0.343630895695022298E+01    0.478905379726273672E+00   -0.299476194430474107E+01   -0.227355432575495011E+06
    0.343153023389812883E+01    0.478483529144974662E+00   -0.299481200464074737E+01   -0.227355872768582165E+06
    0.343929712825745604E+01    0.477964532829513122E+00   -0.299471931393943569E+01   -0.227355868616145715E+06
    0.343102641408205233E+01    0.479101136918960058E+00   -0.299474748134268420E+01   -0.227355508955797675E+06
    0.344534813972902132E+01    0.478963436328336878E+00   -0.299474548449392453E+01   -0.227355893930997321E+06
    0.343838786006802399E+01    0.479144080962278007E+00   -0.299493754532551115E+01   -0.227355913197527494E+06
    0.344079828874621185E+01    0.478172634407651009E+00   -0.299462042237727877E+01   -0.227355967767130496E+06
    0.343859770258554320E+01    0.481067124772614874E+00   -0.299487817624089780E+01   -0.227355696819306439E+06
    0.343859770258554320E+01    0.481067124772614874E+00   -0.299487817624089780E+01   -0.227355696819306439E+06
    0.342930565025547196E+01    0.480229156061917628E+00   -0.299478229338923096E+01   -0.227355578049757984E+06
    0.343509123113821424E+01    0.480915553648854910E+00   -0.299487137110213109E+01   -0.227355533975310682E+06
    0.342538578747370748E+01    0.480064432152007725E+00   -0.299476081050635878E+01   -0.227355888517292216E+06
    0.343508109266097206E+01    0.480647081498682849E+00   -0.299494519999299147E+01   -0.227355520704440481E+06
    0.343560125046967357E+01    0.480914171830881587E+00   -0.299476271308714104E+01   -0.227355891008700331E+06
    0.343591836073308166E+01    0.480777958130932270E+00   -0.299495854470035860E+01   -0.227355572475355089E+06
    0.343591836073308166E+01    0.480777958130932270E+00   -0.299495854470035860E+01   -0.227355572475355089E+06
    0.343305514279311774E+01    0.479863316971750831E+00   -0.299498708028691363E+01   -0.227355900383873261E+06
    0.343990690951101197E+01    0.480163358944158458E+00   -0.299484233154303192E+01   -0.227355465842380625E+06
    0.343990690951101197E+01    0.480163358944158458E+00   -0.299484233154303192E+01   -0.227355465842380625E+06
    0.343233417819691677E+01    0.480872064775271280E+00   -0.299490842103682597E+01   -0.227355534240708250E+06
    0.343597621405306430E+01    0.478572131677272361E+00   -0.299470080245897030E+01   -0.227355555859094544E+06
    0.344221894526168848E+01    0.479939743442260758E+00   -0.299471780632472218E+01   -0.227355882051543216E+06
    0.344072951420584339E+01    0.478897284455227557E+00   -0.299490386969890299E+01   -0.227355930308714393E+06
    0.343568016826973821E+01    0.478544835604403640E+00   -0.299487079161397585E+01   -0.227355946897532849E+06
    0.343593106336438403E+01    0.479983419812022805E+00   -0.299476115772902540E+01   -0.227355427534484887E+06
    0.342688395447432503E+01    0.479474817815239984E+00   -0.299466507440087382E+01   -0.227355972728809458E+06
    0.343401192601074623E+01    0.478608165447314216E+00   -0.299460065119857921E+01   -0.227355875884430454E+06
    0.342916144453909766E+01    0.480468351324755294E+00   -0.299488299246325917E+01   -0.227355575217331061E+06
    0.343916497082032446E+01    0.478972620859296871E+00   -0.299490648259841974E+01   -0.227355851202012069E+06
    0.344060185664011176E+01    0.479230240220933523E+00   -0.299471277626368115E+01   -0.227355593582147238E+06
    0.342773347181762889E+01    0.478893633658980078E+00   -0.299482718702596618E+01   -0.227355946830471250E+06
    0.343056925823375947E+01    0.478134943326684492E+00   -0.299468866876661499E+01   -0.227355916860977217E+06
    0.343884879167340785E+01    0.480009449204900185E+00   -0.299474583690148854E+01   -0.227355572786817240E+06
    0.343467059086320692E+01    0.479071754201258249E+00   -0.299462612693690877E+01   -0.227355774052843859E+06
    0.343332590041881058E+01    0.480456868278732241E+00   -0.299492202668901353E+01   -0.227355471863446175E+06
    0.343369183641923037E+01    0.481278112291701365E+00   -0.299493234339939551E+01   -0.227355667187170708E+06
    0.343030719848596988E+01    0.479456159814243887E+00   -0.299486259569292823E+01   -0.227355599267277692E+06
    0.343030719848596988E+01    0.479456159814243887E+00   -0.299486259569292823E+01   -0.227355599267277692E+06
    0.343097318132317941E+01    0.479585708179730230E+00   -0.299489573381965846E+01   -0.227355629934140597E+06
    0.343324786258184966E+01    0.480705808181458638E+00   -0.299474662062440533E+01   -0.227355808559356548E+06
    0.343852182423981567E+01    0.478052785106634681E+00   -0.299473339344351031E+01   -0.227355814878760983E+06
    0.344230599217390321E+01    0.479347063850966149E+00   -0.299479933186472902E+01   -0.227355571948904166E+06
    0.344230599217390321E+01    0.479347063850966149E+00   -0.299479933186472902E+01   -0.227355571948904166E+06
    0.344143557584967441E+01    0.478471951829660069E+00   -0.299467252980785004E+01   -0.227355787062847812E+06
    0.344022775737455921E+01    0.478323789310867609E+00   -0.299467175217795356E+01   -0.227355762196260213E+06
    0.343667470474430425E+01    0.479041000800469352E+00   -0.299463578546303921E+01   -0.227355735065111978E+06
    0.344289974116526931E+01    0.479533876408853199E+00   -0.299492180426493038E+01   -0.227355830673896591E+06
    0.343188739098527051E+01    0.481632750488392658E+00   -0.299487163860399885E+01   -0.227355969253830204E+06
    0.343660098112057932E+01    0.481186388124733411E+00   -0.299491851753706939E+01   -0.227355651454687322E+06
    0.343686876680297670E+01    0.480183689144091708E+00   -0.299498474556465055E+01   -0.227355719094289903E+06
    0.344095878294574220E+01    0.478611097437942834E+00   -0.299475199662648395E+01   -0.227355640333505842E+06
    0.343522902880891445E+01    0.480975413166985832E+00   -0.299502054991096145E+01   -0.227355811405827320E+06
    0.342929480858643432E+01    0.480231887866023111E+00   -0.299477903116842148E+01   -0.227355586611135193E+06
    0.343270483613014399E+01    0.480249694662351678E+00   -0.299477613869092929E+01   -0.227355474066601048E+06
    0.343063137776665616E+01    0.478779631325691235E+00   -0.299481304868836862E+01   -0.227355741103266511E+06
    0.343063137776665616E+01    0.478779631325691235E+00   -0.299481304868836862E+01   -0.227355741103266511E+06
    0.343213870775271879E+01    0.479138344164759034E+00   -0.299470690723491639E+01   -0.227355512587590958E+06
    0.343526022465809788E+01    0.479417345315794774E+00   -0.299483788170337695E+01   -0.227355379841284506E+06
    0.342617484725373300E+01    0.480275201399239238E+00   -0.299475604994695521E+01   -0.227355880241360341E+06
    0.342922459772103760E+01    0.480392372940163292E+00   -0.299489117639895319E+01   -0.227355578275573469E+06
    0.343729177577841982E+01    0.478309485640967702E+00   -0.299471341819915171E+01   -0.227355649653025961E+06
