    0.263377320860930064E+01    0.545660806661366071E+00   -0.298241668105153046E+01   -0.214391822131299938E+06
    0.262839700647791652E+01    0.553233110405976336E+00   -0.298232392991986783E+01   -0.214390755916261813E+06
    0.262390243190303085E+01    0.549953738554204374E+00   -0.298280103624474657E+01   -0.214390454499307118E+06
    0.261812659815463444E+01    0.547622136958888062E+00   -0.298259874795960567E+01   -0.214388781261454016E+06
    0.258917781543032532E+01    0.549569868646421100E+00   -0.298190778226397679E+01   -0.214388335826612747E+06
    0.263554259557934589E+01    0.550606761592143279E+00   -0.298240982474204230E+01   -0.214388332063877344E+06
    0.259713027711853517E+01    0.553574897509362063E+00   -0.298245073277276918E+01   -0.214388323915644025E+06
    0.263174346835257689E+01    0.549937508617329485E+00   -0.298189519279104198E+01   -0.214388133066562819E+06
    0.263782723988902612E+01    0.549538910036592498E+00   -0.298228999145141893E+01   -0.214387952294752817E+06
    0.261597410043683531E+01    0.552870670025823019E+00   -0.298267397754212249E+01   -0.214387900652623444E+06
    0.262505517056229465E+01    0.552623412521283663E+00   -0.298241004907631790E+01   -0.214387861743928079E+06
    0.262790829719111674E+01    0.544787335899113767E+00   -0.298185830957175790E+01   -0.214387766692348698E+06
    0.260630879747411015E+01    0.548100733334086154E+00   -0.298254512657773141E+01   -0.214387513388655963E+06
    0.260263706882120349E+01    0.547990097551652733E+00   -0.298249111388139720E+01   -0.214387464669244073E+06
    0.263113351708525123E+01    0.546565100693084616E+00   -0.298173107943609050E+01   -0.214387398425631109E+06
    0.260065570116506528E+01    0.548204685669498426E+00   -0.298168708729195409E+01   -0.214387380995483632E+06
    0.262729313320595681E+01    0.550507591994071510E+00   -0.298192813148997304E+01   -0.214387307884367445E+06
    0.260100513015225010E+01    0.552478817384793541E+00   -0.298263946145748715E+01   -0.214387204851548624E+06
    0.260080510955774269E+01    0.547773396381298516E+00   -0.298241641536176338E+01   -0.214387150173052243E+06
    0.262036759468245828E+01    0.545014955270058943E+00   -0.298179238675976599E+01   -0.214386870454896620E+06
    0.261667576144188896E+01    0.546836872174129018E+00   -0.298240730788900388E+01   -0.214386854642399063E+06
    0.260550529556402566E+01    0.551739883568276634E+00   -0.298267659601507562E+01   -0.214386747759144782E+06
    0.259261539301450972E+01    0.548259020768049443E+00   -0.298217119219916960E+01   -0.214386696902839496E+06
    0.262978921014145151E+01    0.546407738898995743E+00   -0.298177913174838682E+01   -0.214386630773984536E+06
    0.261154635889184128E+01    0.547409563666347854E+00   -0.298244940453144070E+01   -0.214386570836093684E+06
    0.260480310826898931E+01    0.545812622926454827E+00   -0.298194632148110461E+01   -0.214386557906320639E+06
    0.263149098934499293E+01    0.550676803883641819E+00   -0.298229480389289980E+01   -0.214386521465145488E+06
    0.260421201148361448E+01    0.550853562330177571E+00   -0.298264740264498140E+01   -0.214386448364700598E+06
    0.259608606224292604E+01    0.547547906291380504E+00   -0.298191360379246184E+01   -0.214386429508728936E+06
    0.260263559052246940E+01    0.551035836239978316E+00   -0.298263348065515821E+01   -0.214386412279371027E+06
    0.259072655564538623E+01    0.549747473633539929E+00   -0.298218390027876756E+01   -0.214386364657832746E+06
    0.262210127196266729E+01    0.545253515270951228E+00   -0.298189882107079152E+01   -0.214386255518429418E+06
    0.259229438667829193E+01    0.551164068035463250E+00   -0.298233922341782565E+01   -0.214386241436593060E+06
    0.262869838951232815E+01    0.549335065886741303E+00   -0.298190430446945953E+01   -0.214386125891766074E+06
    0.261207498405089922E+01    0.548685957512926703E+00   -0.298255008840294700E+01   -0.214386027124138724E+06
    0.259188984929564992E+01    0.550442776404430179E+00   -0.298222205983323496E+01   -0.214385967003309663E+06
    0.261725477255386618E+01    0.549031048341927064E+00   -0.298174102128332397E+01   -0.214385958804347494E+06
    0.261364986504430918E+01    0.552735580792136916E+00   -0.298240880553408649E+01   -0.214385925494438445E+06
    0.261801245870681720E+01    0.552431644158578261E+00   -0.298240830580459715E+01   -0.214385888805315597E+06
    0.260021480342663480E+01    0.552486382012708832E+00   -0.298239337228611179E+01   -0.214385828318888758E+06
    0.259918121829740389E+01    0.547457291279916825E+00   -0.298187745213199795E+01   -0.214385800021960313E+06
    0.261254212965770272E+01    0.546032476111468434E+00   -0.298215278488550783E+01   -0.214385770029348292E+06
    0.260238288745082613E+01    0.552348615611719107E+00   -0.298250587753104757E+01   -0.214385760861950053E+06
    0.262893446351202664E+01    0.550049120273711889E+00   -0.298204750742672164E+01   -0.214385742822061380E+06
    0.259449980301802485E+01    0.548981679104429188E+00   -0.298199279230947401E+01   -0.214385721773463883E+06
    0.262223640399768243E+01    0.549995550020648039E+00   -0.298255933069729817E+01   -0.214385679970402241E+06
    0.263150829742406955E+01    0.546845026190130978E+00   -0.298199254584245388E+01   -0.214385671070437646E+06
    0.261710121755127201E+01    0.551382835636881063E+00   -0.298203213411977863E+01   -0.214385607600896416E+06
    0.262754004884386472E+01    0.549435199698134258E+00   -0.298245334278305174E+01   -0.214385586211881484E+06
    0.259677517831235516E+01    0.551696751968985488E+00   -0.298221880823262531E+01   -0.214385579703255149E+06
    0.259584999665305816E+01    0.550992295182503589E+00   -0.298210230111100572E+01   -0.214385567863333155E+06
    0.259696539967538431E+01    0.549209982907162941E+00   -0.298237232182874878E+01   -0.214385547240237967E+06
    0.259529751628344396E+01    0.549125016172774538E+00   -0.298198024544319562E+01   -0.214385540537655936E+06
    0.259961808566247043E+01    0.547327247759020197E+00   -0.298192961379042343E+01   -0.214385533723972883E+06
    0.261571961843092105E+01    0.549958063404261677E+00   -0.298259432179461292E+01   -0.214385525100505882E+06
    0.260411288937667695E+01    0.549679543472024523E+00   -0.298253874937353647E+01   -0.214385520924657729E+06
    0.262561920888864497E+01    0.546993623946312790E+00   -0.298178546793131982E+01   -0.214385518789059337E+06
    0.261471602494147204E+01    0.551675472606865558E+00   -0.298258352538706673E+01   -0.214385515846041671E+06
    0.260860931558055276E+01    0.547707378777019360E+00   -0.298172564536030871E+01   -0.214385487525215111E+06
    0.260006058702745069E+01    0.550724822513055323E+00   -0.298252299833326528E+01   -0.214385486876025243E+06
    0.259434032324359842E+01    0.550815922406748260E+00   -0.298216791598392339E+01   -0.214385483874620899E+06
    0.259719734077912978E+01    0.549875333798201749E+00   -0.298195444399276433E+01   -0.214385477066914085E+06
    0.260396750129938193E+01    0.547904686357140180E+00   -0.298177485435382783E+01   -0.214385470637526363E+06
    0.259833807483375301E+01    0.551249153068709918E+00   -0.298208400779433180E+01   -0.214385461701648950E+06
    0.262264507330529684E+01    0.545783025548004952E+00   -0.298189039323477534E+01   -0.214385456886968139E+06
    0.259957159289397888E+01    0.552014111672517904E+00   -0.298224233961961760E+01   -0.214385410711959790E+06
    0.261932453434540014E+01    0.546769147470115846E+00   -0.298228835864309261E+01   -0.214385400073374069E+06
    0.261839879686557575E+01    0.551671845020597518E+00   -0.298213657878621374E+01   -0.214385387605073745E+06
    0.263160077130656544E+01    0.549172011840899366E+00   -0.298225974444621222E+01   -0.214385380582977697E+06
    0.262171592963097622E+01    0.548030640863396035E+00   -0.298243026305279191E+01   -0.214385347505119978E+06
    0.261104476710938771E+01    0.551290224477261948E+00   -0.298259841022946803E+01   -0.214385336716468097E+06
    0.261236768215372051E+01    0.546582081094245886E+00   -0.298175000057061235E+01   -0.214385335010794806E+06
    0.260488975593885774E+01    0.551434385764423718E+00   -0.298203612161419374E+01   -0.214385313022708200E+06
    0.262316263104846659E+01    0.550765966313058630E+00   -0.298205167942856564E+01   -0.214385306055918307E+06
    0.261850295520476672E+01    0.550876924734497342E+00   -0.298198967572466778E+01   -0.214385296568019461E+06
    0.262508212617905068E+01    0.546888169435877258E+00   -0.298224502876207831E+01   -0.214385271409054461E+06
    0.262935030698460137E+01    0.547348477031069369E+00   -0.298190221951085643E+01   -0.214385266464455286E+06
    0.260036530697864698E+01    0.547655496039920364E+00   -0.298220364293811624E+01   -0.214385241418766876E+06
    0.262698034088107502E+01    0.549392958512003426E+00   -0.298243068109168563E+01   -0.214385231280374603E+06
    0.262059014373178201E+01    0.547397127559085650E+00   -0.298174844230342106E+01   -0.214385207873484440E+06
    0.262472292857401657E+01    0.546087869136629878E+00   -0.298192565435703161E+01   -0.214385197469741921E+06
    0.259861444045291945E+01    0.551736343735745760E+00   -0.298238890915164667E+01   -0.214385186343062785E+06
    0.260902367830621618E+01    0.550041984058488143E+00   -0.298185694443989613E+01   -0.214385168818416656E+06
    0.261506403339637306E+01    0.552245766837726082E+00   -0.298240252445253251E+01   -0.214385159700083896E+06
    0.261320421053022001E+01    0.546039391284552478E+00   -0.298185125968497333E+01   -0.214385146287283133E+06
    0.259722229093735635E+01    0.548145992530242987E+00   -0.298211334615015788E+01   -0.214385136303071835E+06
    0.262091395173033259E+01    0.546274704365935504E+00   -0.298214900444392228E+01   -0.214385114013388753E+06
    0.261904250256133597E+01    0.548939362917537865E+00   -0.298250227395317502E+01   -0.214385099945562688E+06
    0.262227034911343138E+01    0.550189061634022369E+00   -0.298251320443674439E+01   -0.214385095728068991E+06
    0.260596845752145168E+01    0.552377254697571929E+00   -0.298234851700940196E+01   -0.214385094503296830E+06
    0.260198999487475557E+01    0.548532996160304598E+00   -0.298184019538683431E+01   -0.214385083204055962E+06
    0.259661982025475702E+01    0.550469562175768812E+00   -0.298207477354283901E+01   -0.214385081374007161E+06
    0.263081384194497492E+01    0.547542814271131273E+00   -0.298202638069769144E+01   -0.214385072557102045E+06
    0.259560050698737843E+01    0.549411400427299301E+00   -0.298226517318332274E+01   -0.214385065414131153E+06
    0.260906627514459766E+01    0.549750780432099240E+00   -0.298183961775896078E+01   -0.214385049778286833E+06
    0.260423474706834401E+01    0.547513429647356720E+00   -0.298182353575394821E+01   -0.214385036602476728E+06
    0.260204311771452934E+01    0.550874097569053367E+00   -0.298200850374920767E+01   -0.214385022027871455E+06
    0.260579283360893532E+01    0.547899337479129556E+00   -0.298178875294407231E+01   -0.214385019659273938E+06
    0.262747611861249775E+01    0.549959273914436997E+00   -0.298207752504808221E+01   -0.214384998006283451E+06
    0.261322236180843115E+01    0.546001252324188724E+00   -0.298198148440552835E+01   -0.214384995045294985E+06
    0.262010811942327404E+01    0.549962747676250308E+00   -0.298252961655970195E+01   -0.214384993888907542E+06
    0.262414105477427873E+01    0.550074935003626808E+00   -0.298199281981862541E+01   -0.214384993676125247E+06
    0.261704875122217073E+01    0.550920904685330504E+00   -0.298255364093697972E+01   -0.214384989403653482E+06
    0.261292095988473339E+01    0.550164051962875322E+00   -0.298256886073055583E+01   -0.214384985978053126E+06
    0.262021398788009074E+01    0.550592418213035284E+00   -0.298252633490815944E+01   -0.214384976764342951E+06
    0.261609888675616808E+01    0.549243699901457383E+00   -0.298181363074848438E+01   -0.214384959704485169E+06
    0.261602548708095206E+01    0.552003008363556313E+00   -0.298243037110997200E+01   -0.214384951883536909E+06
    0.260889011728331788E+01    0.551568261006306515E+00   -0.298254842452559377E+01   -0.214384948456219630E+06
    0.261131388213205407E+01    0.547309753603606564E+00   -0.298175655158402098E+01   -0.214384944264514546E+06
    0.259989765765474257E+01    0.547833918292500499E+00   -0.298194657044322708E+01   -0.214384939040165511E+06
    0.260127096144043657E+01    0.551955390014047143E+00   -0.298237047908157438E+01   -0.214384934728754917E+06
    0.261799035573126826E+01    0.551874494144868111E+00   -0.298239692399279610E+01   -0.214384928316084057E+06
    0.260629947085745695E+01    0.552262629944177075E+00   -0.298238269192697336E+01   -0.214384901651526103E+06
    0.261023568722107147E+01    0.550305665482554107E+00   -0.298190057316493462E+01   -0.214384900965192355E+06
    0.262132232105157570E+01    0.547085727453956339E+00   -0.298178596939807772E+01   -0.214384894949099747E+06
    0.260336237025003969E+01    0.547371524035072610E+00   -0.298187681373736835E+01   -0.214384886504227354E+06
    0.259775390807519457E+01    0.549800640540904495E+00   -0.298236864683735936E+01   -0.214384880210230360E+06
    0.262389723901397032E+01    0.550061395365644468E+00   -0.298199799358611051E+01   -0.214384870928632357E+06
    0.262492749967678529E+01    0.549410958593030352E+00   -0.298243729999045515E+01   -0.214384852296922210E+06
    0.261779582289146484E+01    0.548554231357051170E+00   -0.298246216238759709E+01   -0.214384847328604432E+06
    0.261537873871443560E+01    0.549412429907945477E+00   -0.298183237331696471E+01   -0.214384828938267572E+06
    0.259986308998416282E+01    0.549396719913597509E+00   -0.298239102406499779E+01   -0.214384818070092937E+06
    0.261380350127390759E+01    0.546571543221488820E+00   -0.298180191945675022E+01   -0.214384811667180649E+06
    0.260883508994814006E+01    0.549678421108722781E+00   -0.298252621457215294E+01   -0.214384801945584099E+06
    0.260223551436626854E+01    0.547304358960693960E+00   -0.298196784276072924E+01   -0.214384789405351272E+06
    0.259617651779129988E+01    0.550271273063033695E+00   -0.298229380498644714E+01   -0.214384778942533711E+06
    0.262152841113779944E+01    0.546884989214684758E+00   -0.298180860602207831E+01   -0.214384776171175821E+06
    0.260440219801856898E+01    0.548338646309561750E+00   -0.298182870473895534E+01   -0.214384769474546774E+06
    0.261159792442877947E+01    0.552022320847677328E+00   -0.298246126603424422E+01   -0.214384767825518764E+06
    0.262493139354813643E+01    0.550671319389160030E+00   -0.298217291701213094E+01   -0.214384767636325822E+06
    0.259613857020271865E+01    0.549198249966499796E+00   -0.298213217030554922E+01   -0.214384748394255119E+06
    0.263035705494651539E+01    0.548683200112669245E+00   -0.298216697123935903E+01   -0.214384740118770569E+06
    0.261891158980366079E+01    0.547884207293194536E+00   -0.298177961052968143E+01   -0.214384736304472521E+06
    0.260788232569854994E+01    0.546940226555309272E+00   -0.298184039997831718E+01   -0.214384726259018702E+06
    0.262839867192115095E+01    0.548178717186440734E+00   -0.298226897590175666E+01   -0.214384720236703200E+06
    0.260422046042263577E+01    0.550080798510634850E+00   -0.298249906739992277E+01   -0.214384716805147124E+06
    0.260723968379376547E+01    0.549926955014324648E+00   -0.298252146436710630E+01   -0.214384714929030713E+06
    0.261636131667607730E+01    0.551023577169206580E+00   -0.298204237088754898E+01   -0.214384712935607589E+06
    0.262001097285578632E+01    0.549157178842233362E+00   -0.298185431316116567E+01   -0.214384711866558559E+06
    0.259883154207596245E+01    0.550640046644808034E+00   -0.298207931210219490E+01   -0.214384700283767830E+06
    0.260702548662388800E+01    0.552137851434323146E+00   -0.298231585430671498E+01   -0.214384690007367346E+06
    0.261128972974418971E+01    0.549678847541937188E+00   -0.298252760409370676E+01   -0.214384688261672942E+06
    0.261823208423079468E+01    0.549509752492397530E+00   -0.298250682747307394E+01   -0.214384681648746366E+06
    0.262245697496909536E+01    0.548700022354265404E+00   -0.298242432259600498E+01   -0.214384666381914198E+06
    0.260097218926118767E+01    0.551189826529428273E+00   -0.298244182315107631E+01   -0.214384658688771829E+06
    0.261190981128901356E+01    0.547991666205399408E+00   -0.298177453012021543E+01   -0.214384650804227334E+06
    0.262927617232147304E+01    0.549328722265525538E+00   -0.298221689964880587E+01   -0.214384646129063622E+06
    0.262710351288264254E+01    0.548152138140012180E+00   -0.298229468649913043E+01   -0.214384632079304283E+06
    0.262710351288264254E+01    0.548152138140012180E+00   -0.298229468649913043E+01   -0.214384632079304283E+06
    0.260709374197973398E+01    0.548078048859471978E+00   -0.298235770010206380E+01   -0.214384629148546024E+06
    0.261669842895235671E+01    0.549897402464396223E+00   -0.298190067249554369E+01   -0.214384607252721151E+06
    0.261306391864759302E+01    0.550571158596909860E+00   -0.298195939299119850E+01   -0.214384606755881367E+06
    0.261631685366737177E+01    0.549949211747604916E+00   -0.298252591591853244E+01   -0.214384600566080946E+06
    0.262415434381491774E+01    0.548333899926343404E+00   -0.298186822626516257E+01   -0.214384596272217808E+06
    0.262185202818278329E+01    0.551228667810666595E+00   -0.298227919076957670E+01   -0.214384593102451006E+06
    0.261194433018563998E+01    0.551701590990985702E+00   -0.298248916019497701E+01   -0.214384583520712797E+06
    0.261391111749945937E+01    0.547982142119099569E+00   -0.298238968373356972E+01   -0.214384579843902698E+06
    0.260716845204867376E+01    0.550581485444041840E+00   -0.298196797614717024E+01   -0.214384553702136123E+06
    0.260567742118865997E+01    0.549556335748633717E+00   -0.298247483182647510E+01   -0.214384551253129030E+06
    0.259873913838256332E+01    0.550945112080467148E+00   -0.298236085869219902E+01   -0.214384550079401350E+06
    0.260695848787206241E+01    0.551336355104240061E+00   -0.298208495830170772E+01   -0.214384542255252716E+06
    0.261240235995758407E+01    0.548163711888983829E+00   -0.298240219041898280E+01   -0.214384538933175121E+06
    0.262341967366054707E+01    0.549151253875666656E+00   -0.298242432540284064E+01   -0.214384535428881180E+06
    0.262341967366054707E+01    0.549151253875666656E+00   -0.298242432540284064E+01   -0.214384535428881180E+06
    0.261153449597880005E+01    0.548543520678422492E+00   -0.298243693747501792E+01   -0.214384535077943292E+06
    0.262760972961917449E+01    0.549462124602581481E+00   -0.298231378151868398E+01   -0.214384531217745738E+06
    0.261493438150096358E+01    0.549374674567406740E+00   -0.298250156640982489E+01   -0.214384525670601462E+06
    0.260881469951970058E+01    0.546871028358795419E+00   -0.298214344192564251E+01   -0.214384494612935581E+06
    0.261480198415976162E+01    0.548070135044203877E+00   -0.298239381954852778E+01   -0.214384492324769701E+06
    0.261240056683678823E+01    0.546618842275105821E+00   -0.298185683600526730E+01   -0.214384475548193965E+06
    0.261240056683678823E+01    0.546618842275105821E+00   -0.298185683600526730E+01   -0.214384475548193965E+06
    0.260952719153500423E+01    0.549840461578284478E+00   -0.298251097937656207E+01   -0.214384453328187607E+06
    0.260952719153500423E+01    0.549840461578284478E+00   -0.298251097937656207E+01   -0.214384453328187607E+06
    0.262196024547976814E+01    0.547013402550432404E+00   -0.298220850358172740E+01   -0.214384428352475079E+06
    0.260033338315835261E+01    0.549529094978737476E+00   -0.298197463826149578E+01   -0.214384408333487314E+06
    0.261829837252823383E+01    0.547755952935846890E+00   -0.298180189696259346E+01   -0.214384406347554876E+06
    0.262917147164843801E+01    0.548460541104325405E+00   -0.298211646668279506E+01   -0.214384396874327969E+06
    0.261253216623693429E+01    0.550030301389717313E+00   -0.298251949691711316E+01   -0.214384384256154648E+06
    0.261253216623693429E+01    0.550030301389717313E+00   -0.298251949691711316E+01   -0.214384384256154648E+06
    0.261453713219272554E+01    0.548565204175531451E+00   -0.298243354980932640E+01   -0.214384379597110994E+06
    0.261165826860546968E+01    0.547118258642541710E+00   -0.298181994184258636E+01   -0.214384378734749131E+06
    0.261370225609452955E+01    0.546569629284717751E+00   -0.298187135274130011E+01   -0.214384377879526408E+06
    0.262326651995322502E+01    0.549019016071445987E+00   -0.298191810823798598E+01   -0.214384376096074557E+06
    0.261755550560380090E+01    0.551509881562556536E+00   -0.298224419959519693E+01   -0.214384371273673169E+06
    0.262550260610456743E+01    0.547942703206038439E+00   -0.298190904679839086E+01   -0.214384367663400393E+06
    0.260502881393610553E+01    0.547254177438491030E+00   -0.298210866720499457E+01   -0.214384342365105433E+06
    0.260252058838310063E+01    0.551240524346892191E+00   -0.298214912699797852E+01   -0.214384328623816575E+06
    0.262084253457395500E+01    0.551113035504553483E+00   -0.298222978583640419E+01   -0.214384327264909400E+06
    0.260292809716741891E+01    0.550939777568741684E+00   -0.298244798756874152E+01   -0.214384318074375275E+06
    0.260331150566851122E+01    0.551652315634156953E+00   -0.298234696882617101E+01   -0.214384302624878648E+06
    0.262734077305966141E+01    0.549021096283697441E+00   -0.298204680348555540E+01   -0.214384300587467354E+06
    0.262225891325518035E+01    0.549785834395503770E+00   -0.298243489871482170E+01   -0.214384296921552770E+06
    0.261698564680958690E+01    0.551547005543167379E+00   -0.298237574790961313E+01   -0.214384295713698288E+06
    0.259782648136684502E+01    0.550091795966244135E+00   -0.298213921839735940E+01   -0.214384293987418147E+06
    0.260056363294387616E+01    0.548829296135573630E+00   -0.298196546913702631E+01   -0.214384292699112295E+06
    0.261442934053824283E+01    0.550967770730102835E+00   -0.298250145598425442E+01   -0.214384281943660550E+06
    0.261442934053824283E+01    0.550967770730102835E+00   -0.298250145598425442E+01   -0.214384281943660550E+06
    0.262644561514872921E+01    0.548089248833651621E+00   -0.298225463861959428E+01   -0.214384268589789193E+06
    0.260111137197399200E+01    0.548618512529693625E+00   -0.298195613545063676E+01   -0.214384257864916377E+06
    0.260928986959475395E+01    0.551696046191735734E+00   -0.298220833122566686E+01   -0.214384257144833187E+06
    0.261360533950509843E+01    0.546472884240369217E+00   -0.298194472451601911E+01   -0.214384256813744520E+06
    0.259928137057437292E+01    0.550764601673305099E+00   -0.298232767374312235E+01   -0.214384252408839588E+06
    0.259928137057437292E+01    0.550764601673305099E+00   -0.298232767374312235E+01   -0.214384252408839588E+06
    0.260482601531481350E+01    0.550598925094281877E+00   -0.298247388571279348E+01   -0.214384248164540448E+06
    0.261074656132945959E+01    0.547671705812241560E+00   -0.298181737446382389E+01   -0.214384236801821942E+06
    0.262020848492350300E+01    0.547695708857027563E+00   -0.298230826150784578E+01   -0.214384217705733521E+06
    0.259967220655026221E+01    0.548474310816577493E+00   -0.298213932556841588E+01   -0.214384217202053755E+06
    0.259967220655026221E+01    0.548474310816577493E+00   -0.298213932556841588E+01   -0.214384217202053755E+06
    0.262670667034184335E+01    0.547365230288711757E+00   -0.298202443420066476E+01   -0.214384208935725328E+06
    0.260578578758404111E+01    0.551144021310031484E+00   -0.298209856576342025E+01   -0.214384204654511530E+06
    0.260578578758404111E+01    0.551144021310031484E+00   -0.298209856576342025E+01   -0.214384204654511530E+06
    0.260037431848754563E+01    0.550557148775559835E+00   -0.298210022391998875E+01   -0.214384202695856657E+06
    0.260573352058533558E+01    0.551451790754630022E+00   -0.298216834371550599E+01   -0.214384201411999646E+06
    0.260728213209578019E+01    0.551515850112997197E+00   -0.298244646634741839E+01   -0.214384200568029832E+06
    0.261806950011132189E+01    0.547506854055866965E+00   -0.298182152124015554E+01   -0.214384196748546645E+06
    0.261806950011132189E+01    0.547506854055866965E+00   -0.298182152124015554E+01   -0.214384196748546645E+06
    0.260852311409564441E+01    0.549268390285386321E+00   -0.298187161535463829E+01   -0.214384194294033688E+06
    0.261365242972243683E+01    0.551623086973356491E+00   -0.298223308800820730E+01   -0.214384188438777142E+06
    0.261365242972243683E+01    0.551623086973356491E+00   -0.298223308800820730E+01   -0.214384188438777142E+06
    0.261742145458767261E+01    0.547563653005863959E+00   -0.298230167149554548E+01   -0.214384186658919789E+06
    0.259782652687294835E+01    0.549779787673956521E+00   -0.298219877093518582E+01   -0.214384186495100148E+06
    0.259782652687294835E+01    0.549779787673956521E+00   -0.298219877093518582E+01   -0.214384186495100148E+06
    0.260775465644073012E+01    0.551233505847372296E+00   -0.298210538682723936E+01   -0.214384181140197994E+06
    0.260170371452212468E+01    0.548791450153503280E+00   -0.298229888205989369E+01   -0.214384176577350328E+06
    0.262779620070225750E+01    0.548037538067139174E+00   -0.298204956813003275E+01   -0.214384168968654238E+06
    0.261161775337247981E+01    0.551342107418023697E+00   -0.298213225119740555E+01   -0.214384155342482467E+06
    0.261026911754468971E+01    0.547976048622358936E+00   -0.298182482577261476E+01   -0.214384154115617741E+06
    0.262690911899471669E+01    0.547616422298896621E+00   -0.298202011616188578E+01   -0.214384142030149873E+06
    0.260983995285080805E+01    0.550039014764786782E+00   -0.298249361574152605E+01   -0.214384140534442617E+06
    0.260247795455658348E+01    0.547886098128112731E+00   -0.298199127343003978E+01   -0.214384137934199185E+06
    0.259985779054177790E+01    0.550781292617629092E+00   -0.298232433874377190E+01   -0.214384135374870501E+06
    0.259985779054177790E+01    0.550781292617629092E+00   -0.298232433874377190E+01   -0.214384135374870501E+06
    0.261075565538408139E+01    0.548378647752132631E+00   -0.298238288126463935E+01   -0.214384128439291992E+06
    0.261547176585625074E+01    0.546498414357669104E+00   -0.298196413991600240E+01   -0.214384128111909638E+06
    0.260571362800909689E+01    0.551221782694734541E+00   -0.298212623210511518E+01   -0.214384125325637782E+06
    0.260126178503854977E+01    0.551067765801788734E+00   -0.298235507641361064E+01   -0.214384122045593540E+06
    0.260186683220246096E+01    0.551100827760167777E+00   -0.298237345358110995E+01   -0.214384113456880179E+06
    0.262629527554176745E+01    0.547405336040713952E+00   -0.298209546997311037E+01   -0.214384109973184735E+06
    0.262629527554176745E+01    0.547405336040713952E+00   -0.298209546997311037E+01   -0.214384109973184735E+06
    0.261152522933903519E+01    0.551318276662864704E+00   -0.298246709733219451E+01   -0.214384106756041147E+06
    0.261498666507781774E+01    0.551025628910691290E+00   -0.298247236843649155E+01   -0.214384103175585624E+06
    0.260999270328616539E+01    0.547728082549499895E+00   -0.298183808990587007E+01   -0.214384079333383357E+06
    0.260999270328616539E+01    0.547728082549499895E+00   -0.298183808990587007E+01   -0.214384079333383357E+06
    0.261754549636814060E+01    0.549498577009911116E+00   -0.298246000470219164E+01   -0.214384070332586212E+06
    0.261754549636814060E+01    0.549498577009911116E+00   -0.298246000470219164E+01   -0.214384070332586212E+06
    0.262167883149546244E+01    0.550583715102001992E+00   -0.298214576609433424E+01   -0.214384067562620505E+06
    0.261180011592821293E+01    0.546920830915381462E+00   -0.298213627350927579E+01   -0.214384058381664858E+06
    0.261406648575231237E+01    0.549050843934911881E+00   -0.298244547294646845E+01   -0.214384057218202099E+06
    0.261898572169370691E+01    0.549307868737292426E+00   -0.298243980241090734E+01   -0.214384055991921137E+06
    0.261065784778519738E+01    0.551509443226125495E+00   -0.298243359805552233E+01   -0.214384055447450228E+06
    0.260184659081628045E+01    0.549726705796230175E+00   -0.298237360631458159E+01   -0.214384052667653479E+06
    0.260793467174449489E+01    0.550123649307075913E+00   -0.298247727443362765E+01   -0.214384052006457991E+06
    0.259848050829777355E+01    0.549855977776784188E+00   -0.298220529203808882E+01   -0.214384031523763057E+06
    0.259848050829777355E+01    0.549855977776784188E+00   -0.298220529203808882E+01   -0.214384031523763057E+06
    0.260173452353507351E+01    0.548687014825992914E+00   -0.298197125807615571E+01   -0.214384027059013082E+06
    0.260395895278397482E+01    0.547854141625178204E+00   -0.298217790884598166E+01   -0.214384023347189563E+06
    0.260395895278397482E+01    0.547854141625178204E+00   -0.298217790884598166E+01   -0.214384023347189563E+06
    0.261662441721861994E+01    0.547692639606832010E+00   -0.298230426764435963E+01   -0.214384019692374975E+06
    0.260627849456024574E+01    0.548190385664888979E+00   -0.298229893643425337E+01   -0.214384014204907493E+06
    0.261712053606611050E+01    0.549806303894259552E+00   -0.298194535917536241E+01   -0.214384011521331617E+06
    0.259939581149077492E+01    0.549709421022677724E+00   -0.298208507403714851E+01   -0.214384006330450560E+06
    0.261202839760888095E+01    0.550130650088581752E+00   -0.298248905844966750E+01   -0.214384005562942708E+06
    0.260848676195656948E+01    0.551283023369564362E+00   -0.298213970404782858E+01   -0.214383996615979093E+06
    0.262167990970299947E+01    0.550583103092508130E+00   -0.298236284693406484E+01   -0.214383992963040946E+06
    0.262167990970299947E+01    0.550583103092508130E+00   -0.298236284693406484E+01   -0.214383992963040946E+06
    0.262111333450493067E+01    0.548943155975322949E+00   -0.298191640084613629E+01   -0.214383983159076044E+06
    0.261314721027194885E+01    0.546720980074150265E+00   -0.298205595762433573E+01   -0.214383972078858787E+06
    0.259972762102959187E+01    0.550466619633690923E+00   -0.298217528216634697E+01   -0.214383962156873924E+06
    0.260660594079328689E+01    0.547257555024946996E+00   -0.298206198714971205E+01   -0.214383958815520164E+06
    0.260499034438118882E+01    0.549800441633040093E+00   -0.298242459326123699E+01   -0.214383953670535062E+06
    0.262713324015764549E+01    0.548291399259325352E+00   -0.298207931233750445E+01   -0.214383945205507800E+06
    0.262713324015764549E+01    0.548291399259325352E+00   -0.298207931233750445E+01   -0.214383945205507800E+06
    0.260232196474610422E+01    0.549554032645463431E+00   -0.298198874323140339E+01   -0.214383942668708012E+06
    0.261994917248433179E+01    0.546724961564185263E+00   -0.298197403046647880E+01   -0.214383937934257614E+06
    0.262556799852650125E+01    0.547530005033686540E+00   -0.298211385268923301E+01   -0.214383922712529049E+06
    0.259948520597733168E+01    0.549449024612759462E+00   -0.298222883031541341E+01   -0.214383904194593488E+06
    0.260016180537438046E+01    0.549407146430488047E+00   -0.298226510110330301E+01   -0.214383892783697665E+06
    0.260016180537438046E+01    0.549407146430488047E+00   -0.298226510110330301E+01   -0.214383892783697665E+06
    0.259953612586499094E+01    0.550148669822206338E+00   -0.298216166680597228E+01   -0.214383882539556740E+06
    0.260863292657447499E+01    0.548206932001414460E+00   -0.298186471889646398E+01   -0.214383881675213110E+06
    0.260668032868664534E+01    0.547740138647855201E+00   -0.298221044605823726E+01   -0.214383880901758443E+06
    0.261714723591358345E+01    0.547489687308573836E+00   -0.298225712520589115E+01   -0.214383878886355669E+06
    0.262035414364071695E+01    0.550554082511531706E+00   -0.298213052800989198E+01   -0.214383872992469784E+06
    0.262035414364071695E+01    0.550554082511531706E+00   -0.298213052800989198E+01   -0.214383872992469784E+06
    0.260056277418209714E+01    0.548655198517614462E+00   -0.298213271618994469E+01   -0.214383872102048161E+06
    0.260994198200116134E+01    0.547265555207324450E+00   -0.298216658525528944E+01   -0.214383870486759610E+06
    0.260910927343740795E+01    0.549699717014909717E+00   -0.298245096320489855E+01   -0.214383855167148227E+06
    0.261669076758155228E+01    0.551285892152775792E+00   -0.298228962607312420E+01   -0.214383853483283281E+06
    0.260162158727926096E+01    0.548319722295959711E+00   -0.298209349169496951E+01   -0.214383847994478623E+06
    0.261658289053177162E+01    0.550697419397538579E+00   -0.298244393698609356E+01   -0.214383847637339350E+06
    0.261658289053177162E+01    0.550697419397538579E+00   -0.298244393698609356E+01   -0.214383847637339350E+06
    0.260738421866426595E+01    0.550454951310191731E+00   -0.298202057573188695E+01   -0.214383844292555499E+06
    0.262439408830778165E+01    0.547685078676331982E+00   -0.298196536647247967E+01   -0.214383844287450454E+06
    0.261399913299126929E+01    0.551434742840238967E+00   -0.298226558556754817E+01   -0.214383837325451546E+06
    0.262280450977580459E+01    0.548585023285854123E+00   -0.298194065407732678E+01   -0.214383825069562852E+06
    0.261857735552962145E+01    0.547101973907358707E+00   -0.298216805543255470E+01   -0.214383824755620328E+06
    0.261996908945531803E+01    0.549799529787515673E+00   -0.298241824608263206E+01   -0.214383823091127677E+06
    0.260013828932819369E+01    0.549282889046063039E+00   -0.298222787470034012E+01   -0.214383818120659387E+06
    0.260013828932819369E+01    0.549282889046063039E+00   -0.298222787470034012E+01   -0.214383818120659387E+06
    0.260296965451576856E+01    0.548522416324826123E+00   -0.298224260818924902E+01   -0.214383818028878770E+06
    0.261559247827019181E+01    0.551080860626594782E+00   -0.298241359832642106E+01   -0.214383812007927132E+06
    0.261410440730309368E+01    0.547338555800874316E+00   -0.298186726080501430E+01   -0.214383791835457261E+06
    0.262274762434401065E+01    0.548872373581916095E+00   -0.298234002947145482E+01   -0.214383791145949246E+06
    0.262255124291057307E+01    0.550129041257550577E+00   -0.298212594357240901E+01   -0.214383787612344400E+06
    0.260844406871576506E+01    0.550715048499475612E+00   -0.298205972139585240E+01   -0.214383782732771564E+06
    0.260844406871576506E+01    0.550715048499475612E+00   -0.298205972139585240E+01   -0.214383782732771564E+06
    0.262295872232939775E+01    0.549512920981355624E+00   -0.298203348727103545E+01   -0.214383782182573690E+06
    0.260231651388025043E+01    0.550814048994998195E+00   -0.298217598574526299E+01   -0.214383774124652176E+06
    0.260231651388025043E+01    0.550814048994998195E+00   -0.298217598574526299E+01   -0.214383774124652176E+06
    0.260346038516631451E+01    0.550202184550061313E+00   -0.298204626943214324E+01   -0.214383765371827147E+06
    0.260640544100534743E+01    0.547474369092873725E+00   -0.298208157451430989E+01   -0.214383755070943356E+06
    0.262251949767830084E+01    0.548860272080183842E+00   -0.298196211403729983E+01   -0.214383748966231593E+06
    0.262251949767830084E+01    0.548860272080183842E+00   -0.298196211403729983E+01   -0.214383748966231593E+06
    0.260606156776932396E+01    0.551396895072374105E+00   -0.298229979354951968E+01   -0.214383748635593394E+06
    0.262561837883055471E+01    0.548876190718801671E+00   -0.298206923587621153E+01   -0.214383741034542065E+06
    0.262551407946175619E+01    0.548054835806790042E+00   -0.298217211644931401E+01   -0.214383739524752018E+06
    0.261443660076972417E+01    0.549349646518827894E+00   -0.298191144651154127E+01   -0.214383737165778759E+06
    0.262262187687366533E+01    0.550036329342393882E+00   -0.298211896382484198E+01   -0.214383736811089300E+06
    0.260399065866791624E+01    0.551197738611129306E+00   -0.298229908640293528E+01   -0.214383736436739739E+06
    0.261420045836048454E+01    0.549472661541163254E+00   -0.298192108310611292E+01   -0.214383731950234098E+06
    0.262631350244405048E+01    0.548536002969522429E+00   -0.298215852927969660E+01   -0.214383730380371300E+06
    0.262631350244405048E+01    0.548536002969522429E+00   -0.298215852927969660E+01   -0.214383730380371300E+06
    0.260343013296831316E+01    0.549351671204186154E+00   -0.298234103671546436E+01   -0.214383726292984909E+06
    0.260692048035114921E+01    0.547947208454140466E+00   -0.298191489105176233E+01   -0.214383722450360190E+06
    0.261587195317324195E+01    0.548265178737466274E+00   -0.298186339251430477E+01   -0.214383712485922268E+06
    0.260334706200187549E+01    0.550895129972784670E+00   -0.298217946287862690E+01   -0.214383700580491917E+06
    0.261157235217356343E+01    0.550908080852457016E+00   -0.298244238283891239E+01   -0.214383694494335912E+06
    0.261157235217356343E+01    0.550908080852457016E+00   -0.298244238283891239E+01   -0.214383694494335912E+06
    0.261695157371717357E+01    0.547211954326934924E+00   -0.298189471136298412E+01   -0.214383694394163933E+06
    0.260060074544271291E+01    0.549765592180956997E+00   -0.298210694002326537E+01   -0.214383692854946421E+06
    0.261613174339481835E+01    0.546960942651100179E+00   -0.298210497095003824E+01   -0.214383684600175475E+06
    0.260472054453957469E+01    0.547822776208655937E+00   -0.298209940322502165E+01   -0.214383680200536473E+06
    0.260472054453957469E+01    0.547822776208655937E+00   -0.298209940322502165E+01   -0.214383680200536473E+06
    0.261293913233471731E+01    0.549668580350958558E+00   -0.298244444987495561E+01   -0.214383670797642815E+06
    0.262390151697776730E+01    0.549725223045539391E+00   -0.298213304547230296E+01   -0.214383659589865594E+06
    0.261174925883434650E+01    0.547009008185488144E+00   -0.298200177846552661E+01   -0.214383646965341817E+06
    0.262407959803880919E+01    0.548665283571436846E+00   -0.298227246527916767E+01   -0.214383643347338802E+06
    0.262407959803880919E+01    0.548665283571436846E+00   -0.298227246527916767E+01   -0.214383643347338802E+06
    0.262464054051201234E+01    0.549241061185650303E+00   -0.298226609711625423E+01   -0.214383636346211162E+06
    0.262464054051201234E+01    0.549241061185650303E+00   -0.298226609711625423E+01   -0.214383636346211162E+06
    0.261219190339101415E+01    0.551147813282380716E+00   -0.298217424881628146E+01   -0.214383635862203373E+06
    0.261219190339101415E+01    0.551147813282380716E+00   -0.298217424881628146E+01   -0.214383635862203373E+06
    0.260778940271074733E+01    0.551252660945809270E+00   -0.298237263445437817E+01   -0.214383633604970819E+06
    0.260635291270079428E+01    0.549327987028544795E+00   -0.298194769509082347E+01   -0.214383624878319504E+06
    0.261100104629508323E+01    0.547546245028778467E+00   -0.298189624907161877E+01   -0.214383624179833860E+06
    0.261100104629508323E+01    0.547546245028778467E+00   -0.298189624907161877E+01   -0.214383624179833860E+06
    0.260699212237751254E+01    0.547521363743768252E+00   -0.298200492652288585E+01   -0.214383622379438078E+06
    0.261725700511229631E+01    0.550793028429323428E+00   -0.298215659472742001E+01   -0.214383622080659348E+06
    0.262583830610038937E+01    0.548560437895630137E+00   -0.298214516587525180E+01   -0.214383620276790403E+06
    0.261818378006928754E+01    0.547302333254911066E+00   -0.298217817606040025E+01   -0.214383608322493616E+06
    0.261370062643854828E+01    0.547550148364178813E+00   -0.298222889921878087E+01   -0.214383607287169405E+06
    0.260828199682841833E+01    0.551264684417332784E+00   -0.298236345401708869E+01   -0.214383595360618085E+06
    0.261644702239073279E+01    0.550971373403616127E+00   -0.298220004647823833E+01   -0.214383592094726657E+06
    0.260618938150534118E+01    0.547643134881006577E+00   -0.298203988004997633E+01   -0.214383587768572994E+06
    0.260285987249888651E+01    0.550384010036257920E+00   -0.298234313739676704E+01   -0.214383587471881910E+06
    0.261001795090244482E+01    0.547545846358309052E+00   -0.298218543528904245E+01   -0.214383581205581315E+06
    0.262283687479860816E+01    0.550020039163080954E+00   -0.298227834751687615E+01   -0.214383579185555514E+06
    0.261393477804652541E+01    0.551112271882582938E+00   -0.298237417602618837E+01   -0.214383554105109215E+06
    0.261393477804652541E+01    0.551112271882582938E+00   -0.298237417602618837E+01   -0.214383554105109215E+06
    0.262399474738745919E+01    0.547914178421888498E+00   -0.298216941260193025E+01   -0.214383553919666301E+06
    0.260713503095644716E+01    0.549506724702194305E+00   -0.298239250177124848E+01   -0.214383553103178419E+06
    0.262499415723480922E+01    0.549145598548999359E+00   -0.298213469191952729E+01   -0.214383547467756871E+06
    0.261686096715084959E+01    0.547037892940414827E+00   -0.298195941365181483E+01   -0.214383545396842790E+06
    0.261686096715084959E+01    0.547037892940414827E+00   -0.298195941365181483E+01   -0.214383545396842790E+06
    0.262105953229494082E+01    0.548771113458757842E+00   -0.298195602018653627E+01   -0.214383530301663879E+06
    0.262105953229494082E+01    0.548771113458757842E+00   -0.298195602018653627E+01   -0.214383530301663879E+06
    0.262175144746120736E+01    0.550023265100061276E+00   -0.298232239339901106E+01   -0.214383523981852632E+06
    0.261817893757342990E+01    0.547355859942384670E+00   -0.298217399947743544E+01   -0.214383521166917810E+06
    0.260689352772505778E+01    0.551120224485631915E+00   -0.298235207367581534E+01   -0.214383514647313510E+06
    0.262449560749059740E+01    0.548284092633870790E+00   -0.298204112606925786E+01   -0.214383504857349297E+06
    0.261649686487270783E+01    0.550558180558233246E+00   -0.298210778547770161E+01   -0.214383500709252286E+06
    0.260735806575072271E+01    0.550131166663874072E+00   -0.298202133253590151E+01   -0.214383499388129479E+06
    0.261623583036848295E+01    0.551019911445391530E+00   -0.298231074541194063E+01   -0.214383499163750210E+06
    0.261856560125826565E+01    0.549051732012766025E+00   -0.298194326073559468E+01   -0.214383496238665568E+06
    0.260903033722912348E+01    0.551144514343433922E+00   -0.298220122522574549E+01   -0.214383495032999635E+06
    0.260308360680271456E+01    0.549276520343666363E+00   -0.298228823017427080E+01   -0.214383493174751842E+06
    0.260308360680271456E+01    0.549276520343666363E+00   -0.298228823017427080E+01   -0.214383493174751842E+06
    0.261737669703865761E+01    0.550095261337523067E+00   -0.298240904497242409E+01   -0.214383487508203747E+06
    0.260333003176340583E+01    0.548347350738216832E+00   -0.298209928092355048E+01   -0.214383486807806737E+06
    0.260333003176340583E+01    0.548347350738216832E+00   -0.298209928092355048E+01   -0.214383486807806737E+06
    0.262152022070760804E+01    0.549972835971904384E+00   -0.298211825290715549E+01   -0.214383480968252930E+06
    0.261256538885489897E+01    0.547115245567196373E+00   -0.298200978882701273E+01   -0.214383471207520459E+06
    0.261256538885489897E+01    0.547115245567196373E+00   -0.298200978882701273E+01   -0.214383471207520459E+06
    0.261851213846001851E+01    0.547814859065936077E+00   -0.298224617311974471E+01   -0.214383459019822592E+06
    0.261248567075535609E+01    0.550768915842531959E+00   -0.298241398866392604E+01   -0.214383457054687169E+06
    0.261190135022531944E+01    0.547732233351003073E+00   -0.298190152371548045E+01   -0.214383456987991260E+06
    0.261190135022531944E+01    0.547732233351003073E+00   -0.298190152371548045E+01   -0.214383456987991260E+06
    0.260715249627954115E+01    0.550142637804077683E+00   -0.298240516101539788E+01   -0.214383455256039393E+06
    0.260715249627954115E+01    0.550142637804077683E+00   -0.298240516101539788E+01   -0.214383455256039393E+06
    0.261480917653611211E+01    0.547091013938552528E+00   -0.298198179130887153E+01   -0.214383446950585145E+06
    0.262255702532206803E+01    0.547609756552788207E+00   -0.298201372408383580E+01   -0.214383439799773187E+06
    0.262255702532206803E+01    0.547609756552788207E+00   -0.298201372408383580E+01   -0.214383439799773187E+06
    0.260547751401014072E+01    0.550900447424879203E+00   -0.298233584485039760E+01   -0.214383429918235401E+06
    0.262359990373433938E+01    0.549598950586284607E+00   -0.298217739209999477E+01   -0.214383428018326056E+06
    0.261518994136412264E+01    0.548274183980927421E+00   -0.298189357143183820E+01   -0.214383415223766351E+06
    0.261784243622972657E+01    0.549921793001097670E+00   -0.298239543329529466E+01   -0.214383413498509384E+06
    0.260850212290134476E+01    0.548890919912973896E+00   -0.298193008338891241E+01   -0.214383408184518019E+06
    0.260430500281977162E+01    0.550352880805240363E+00   -0.298234792127555792E+01   -0.214383405050793634E+06
    0.260887787662771764E+01    0.549044969826527951E+00   -0.298236033814192947E+01   -0.214383399982145696E+06
    0.262087800987888020E+01    0.549272851908880755E+00   -0.298201210175044329E+01   -0.214383395258792996E+06
    0.262228876348827633E+01    0.547611121528548406E+00   -0.298211726800703625E+01   -0.214383393440106825E+06
    0.261639919850728297E+01    0.550160582895808825E+00   -0.298240554736308328E+01   -0.214383392872243188E+06
    0.260600127414337956E+01    0.550966481534506225E+00   -0.298232169242192802E+01   -0.214383392456748261E+06
    0.262398421325787679E+01    0.548051099111848794E+00   -0.298207230495675946E+01   -0.214383386541208893E+06
    0.262398421325787679E+01    0.548051099111848794E+00   -0.298207230495675946E+01   -0.214383386541208893E+06
    0.261953799174053614E+01    0.547288101923732340E+00   -0.298199354694848040E+01   -0.214383378343795426E+06
    0.261299647535823976E+01    0.550269703782227948E+00   -0.298204257950359564E+01   -0.214383377343769011E+06
    0.262123405651515728E+01    0.549819087988914101E+00   -0.298210315447996166E+01   -0.214383362808157428E+06
    0.261753090528920440E+01    0.547958111734066278E+00   -0.298191131721777980E+01   -0.214383362251424085E+06
    0.260292872890777138E+01    0.548822111752972686E+00   -0.298207322662186280E+01   -0.214383359262381855E+06
    0.261745644137318978E+01    0.550680288841825072E+00   -0.298233022824509630E+01   -0.214383354044449457E+06
    0.261870420360267930E+01    0.548256389307615666E+00   -0.298192460179624730E+01   -0.214383353412015742E+06
    0.260426311948405687E+01    0.550725482292102719E+00   -0.298222726618431855E+01   -0.214383341197854665E+06
    0.260426311948405687E+01    0.550725482292102719E+00   -0.298222726618431855E+01   -0.214383341197854665E+06
    0.261927014779308998E+01    0.547535365535231744E+00   -0.298195516489592416E+01   -0.214383336403342022E+06
    0.262317752684023020E+01    0.548585018866406537E+00   -0.298203293085398347E+01   -0.214383336193596217E+06
    0.262317752684023020E+01    0.548585018866406537E+00   -0.298203293085398347E+01   -0.214383336193596217E+06
    0.261682148727335040E+01    0.549339730982085550E+00   -0.298196705364297587E+01   -0.214383334845254605E+06
    0.260825273707007010E+01    0.547798899091325286E+00   -0.298197444323715555E+01   -0.214383333805253700E+06
    0.260957595508158002E+01    0.547464609284328163E+00   -0.298204847075981716E+01   -0.214383332573826192E+06
    0.260957595508158002E+01    0.547464609284328163E+00   -0.298204847075981716E+01   -0.214383332573826192E+06
    0.260397233931967698E+01    0.550669678509389415E+00   -0.298226450782305053E+01   -0.214383330696703371E+06
    0.260465604185338684E+01    0.549214191692487974E+00   -0.298229650248006184E+01   -0.214383319651043217E+06
    0.260838138377969564E+01    0.550145869983448610E+00   -0.298203941838393227E+01   -0.214383314329660265E+06
    0.260280475711569803E+01    0.549221118777044270E+00   -0.298222801755104028E+01   -0.214383313740355225E+06
    0.260280475711569803E+01    0.549221118777044270E+00   -0.298222801755104028E+01   -0.214383313740355225E+06
    0.261770603135605828E+01    0.548442532205811739E+00   -0.298231003483497226E+01   -0.214383309266748460E+06
    0.260332613356552667E+01    0.548654964283414093E+00   -0.298210886569921563E+01   -0.214383307963228726E+06
    0.260701048951768710E+01    0.547847709312105136E+00   -0.298210407166954017E+01   -0.214383306095535227E+06
    0.260951729410624012E+01    0.550923048624867406E+00   -0.298236432554835451E+01   -0.214383302857353265E+06
    0.260951729410624012E+01    0.550923048624867406E+00   -0.298236432554835451E+01   -0.214383302857353265E+06
    0.261569899905283254E+01    0.547899186258822501E+00   -0.298191081485570875E+01   -0.214383302060555172E+06
    0.261412622484838231E+01    0.550639077615862282E+00   -0.298212869233131217E+01   -0.214383296020675451E+06
    0.261412622484838231E+01    0.550639077615862282E+00   -0.298212869233131217E+01   -0.214383296020675451E+06
    0.261900311015345677E+01    0.549549240408878759E+00   -0.298236145627251181E+01   -0.214383293923839519E+06
    0.261497286547947505E+01    0.547764409510318795E+00   -0.298191583678666650E+01   -0.214383290519042406E+06
    0.261497286547947505E+01    0.547764409510318795E+00   -0.298191583678666650E+01   -0.214383290519042406E+06
    0.260451509029130701E+01    0.550635217443389502E+00   -0.298220001827850112E+01   -0.214383287030180363E+06
    0.261920213692394110E+01    0.547606030031441704E+00   -0.298195855068915883E+01   -0.214383286337901343E+06
    0.262126985099695498E+01    0.547683382317774914E+00   -0.298214034468243527E+01   -0.214383281249308930E+06
    0.262221774327268742E+01    0.549804470993822236E+00   -0.298220222982244421E+01   -0.214383277736565797E+06
    0.261346977866306407E+01    0.550638204932838549E+00   -0.298238723248659543E+01   -0.214383270388985198E+06
    0.260896893860306234E+01    0.550365634675354487E+00   -0.298207259085806342E+01   -0.214383269435336202E+06
    0.261024693442751587E+01    0.548587798372054181E+00   -0.298192551023219776E+01   -0.214383266394662613E+06
    0.260494908712341910E+01    0.548748039924626729E+00   -0.298223827607487690E+01   -0.214383266026964557E+06
    0.261959141493604886E+01    0.548452002650517745E+00   -0.298195364808494379E+01   -0.214383262337091030E+06
    0.261959141493604886E+01    0.548452002650517745E+00   -0.298195364808494379E+01   -0.214383262337091030E+06
    0.261118048844224049E+01    0.551063998968675861E+00   -0.298226765294615737E+01   -0.214383260096520418E+06
    0.260258860134931114E+01    0.549678309568889967E+00   -0.298223754335640656E+01   -0.214383258707925415E+06
    0.260242506264753626E+01    0.549568284306032884E+00   -0.298213558846923066E+01   -0.214383255302252364E+06
    0.261405936386267435E+01    0.547569195801031694E+00   -0.298193979648749696E+01   -0.214383243287420337E+06
    0.261108513891626037E+01    0.550128602533776601E+00   -0.298203731519010118E+01   -0.214383241073405516E+06
    0.261090639059811114E+01    0.550958296609727505E+00   -0.298221187664339116E+01   -0.214383231981669844E+06
    0.261666084032775847E+01    0.549344563608698211E+00   -0.298237163238621994E+01   -0.214383228470426955E+06
    0.262189456641431029E+01    0.549696006065290232E+00   -0.298214844708118676E+01   -0.214383226781352016E+06
    0.261697328972525067E+01    0.550183420688900804E+00   -0.298208973939276856E+01   -0.214383224653073616E+06
    0.262366136542083561E+01    0.548732451688523803E+00   -0.298216728618025373E+01   -0.214383220680914528E+06
    0.261445911056713731E+01    0.547729827609138686E+00   -0.298192974914829856E+01   -0.214383218849367811E+06
    0.260621976140967337E+01    0.549323172148916461E+00   -0.298200211079432576E+01   -0.214383218543319264E+06
    0.261600430832751218E+01    0.549351016642979584E+00   -0.298197519937435862E+01   -0.214383217484662513E+06
    0.260814441449444923E+01    0.550623774246874143E+00   -0.298236713035597667E+01   -0.214383216142554214E+06
    0.261271728624882238E+01    0.547621294608526266E+00   -0.298216877184293372E+01   -0.214383212752829510E+06
    0.260718018900902937E+01    0.550881471176935089E+00   -0.298229777600446289E+01   -0.214383206803908834E+06
    0.260865851019728456E+01    0.550635681010291145E+00   -0.298236967504680894E+01   -0.214383206764598290E+06
    0.261817107304468211E+01    0.550228099122870629E+00   -0.298212906788153820E+01   -0.214383200268237473E+06
    0.260816596682528479E+01    0.550076965343740731E+00   -0.298237980316255546E+01   -0.214383198961889750E+06
    0.261699221389358572E+01    0.550646829278189198E+00   -0.298228561390230684E+01   -0.214383196503459709E+06
    0.260403808598409059E+01    0.549751655989193289E+00   -0.298229173127365277E+01   -0.214383195619389036E+06
    0.261569803680295809E+01    0.547636802892744523E+00   -0.298194327146159432E+01   -0.214383191995529138E+06
    0.261569803680295809E+01    0.547636802892744523E+00   -0.298194327146159432E+01   -0.214383191995529138E+06
    0.260503412157581149E+01    0.549852871470681515E+00   -0.298207192974449198E+01   -0.214383179438717896E+06
    0.260503412157581149E+01    0.549852871470681515E+00   -0.298207192974449198E+01   -0.214383179438717896E+06
    0.262038005108633287E+01    0.549649251993214794E+00   -0.298208643056611589E+01   -0.214383173908527941E+06
    0.260588222314316065E+01    0.548741931295754548E+00   -0.298224570507023934E+01   -0.214383170373856934E+06
    0.261623086613865308E+01    0.549407202474255563E+00   -0.298236950195890049E+01   -0.214383168466170551E+06
    0.260743962177322697E+01    0.548812580910087555E+00   -0.298197301330014852E+01   -0.214383165817853442E+06
    0.261121774195366152E+01    0.549815307971214917E+00   -0.298239059485106317E+01   -0.214383165363414184E+06
    0.261121774195366152E+01    0.549815307971214917E+00   -0.298239059485106317E+01   -0.214383165363414184E+06
    0.261065866865366702E+01    0.550080600917945972E+00   -0.298239185115236927E+01   -0.214383161033428885E+06
    0.260324479064750669E+01    0.549830812668102742E+00   -0.298214189783382366E+01   -0.214383158844318299E+06
    0.261062944230237104E+01    0.550190595210767963E+00   -0.298239088081751147E+01   -0.214383157458341040E+06
    0.260993040993638026E+01    0.547744368402354964E+00   -0.298213850623234178E+01   -0.214383156912403123E+06
    0.262305415957342536E+01    0.548545996026389426E+00   -0.298208637760713025E+01   -0.214383155480317888E+06
    0.261896027026461553E+01    0.547557160272654220E+00   -0.298212160723190678E+01   -0.214383150995968230E+06
    0.261324858152423412E+01    0.548362623513693026E+00   -0.298192591700977028E+01   -0.214383148880051333E+06
    0.261324858152423412E+01    0.548362623513693026E+00   -0.298192591700977028E+01   -0.214383148880051333E+06
    0.261281858977669224E+01    0.548217920953602111E+00   -0.298192708645741300E+01   -0.214383147273106384E+06
    0.261844712386357914E+01    0.548469378587596701E+00   -0.298195639795453138E+01   -0.214383141289267020E+06
    0.261844712386357914E+01    0.548469378587596701E+00   -0.298195639795453138E+01   -0.214383141289267020E+06
    0.260423924185421019E+01    0.549112081001696839E+00   -0.298223176342982521E+01   -0.214383134571896459E+06
    0.261295596853709844E+01    0.548171105862701902E+00   -0.298192951048260069E+01   -0.214383131968558067E+06
    0.260693780700638200E+01    0.550631203328165730E+00   -0.298217556275260254E+01   -0.214383128350099607E+06
    0.261098988212089633E+01    0.549717182911635627E+00   -0.298200509303401962E+01   -0.214383127753525128E+06
    0.261993747163516311E+01    0.550129943087698692E+00   -0.298223912833990301E+01   -0.214383127104927844E+06
    0.262253403841740296E+01    0.548277342795099987E+00   -0.298215362388500926E+01   -0.214383121755595173E+06
    0.260422745199554218E+01    0.549299297450673518E+00   -0.298206904846766996E+01   -0.214383120917067514E+06
    0.261740133844997791E+01    0.548191894713170091E+00   -0.298194478290555631E+01   -0.214383118591691949E+06
    0.260362783478021242E+01    0.549783013506546236E+00   -0.298213203401591764E+01   -0.214383111010652385E+06
    0.261886412775995403E+01    0.549902638642156050E+00   -0.298232795668603057E+01   -0.214383109572229558E+06
    0.260983306414046456E+01    0.550359103427298213E+00   -0.298237573906342357E+01   -0.214383108671090275E+06
    0.262218016095093631E+01    0.549396743977637936E+00   -0.298221954945084988E+01   -0.214383107457756996E+06
    0.262060990245586778E+01    0.548664553667088883E+00   -0.298200669853140932E+01   -0.214383107225637097E+06
    0.261026840130230520E+01    0.550898875501326990E+00   -0.298228656064670039E+01   -0.214383100734793494E+06
    0.261021825772128757E+01    0.550789707980220422E+00   -0.298233313087664964E+01   -0.214383100254544115E+06
    0.261328573714082291E+01    0.550798125755745160E+00   -0.298222405170765903E+01   -0.214383094314629503E+06
    0.262070521220558961E+01    0.548189529545457965E+00   -0.298220406512570957E+01   -0.214383089190969622E+06
    0.260876793014136021E+01    0.550126686542679266E+00   -0.298206821107539621E+01   -0.214383085312624316E+06
    0.260613819575101502E+01    0.550639795534767051E+00   -0.298224810505553295E+01   -0.214383084434086020E+06
    0.261854657668630431E+01    0.547603110746493038E+00   -0.298200719470794695E+01   -0.214383083461553324E+06
    0.261015064341751701E+01    0.550840400634296290E+00   -0.298222605341350588E+01   -0.214383079115674831E+06
    0.261856474608283873E+01    0.548967157615836476E+00   -0.298231266717706367E+01   -0.214383072542841372E+06
    0.261601799823784509E+01    0.547430633238044861E+00   -0.298204475827904236E+01   -0.214383072022243257E+06
    0.260660104804555148E+01    0.548390739601003707E+00   -0.298217897714425728E+01   -0.214383066231395467E+06
    0.260681503630239719E+01    0.550244619596604978E+00   -0.298211227568815573E+01   -0.214383063177506730E+06
    0.260656585310603139E+01    0.549911147004403245E+00   -0.298207143477686465E+01   -0.214383058070155705E+06
    0.260408053221114599E+01    0.549000124984462601E+00   -0.298211127766345774E+01   -0.214383058043264289E+06
    0.262084479718239605E+01    0.548729135238543053E+00   -0.298202608686301840E+01   -0.214383057290371886E+06
    0.260713375715109619E+01    0.550058052349069571E+00   -0.298234266859886743E+01   -0.214383055964456493E+06
    0.260713375715109619E+01    0.550058052349069571E+00   -0.298234266859886743E+01   -0.214383055964456493E+06
    0.261593455119787777E+01    0.550118315090506793E+00   -0.298209223654145905E+01   -0.214383055107036751E+06
    0.261507018872248675E+01    0.548351776438217753E+00   -0.298194239136039219E+01   -0.214383044189372798E+06
    0.260381547780604183E+01    0.549386244864544460E+00   -0.298212288412393889E+01   -0.214383042928082112E+06
    0.260407760829112345E+01    0.549284162218610761E+00   -0.298210643927394115E+01   -0.214383034045124456E+06
    0.261171567949384631E+01    0.549903849408726608E+00   -0.298237553308356906E+01   -0.214383033696058876E+06
    0.261186361992869331E+01    0.548732401332822861E+00   -0.298195155147407931E+01   -0.214383031707992952E+06
    0.261546335198883151E+01    0.550213332417758938E+00   -0.298210758300925383E+01   -0.214383031133852142E+06
    0.261539460259835943E+01    0.547533051490702527E+00   -0.298210130625193370E+01   -0.214383024740298744E+06
    0.260521496269146047E+01    0.550168633369578108E+00   -0.298228454816343191E+01   -0.214383024425996846E+06
    0.261002742082872885E+01    0.550690169156866527E+00   -0.298232604568038795E+01   -0.214383021871092322E+06
    0.262241123637429485E+01    0.548574175500671224E+00   -0.298214470209205196E+01   -0.214383020334151515E+06
    0.262049233163773598E+01    0.549755368057811555E+00   -0.298224956729787616E+01   -0.214383017131056811E+06
    0.260994770660171005E+01    0.547808616668084780E+00   -0.298210190459241842E+01   -0.214383011752842867E+06
    0.262201904130965513E+01    0.548448806198437389E+00   -0.298208605141921579E+01   -0.214383005433734303E+06
    0.261892448222927143E+01    0.548679139205270117E+00   -0.298199280624564800E+01   -0.214383003416177555E+06
    0.262081278170718468E+01    0.548343175586514908E+00   -0.298202794004728755E+01   -0.214383002982715028E+06
    0.262081278170718468E+01    0.548343175586514908E+00   -0.298202794004728755E+01   -0.214383002982715028E+06
    0.262192339487875836E+01    0.548290000675250355E+00   -0.298212279160321447E+01   -0.214383002494497196E+06
    0.260591506238860005E+01    0.550427279643923351E+00   -0.298220028615539068E+01   -0.214383002385615138E+06
    0.261931408481230843E+01    0.548137489372658160E+00   -0.298199327385061519E+01   -0.214383001949736354E+06
    0.260921961308144734E+01    0.549875768765371919E+00   -0.298235684102723431E+01   -0.214382999744104745E+06
    0.260924263970253456E+01    0.548131181113298616E+00   -0.298199291922353327E+01   -0.214382999226100685E+06
    0.260448866634985077E+01    0.548960287542261449E+00   -0.298211790589775161E+01   -0.214382998544556001E+06
    0.262088986132641200E+01    0.549319245353060204E+00   -0.298225850684087579E+01   -0.214382997175039141E+06
    0.261324930106869369E+01    0.550550459660771208E+00   -0.298216529868975933E+01   -0.214382995445008914E+06
    0.261495293990897482E+01    0.549408546200976566E+00   -0.298200190751173988E+01   -0.214382994455143111E+06
    0.261461994482107585E+01    0.547637106540547536E+00   -0.298212868474461157E+01   -0.214382993886957382E+06
    0.260411229951882772E+01    0.549819173536111983E+00   -0.298216516284201605E+01   -0.214382993635002436E+06
    0.261564624526462497E+01    0.549218478453928793E+00   -0.298199127064347369E+01   -0.214382989620827546E+06
    0.260910275347943355E+01    0.547975350759852042E+00   -0.298202746021114917E+01   -0.214382987327047158E+06
    0.261574824987694088E+01    0.548349541272400653E+00   -0.298195413761471917E+01   -0.214382985885777220E+06
    0.260725699893962481E+01    0.549312951140123462E+00   -0.298202387117079537E+01   -0.214382979467878264E+06
    0.261886495089490268E+01    0.548214114778808992E+00   -0.298198837160999952E+01   -0.214382978673447476E+06
    0.261052832800994672E+01    0.549239584803958181E+00   -0.298233532090238906E+01   -0.214382975586665358E+06
    0.260892841650565321E+01    0.550645169183194616E+00   -0.298220198793816182E+01   -0.214382971476202161E+06
    0.262204961953086801E+01    0.548699386506138920E+00   -0.298211195674189344E+01   -0.214382970837641682E+06
    0.260415120635512354E+01    0.549280305788993894E+00   -0.298215249672384486E+01   -0.214382969925187062E+06
    0.261881965399004590E+01    0.549207989899166527E+00   -0.298230365036701439E+01   -0.214382968160265969E+06
    0.261651665227860386E+01    0.547855209368597551E+00   -0.298197900117594239E+01   -0.214382963530035719E+06
    0.261353388322905111E+01    0.547885790231975922E+00   -0.298218155424589426E+01   -0.214382962275166239E+06
    0.261166593331915431E+01    0.549113796751266370E+00   -0.298197894169136202E+01   -0.214382956951236003E+06
    0.261266627064169255E+01    0.548635449977417977E+00   -0.298195783598446784E+01   -0.214382955542209063E+06
    0.260592771991176608E+01    0.548980357239272854E+00   -0.298223134375640209E+01   -0.214382955519241834E+06
    0.261658098765689084E+01    0.550262379370341947E+00   -0.298216032047015212E+01   -0.214382952678548347E+06
    0.261077352590526335E+01    0.547946160458529952E+00   -0.298199793468004382E+01   -0.214382949099532096E+06
    0.261870142304836229E+01    0.548451061609053991E+00   -0.298199204256798778E+01   -0.214382948788623558E+06
    0.260747889174262548E+01    0.549888059889524716E+00   -0.298232650472374194E+01   -0.214382947548188618E+06
    0.262070979946953742E+01    0.549480720701151837E+00   -0.298224013679190936E+01   -0.214382945807885786E+06
    0.261777718716929453E+01    0.549850920558299205E+00   -0.298231852976124845E+01   -0.214382945135502290E+06
    0.261598104786959285E+01    0.550139618532919816E+00   -0.298233376970393493E+01   -0.214382943586049194E+06
    0.262186999009175237E+01    0.548947167923491963E+00   -0.298217174492484904E+01   -0.214382942592166481E+06
    0.262142904716513581E+01    0.549055229756456153E+00   -0.298211083878490202E+01   -0.214382938782303449E+06
    0.261627838141814406E+01    0.549585024171446057E+00   -0.298204033575578187E+01   -0.214382936724253639E+06
    0.260875543058545833E+01    0.549022261141679291E+00   -0.298199737582895752E+01   -0.214382935635917383E+06
    0.261239638266487351E+01    0.550140595075609418E+00   -0.298208747635716520E+01   -0.214382934445211082E+06
    0.261275589279702736E+01    0.550664096417232574E+00   -0.298224058504030465E+01   -0.214382926790967234E+06
    0.261309282975287616E+01    0.549041892833313838E+00   -0.298197796594676179E+01   -0.214382925507419423E+06
    0.261991350528359801E+01    0.549802866741861296E+00   -0.298220406154551565E+01   -0.214382924749345199E+06
    0.261537991642311995E+01    0.548098418279047817E+00   -0.298196646654630193E+01   -0.214382924572491640E+06
    0.261678520345986243E+01    0.550281983044108358E+00   -0.298228768503585373E+01   -0.214382921319235349E+06
    0.261215496530810398E+01    0.547711469246570992E+00   -0.298205045017092640E+01   -0.214382920023590559E+06
    0.261036205735392546E+01    0.548903142207275541E+00   -0.298198095241274608E+01   -0.214382918390277249E+06
    0.261192326938978203E+01    0.548733481334578665E+00   -0.298229222292766449E+01   -0.214382917282420327E+06
    0.261368508565895175E+01    0.550121598075107188E+00   -0.298209607586124914E+01   -0.214382907336825010E+06
    0.261529983548027101E+01    0.550335928221494575E+00   -0.298231389472381903E+01   -0.214382905969278421E+06
    0.261543309863942142E+01    0.549949226911290001E+00   -0.298208547341088481E+01   -0.214382904318616667E+06
    0.262080697242625282E+01    0.548290392982888397E+00   -0.298215409268612364E+01   -0.214382902988549351E+06
    0.261032477690922127E+01    0.548025525337267116E+00   -0.298215417096703161E+01   -0.214382902540430514E+06
    0.260793842179851154E+01    0.548244985593627776E+00   -0.298205631562915530E+01   -0.214382901976798050E+06
    0.261121598932252041E+01    0.549156377962569775E+00   -0.298199095187805874E+01   -0.214382900008726690E+06
    0.261166053160847556E+01    0.548356683788744581E+00   -0.298223889371668527E+01   -0.214382892868530384E+06
    0.261770213309078903E+01    0.548435221600566236E+00   -0.298224547282916896E+01   -0.214382891716803802E+06
    0.260921241916735491E+01    0.548036683805949387E+00   -0.298206494466806271E+01   -0.214382887384078407E+06
    0.261182585842505643E+01    0.549086027064370708E+00   -0.298231810905557770E+01   -0.214382881165617961E+06
    0.261540673876362817E+01    0.550405139309060321E+00   -0.298228155518171034E+01   -0.214382877928564732E+06
    0.260888340542007446E+01    0.550086139718789946E+00   -0.298210031546148535E+01   -0.214382874623388430E+06
    0.260722386099544901E+01    0.550169145933726678E+00   -0.298227960976377160E+01   -0.214382817648253520E+06
    0.262051584532810722E+01    0.548198276341208990E+00   -0.298211480477365587E+01   -0.214382864714981435E+06
    0.260863505943204466E+01    0.549062193161472756E+00   -0.298221241709131757E+01   -0.214382574915281351E+06
    0.261939093995069516E+01    0.548738278492808429E+00   -0.298208043999865335E+01   -0.214382702286393207E+06
    0.261648229651998143E+01    0.548934920276383020E+00   -0.298221581868559715E+01   -0.214382495908562298E+06
    0.261349287257483986E+01    0.549346645703876257E+00   -0.298232988945225364E+01   -0.214382829837869504E+06
    0.261680772900495207E+01    0.550180826571883941E+00   -0.298222473014111333E+01   -0.214382803023274959E+06
    0.261804156227557350E+01    0.548945332933469254E+00   -0.298207395596517566E+01   -0.214382624808235618E+06
    0.261444915953880974E+01    0.548013110151702509E+00   -0.298214525580511625E+01   -0.214382716641358187E+06
    0.260744822885891825E+01    0.549421750682117072E+00   -0.298229045386141012E+01   -0.214382857953530940E+06
    0.261197169491365022E+01    0.548262559694243867E+00   -0.298201603575372731E+01   -0.214382702643461787E+06
    0.260964634086814495E+01    0.550258498047113020E+00   -0.298213973457680215E+01   -0.214382810506000300E+06
    0.262083799039113208E+01    0.549165238605101358E+00   -0.298218724775213007E+01   -0.214382831007076893E+06
    0.261233855267463877E+01    0.549797653315271861E+00   -0.298230779488565068E+01   -0.214382648956033314E+06
    0.262082377434801073E+01    0.548853518637954174E+00   -0.298216243261477043E+01   -0.214382794497653784E+06
    0.261579604310891511E+01    0.549186328849160299E+00   -0.298230413624959922E+01   -0.214382773933790479E+06
    0.261556191401340588E+01    0.548010433374038652E+00   -0.298216905407313737E+01   -0.214382790300769557E+06
    0.260628945884523899E+01    0.549502316114504730E+00   -0.298208012442772485E+01   -0.214382862403806677E+06
    0.261397731372207343E+01    0.548934583409893428E+00   -0.298224592613971939E+01   -0.214382530214694387E+06
    0.261085029188104301E+01    0.550420951309671835E+00   -0.298228881818002067E+01   -0.214382771356614889E+06
    0.261115991988921170E+01    0.549283215480588116E+00   -0.298208536776943944E+01   -0.214382467958781926E+06
    0.261397797206688143E+01    0.548100771364714023E+00   -0.298209912854146353E+01   -0.214382598803587782E+06
    0.261236015155350332E+01    0.548577838846933563E+00   -0.298211434526395225E+01   -0.214382415456103015E+06
    0.261726485971580392E+01    0.548373060420746739E+00   -0.298207882084701126E+01   -0.214382570747869264E+06
    0.261723051355812819E+01    0.548349755568269037E+00   -0.298205350169147509E+01   -0.214382620645106334E+06
    0.261408691913173730E+01    0.549021987446754012E+00   -0.298221397401114041E+01   -0.214382398877502157E+06
    0.261226506242703316E+01    0.549187991489450966E+00   -0.298225951987348470E+01   -0.214382515011279349E+06
    0.261226506242703316E+01    0.549187991489450966E+00   -0.298225951987348470E+01   -0.214382515011279349E+06
    0.261023253248982412E+01    0.549709983581838535E+00   -0.298219899290118562E+01   -0.214382424659448268E+06
    0.261748304194190506E+01    0.548781529542445856E+00   -0.298214835408624923E+01   -0.214382474717111822E+06
    0.261748304194190506E+01    0.548781529542445856E+00   -0.298214835408624923E+01   -0.214382474717111822E+06
    0.260917509644568391E+01    0.550066823104089941E+00   -0.298233128529168923E+01   -0.214382859157761821E+06
    0.261438739259436836E+01    0.547848974754018947E+00   -0.298213974813825633E+01   -0.214382834316274093E+06
    0.261309663584294682E+01    0.549187596366373820E+00   -0.298213927055486483E+01   -0.214382317571494088E+06
    0.261309663584294682E+01    0.549187596366373820E+00   -0.298213927055486483E+01   -0.214382317571494088E+06
    0.260896519663577076E+01    0.550108696217915250E+00   -0.298231819646309759E+01   -0.214382817169571412E+06
    0.261919541878762585E+01    0.548908499680310968E+00   -0.298204612339231767E+01   -0.214382825720083987E+06
    0.261109506032651240E+01    0.550327952412069998E+00   -0.298217211679720862E+01   -0.214382740301546932E+06
    0.261310133060915950E+01    0.549560226232133964E+00   -0.298218516595216165E+01   -0.214382351831033826E+06
    0.260793912987435572E+01    0.549628667575989382E+00   -0.298208704675375369E+01   -0.214382731909542141E+06
    0.261096648128606201E+01    0.549614988289600981E+00   -0.298224860469862740E+01   -0.214382458567541529E+06
    0.261096648128606201E+01    0.549614988289600981E+00   -0.298224860469862740E+01   -0.214382458567541529E+06
    0.261209448741694228E+01    0.548624993885082235E+00   -0.298198486607872004E+01   -0.214382796527067345E+06
    0.261475512248596953E+01    0.549755900528718144E+00   -0.298211851206008483E+01   -0.214382588035276043E+06
    0.261821058305556154E+01    0.549333946768411296E+00   -0.298213004256037895E+01   -0.214382605259869131E+06
    0.261453314386515467E+01    0.549183429316352001E+00   -0.298231538769249260E+01   -0.214382804762195650E+06
    0.261567905835458303E+01    0.549394241639265202E+00   -0.298226339297913379E+01   -0.214382545788136224E+06
    0.260701658305724138E+01    0.549415750626878086E+00   -0.298214412839224030E+01   -0.214382617809391930E+06
    0.261097780258832524E+01    0.549685670063907228E+00   -0.298220116244595479E+01   -0.214382397625958693E+06
    0.261359784209448653E+01    0.548637967557716211E+00   -0.298209014701598818E+01   -0.214382403538268321E+06
    0.260745704771219788E+01    0.550264222907571487E+00   -0.298221956212525141E+01   -0.214382769835620304E+06
    0.261673721222318756E+01    0.548319539374055864E+00   -0.298216611057514669E+01   -0.214382610126528802E+06
    0.261813382168066333E+01    0.548715911106415266E+00   -0.298222089759598230E+01   -0.214382675099816202E+06
    0.261336224593664390E+01    0.549479203710121822E+00   -0.298211688737823533E+01   -0.214382420515391801E+06
    0.261972649607439090E+01    0.548689634471963839E+00   -0.298216621758782452E+01   -0.214382690770166315E+06
    0.260979783874761617E+01    0.549091870088940226E+00   -0.298216645985303197E+01   -0.214382411802523799E+06
    0.261142080208564176E+01    0.549073194090444527E+00   -0.298218562067450632E+01   -0.214382360686423839E+06
    0.261142080208564176E+01    0.549073194090444527E+00   -0.298218562067450632E+01   -0.214382360686423839E+06
    0.261944763154468285E+01    0.548368347445945092E+00   -0.298204844185271201E+01   -0.214382794128087990E+06
    0.261430120917383757E+01    0.549871747055650562E+00   -0.298220681502385476E+01   -0.214382479775011743E+06
    0.261430120917383757E+01    0.549871747055650562E+00   -0.298220681502385476E+01   -0.214382479775011743E+06
    0.260628174036878280E+01    0.549456261556006575E+00   -0.298224203023309586E+01   -0.214382782410488377E+06
    0.260997549495464209E+01    0.548725731043841258E+00   -0.298206091772660287E+01   -0.214382564079159347E+06
    0.261149030450471020E+01    0.550239715312726640E+00   -0.298220054541296431E+01   -0.214382625665303232E+06
    0.261537001151989346E+01    0.548367529421982303E+00   -0.298202443443431031E+01   -0.214382629180023447E+06
    0.260998948862851687E+01    0.550384033782708726E+00   -0.298219911728076914E+01   -0.214382741828607541E+06
    0.260823012929653331E+01    0.549808448661252891E+00   -0.298221825254706907E+01   -0.214382560902382713E+06
    0.261433572300186112E+01    0.549332369107819019E+00   -0.298226292120555625E+01   -0.214382503795639408E+06
    0.261433572300186112E+01    0.549332369107819019E+00   -0.298226292120555625E+01   -0.214382503795639408E+06
    0.260646062888954333E+01    0.550053581010636949E+00   -0.298221964281165430E+01   -0.214382765974522248E+06
    0.261561482673913215E+01    0.549692919179745387E+00   -0.298222947426098006E+01   -0.214382493803517049E+06
    0.261431331756731744E+01    0.550395802529821787E+00   -0.298225781164120685E+01   -0.214382781888871046E+06
    0.261155876796545572E+01    0.548882129025748511E+00   -0.298207000466872429E+01   -0.214382456786463648E+06
    0.261025903013809391E+01    0.549081571501600196E+00   -0.298217407974327386E+01   -0.214382394150281907E+06
    0.261025903013809391E+01    0.549081571501600196E+00   -0.298217407974327386E+01   -0.214382394150281907E+06
    0.262127708163311146E+01    0.548673109832028882E+00   -0.298211221122662451E+01   -0.214382864379236067E+06
    0.260879972015335904E+01    0.550232446041467038E+00   -0.298228113786915605E+01   -0.214382737757123541E+06
    0.261529445896435675E+01    0.550270545653662846E+00   -0.298219098660042636E+01   -0.214382785255632771E+06
    0.261654492406297834E+01    0.548431554099173324E+00   -0.298210153575018433E+01   -0.214382498923259263E+06
    0.260714369539049517E+01    0.550153726677765076E+00   -0.298216928588625496E+01   -0.214382792240068316E+06
    0.260912975752962906E+01    0.549496578119053170E+00   -0.298221928183404916E+01   -0.214382478149173141E+06
    0.261057175116467421E+01    0.549399256520872070E+00   -0.298219772092831636E+01   -0.214382376946124452E+06
    0.261057175116467421E+01    0.549399256520872070E+00   -0.298219772092831636E+01   -0.214382376946124452E+06
    0.261541531040966069E+01    0.549720800680165045E+00   -0.298231252915037226E+01   -0.214382736312079214E+06
    0.261086879309502473E+01    0.550470295361433770E+00   -0.298226593519310734E+01   -0.214382765287361282E+06
    0.261105160763840383E+01    0.549669330082365404E+00   -0.298217182915124335E+01   -0.214382397086896031E+06
    0.261105160763840383E+01    0.549669330082365404E+00   -0.298217182915124335E+01   -0.214382397086896031E+06
    0.260875417982132518E+01    0.550526617809598995E+00   -0.298226831207619547E+01   -0.214382855923518655E+06
    0.261186564374678643E+01    0.548938512678066259E+00   -0.298227696248445717E+01   -0.214382704547739588E+06
    0.261046296747374162E+01    0.549610663446195025E+00   -0.298203548488113546E+01   -0.214382856511676975E+06
    0.261438234784677137E+01    0.549731242119414931E+00   -0.298207736974854321E+01   -0.214382726140465675E+06
    0.261023518973857493E+01    0.549783500172231321E+00   -0.298209025423636831E+01   -0.214382675007871876E+06
    0.261250080836120535E+01    0.549252711370348701E+00   -0.298208583493002921E+01   -0.214382438201788609E+06
    0.260940381386955966E+01    0.550073316686554015E+00   -0.298216999077127287E+01   -0.214382616097105376E+06
    0.260940381386955966E+01    0.550073316686554015E+00   -0.298216999077127287E+01   -0.214382616097105376E+06
    0.260979832295363812E+01    0.548234774256643242E+00   -0.298202408491841009E+01   -0.214382808098396839E+06
    0.260887850557052259E+01    0.548941489421862938E+00   -0.298214943356791196E+01   -0.214382495763153478E+06
    0.261143530119726286E+01    0.550277823658344323E+00   -0.298232927861192021E+01   -0.214382828823217773E+06
    0.261275494241877482E+01    0.549467674095950209E+00   -0.298213737234715248E+01   -0.214382367474729137E+06
    0.261275494241877482E+01    0.549467674095950209E+00   -0.298213737234715248E+01   -0.214382367474729137E+06
    0.261060178738005622E+01    0.548614574864486393E+00   -0.298215591385088219E+01   -0.214382498943031766E+06
    0.261423704544726787E+01    0.549912300987166147E+00   -0.298219522676696647E+01   -0.214382499144830887E+06
    0.261431606321454790E+01    0.548021025910625847E+00   -0.298205150201631941E+01   -0.214382664605066966E+06
    0.261496425807826016E+01    0.549329293960702403E+00   -0.298209366888042249E+01   -0.214382479162261792E+06
    0.261503608585611413E+01    0.550161908185784365E+00   -0.298213050922830325E+01   -0.214382852771293226E+06
    0.261627946712838533E+01    0.548543522436700570E+00   -0.298203377804793046E+01   -0.214382611714791798E+06
    0.260545725682950158E+01    0.549774287125547656E+00   -0.298223790135515943E+01   -0.214382843569559511E+06
    0.260758122633573386E+01    0.549047940580929095E+00   -0.298203835542560869E+01   -0.214382821560145472E+06
    0.260858842839881744E+01    0.548632461411206362E+00   -0.298207653596986555E+01   -0.214382650938931503E+06
    0.260752749497217273E+01    0.549204839200591155E+00   -0.298215096848056183E+01   -0.214382567569098232E+06
    0.261770427006151607E+01    0.549911157949805829E+00   -0.298220175070661364E+01   -0.214382729968129570E+06
    0.261073881730431845E+01    0.548341276903473118E+00   -0.298201277878033366E+01   -0.214382749300425960E+06
    0.261464139208543500E+01    0.548037260178243502E+00   -0.298212036648412449E+01   -0.214382651983155287E+06
    0.260834747390800548E+01    0.549343069016930308E+00   -0.298222873544039091E+01   -0.214382568872952950E+06
    0.261628869275336129E+01    0.549920290518691401E+00   -0.298220936578446949E+01   -0.214382611824524560E+06
    0.261036210221092091E+01    0.549404370772030970E+00   -0.298214757078700066E+01   -0.214382384522485168E+06
    0.260719523706024425E+01    0.550031567906129504E+00   -0.298219144660864011E+01   -0.214382700577447860E+06
    0.261751349094422059E+01    0.549993190256622522E+00   -0.298220037076713851E+01   -0.214382760169625457E+06
    0.261336564281300587E+01    0.549762066464215216E+00   -0.298222560034662010E+01   -0.214382426333771029E+06
    0.261336564281300587E+01    0.549762066464215216E+00   -0.298222560034662010E+01   -0.214382426333771029E+06
    0.261124281066990349E+01    0.548095050161809372E+00   -0.298201658967207628E+01   -0.214382794508432038E+06
    0.260877934851851556E+01    0.549923524690680510E+00   -0.298210074251810786E+01   -0.214382770296050585E+06
    0.261205410548563766E+01    0.548780834909560755E+00   -0.298219858109151570E+01   -0.214382452724178613E+06
    0.261690284187240252E+01    0.549428051951801111E+00   -0.298226436502108116E+01   -0.214382618402667693E+06
    0.261690284187240252E+01    0.549428051951801111E+00   -0.298226436502108116E+01   -0.214382618402667693E+06
    0.261899140464743763E+01    0.549199982281036947E+00   -0.298207866093360519E+01   -0.214382776084133104E+06
    0.260558845985788157E+01    0.548902223048096549E+00   -0.298214766721233371E+01   -0.214382855638452718E+06
    0.261189645383951063E+01    0.549553340821228309E+00   -0.298219680036788937E+01   -0.214382354897470388E+06
    0.261757481327265618E+01    0.548628024025597849E+00   -0.298214379924900053E+01   -0.214382505258763034E+06
    0.261381961320386980E+01    0.549405884776032916E+00   -0.298214430130490005E+01   -0.214382353668404394E+06
    0.261506160180286873E+01    0.550367293802180191E+00   -0.298224858979860574E+01   -0.214382799652427755E+06
    0.261755952283611837E+01    0.549420256768438198E+00   -0.298212287220567784E+01   -0.214382594194272708E+06
    0.260880446971585789E+01    0.550187472581785797E+00   -0.298215171818062919E+01   -0.214382753250417445E+06
    0.261261591188788866E+01    0.549851630478811249E+00   -0.298221347375140988E+01   -0.214382435147896380E+06
    0.260757564411118192E+01    0.549440182795111531E+00   -0.298225750007333312E+01   -0.214382703126560809E+06
    0.261446148562871539E+01    0.549385440657402357E+00   -0.298202790459001532E+01   -0.214382789070579893E+06
    0.261484447437050260E+01    0.548672432533159449E+00   -0.298227021140015758E+01   -0.214382784666988475E+06
    0.261565910788901679E+01    0.549643107826199406E+00   -0.298229154863083101E+01   -0.214382653126203862E+06
    0.260571265431207166E+01    0.549515157565883094E+00   -0.298221010838973344E+01   -0.214382771769513492E+06
    0.261204278751187147E+01    0.548844782472127646E+00   -0.298200124513469067E+01   -0.214382730120064865E+06
    0.261546263705444737E+01    0.550144845972158847E+00   -0.298223328568741008E+01   -0.214382678738088376E+06
    0.261444817772473037E+01    0.548595550712636326E+00   -0.298204140483275104E+01   -0.214382530315876706E+06
    0.261125658896189616E+01    0.550310928823661061E+00   -0.298224136151548569E+01   -0.214382652995115146E+06
    0.262051881063999392E+01    0.548885489590309472E+00   -0.298208385727482428E+01   -0.214382840687355230E+06
    0.261238006264807776E+01    0.548285812387234839E+00   -0.298197979707511829E+01   -0.214382835618689016E+06
    0.261358849876954391E+01    0.547958911722998487E+00   -0.298213139187900644E+01   -0.214382739024056442E+06
    0.261556106675864442E+01    0.548791352396662546E+00   -0.298209053794956924E+01   -0.214382420953046560E+06
    0.261849501924732664E+01    0.548770966507531988E+00   -0.298223721483910564E+01   -0.214382744086302904E+06
    0.261858645495804865E+01    0.549130006381690627E+00   -0.298219444473465023E+01   -0.214382583065298066E+06
    0.261011888002236514E+01    0.549925218465948107E+00   -0.298217516192244991E+01   -0.214382510427501024E+06
    0.261448025438942988E+01    0.549873796338615772E+00   -0.298231397524379727E+01   -0.214382718599426007E+06
    0.261550904361170344E+01    0.549659087992087625E+00   -0.298211228085590552E+01   -0.214382592690274061E+06
    0.261375262975132516E+01    0.549906787057716451E+00   -0.298211225011060543E+01   -0.214382666967401572E+06
    0.261375262975132516E+01    0.549906787057716451E+00   -0.298211225011060543E+01   -0.214382666967401572E+06
    0.261999846486907062E+01    0.548981290026727686E+00   -0.298218239942767038E+01   -0.214382711705784459E+06
    0.261560293649818920E+01    0.549855564618745518E+00   -0.298226772859373135E+01   -0.214382609804193460E+06
    0.261042368307104855E+01    0.549262020304589482E+00   -0.298215260327298859E+01   -0.214382367233706289E+06
    0.260650833637035451E+01    0.549723799347770159E+00   -0.298219981845991722E+01   -0.214382680763137643E+06
    0.261391482615654969E+01    0.549250177962603003E+00   -0.298211395553021674E+01   -0.214382372644102346E+06
    0.261391482615654969E+01    0.549250177962603003E+00   -0.298211395553021674E+01   -0.214382372644102346E+06
    0.260803628583830882E+01    0.549931352178004929E+00   -0.298219204736031118E+01   -0.214382601423971064E+06
    0.261593578904631485E+01    0.549652013065403011E+00   -0.298211859174323957E+01   -0.214382594231584284E+06
    0.260814426975628733E+01    0.549153192325058326E+00   -0.298209605237623476E+01   -0.214382584929525066E+06
    0.261607446989747672E+01    0.548630819600216313E+00   -0.298226039966633394E+01   -0.214382781947983865E+06
    0.261587581965936833E+01    0.548973673146314289E+00   -0.298208722894694667E+01   -0.214382451694375050E+06
    0.261587581965936833E+01    0.548973673146314289E+00   -0.298208722894694667E+01   -0.214382451694375050E+06
    0.261817662529607986E+01    0.549266995813665337E+00   -0.298215186250915831E+01   -0.214382553629458678E+06
    0.261250363753761272E+01    0.549130696532783680E+00   -0.298221914599012505E+01   -0.214382391325877688E+06
    0.261250363753761272E+01    0.549130696532783680E+00   -0.298221914599012505E+01   -0.214382391325877688E+06
    0.260821354355818480E+01    0.550348645424519001E+00   -0.298221413533290480E+01   -0.214382770995166444E+06
    0.260972687700343142E+01    0.549774746832224825E+00   -0.298227656548837494E+01   -0.214382592327291670E+06
    0.260972687700343142E+01    0.549774746832224825E+00   -0.298227656548837494E+01   -0.214382592327291670E+06
    0.260901698861711262E+01    0.548190334673685054E+00   -0.298211606403376983E+01   -0.214382810469730903E+06
    0.261348210390605917E+01    0.548364951948592694E+00   -0.298214662464956337E+01   -0.214382505045171885E+06
    0.261464855795041817E+01    0.548356558967828867E+00   -0.298218811646458981E+01   -0.214382604849184660E+06
    0.260504556026755152E+01    0.549713640233997380E+00   -0.298220023135392287E+01   -0.214382844393308187E+06
    0.261916523726982930E+01    0.548315804426881659E+00   -0.298215794574453241E+01   -0.214382742258896003E+06
    0.261655953463278035E+01    0.549055223155199612E+00   -0.298224500972009832E+01   -0.214382566877401347E+06
    0.260605717768631839E+01    0.550073101643321238E+00   -0.298224076535174554E+01   -0.214382826762814977E+06
    0.260886791102731719E+01    0.549753992695246163E+00   -0.298232341227442133E+01   -0.214382841293713078E+06
    0.260898428543888716E+01    0.550119192146310665E+00   -0.298225420996067747E+01   -0.214382639570908679E+06
    0.261431701629519120E+01    0.548838710590688672E+00   -0.298217281283984903E+01   -0.214382362433461676E+06
    0.261497235192354127E+01    0.549918039649102020E+00   -0.298221622965043087E+01   -0.214382530168601981E+06
    0.261963668182553633E+01    0.549388857281122855E+00   -0.298212716742177841E+01   -0.214382785000402364E+06
    0.261257388766172882E+01    0.550240329594122946E+00   -0.298233246317890144E+01   -0.214382833473472536E+06
    0.261461517936133792E+01    0.549927623849611802E+00   -0.298212559109691666E+01   -0.214382666734086408E+06
    0.261949326853072861E+01    0.549202720805509581E+00   -0.298226677324080702E+01   -0.214382861191179196E+06
    0.261455866169752582E+01    0.548664306510628808E+00   -0.298197742032087998E+01   -0.214382840508497728E+06
    0.260716489379141203E+01    0.548969377555512339E+00   -0.298211994355871468E+01   -0.214382652826383099E+06
    0.261687659767893033E+01    0.548035357080446706E+00   -0.298218407446508893E+01   -0.214382854858812469E+06
    0.261310925327699239E+01    0.550088128392891118E+00   -0.298234383792036351E+01   -0.214382856629768270E+06
    0.260775825539879413E+01    0.549673777573197353E+00   -0.298216319027748344E+01   -0.214382570856283273E+06
    0.261317690889676113E+01    0.548251591614052791E+00   -0.298209006407248944E+01   -0.214382532498301356E+06
    0.261244329867993885E+01    0.549274084639789995E+00   -0.298226699532317774E+01   -0.214382521621736290E+06
    0.261375765875635002E+01    0.548177666898412630E+00   -0.298210592232692839E+01   -0.214382560788223927E+06
    0.261501205758847100E+01    0.549419297661050132E+00   -0.298219187063431068E+01   -0.214382373485754651E+06
    0.261030171721962834E+01    0.548637988992168313E+00   -0.298213064851144605E+01   -0.214382484323571116E+06
    0.261030171721962834E+01    0.548637988992168313E+00   -0.298213064851144605E+01   -0.214382484323571116E+06
    0.261664801148710557E+01    0.549642524052009640E+00   -0.298222917374445906E+01   -0.214382544971276162E+06
    0.261728646559816358E+01    0.548747967482762666E+00   -0.298222176007047679E+01   -0.214382611646109464E+06
    0.260955644130583941E+01    0.549146962160926622E+00   -0.298217553922535572E+01   -0.214382424725011602E+06
    0.260955644130583941E+01    0.549146962160926622E+00   -0.298217553922535572E+01   -0.214382424725011602E+06
    0.261448779567671163E+01    0.547860728419207521E+00   -0.298213788606455088E+01   -0.214382818543375266E+06
    0.261566696213413996E+01    0.549530483349486176E+00   -0.298226905542458365E+01   -0.214382564761945076E+06
    0.261023933332096059E+01    0.550132275128110249E+00   -0.298227673616579336E+01   -0.214382637761858670E+06
    0.261023933332096059E+01    0.550132275128110249E+00   -0.298227673616579336E+01   -0.214382637761858670E+06
    0.261552536131692648E+01    0.547955665704670913E+00   -0.298202762789630027E+01   -0.214382746108171530E+06
    0.261924254817368407E+01    0.549417794876690180E+00   -0.298219423082489898E+01   -0.214382690730447561E+06
    0.261571043618964483E+01    0.549081894001851811E+00   -0.298231201744415131E+01   -0.214382854181133996E+06
    0.260834326089144763E+01    0.549506892382080503E+00   -0.298212500271410397E+01   -0.214382549670289969E+06
    0.261090567811475216E+01    0.549650929088330464E+00   -0.298233092650052134E+01   -0.214382799870104704E+06
    0.261076679511996579E+01    0.549584822143746710E+00   -0.298221530034326765E+01   -0.214382399599279102E+06
    0.260842482421213662E+01    0.550141833602230679E+00   -0.298217178698653429E+01   -0.214382696654210013E+06
    0.260842482421213662E+01    0.550141833602230679E+00   -0.298217178698653429E+01   -0.214382696654210013E+06
    0.260823423030841761E+01    0.548709715217256755E+00   -0.298213510207165688E+01   -0.214382618240339216E+06
    0.260823423030841761E+01    0.548709715217256755E+00   -0.298213510207165688E+01   -0.214382618240339216E+06
    0.261566472394072047E+01    0.549573507546330164E+00   -0.298224747807530077E+01   -0.214382506250617211E+06
