    0.101162530402427120E+00   -0.367708951375767823E+01   -0.262218314298036326E+01   -0.208016264851305550E+04
    0.146071343074461568E+00   -0.368341609752395449E+01   -0.215383523648596498E+01   -0.207734572665581527E+04
    0.150866760552732765E+00   -0.368482851734734229E+01   -0.255529080013794774E+01   -0.207632204346162507E+04
    0.177318540131543911E+00   -0.369075399105376345E+01   -0.250214955395466587E+01   -0.207623386639895989E+04
    0.134445390093165057E+00   -0.368646246770709451E+01   -0.256416513877350960E+01   -0.207608578506160347E+04
    0.221737667138769828E+00   -0.370580455281478915E+01   -0.292771463352951455E+01   -0.207584631762666640E+04
    0.193520392319774109E+00   -0.370201247321476767E+01   -0.235363363122723035E+01   -0.207573732286716540E+04
    0.178154486305268978E+00   -0.369847261412187756E+01   -0.295999192351890006E+01   -0.207572873413173920E+04
    0.153680398865313983E+00   -0.369205668252443520E+01   -0.251490391787855661E+01   -0.207569630234069564E+04
    0.127013637334261631E+00   -0.368214235024684911E+01   -0.297916147707637036E+01   -0.207564224812372504E+04
    0.131265642376325653E+00   -0.368484431286300440E+01   -0.267376560166497379E+01   -0.207557662867109639E+04
    0.135580619795389989E+00   -0.368269627731919202E+01   -0.279730591455515309E+01   -0.207546775087372453E+04
    0.135245046437727306E+00   -0.368621956040126975E+01   -0.289957460650263066E+01   -0.207546323577966132E+04
    0.207265327227894453E+00   -0.369944497433201658E+01   -0.229658174306686647E+01   -0.207544211037141758E+04
    0.188865445435796586E+00   -0.369406610194110385E+01   -0.214783864245856826E+01   -0.207539107121484039E+04
    0.208421794254108395E+00   -0.369989650956561977E+01   -0.222172878330735735E+01   -0.207534292253584363E+04
    0.188080933286274565E+00   -0.370061104817156306E+01   -0.257579122770844560E+01   -0.207532859976335567E+04
    0.129256984612212522E+00   -0.368328303778409927E+01   -0.258202053517627927E+01   -0.207531323877201248E+04
    0.170429989349534017E+00   -0.369634388693379456E+01   -0.262222774594331920E+01   -0.207529560696171939E+04
    0.164434528488566822E+00   -0.369475298122444151E+01   -0.262684501850371976E+01   -0.207523131069189958E+04
    0.161631910176457894E+00   -0.368761606355224636E+01   -0.275009428820949697E+01   -0.207516921208199437E+04
    0.160624356360551335E+00   -0.368741684614374998E+01   -0.224855787072527047E+01   -0.207513702900502767E+04
    0.143249411408968796E+00   -0.368858296210610259E+01   -0.266202061316982475E+01   -0.207508064934661024E+04
    0.132614162064395330E+00   -0.368296725620468557E+01   -0.279307663001017925E+01   -0.207504612013616679E+04
    0.153935366416503794E+00   -0.369173606432381174E+01   -0.292895962345900118E+01   -0.207499244225979282E+04
    0.192790600396728851E+00   -0.370143660654656248E+01   -0.228063729198450105E+01   -0.207492882404036936E+04
    0.209856829393251842E+00   -0.370453342302239896E+01   -0.256655454500248936E+01   -0.207492341555226631E+04
    0.139739833632731569E+00   -0.368727714193522171E+01   -0.297825981013799579E+01   -0.207490596920331018E+04
    0.183944232247163081E+00   -0.369302406237891390E+01   -0.229349470684103229E+01   -0.207487141433426495E+04
    0.170698290003663239E+00   -0.369617038275540111E+01   -0.291646434401066479E+01   -0.207481947884160218E+04
    0.208118896012443572E+00   -0.370019790798436610E+01   -0.225131400642599111E+01   -0.207478875356370872E+04
    0.159846154794347356E+00   -0.368744799312410843E+01   -0.261011055665305003E+01   -0.207476667418386751E+04
    0.154914220420919679E+00   -0.369186833762016775E+01   -0.222468063234092028E+01   -0.207474795070201526E+04
    0.215317760111259693E+00   -0.370433658161044210E+01   -0.276493151143007809E+01   -0.207468536530123947E+04
    0.213134621574374905E+00   -0.370449872733895447E+01   -0.298092852241591499E+01   -0.207463827201961567E+04
    0.156883406694338978E+00   -0.369235906278393067E+01   -0.255663444161892395E+01   -0.207463478841041569E+04
    0.138724906321871289E+00   -0.368657516913441619E+01   -0.254512356006676743E+01   -0.207459538494680010E+04
    0.178285696047341902E+00   -0.369791669162002190E+01   -0.226989509321640615E+01   -0.207454874146975089E+04
    0.149788265790512187E+00   -0.368562257407682159E+01   -0.240341772184013047E+01   -0.207454246434680090E+04
    0.201872250420422755E+00   -0.369829375605553157E+01   -0.274587652668689497E+01   -0.207452922599129533E+04
    0.194857524282603445E+00   -0.369617896548048774E+01   -0.275079124751287640E+01   -0.207452099046019521E+04
    0.174529126990836697E+00   -0.369696335002910725E+01   -0.230588450974579384E+01   -0.207449475661193856E+04
    0.189451194311025584E+00   -0.369470102310322801E+01   -0.261290841813183272E+01   -0.207445462975395094E+04
    0.148654218534455151E+00   -0.368552017884576166E+01   -0.237422703161231929E+01   -0.207441058125050995E+04
    0.145735679241533717E+00   -0.368504678235983807E+01   -0.255041409218530735E+01   -0.207440712907669558E+04
    0.211935243003665730E+00   -0.370411537041308403E+01   -0.212106729105912173E+01   -0.207440313456910144E+04
    0.177482711297549361E+00   -0.369763980384544677E+01   -0.265105943649163933E+01   -0.207440040999761914E+04
    0.142176490042179915E+00   -0.368755942985120111E+01   -0.228067227037104026E+01   -0.207433921136586969E+04
    0.173041419486100301E+00   -0.369060892244054362E+01   -0.253807614416818828E+01   -0.207433898233361606E+04
    0.138656956745638688E+00   -0.368611221349542406E+01   -0.242610626424383513E+01   -0.207430706921909723E+04
    0.190754030386455470E+00   -0.369516244015938522E+01   -0.247950921915138967E+01   -0.207427356872385008E+04
    0.148593967784069025E+00   -0.368964101156882229E+01   -0.225267767104802319E+01   -0.207426756395806024E+04
    0.138467643313023137E+00   -0.368446542695348533E+01   -0.281720861814369616E+01   -0.207426089757331738E+04
    0.168487160888143889E+00   -0.368960836724629493E+01   -0.264846879585910600E+01   -0.207425156527663739E+04
    0.183521497686494506E+00   -0.369324006441123931E+01   -0.276462145908271495E+01   -0.207425065448472196E+04
    0.171049672190767416E+00   -0.369594361802612692E+01   -0.280221192703397071E+01   -0.207424600045165607E+04
    0.192226424417808212E+00   -0.370091676172174688E+01   -0.252065802019160312E+01   -0.207424532140325437E+04
    0.137787166254778937E+00   -0.368513240421519050E+01   -0.225397440210747346E+01   -0.207418163081903276E+04
    0.156457181388487743E+00   -0.369192354426760971E+01   -0.235179114291508462E+01   -0.207415260941099450E+04
    0.205119252142012320E+00   -0.369968751323887624E+01   -0.277211676293357856E+01   -0.207413790880927809E+04
    0.138140214355761293E+00   -0.368517031008206697E+01   -0.298838612592369746E+01   -0.207413718100740789E+04
    0.149456020892238139E+00   -0.368979239952178606E+01   -0.293090445881214068E+01   -0.207412303996439459E+04
    0.140935667980902180E+00   -0.368479709125185062E+01   -0.283451503336502286E+01   -0.207411265850797372E+04
    0.161232331309377475E+00   -0.369322232222178037E+01   -0.239177166783912565E+01   -0.207407319468986861E+04
    0.153306305927718212E+00   -0.369092413729866387E+01   -0.281465484906462393E+01   -0.207405562440794620E+04
    0.144150804297893148E+00   -0.368517777741125219E+01   -0.288714629303696713E+01   -0.207404919359610903E+04
    0.144165902222499642E+00   -0.368793819572179427E+01   -0.275211945774695232E+01   -0.207404380907352015E+04
    0.205157525377962779E+00   -0.370310125997863215E+01   -0.281729790225529975E+01   -0.207404250886010368E+04
    0.210969991518556305E+00   -0.370245619764887079E+01   -0.264468615763683745E+01   -0.207402348063246427E+04
    0.209756855247695995E+00   -0.370345030757259153E+01   -0.245293245533580073E+01   -0.207402067108345364E+04
    0.192559924962626139E+00   -0.370081477637844181E+01   -0.243091855036448568E+01   -0.207398035916496701E+04
    0.154152122681025378E+00   -0.368681910399149748E+01   -0.238093227776527439E+01   -0.207397688108525927E+04
    0.163922614078064049E+00   -0.369389588992769102E+01   -0.241530175692928761E+01   -0.207397233845629398E+04
    0.146670724987989998E+00   -0.368559159133542380E+01   -0.268802218364529422E+01   -0.207396899103578426E+04
    0.165323960576615581E+00   -0.369426758843445757E+01   -0.236231273865604630E+01   -0.207396077708487474E+04
    0.147694740244737943E+00   -0.368905577972583121E+01   -0.226458378352251710E+01   -0.207394322426689905E+04
    0.171778753686552432E+00   -0.369054473739883093E+01   -0.220107931087826092E+01   -0.207393087467737359E+04
    0.166252841624334236E+00   -0.368931444599900304E+01   -0.288944058374772661E+01   -0.207390818363091148E+04
    0.185887263566745370E+00   -0.369407620026712014E+01   -0.259346322290984332E+01   -0.207387814721346876E+04
    0.165480866927277093E+00   -0.368916869778860912E+01   -0.215131130364857448E+01   -0.207387267755326002E+04
    0.149151969239716992E+00   -0.368605358733542321E+01   -0.259676400302941390E+01   -0.207387120285049377E+04
    0.140506142902181413E+00   -0.368580766649411284E+01   -0.216991458358202571E+01   -0.207386607658210778E+04
    0.160315186561327538E+00   -0.368809394726968653E+01   -0.232580492335811817E+01   -0.207386030132856831E+04
    0.170797471231335624E+00   -0.369036957233124596E+01   -0.298073141760277416E+01   -0.207384600592378501E+04
    0.158651131258019051E+00   -0.369232637742620451E+01   -0.283366703889707194E+01   -0.207383043455903544E+04
    0.209350133851571835E+00   -0.370303630576129805E+01   -0.223735535396270357E+01   -0.207382980080710831E+04
    0.165320688232469815E+00   -0.369417801952104696E+01   -0.211018598298290794E+01   -0.207382490735668034E+04
    0.166527869720298816E+00   -0.368942955201943956E+01   -0.290578299616269486E+01   -0.207382012468503217E+04
    0.162015461822982987E+00   -0.369325457496386145E+01   -0.226172737294486081E+01   -0.207379877630489682E+04
    0.197169571934308091E+00   -0.369734979436961853E+01   -0.261523270718049439E+01   -0.207378949987340775E+04
    0.203122848857811289E+00   -0.370254458089788052E+01   -0.299894095954255624E+01   -0.207376521838832423E+04
    0.170483448587260722E+00   -0.369550364950892707E+01   -0.280311657922050728E+01   -0.207376493250268913E+04
    0.208663537272485461E+00   -0.370293068393263436E+01   -0.227093562119634162E+01   -0.207376018580106347E+04
    0.208280692371711762E+00   -0.370150076129761896E+01   -0.291910280019331214E+01   -0.207374986106735014E+04
    0.172482414435606302E+00   -0.369600502785202423E+01   -0.272005414839621817E+01   -0.207374654617202577E+04
    0.207643623273151112E+00   -0.370119995965573079E+01   -0.225721287845220964E+01   -0.207373540446354627E+04
    0.141998723443130082E+00   -0.368572703826112980E+01   -0.243231294281820398E+01   -0.207372414977741573E+04
    0.206903856792089502E+00   -0.370287970612270545E+01   -0.263066599596156436E+01   -0.207372394416953557E+04
    0.187707691373097452E+00   -0.369467147079048885E+01   -0.227914699958054090E+01   -0.207371010316303955E+04
    0.166698685306496008E+00   -0.369447154640599074E+01   -0.229231093766629801E+01   -0.207371004148872998E+04
    0.166077875244723394E+00   -0.368942150491637655E+01   -0.222682796186178633E+01   -0.207368052593081529E+04
    0.145386085387721742E+00   -0.368579757057245150E+01   -0.223759158250075885E+01   -0.207367853706226651E+04
    0.185913047554249339E+00   -0.369917763541513489E+01   -0.280673934435457850E+01   -0.207367210955483961E+04
    0.174653800618473132E+00   -0.369139622817167101E+01   -0.254723354455751405E+01   -0.207364005653915638E+04
    0.208090695121263658E+00   -0.370259639915570915E+01   -0.294475662570984920E+01   -0.207362322244800862E+04
    0.170926656817736666E+00   -0.369552290307940678E+01   -0.214066276465589533E+01   -0.207361967366874751E+04
    0.206663407689715806E+00   -0.370266630922257445E+01   -0.268097089790485299E+01   -0.207360728988094388E+04
    0.195420876982272812E+00   -0.369695943136493899E+01   -0.291994727773048668E+01   -0.207359971221858677E+04
    0.183413402909426426E+00   -0.369361258955688676E+01   -0.237745105606119367E+01   -0.207358027972489026E+04
    0.166472783006047342E+00   -0.369431888889723226E+01   -0.290917247371885601E+01   -0.207357612703087307E+04
    0.200503657154398746E+00   -0.370196823098364902E+01   -0.272012594249730189E+01   -0.207357450809422926E+04
    0.153195392255511043E+00   -0.369047011761500432E+01   -0.258767946141367089E+01   -0.207356172596386205E+04
    0.143609171311887052E+00   -0.368625796649724435E+01   -0.282134439214135657E+01   -0.207352983334620558E+04
    0.189216990629912929E+00   -0.369979484775797829E+01   -0.287913666557499592E+01   -0.207352185054660777E+04
    0.154829728849956355E+00   -0.369093555410544827E+01   -0.245713599141341765E+01   -0.207351394252526143E+04
    0.144047161161323350E+00   -0.368685232152316722E+01   -0.233421379977700116E+01   -0.207350827243000094E+04
    0.169924963085571756E+00   -0.369517710984171188E+01   -0.211143708743620140E+01   -0.207349416083873757E+04
    0.185688970446205859E+00   -0.369427911489305583E+01   -0.237112739795835736E+01   -0.207348033290553167E+04
    0.197449455526688133E+00   -0.369769013638695787E+01   -0.281690915561751831E+01   -0.207347811421394363E+04
    0.144595729896168423E+00   -0.368623084753727381E+01   -0.269767881715387814E+01   -0.207347487034709093E+04
    0.206965177925434618E+00   -0.370152672024521490E+01   -0.295046476720879980E+01   -0.207346235205026596E+04
    0.171088047178918651E+00   -0.369545576801923481E+01   -0.225950756089459937E+01   -0.207346000247905658E+04
    0.202288074298517112E+00   -0.369936866804855624E+01   -0.284411890742334927E+01   -0.207345243095829255E+04
    0.193279229323521873E+00   -0.369643536855346877E+01   -0.244456234487505153E+01   -0.207344665101911369E+04
    0.206833225139865268E+00   -0.370217333475566157E+01   -0.217542271904633289E+01   -0.207343713854743646E+04
    0.188411794766134538E+00   -0.369505317814727618E+01   -0.263109585536666657E+01   -0.207343235960169613E+04
    0.206731649162035513E+00   -0.370148237154337068E+01   -0.290590698922475399E+01   -0.207343005177380519E+04
    0.192925816669465788E+00   -0.369635272380292701E+01   -0.267283741312012246E+01   -0.207341846532437921E+04
    0.147610718957150805E+00   -0.368641310533384647E+01   -0.286830943853869869E+01   -0.207340940853936081E+04
    0.182336833336125298E+00   -0.369344961329882260E+01   -0.286410522100970732E+01   -0.207340506782098055E+04
    0.168232690310660127E+00   -0.369466745614194281E+01   -0.260378184744405416E+01   -0.207340450092638366E+04
    0.157921264601268679E+00   -0.369177368612939194E+01   -0.257845352299904285E+01   -0.207340317006433452E+04
    0.169268563552507773E+00   -0.369031153272441248E+01   -0.262473653538686547E+01   -0.207340065827641411E+04
    0.152553173625197130E+00   -0.369010026165948091E+01   -0.296517459555354135E+01   -0.207340028956090191E+04
    0.169305680005243958E+00   -0.369032013456483110E+01   -0.240738441115337931E+01   -0.207340019995006878E+04
    0.145864592217311240E+00   -0.368747806848401982E+01   -0.223657485344621954E+01   -0.207337226424078062E+04
    0.206339686762932184E+00   -0.370150593903623637E+01   -0.248164822906038296E+01   -0.207336021077807209E+04
    0.191915847441968129E+00   -0.370022352896543305E+01   -0.264898761569021746E+01   -0.207335164937814352E+04
    0.191915847441968129E+00   -0.370022352896543305E+01   -0.264898761569021746E+01   -0.207335164937814352E+04
    0.204262589461035537E+00   -0.370031950330745651E+01   -0.290656077747106156E+01   -0.207334603403039637E+04
    0.145402731782983879E+00   -0.368689858181702768E+01   -0.281647458593437294E+01   -0.207333755200705991E+04
    0.205049284096207346E+00   -0.370071785300446443E+01   -0.224263418180192931E+01   -0.207333725118439179E+04
    0.192788749973365509E+00   -0.370038319583283215E+01   -0.261344981345042182E+01   -0.207333507535393392E+04
    0.192788749973365509E+00   -0.370038319583283215E+01   -0.261344981345042182E+01   -0.207333507535393392E+04
    0.152306387285559452E+00   -0.368994087919057012E+01   -0.266420941759045871E+01   -0.207333083398066947E+04
    0.165065703315621093E+00   -0.369375292006377709E+01   -0.214819426013614834E+01   -0.207332651969942435E+04
    0.147159885671458324E+00   -0.368797893433708746E+01   -0.254742907232676652E+01   -0.207331678129316742E+04
    0.204007204001420972E+00   -0.370027979137805030E+01   -0.236999608957503582E+01   -0.207330427924544165E+04
    0.183696612598889114E+00   -0.369841435068454061E+01   -0.252693819054338942E+01   -0.207329589752257698E+04
    0.200826656107840340E+00   -0.369902083732643838E+01   -0.221654547412347114E+01   -0.207329273418900812E+04
    0.173103956002024550E+00   -0.369126289482946746E+01   -0.296369876686394385E+01   -0.207328991812642926E+04
    0.173103956002024550E+00   -0.369126289482946746E+01   -0.296369876686394385E+01   -0.207328991812642926E+04
    0.161870391628926524E+00   -0.368884531766474844E+01   -0.247025020555953789E+01   -0.207326533960318875E+04
    0.161870391628926524E+00   -0.368884531766474844E+01   -0.247025020555953789E+01   -0.207326533960318875E+04
    0.192684539778737979E+00   -0.369641516209067955E+01   -0.293203303556685357E+01   -0.207325150869089157E+04
    0.180605529843903323E+00   -0.369766099537782367E+01   -0.298128045523282603E+01   -0.207324550761797855E+04
    0.180605529843903323E+00   -0.369766099537782367E+01   -0.298128045523282603E+01   -0.207324550761797855E+04
    0.191319906367604348E+00   -0.370000481775485790E+01   -0.294270596614775704E+01   -0.207323067201215326E+04
    0.201861946564151740E+00   -0.369950040552922310E+01   -0.280436023595981787E+01   -0.207322624130553231E+04
    0.201861946564151740E+00   -0.369950040552922310E+01   -0.280436023595981787E+01   -0.207322624130553231E+04
    0.199539749903089647E+00   -0.370145083437013422E+01   -0.226929208193711585E+01   -0.207322490209930947E+04
    0.193387211416903237E+00   -0.369665220035124875E+01   -0.239157390159374916E+01   -0.207322008512036064E+04
    0.182541702362416514E+00   -0.369363226011679480E+01   -0.232326832810514983E+01   -0.207321898706938646E+04
    0.146745932997537076E+00   -0.368703048200441241E+01   -0.274064652864744129E+01   -0.207321018078217276E+04
    0.201677668669519861E+00   -0.369945551028261876E+01   -0.276563038434378594E+01   -0.207320692339567722E+04
    0.195036376127295102E+00   -0.369717824475107681E+01   -0.299108087338239415E+01   -0.207319793283157742E+04
    0.203875620878477243E+00   -0.370178073321140655E+01   -0.257891063522523423E+01   -0.207319148233845226E+04
    0.196335713074308582E+00   -0.370090756209774874E+01   -0.242651188664924566E+01   -0.207318948064577808E+04
    0.204977097130156716E+00   -0.370136376613240170E+01   -0.216975709458499466E+01   -0.207318203698950174E+04
    0.159832229222223426E+00   -0.369214311822043095E+01   -0.237121353730139761E+01   -0.207318167698011348E+04
    0.159832229222223426E+00   -0.369214311822043095E+01   -0.237121353730139761E+01   -0.207318167698011348E+04
    0.189555181242571785E+00   -0.369960140783745661E+01   -0.281588063920844567E+01   -0.207317835004697963E+04
    0.152990528924641711E+00   -0.368736672882535110E+01   -0.225384262166909899E+01   -0.207317822706501238E+04
    0.147723957695346408E+00   -0.368694029978904059E+01   -0.254995947553187596E+01   -0.207317721471539426E+04
    0.201552165357261115E+00   -0.369945373778336561E+01   -0.218366239894355862E+01   -0.207317421112918782E+04
    0.204522147104475360E+00   -0.370165966077074238E+01   -0.211985405764525670E+01   -0.207317418238382970E+04
    0.204522147104475360E+00   -0.370165966077074238E+01   -0.211985405764525670E+01   -0.207317418238382970E+04
    0.147209675975069038E+00   -0.368723198383116024E+01   -0.236060950403886238E+01   -0.207316011264867575E+04
    0.147209675975069038E+00   -0.368723198383116024E+01   -0.236060950403886238E+01   -0.207316011264867575E+04
    0.183702145720900656E+00   -0.369827334677223263E+01   -0.235888620085437939E+01   -0.207310750886790629E+04
    0.183702145720900656E+00   -0.369827334677223263E+01   -0.235888620085437939E+01   -0.207310750886790629E+04
    0.149267816838439260E+00   -0.368843792741207466E+01   -0.225773217579270380E+01   -0.207310131213913428E+04
    0.155341028877841791E+00   -0.369067146139844482E+01   -0.228442117158813129E+01   -0.207309710022187983E+04
    0.195725635871786680E+00   -0.369750319291705942E+01   -0.247524937655795041E+01   -0.207308715798669709E+04
    0.195725635871786680E+00   -0.369750319291705942E+01   -0.247524937655795041E+01   -0.207308715798669709E+04
    0.148310763341034046E+00   -0.368786747342582100E+01   -0.235446364129434471E+01   -0.207308687126020232E+04
    0.149659996142724683E+00   -0.368719021765432631E+01   -0.218719416316589621E+01   -0.207307541874174740E+04
    0.187303946225299861E+00   -0.369903201211235233E+01   -0.218990463043551831E+01   -0.207306297911188221E+04
    0.179379650787762773E+00   -0.369294983474971428E+01   -0.278913564471274311E+01   -0.207305065307065661E+04
    0.179379650787762773E+00   -0.369294983474971428E+01   -0.278913564471274311E+01   -0.207305065307065661E+04
    0.189854929714414533E+00   -0.369575716517346198E+01   -0.243365587169894493E+01   -0.207304802112997913E+04
    0.189854929714414533E+00   -0.369575716517346198E+01   -0.243365587169894493E+01   -0.207304802112997913E+04
    0.200350130769338247E+00   -0.369917520621923046E+01   -0.269686945380176102E+01   -0.207304347810504260E+04
    0.200350130769338247E+00   -0.369917520621923046E+01   -0.269686945380176102E+01   -0.207304347810504260E+04
    0.203304977085063732E+00   -0.370129038013987754E+01   -0.218884774424161455E+01   -0.207302469194497689E+04
    0.203304977085063732E+00   -0.370129038013987754E+01   -0.218884774424161455E+01   -0.207302469194497689E+04
    0.165666407961466422E+00   -0.368981864442989904E+01   -0.269629470509545621E+01   -0.207302154033956958E+04
    0.200753797859574645E+00   -0.369937332827129861E+01   -0.271969977534439789E+01   -0.207302052432974870E+04
    0.203516704724615860E+00   -0.370094890387450226E+01   -0.275998823856331299E+01   -0.207301887806483364E+04
    0.158334878263103440E+00   -0.368840624549607377E+01   -0.252642877950549094E+01   -0.207301488676948111E+04
    0.150297831782305352E+00   -0.368868990108464256E+01   -0.271682977495570110E+01   -0.207301186119333624E+04
    0.150297831782305352E+00   -0.368868990108464256E+01   -0.271682977495570110E+01   -0.207301186119333624E+04
    0.195274222206421738E+00   -0.370050795963816093E+01   -0.215964687846546299E+01   -0.207297914097679268E+04
    0.195274222206421738E+00   -0.370050795963816093E+01   -0.215964687846546299E+01   -0.207297914097679268E+04
    0.194878109961589330E+00   -0.369734652810719666E+01   -0.250106412852812632E+01   -0.207297415347600008E+04
    0.164924944807573803E+00   -0.368970732695015169E+01   -0.296883227403407091E+01   -0.207297209881875369E+04
    0.203069656218895056E+00   -0.370083761030525649E+01   -0.229252393022105139E+01   -0.207297044259552740E+04
    0.203069656218895056E+00   -0.370083761030525649E+01   -0.229252393022105139E+01   -0.207297044259552740E+04
    0.181305214682563554E+00   -0.369761352595720805E+01   -0.266057252729553317E+01   -0.207296957818778083E+04
    0.181305214682563554E+00   -0.369761352595720805E+01   -0.266057252729553317E+01   -0.207296957818778083E+04
    0.167300068391688206E+00   -0.369020683314987474E+01   -0.285226121611620531E+01   -0.207296915105530343E+04
    0.202315353350397936E+00   -0.370022005133326104E+01   -0.251292609321283944E+01   -0.207296815558233038E+04
    0.158796050879935147E+00   -0.368854084237193014E+01   -0.282138538099988923E+01   -0.207296334489608489E+04
    0.153194820162771389E+00   -0.368975739903252364E+01   -0.255205650019820585E+01   -0.207296295350670925E+04
    0.153194820162771389E+00   -0.368975739903252364E+01   -0.255205650019820585E+01   -0.207296295350670925E+04
    0.159972341299044918E+00   -0.369196990504522438E+01   -0.268300495273495798E+01   -0.207295938637567042E+04
    0.159972341299044918E+00   -0.369196990504522438E+01   -0.268300495273495798E+01   -0.207295938637567042E+04
    0.202585645781087953E+00   -0.370109461412435925E+01   -0.293376943947874924E+01   -0.207294480328008649E+04
    0.202585645781087953E+00   -0.370109461412435925E+01   -0.293376943947874924E+01   -0.207294480328008649E+04
    0.164540897766581456E+00   -0.368966083692873870E+01   -0.255233924107810140E+01   -0.207293579992041077E+04
    0.202659120841712226E+00   -0.370066329540222760E+01   -0.225351954624587636E+01   -0.207293180686717460E+04
    0.190605779570955980E+00   -0.369608869092123360E+01   -0.240195929746524461E+01   -0.207291988924386715E+04
    0.177605050558999555E+00   -0.369668771394457174E+01   -0.236812393585583525E+01   -0.207291473127022573E+04
    0.201950369738964741E+00   -0.370019905269884131E+01   -0.240597247061445696E+01   -0.207291025439775603E+04
    0.150653216696931741E+00   -0.368852882867021581E+01   -0.259094994035912363E+01   -0.207289951787088239E+04
    0.150653216696931741E+00   -0.368852882867021581E+01   -0.259094994035912363E+01   -0.207289951787088239E+04
    0.150447092638450686E+00   -0.368839867039218205E+01   -0.269543619201404683E+01   -0.207289867787221601E+04
    0.150447092638450686E+00   -0.368839867039218205E+01   -0.269543619201404683E+01   -0.207289867787221601E+04
    0.193651921056990334E+00   -0.370013497596819718E+01   -0.250029062037910732E+01   -0.207289429071970289E+04
    0.150312634178664362E+00   -0.368826580220028077E+01   -0.242719589383879741E+01   -0.207289262854779327E+04
    0.150312634178664362E+00   -0.368826580220028077E+01   -0.242719589383879741E+01   -0.207289262854779327E+04
    0.170570922466714792E+00   -0.369487854292871631E+01   -0.279366911644445448E+01   -0.207288291838705027E+04
    0.170570922466714792E+00   -0.369487854292871631E+01   -0.279366911644445448E+01   -0.207288291838705027E+04
    0.153910390500175243E+00   -0.368988864987506604E+01   -0.232200228043800827E+01   -0.207288196249110160E+04
    0.153959682429348210E+00   -0.368990484805360897E+01   -0.222833519201373154E+01   -0.207288079973111735E+04
    0.185060727537544101E+00   -0.369838656263473453E+01   -0.279311572304506628E+01   -0.207287554956257691E+04
    0.158749369936626888E+00   -0.369149414415251931E+01   -0.295751370763270627E+01   -0.207286750916008759E+04
    0.183090394409679447E+00   -0.369404750327549936E+01   -0.235947091864588199E+01   -0.207286500343335319E+04
    0.183090394409679447E+00   -0.369404750327549936E+01   -0.235947091864588199E+01   -0.207286500343335319E+04
    0.163068603118723898E+00   -0.368943501089775738E+01   -0.232473010551911852E+01   -0.207286299127591474E+04
    0.157211084247152744E+00   -0.368841061969854644E+01   -0.296329749651460173E+01   -0.207284575441044171E+04
    0.157211084247152744E+00   -0.368841061969854644E+01   -0.296329749651460173E+01   -0.207284575441044171E+04
    0.170872384234241503E+00   -0.369109161854476708E+01   -0.278681899214879714E+01   -0.207284448284266500E+04
    0.201510813560659863E+00   -0.370017949167893700E+01   -0.245613540764603266E+01   -0.207284412646548662E+04
    0.200283894151803143E+00   -0.369952075564255978E+01   -0.278894463188195374E+01   -0.207283928215569131E+04
    0.200283894151803143E+00   -0.369952075564255978E+01   -0.278894463188195374E+01   -0.207283928215569131E+04
    0.201171058424042010E+00   -0.370088740565332852E+01   -0.290500124808226179E+01   -0.207283381912949835E+04
    0.158366966319758579E+00   -0.368861453237378623E+01   -0.244554080707128740E+01   -0.207283128513720840E+04
    0.174933593910893720E+00   -0.369595366272016923E+01   -0.271170352552065186E+01   -0.207282627475841491E+04
    0.151543865612474626E+00   -0.368868520267577127E+01   -0.228803744535715481E+01   -0.207281004783094932E+04
    0.201321935760374326E+00   -0.370028629645677887E+01   -0.298910042623178729E+01   -0.207279971826314295E+04
    0.201016317005189682E+00   -0.370003892714045923E+01   -0.221223857491772469E+01   -0.207279907349650921E+04
    0.198560680623689506E+00   -0.370072955024742134E+01   -0.212981256075800784E+01   -0.207279828342089741E+04
    0.158848928468710848E+00   -0.368873973098516661E+01   -0.258388830005540626E+01   -0.207279345133198967E+04
    0.158848928468710848E+00   -0.368873973098516661E+01   -0.258388830005540626E+01   -0.207279345133198967E+04
    0.151340734639500707E+00   -0.368826531528156920E+01   -0.242842942091143321E+01   -0.207278700732451352E+04
    0.152535439598266931E+00   -0.368799583691032673E+01   -0.237162612253549332E+01   -0.207278661676686215E+04
    0.152116003960220569E+00   -0.368891672643828894E+01   -0.223684239201402235E+01   -0.207278607630629540E+04
    0.151407661963775753E+00   -0.368839873531909745E+01   -0.258189917512107048E+01   -0.207278495867207994E+04
    0.183635093338320204E+00   -0.369797889177146022E+01   -0.235611632608226218E+01   -0.207277182092309749E+04
    0.173735902622373900E+00   -0.369560352506668188E+01   -0.240867788836401875E+01   -0.207277155873112679E+04
    0.181831308365322297E+00   -0.369756475555543496E+01   -0.232099656564652523E+01   -0.207276674743015928E+04
    0.181831308365322297E+00   -0.369756475555543496E+01   -0.232099656564652523E+01   -0.207276674743015928E+04
    0.188940807976600345E+00   -0.369910700089987010E+01   -0.283237891442232304E+01   -0.207276645480155548E+04
    0.155335129014312540E+00   -0.369021320744641468E+01   -0.213247147380752411E+01   -0.207276430669702131E+04
    0.190205167818681714E+00   -0.369935407055324905E+01   -0.243121674810581556E+01   -0.207276254519650183E+04
    0.190205167818681714E+00   -0.369935407055324905E+01   -0.243121674810581556E+01   -0.207276254519650183E+04
    0.200987841994366756E+00   -0.370027564263708442E+01   -0.272087460778782608E+01   -0.207275983830516634E+04
    0.188736699728868362E+00   -0.369571097097499113E+01   -0.246043144289497517E+01   -0.207274168425606376E+04
    0.151901313067265453E+00   -0.368835614867630390E+01   -0.279638885087830147E+01   -0.207274098596328804E+04
    0.151901313067265453E+00   -0.368835614867630390E+01   -0.279638885087830147E+01   -0.207274098596328804E+04
    0.155112802174426773E+00   -0.368828375473700465E+01   -0.287975896527442066E+01   -0.207273779103598235E+04
    0.163462395563044316E+00   -0.368963835545169161E+01   -0.293527626945636078E+01   -0.207273504044589936E+04
    0.163462395563044316E+00   -0.368963835545169161E+01   -0.293527626945636078E+01   -0.207273504044589936E+04
    0.181318150318180438E+00   -0.369369644744927061E+01   -0.254724839602785647E+01   -0.207273370155503471E+04
    0.160177037200101346E+00   -0.369178037728866748E+01   -0.297633053179753526E+01   -0.207273184366025453E+04
    0.160177037200101346E+00   -0.369178037728866748E+01   -0.297633053179753526E+01   -0.207273184366025453E+04
    0.168522135840881826E+00   -0.369067686554604446E+01   -0.229650727055405035E+01   -0.207272941082993339E+04
    0.167180571678944456E+00   -0.369039275610093842E+01   -0.250566523799012142E+01   -0.207272935089130306E+04
    0.167180571678944456E+00   -0.369039275610093842E+01   -0.250566523799012142E+01   -0.207272935089130306E+04
    0.185437509744481865E+00   -0.369481889379649964E+01   -0.240799424091459358E+01   -0.207270273840698928E+04
    0.185437509744481865E+00   -0.369481889379649964E+01   -0.240799424091459358E+01   -0.207270273840698928E+04
    0.200391774213255658E+00   -0.370028470521115249E+01   -0.244041954016091545E+01   -0.207269835025852717E+04
    0.153725490025811845E+00   -0.368941656221143122E+01   -0.210474211935158406E+01   -0.207269286482581128E+04
    0.196696220626056795E+00   -0.370033710303369467E+01   -0.284884079300129711E+01   -0.207268573216120876E+04
    0.199855375281847603E+00   -0.370045477325161398E+01   -0.266084542676500924E+01   -0.207268293967984664E+04
    0.198574420091785775E+00   -0.369910396020083043E+01   -0.277150219747208437E+01   -0.207268118028134450E+04
    0.152934298568298543E+00   -0.368839115768740866E+01   -0.253895600952067957E+01   -0.207267787076401964E+04
    0.152934298568298543E+00   -0.368839115768740866E+01   -0.253895600952067957E+01   -0.207267787076401964E+04
    0.169798831818009394E+00   -0.369448652266933575E+01   -0.266217349033331763E+01   -0.207267503269176086E+04
    0.169798831818009394E+00   -0.369448652266933575E+01   -0.266217349033331763E+01   -0.207267503269176086E+04
    0.172189985415442975E+00   -0.369511857379904463E+01   -0.288204481846328164E+01   -0.207267493796414692E+04
    0.161250129731422387E+00   -0.369204288105638323E+01   -0.264212490486562412E+01   -0.207267400150701314E+04
    0.161250129731422387E+00   -0.369204288105638323E+01   -0.264212490486562412E+01   -0.207267400150701314E+04
    0.161302179836831233E+00   -0.369204650905862763E+01   -0.257396226330733935E+01   -0.207266371979155747E+04
    0.199370372830306397E+00   -0.369956166922569452E+01   -0.245357742076456598E+01   -0.207266112791941077E+04
    0.199370372830306397E+00   -0.369956166922569452E+01   -0.245357742076456598E+01   -0.207266112791941077E+04
    0.162144979503636766E+00   -0.369228010362578107E+01   -0.259928223584703666E+01   -0.207264381878712538E+04
    0.162144979503636766E+00   -0.369228010362578107E+01   -0.259928223584703666E+01   -0.207264381878712538E+04
    0.165262901106217830E+00   -0.369318569408055364E+01   -0.257805454158521252E+01   -0.207263186028559949E+04
    0.165262901106217830E+00   -0.369318569408055364E+01   -0.257805454158521252E+01   -0.207263186028559949E+04
    0.182624830099974711E+00   -0.369761957258623708E+01   -0.283306216408926126E+01   -0.207262832406479038E+04
    0.159803420289436060E+00   -0.369152644678257591E+01   -0.223648881213538608E+01   -0.207262561445953725E+04
    0.177779432728836007E+00   -0.369647727915631652E+01   -0.217048248260542431E+01   -0.207262278467308579E+04
    0.177779432728836007E+00   -0.369647727915631652E+01   -0.217048248260542431E+01   -0.207262278467308579E+04
    0.199546939287951447E+00   -0.370005255282861079E+01   -0.224415498777463140E+01   -0.207261945712171973E+04
    0.195347876305933810E+00   -0.370005438940924458E+01   -0.257786656569388040E+01   -0.207261617750044888E+04
    0.195347876305933810E+00   -0.370005438940924458E+01   -0.257786656569388040E+01   -0.207261617750044888E+04
    0.194540424301163306E+00   -0.369766699730287041E+01   -0.246667108186273865E+01   -0.207261507134104249E+04
    0.159693902824537159E+00   -0.369146634698832887E+01   -0.233801893807458505E+01   -0.207260775224169720E+04
    0.193362076396066229E+00   -0.369728648572176333E+01   -0.243564607163989777E+01   -0.207260207632003039E+04
    0.173561922238337468E+00   -0.369539884185275014E+01   -0.220959860104119121E+01   -0.207259549936390840E+04
    0.188400344184073837E+00   -0.369882153805173886E+01   -0.262935889691749303E+01   -0.207259454511917238E+04
    0.179143568193526281E+00   -0.369677565994961554E+01   -0.252432002799310951E+01   -0.207259095658786782E+04
    0.178144762199657941E+00   -0.369653374663157397E+01   -0.217220489711587650E+01   -0.207258850609335013E+04
    0.199036043791667588E+00   -0.370010500160493994E+01   -0.289788797052852720E+01   -0.207258489256674829E+04
    0.199036043791667588E+00   -0.370010500160493994E+01   -0.289788797052852720E+01   -0.207258489256674829E+04
    0.154895532611057762E+00   -0.368960795172227174E+01   -0.239642925627833225E+01   -0.207257537171196464E+04
    0.154895532611057762E+00   -0.368960795172227174E+01   -0.239642925627833225E+01   -0.207257537171196464E+04
    0.157287514830260100E+00   -0.369058876607848418E+01   -0.253552662839827914E+01   -0.207257433066905151E+04
    0.154615576302747942E+00   -0.368945601389948630E+01   -0.292667042407059608E+01   -0.207257369274981374E+04
    0.154615576302747942E+00   -0.368945601389948630E+01   -0.292667042407059608E+01   -0.207257369274981374E+04
    0.154041728266435918E+00   -0.368903024588342010E+01   -0.234126469449910779E+01   -0.207257306623651675E+04
    0.191788218245974251E+00   -0.369682117741728877E+01   -0.271389027484792456E+01   -0.207256691982534858E+04
    0.191788218245974251E+00   -0.369682117741728877E+01   -0.271389027484792456E+01   -0.207256691982534858E+04
    0.198556569941901628E+00   -0.370011927027509291E+01   -0.249210257182704087E+01   -0.207256402944284901E+04
    0.154636112550243704E+00   -0.368937053393728798E+01   -0.261352832891425457E+01   -0.207255286025136502E+04
    0.196608126094192315E+00   -0.369855191664663119E+01   -0.214119017119963218E+01   -0.207254831835164350E+04
    0.196608126094192315E+00   -0.369855191664663119E+01   -0.214119017119963218E+01   -0.207254831835164350E+04
    0.168577508683503574E+00   -0.369086532795543043E+01   -0.284889350621044413E+01   -0.207254613547108374E+04
    0.168577508683503574E+00   -0.369086532795543043E+01   -0.284889350621044413E+01   -0.207254613547108374E+04
    0.178937699106012316E+00   -0.369668144351737205E+01   -0.285982722331329509E+01   -0.207254371570679723E+04
    0.167365872888618233E+00   -0.369064881787747678E+01   -0.281812699688552382E+01   -0.207251182577152304E+04
    0.159627566999282544E+00   -0.368926155277643009E+01   -0.282231567517458970E+01   -0.207250197028511548E+04
    0.161707607081937738E+00   -0.369195976165581108E+01   -0.225113348121830459E+01   -0.207249900057622972E+04
    0.161707607081937738E+00   -0.369195976165581108E+01   -0.225113348121830459E+01   -0.207249900057622972E+04
    0.166324330166542883E+00   -0.369045407184025764E+01   -0.235171435796202566E+01   -0.207249718235941418E+04
    0.166324330166542883E+00   -0.369045407184025764E+01   -0.235171435796202566E+01   -0.207249718235941418E+04
    0.173376729499212373E+00   -0.369525498781407080E+01   -0.276937851393216183E+01   -0.207249713429682242E+04
    0.162336666443209654E+00   -0.368970756473173100E+01   -0.269125679514598115E+01   -0.207249542943596134E+04
    0.191007601933964849E+00   -0.369919556236967129E+01   -0.254379661435980298E+01   -0.207249310382013300E+04
    0.157757913032000818E+00   -0.368904926535880850E+01   -0.222094341115970062E+01   -0.207248772132040676E+04
    0.190113039392704464E+00   -0.369639864525498041E+01   -0.267531908317592348E+01   -0.207248467218270525E+04
    0.197924889761393275E+00   -0.369977547365436266E+01   -0.275706940320519367E+01   -0.207248358314165807E+04
    0.169818574050110971E+00   -0.369429885288973203E+01   -0.220674584990214884E+01   -0.207248268535420357E+04
    0.155286447098885366E+00   -0.368916217260960577E+01   -0.247790510825079036E+01   -0.207247761295474811E+04
    0.155286447098885366E+00   -0.368916217260960577E+01   -0.247790510825079036E+01   -0.207247761295474811E+04
    0.163178169133820661E+00   -0.368988749436475238E+01   -0.253010682789811847E+01   -0.207247139459291839E+04
    0.155413481654690988E+00   -0.368919013974681631E+01   -0.226129542044342724E+01   -0.207246846959477716E+04
    0.155413481654690988E+00   -0.368919013974681631E+01   -0.226129542044342724E+01   -0.207246846959477716E+04
    0.197250017948848472E+00   -0.369911605046818925E+01   -0.240946916777030884E+01   -0.207246036631282186E+04
    0.155776260408778983E+00   -0.368951755958401684E+01   -0.297057072918285359E+01   -0.207245068131160997E+04
    0.158872503506839402E+00   -0.368925349094034072E+01   -0.252593836873489419E+01   -0.207244860177122928E+04
    0.156550927182128707E+00   -0.368908911286731467E+01   -0.288623545248173929E+01   -0.207244570425829306E+04
    0.157910074136770884E+00   -0.369054537524834547E+01   -0.211139667782053753E+01   -0.207244070941379732E+04
    0.195087504635542114E+00   -0.369970284333216837E+01   -0.276099476216683604E+01   -0.207243841972534392E+04
    0.177650223557290154E+00   -0.369626151489100785E+01   -0.296206472545429955E+01   -0.207243355258010661E+04
    0.177916966130925447E+00   -0.369312009888478610E+01   -0.214677550496908243E+01   -0.207242944820158937E+04
    0.155973217405970560E+00   -0.368946487554574443E+01   -0.286916258688880843E+01   -0.207242888827398019E+04
    0.155973217405970560E+00   -0.368946487554574443E+01   -0.286916258688880843E+01   -0.207242888827398019E+04
    0.191466130453206845E+00   -0.369690088745137135E+01   -0.237489136283153446E+01   -0.207242819008452170E+04
    0.191466130453206845E+00   -0.369690088745137135E+01   -0.237489136283153446E+01   -0.207242819008452170E+04
    0.188419623952043869E+00   -0.369596202113931627E+01   -0.240397625433800988E+01   -0.207242168935091104E+04
    0.183568141841141091E+00   -0.369459088594551410E+01   -0.287269780943609065E+01   -0.207241774506457296E+04
    0.183568141841141091E+00   -0.369459088594551410E+01   -0.287269780943609065E+01   -0.207241774506457296E+04
    0.192111105294897888E+00   -0.369712927403614255E+01   -0.258510148504082204E+01   -0.207241762378421390E+04
    0.178414797676306358E+00   -0.369642678019966731E+01   -0.260615801791213153E+01   -0.207241469809958699E+04
    0.196032124934258756E+00   -0.369969841593338700E+01   -0.253367787943082634E+01   -0.207241331368053397E+04
    0.190043295141323842E+00   -0.369891322010616008E+01   -0.270978643025531829E+01   -0.207240957972703882E+04
    0.190043295141323842E+00   -0.369891322010616008E+01   -0.270978643025531829E+01   -0.207240957972703882E+04
    0.196608079683246006E+00   -0.369962735913660179E+01   -0.277857386137696238E+01   -0.207240207889089015E+04
    0.160553123907850454E+00   -0.369143119029913125E+01   -0.284614801902336367E+01   -0.207240198985690995E+04
    0.156780261706294388E+00   -0.368989709533554189E+01   -0.251024215982306975E+01   -0.207240107684960049E+04
    0.156780261706294388E+00   -0.368989709533554189E+01   -0.251024215982306975E+01   -0.207240107684960049E+04
    0.185924180710226317E+00   -0.369809745086488384E+01   -0.213063026530141730E+01   -0.207239787242997772E+04
    0.156577560281754874E+00   -0.368940591235129656E+01   -0.289563346918817688E+01   -0.207238979230109499E+04
    0.157588072407086222E+00   -0.368929286091074360E+01   -0.244196473256970403E+01   -0.207238870900430447E+04
    0.187735892587967274E+00   -0.369580239989318304E+01   -0.242839730134178300E+01   -0.207238602923513008E+04
    0.187735892587967274E+00   -0.369580239989318304E+01   -0.242839730134178300E+01   -0.207238602923513008E+04
    0.185541261757962456E+00   -0.369799899694443024E+01   -0.213942023335761800E+01   -0.207238179787173476E+04
    0.169378159986275229E+00   -0.369406524967306948E+01   -0.265368051585408660E+01   -0.207238051574841711E+04
    0.167587503103655028E+00   -0.369354722702556426E+01   -0.232941419414836215E+01   -0.207236642415296683E+04
    0.162601437305950308E+00   -0.369204158713656572E+01   -0.271669949929164689E+01   -0.207236151823233240E+04
    0.162601437305950308E+00   -0.369204158713656572E+01   -0.271669949929164689E+01   -0.207236151823233240E+04
    0.175655562444898244E+00   -0.369569099273811963E+01   -0.267253832662995139E+01   -0.207235934686707833E+04
    0.194754541391193275E+00   -0.369821486721314407E+01   -0.221499449449917396E+01   -0.207235891046128336E+04
    0.193973730358181190E+00   -0.369941827762317166E+01   -0.274636703020978645E+01   -0.207235756538733085E+04
    0.195299601956719637E+00   -0.369849653038714710E+01   -0.223099765452710130E+01   -0.207234663207069252E+04
    0.163719226235500809E+00   -0.369237013267803782E+01   -0.279845003755874666E+01   -0.207234514879865674E+04
    0.157271795722920327E+00   -0.368961390684594726E+01   -0.267701570887910378E+01   -0.207233985223712853E+04
    0.183767418071240612E+00   -0.369757065320883349E+01   -0.216190327087038892E+01   -0.207233841547322027E+04
    0.193078474042579218E+00   -0.369926683675362700E+01   -0.299755868899919209E+01   -0.207233359974231371E+04
    0.185713669110200874E+00   -0.369797260509057324E+01   -0.223413058754941574E+01   -0.207232980878081844E+04
    0.158147320932791324E+00   -0.368951018562720368E+01   -0.216193767576112705E+01   -0.207232970115935404E+04
    0.175891009959611100E+00   -0.369273284189139739E+01   -0.236620354529378218E+01   -0.207232943058953515E+04
    0.175891009959611100E+00   -0.369273284189139739E+01   -0.236620354529378218E+01   -0.207232943058953515E+04
    0.166499627578669873E+00   -0.369318626598455957E+01   -0.265837720964789881E+01   -0.207232924455588545E+04
    0.158927604399211636E+00   -0.368953642578568175E+01   -0.297089205922749811E+01   -0.207232865765227371E+04
    0.158494566225958700E+00   -0.368951816116015419E+01   -0.224921370538484444E+01   -0.207232808028387490E+04
    0.166836261635829264E+00   -0.369075964627556008E+01   -0.277082641538936780E+01   -0.207232589687469044E+04
    0.157723394991901439E+00   -0.368963688588922878E+01   -0.217532730915290617E+01   -0.207231675599413575E+04
    0.157723394991901439E+00   -0.368963688588922878E+01   -0.217532730915290617E+01   -0.207231675599413575E+04
    0.187378011031263836E+00   -0.369578367256154117E+01   -0.246576523217463217E+01   -0.207231652015823329E+04
    0.168527890086718757E+00   -0.369111468320962111E+01   -0.273294903153575497E+01   -0.207231279315714119E+04
    0.160475922987972475E+00   -0.368972358414480173E+01   -0.275213210403736941E+01   -0.207231219188034675E+04
    0.174609456912303285E+00   -0.369536994342976843E+01   -0.282584332153874351E+01   -0.207230817731187881E+04
    0.195772954094119545E+00   -0.369907119741720347E+01   -0.232174701976534470E+01   -0.207230797117705151E+04
    0.187160031707480218E+00   -0.369823591168557275E+01   -0.215954084406363389E+01   -0.207230775534032864E+04
    0.187684622391409595E+00   -0.369588692131972607E+01   -0.217507817167750517E+01   -0.207230728391975163E+04
    0.194584585643874874E+00   -0.369829264527306734E+01   -0.249578404629029205E+01   -0.207230449589652790E+04
    0.159213340317316876E+00   -0.369071325087134294E+01   -0.251066671884660142E+01   -0.207230342778249951E+04
    0.161371790200637272E+00   -0.368985674312798206E+01   -0.276230373477948232E+01   -0.207230304464275559E+04
    0.185327320059605283E+00   -0.369785254318292944E+01   -0.280574699900876823E+01   -0.207229737544607315E+04
    0.190405117920017020E+00   -0.369674945247191600E+01   -0.278189628620770080E+01   -0.207229725091106593E+04
    0.184774885515446297E+00   -0.369773509438238968E+01   -0.270205107855927862E+01   -0.207229577049720046E+04
    0.172430061443261728E+00   -0.369197097894408532E+01   -0.291411299683585945E+01   -0.207229566845941190E+04
    0.172430061443261728E+00   -0.369197097894408532E+01   -0.291411299683585945E+01   -0.207229566845941190E+04
    0.176733368646190242E+00   -0.369588657848590074E+01   -0.226475539305388551E+01   -0.207229395725881750E+04
    0.193446056688983348E+00   -0.369921640129770068E+01   -0.232627110545111204E+01   -0.207229163275923247E+04
    0.186803340613674818E+00   -0.369565756145839774E+01   -0.236521270569697295E+01   -0.207228309817180161E+04
    0.195051003102691800E+00   -0.369922319045370518E+01   -0.273294188322920828E+01   -0.207228259400542265E+04
    0.195051003102691800E+00   -0.369922319045370518E+01   -0.273294188322920828E+01   -0.207228259400542265E+04
    0.188752867674046587E+00   -0.369849692868670621E+01   -0.251831903282199843E+01   -0.207227880855633111E+04
    0.167989574948560538E+00   -0.369105059043480388E+01   -0.242328473387305898E+01   -0.207227709767032593E+04
    0.185954416825888341E+00   -0.369542193855395107E+01   -0.291589186104999953E+01   -0.207227439906431846E+04
    0.192874385051847425E+00   -0.369911215460643206E+01   -0.221146089203573304E+01   -0.207227160094884857E+04
    0.193947733750426676E+00   -0.369919818415530743E+01   -0.245514981858163139E+01   -0.207227081795245704E+04
    0.187426299923238143E+00   -0.369823626729916821E+01   -0.241020900864142407E+01   -0.207226971349584073E+04
    0.188443156244980120E+00   -0.369842533833330567E+01   -0.266790161464454245E+01   -0.207226843973305722E+04
    0.170305300447062380E+00   -0.369154030868132832E+01   -0.269846866074932867E+01   -0.207226799267414208E+04
    0.170305300447062380E+00   -0.369154030868132832E+01   -0.269846866074932867E+01   -0.207226799267414208E+04
    0.173699695920947333E+00   -0.369228983314517389E+01   -0.240346865481374206E+01   -0.207226772712667798E+04
    0.171989047674912743E+00   -0.369463955955331702E+01   -0.260130989819654390E+01   -0.207226740505349198E+04
    0.161817057239789924E+00   -0.368999677768436740E+01   -0.290109027878415038E+01   -0.207226272241673178E+04
    0.164699822123848399E+00   -0.369046007881486560E+01   -0.248302778756935183E+01   -0.207225659649600811E+04
    0.164699822123848399E+00   -0.369046007881486560E+01   -0.248302778756935183E+01   -0.207225659649600811E+04
    0.158841000177786212E+00   -0.369032507652810704E+01   -0.236890558283934105E+01   -0.207225453639463649E+04
    0.194729412335805430E+00   -0.369858781351204424E+01   -0.226999623258266192E+01   -0.207225280845473480E+04
    0.181133178336018830E+00   -0.369412983839757247E+01   -0.232493538134545963E+01   -0.207224989133155350E+04
    0.176387622114572123E+00   -0.369294085228613689E+01   -0.253646470205706009E+01   -0.207224926820228166E+04
    0.162797810214310501E+00   -0.369190475031535748E+01   -0.251936299125003238E+01   -0.207224421376616920E+04
    0.192590789746818619E+00   -0.369761722055278508E+01   -0.275563971937655117E+01   -0.207224384852129560E+04
    0.170452274061128950E+00   -0.369419144788521336E+01   -0.288751749589301410E+01   -0.207224098761719142E+04
    0.165894260603237809E+00   -0.369069785375917370E+01   -0.249448292651622205E+01   -0.207224068700818862E+04
    0.181183169771010455E+00   -0.369688065096410412E+01   -0.292697055009154994E+01   -0.207224054854169117E+04
    0.168949513923183692E+00   -0.369129988342649362E+01   -0.263237371617951599E+01   -0.207223461232678983E+04
    0.174620858143394175E+00   -0.369254163144965775E+01   -0.234023312507473724E+01   -0.207223368170928461E+04
    0.158908137541296957E+00   -0.369011244272606254E+01   -0.217389919311345592E+01   -0.207223199390185755E+04
    0.192078527773484942E+00   -0.369745302146778654E+01   -0.265928373554088004E+01   -0.207223013867382360E+04
    0.194672356012136949E+00   -0.369881762367714373E+01   -0.275149014740231479E+01   -0.207222865465287714E+04
    0.164438933985359914E+00   -0.369240744923522168E+01   -0.233323154858338633E+01   -0.207222569556748385E+04
    0.181548301047856686E+00   -0.369694115518341748E+01   -0.254673465526853571E+01   -0.207222239658910030E+04
    0.191634426171933547E+00   -0.369885284182393548E+01   -0.268196306326829248E+01   -0.207221973486730576E+04
    0.162254226869192886E+00   -0.369166538773309938E+01   -0.239719104233568725E+01   -0.207221836587446705E+04
    0.166733444671608416E+00   -0.369309845648644064E+01   -0.257551727075915071E+01   -0.207221719208697141E+04
    0.194392114907824931E+00   -0.369890932658241178E+01   -0.273724170845801629E+01   -0.207221605667876383E+04
    0.176980062174480257E+00   -0.369585561159160392E+01   -0.291092466535092242E+01   -0.207221547477250124E+04
    0.159496540600090747E+00   -0.368998839251777166E+01   -0.285988995297693993E+01   -0.207221502366440563E+04
    0.168270671171115216E+00   -0.369354449935921147E+01   -0.246247051597806310E+01   -0.207221481995055183E+04
    0.175396852275765069E+00   -0.369545099176385072E+01   -0.291680952322106446E+01   -0.207220708860397963E+04
    0.169027525562459369E+00   -0.369374887920197903E+01   -0.216394253839138218E+01   -0.207220648693743260E+04
    0.179259273026596222E+00   -0.369638488729570991E+01   -0.260097725970391203E+01   -0.207219937646987319E+04
    0.178885348309552383E+00   -0.369629614839269749E+01   -0.294846596896328217E+01   -0.207219915837546841E+04
    0.159579947087662100E+00   -0.369013563632814190E+01   -0.215024748524843190E+01   -0.207219549855113382E+04
    0.169969278074645014E+00   -0.369156304566191507E+01   -0.218034569131971079E+01   -0.207219446506056238E+04
    0.162771717981997577E+00   -0.369178174014686888E+01   -0.219306334923170132E+01   -0.207218803599372814E+04
    0.162982734959037645E+00   -0.369185339045961713E+01   -0.241638832654045288E+01   -0.207218711772480947E+04
    0.160040388833221220E+00   -0.369063830246250024E+01   -0.296838279005138883E+01   -0.207218581763232032E+04
    0.161924273625886767E+00   -0.369018774501625035E+01   -0.210623070724206141E+01   -0.207218366193483689E+04
    0.177213278255536733E+00   -0.369322172899410806E+01   -0.218080801258154855E+01   -0.207218060695718759E+04
    0.162337313854234666E+00   -0.369025269477056916E+01   -0.214170251256344191E+01   -0.207217629268516248E+04
    0.169001375932385622E+00   -0.369139091257511431E+01   -0.225824203152566128E+01   -0.207217515162582322E+04
    0.193630608396931858E+00   -0.369879368053686486E+01   -0.266626031478219394E+01   -0.207217356667454897E+04
    0.165657233516461166E+00   -0.369270112500261094E+01   -0.246027520576239622E+01   -0.207217292379991841E+04
    0.164790433908176603E+00   -0.369242582169175382E+01   -0.294266828286038296E+01   -0.207217210879563936E+04
    0.193247345830085682E+00   -0.369812699384137034E+01   -0.274931580625121708E+01   -0.207217190965490772E+04
    0.166521867577755195E+00   -0.369296217147587669E+01   -0.270904562347752531E+01   -0.207217018597027209E+04
    0.189431310700152511E+00   -0.369843286024715834E+01   -0.291468078808582431E+01   -0.207216809956191219E+04
    0.160251502265404133E+00   -0.369025679639046533E+01   -0.219335760198919960E+01   -0.207215950674730175E+04
    0.162191198122535907E+00   -0.369027969881557638E+01   -0.233503609230913023E+01   -0.207215917057311344E+04
    0.193636967935817028E+00   -0.369858064967315192E+01   -0.299500222636991653E+01   -0.207215903845395587E+04
    0.179817125142077039E+00   -0.369646466221168213E+01   -0.282786126923928016E+01   -0.207215886067009615E+04
    0.160444536560036821E+00   -0.369068163962108464E+01   -0.237042938540794612E+01   -0.207215437053773167E+04
    0.160411641974549657E+00   -0.369061664482170038E+01   -0.242133991898529644E+01   -0.207214974597251557E+04
    0.164968007678725548E+00   -0.369068577724773172E+01   -0.285655421772898510E+01   -0.207214972429843920E+04
    0.164849807563560657E+00   -0.369239589110772748E+01   -0.250225964621060060E+01   -0.207214571144839510E+04
    0.167712331419675675E+00   -0.369327974765351730E+01   -0.261237505893228805E+01   -0.207214570981964516E+04
    0.192997061541914816E+00   -0.369815317613148054E+01   -0.277208235059581254E+01   -0.207213956832225585E+04
    0.164098912255029317E+00   -0.369213067046498633E+01   -0.218191099736704563E+01   -0.207213748110760844E+04
    0.161801611522734423E+00   -0.369127795514910861E+01   -0.270367153407049710E+01   -0.207213672789836664E+04
    0.160712840288466718E+00   -0.369065728967339535E+01   -0.292994814332207687E+01   -0.207212980739091790E+04
    0.160821892653028847E+00   -0.369037812328261738E+01   -0.282102377910744506E+01   -0.207212871837902321E+04
    0.163103675824883054E+00   -0.369176096397392550E+01   -0.289774640968331720E+01   -0.207212846712664395E+04
    0.180818716280683245E+00   -0.369419977205910577E+01   -0.296292322639943295E+01   -0.207212711698997964E+04
    0.193123273651052418E+00   -0.369839921739725330E+01   -0.231229138370907927E+01   -0.207212692505921041E+04
    0.188466883446469058E+00   -0.369641400273234799E+01   -0.282748568309219017E+01   -0.207212132138084871E+04
    0.190799030826583865E+00   -0.369722570314405008E+01   -0.213052349894965776E+01   -0.207212111340616366E+04
    0.173718436745593202E+00   -0.369247693080209061E+01   -0.254742586742193744E+01   -0.207211957541689981E+04
    0.161146755965477728E+00   -0.369039550964291685E+01   -0.271038638453507197E+01   -0.207211854556147682E+04
    0.192790667765453061E+00   -0.369816213568456220E+01   -0.220483505984261274E+01   -0.207211822658956908E+04
    0.174295749413334200E+00   -0.369261512705797124E+01   -0.295432508856444187E+01   -0.207211449960161826E+04
    0.182597532643215016E+00   -0.369702860733019278E+01   -0.224755723598283996E+01   -0.207211227408308287E+04
    0.161055426763277193E+00   -0.369075919321007007E+01   -0.237954947972195718E+01   -0.207211223430114524E+04
    0.167135173943313287E+00   -0.369304356019154767E+01   -0.252997181354346790E+01   -0.207210718206559841E+04
    0.190097718025089041E+00   -0.369700637721445524E+01   -0.293351918690912195E+01   -0.207210425069223038E+04
    0.163856467056625016E+00   -0.369196700252467291E+01   -0.247578465142010939E+01   -0.207210219759611391E+04
    0.164720818270372299E+00   -0.369074339831356646E+01   -0.231975163765987613E+01   -0.207210103920104257E+04
    0.162519204841432785E+00   -0.369048711750839953E+01   -0.236411077271064407E+01   -0.207209925734088984E+04
    0.191223439797763406E+00   -0.369747968758454393E+01   -0.277699096718064364E+01   -0.207209112735941289E+04
    0.163919173366503829E+00   -0.369065782678568510E+01   -0.265036348856175730E+01   -0.207208991116409106E+04
    0.161501781657244076E+00   -0.369058929571399474E+01   -0.280980672868555592E+01   -0.207208678576615057E+04
    0.164349144124146862E+00   -0.369072344938265928E+01   -0.270310882350578918E+01   -0.207208619727569067E+04
    0.186558263061022911E+00   -0.369778137866218337E+01   -0.266917208278640272E+01   -0.207208051640457916E+04
    0.177977326062538882E+00   -0.369592190854369607E+01   -0.290779958381794046E+01   -0.207207840783070378E+04
    0.191882561608861385E+00   -0.369786853767631385E+01   -0.232102327181849333E+01   -0.207207439947963940E+04
    0.175535950012010028E+00   -0.369295736622470638E+01   -0.230718270999261588E+01   -0.207207407104898584E+04
    0.189875167198092165E+00   -0.369829266130508039E+01   -0.252161166958043870E+01   -0.207207241208551250E+04
    0.180853541940168006E+00   -0.369658410950771055E+01   -0.277129114755165151E+01   -0.207207133862326373E+04
    0.165112608145841222E+00   -0.369087586561166781E+01   -0.286720552765546932E+01   -0.207206700317119885E+04
    0.182901217811892336E+00   -0.369484393077156259E+01   -0.293836158852671225E+01   -0.207206659275521906E+04
    0.186710222910438095E+00   -0.369595564655781494E+01   -0.219069687597323437E+01   -0.207206608389135454E+04
    0.162834046077149380E+00   -0.369062710402413874E+01   -0.287874903511862801E+01   -0.207206575987604856E+04
    0.185133511629466230E+00   -0.369623361716976806E+01   -0.228901385474386210E+01   -0.207177635023328958E+04
    0.185133511629466230E+00   -0.369623361716976806E+01   -0.228901385474386210E+01   -0.207177635023328958E+04
    0.185302556646846250E+00   -0.369737582791847208E+01   -0.235889372353853588E+01   -0.207198589368390185E+04
    0.188316022221352242E+00   -0.369651470672912996E+01   -0.235993314539905885E+01   -0.207204519390720543E+04
    0.186968075604797446E+00   -0.369702884559046696E+01   -0.246615212628407132E+01   -0.207182235272301341E+04
    0.185675214743673267E+00   -0.369706565900064099E+01   -0.245610088541769755E+01   -0.207183754084649991E+04
    0.186017727494197621E+00   -0.369720007738799072E+01   -0.237998346739029376E+01   -0.207186340736093507E+04
    0.189868329875547803E+00   -0.369703074143010868E+01   -0.244079899241191534E+01   -0.207206019542896274E+04
    0.190330301930828449E+00   -0.369767337011209429E+01   -0.236926991429571698E+01   -0.207196962812306265E+04
    0.183699431421465942E+00   -0.369667103984873080E+01   -0.235962185810503611E+01   -0.207180960300403058E+04
    0.183938085809324386E+00   -0.369625137759022238E+01   -0.216922468525967638E+01   -0.207172636383164854E+04
    0.178260684755453813E+00   -0.369509796690245818E+01   -0.212047857729515510E+01   -0.207167260313566794E+04
    0.185127526765012679E+00   -0.369609527940981675E+01   -0.223291898906051500E+01   -0.207180260066032588E+04
    0.181717279965807499E+00   -0.369669891629119363E+01   -0.216738300709216603E+01   -0.207201935478638643E+04
    0.179247628991487634E+00   -0.369584071705969386E+01   -0.210912830710461074E+01   -0.207184695542226746E+04
    0.178660650865493986E+00   -0.369530638550056612E+01   -0.215571417382778519E+01   -0.207169849885458780E+04
    0.178714352712607272E+00   -0.369433853616824592E+01   -0.211475787369572377E+01   -0.207174553849126642E+04
    0.178714352712607272E+00   -0.369433853616824592E+01   -0.211475787369572377E+01   -0.207174553849126642E+04
    0.180836795297283581E+00   -0.369636229483114320E+01   -0.222581582361318908E+01   -0.207193317230870252E+04
    0.182736082248465159E+00   -0.369605782713623565E+01   -0.211690480089826050E+01   -0.207170622884941668E+04
    0.182723277239352166E+00   -0.369573277435932113E+01   -0.213100481030746502E+01   -0.207170471831625991E+04
    0.187929641568265526E+00   -0.369704332596863594E+01   -0.244163131737398187E+01   -0.207186162038187922E+04
    0.189133657608545613E+00   -0.369804448679565301E+01   -0.245855984146297946E+01   -0.207201267531584699E+04
    0.185436798582805623E+00   -0.369634457009339013E+01   -0.227604463870052331E+01   -0.207178049640258814E+04
    0.184844807721910087E+00   -0.369720883420385960E+01   -0.242547509462070465E+01   -0.207194489971221037E+04
    0.189424247351539454E+00   -0.369763022597663626E+01   -0.253569535387677636E+01   -0.207192576709811465E+04
    0.183930873228353331E+00   -0.369576730810767273E+01   -0.235870758065564035E+01   -0.207177815085297061E+04
    0.190595557920199665E+00   -0.369765443974306729E+01   -0.251855331224186108E+01   -0.207198985719818347E+04
    0.189786642680377232E+00   -0.369760216466336455E+01   -0.239152261937688060E+01   -0.207194048312495988E+04
    0.185705471227734842E+00   -0.369661496200523221E+01   -0.213286581434115252E+01   -0.207177560212230082E+04
    0.190144849457790227E+00   -0.369752856825150023E+01   -0.231089540146201955E+01   -0.207196839966282278E+04
    0.190483831792325503E+00   -0.369795626845150238E+01   -0.212804391820234340E+01   -0.207198321693254275E+04
    0.188346769859699364E+00   -0.369724765426180380E+01   -0.232815668870073011E+01   -0.207187460832535180E+04
    0.188515832569595754E+00   -0.369726461872501400E+01   -0.223232492304116237E+01   -0.207188241143490632E+04
    0.180440100480714294E+00   -0.369569264487198490E+01   -0.235429389740195960E+01   -0.207170155230228147E+04
    0.183405219520587803E+00   -0.369564265924816837E+01   -0.230690744970859551E+01   -0.207176439386681159E+04
    0.181539502684394116E+00   -0.369497462384660613E+01   -0.232461139947694173E+01   -0.207179540498690903E+04
    0.178573238874945278E+00   -0.369456189724336159E+01   -0.232831677591886832E+01   -0.207167516273191086E+04
    0.179349367470445914E+00   -0.369583273989085548E+01   -0.229279217354162901E+01   -0.207183196331157978E+04
    0.178299833607511560E+00   -0.369481136181371284E+01   -0.223552100277582610E+01   -0.207164464197816505E+04
    0.178299833607511560E+00   -0.369481136181371284E+01   -0.223552100277582610E+01   -0.207164464197816505E+04
    0.181367521239433921E+00   -0.369473570279297459E+01   -0.226529106812084224E+01   -0.207188051644913685E+04
    0.176784048266771465E+00   -0.369495484084665993E+01   -0.248224319601323717E+01   -0.207172625774504604E+04
    0.177827903675262106E+00   -0.369471917321230814E+01   -0.242204899282386421E+01   -0.207164362601688981E+04
    0.179008533266711151E+00   -0.369403146200288379E+01   -0.231981418027923336E+01   -0.207192474621735892E+04
    0.181010154239476084E+00   -0.369459457701102334E+01   -0.231560956809878604E+01   -0.207190344018416772E+04
    0.175915048615689074E+00   -0.369535705594953301E+01   -0.227533324152977201E+01   -0.207203811348078671E+04
    0.177233323136042037E+00   -0.369567381180467880E+01   -0.229749672488119661E+01   -0.207203098362654782E+04
    0.182781921934699582E+00   -0.369574102146555106E+01   -0.246759264227202202E+01   -0.207170651448743956E+04
    0.176860960324301819E+00   -0.369537735285042634E+01   -0.235646086314123870E+01   -0.207190346926941174E+04
    0.178926204857670412E+00   -0.369401795712938741E+01   -0.232517845628829534E+01   -0.207192036948630948E+04
    0.166266168509547035E+00   -0.369119952838550391E+01   -0.245414246209383391E+01   -0.207200122390458682E+04
    0.166050165784743131E+00   -0.369121819585722832E+01   -0.250277913013328357E+01   -0.207198154131645060E+04
    0.167470851408027838E+00   -0.369176087107996542E+01   -0.244121628049321737E+01   -0.207186717690033765E+04
    0.166244049155875012E+00   -0.369169408948531697E+01   -0.252672980619001253E+01   -0.207187080094339399E+04
    0.166806566893069913E+00   -0.369149030232893338E+01   -0.257918074280055354E+01   -0.207192204075659265E+04
    0.168743412649109192E+00   -0.369224244552657943E+01   -0.254133525938827898E+01   -0.207179179149554557E+04
    0.169237739015120681E+00   -0.369289029637689126E+01   -0.254209531758938034E+01   -0.207178684218042281E+04
    0.176493906823309676E+00   -0.369369105088206062E+01   -0.252300692289491835E+01   -0.207178349625389001E+04
    0.173226583328005335E+00   -0.369397277790403589E+01   -0.254409742403292727E+01   -0.207172394347604359E+04
    0.172088984266019901E+00   -0.369388781788973919E+01   -0.246419992048055647E+01   -0.207180186670328294E+04
    0.176480787042140430E+00   -0.369346635686496860E+01   -0.250449975413540749E+01   -0.207189090845279225E+04
    0.176742515960499724E+00   -0.369431411832633483E+01   -0.248664435891946667E+01   -0.207164723090359803E+04
    0.172571571067293844E+00   -0.369406255188201449E+01   -0.247126851210793230E+01   -0.207181504342984954E+04
    0.172300325782406560E+00   -0.369300444281038232E+01   -0.242428492747590596E+01   -0.207172358122340120E+04
    0.172835566074709401E+00   -0.369390545532255477E+01   -0.235799401605080261E+01   -0.207173716229492766E+04
    0.169921875138171141E+00   -0.369257520003353612E+01   -0.238314304769435559E+01   -0.207175237800095101E+04
    0.169921875138171141E+00   -0.369257520003353612E+01   -0.238314304769435559E+01   -0.207175237800095101E+04
    0.173408779810441921E+00   -0.369306123380149653E+01   -0.236623570205484235E+01   -0.207176393843907954E+04
    0.175236560989795787E+00   -0.369384871585478614E+01   -0.235388025207689555E+01   -0.207166417104020411E+04
    0.181361314221687026E+00   -0.369587442662086385E+01   -0.258359229105411936E+01   -0.207170470513897635E+04
    0.179269032356977442E+00   -0.369438022752754858E+01   -0.294616036902723444E+01   -0.207178461284253081E+04
    0.174232010187639480E+00   -0.369468468184560805E+01   -0.294534160044462867E+01   -0.207189257400345286E+04
    0.167007031201311107E+00   -0.369280891853167992E+01   -0.275939624991988630E+01   -0.207200604451016716E+04
    0.168484907819059393E+00   -0.369275285423345601E+01   -0.269917534221714162E+01   -0.207181816073892060E+04
    0.166858646252782544E+00   -0.369193403646462626E+01   -0.263114525336427807E+01   -0.207184036268136742E+04
    0.167753374869121813E+00   -0.369196979063009767E+01   -0.259416594692096636E+01   -0.207182845499865971E+04
    0.169446990413444409E+00   -0.369358508165653410E+01   -0.275824495281406668E+01   -0.207202222333473856E+04
    0.167862908061439969E+00   -0.369269357048408908E+01   -0.260092045446772913E+01   -0.207185978880786388E+04
    0.174009142308621134E+00   -0.369359863443567793E+01   -0.260324433246278097E+01   -0.207167071636489663E+04
    0.169020073651899749E+00   -0.369259703344738233E+01   -0.295612260896670653E+01   -0.207176760623876044E+04
    0.171361631496269817E+00   -0.369310449812601327E+01   -0.288645701039745939E+01   -0.207170728001169755E+04
    0.173470814865036321E+00   -0.369408462237395252E+01   -0.294759972966508732E+01   -0.207173424204599269E+04
    0.172950913452776522E+00   -0.369349361624606543E+01   -0.293962922993945286E+01   -0.207167773513320299E+04
    0.172950913452776522E+00   -0.369349361624606543E+01   -0.293962922993945286E+01   -0.207167773513320299E+04
    0.171120022151335038E+00   -0.369234281127057340E+01   -0.292139841901080155E+01   -0.207186844346465432E+04
    0.176117618583050028E+00   -0.369409967057040145E+01   -0.276651414696796172E+01   -0.207165464957075801E+04
    0.177721118887208235E+00   -0.369501963279899348E+01   -0.295269037302664783E+01   -0.207168207328122526E+04
    0.171810253229910059E+00   -0.369350894913536809E+01   -0.263443371647226776E+01   -0.207172326110559743E+04
    0.175450110669493758E+00   -0.369333575504468703E+01   -0.299669295813675474E+01   -0.207183364271181563E+04
    0.167605840361030850E+00   -0.369310052711721326E+01   -0.269834445937361611E+01   -0.207205849191433299E+04
    0.168970261200802080E+00   -0.369240195803402749E+01   -0.260062032706014801E+01   -0.207177333764130299E+04
    0.170630508209569431E+00   -0.369196933009400929E+01   -0.294290681470281035E+01   -0.207201186697741696E+04
    0.171439505560533584E+00   -0.369322392073588723E+01   -0.264885128942101211E+01   -0.207170822074855596E+04
    0.170285035713921562E+00   -0.369234689977091080E+01   -0.292377497033308087E+01   -0.207181044916116525E+04
    0.172766027175202702E+00   -0.369385949626793142E+01   -0.264601003048787398E+01   -0.207173086471077067E+04
    0.175698286242071816E+00   -0.369319412908944411E+01   -0.291228866557489940E+01   -0.207194155445816568E+04
    0.177736626731264807E+00   -0.369416878851154618E+01   -0.266165801361612431E+01   -0.207171954469343927E+04
    0.179474109527431314E+00   -0.369414497303328027E+01   -0.294721748788010940E+01   -0.207192826693351481E+04
    0.170479358877582865E+00   -0.369265057289765952E+01   -0.271216788280186849E+01   -0.207174627410928815E+04
    0.165167129479584229E+00   -0.369106384697770196E+01   -0.282779654981005368E+01   -0.207199638944595335E+04
    0.162411703049728212E+00   -0.369084356018164650E+01   -0.267784271574307065E+01   -0.207203653193032642E+04
    0.166763575633852468E+00   -0.369116850859618717E+01   -0.295830219740152955E+01   -0.207205293953151840E+04
    0.166327645233917798E+00   -0.369222095602969125E+01   -0.298967330589661051E+01   -0.207189155543822017E+04
    0.182381703633115039E+00   -0.369571812408741440E+01   -0.287434259225812383E+01   -0.207169288874303811E+04
    0.179326075792848816E+00   -0.369561150217087997E+01   -0.294243895302094405E+01   -0.207174471608911517E+04
    0.176050637154485712E+00   -0.369517185484985777E+01   -0.278764352529389070E+01   -0.207190177218623694E+04
    0.189705638603161197E+00   -0.369772509982059772E+01   -0.265464158196416067E+01   -0.207194091510428552E+04
    0.183703370710386393E+00   -0.369592123561137420E+01   -0.288475525060152593E+01   -0.207173233129502432E+04
    0.184968580741731392E+00   -0.369561293266595747E+01   -0.278904041671930303E+01   -0.207196330649897527E+04
    0.191691562493167322E+00   -0.369806032745113455E+01   -0.267835048440231116E+01   -0.207204105410235206E+04
    0.184682603949590490E+00   -0.369650167900940207E+01   -0.299478169923648085E+01   -0.207175029116808219E+04
    0.184682603949590490E+00   -0.369650167900940207E+01   -0.299478169923648085E+01   -0.207175029116808219E+04
    0.185144499863449968E+00   -0.369728535732725749E+01   -0.290222921509334464E+01   -0.207195509989337461E+04
    0.189922913020688311E+00   -0.369757384384060472E+01   -0.299323329145617478E+01   -0.207194915777506549E+04
    0.183294709655524718E+00   -0.369546795911033055E+01   -0.286378133941904967E+01   -0.207180609662917914E+04
    0.188164449858125526E+00   -0.369690719137051804E+01   -0.261674153984643887E+01   -0.207189762212928554E+04
    0.184873218114348897E+00   -0.369585676162944932E+01   -0.258430168458092568E+01   -0.207184619764872241E+04
    0.186412356524759543E+00   -0.369659932865149354E+01   -0.292256591608567273E+01   -0.207181083161517836E+04
    0.177652706387337295E+00   -0.369467787222294231E+01   -0.283296340130403523E+01   -0.207164338965383877E+04
    0.175079255329316091E+00   -0.369349938873281447E+01   -0.282877835842162551E+01   -0.207173501211216444E+04
    0.180782340137801950E+00   -0.369563424324165268E+01   -0.276962030660267855E+01   -0.207168023774354606E+04
    0.168489926753188912E+00   -0.369236200760430222E+01   -0.280084771228733720E+01   -0.207178364414194812E+04
    0.185421382455280531E+00   -0.369672384121912501E+01   -0.269011499496479534E+01   -0.207177593721442372E+04
    0.190881839520728208E+00   -0.369771699337633208E+01   -0.281555995492394606E+01   -0.207200579610699242E+04
    0.191864865575843035E+00   -0.369804623013509115E+01   -0.290390948527210702E+01   -0.207205309792695425E+04
    0.182127065556035195E+00   -0.369650810336380120E+01   -0.257857669113040000E+01   -0.207186521445520384E+04
    0.185907697846591086E+00   -0.369613846368514398E+01   -0.265390966464840128E+01   -0.207186886967874352E+04
    0.163985869342663210E+00   -0.369073435238422087E+01   -0.289989530406257146E+01   -0.207206375123214229E+04
    0.180252096063477474E+00   -0.369630251186269643E+01   -0.299775348997083180E+01   -0.207197561008573530E+04
    0.185503959913365934E+00   -0.369615375178833627E+01   -0.283264581566162743E+01   -0.207182247044572023E+04
    0.174545081772205957E+00   -0.369374835367246668E+01   -0.240867423969897398E+01   -0.207166302899283710E+04
    0.170582462160977943E+00   -0.369206915479973885E+01   -0.253615894210481274E+01   -0.207195012198881841E+04
    0.188454895921629784E+00   -0.369692753293358223E+01   -0.291935777211928071E+01   -0.207192080158936778E+04
    0.188803414916601020E+00   -0.369729817697866459E+01   -0.287319042988471818E+01   -0.207189656559062951E+04
    0.175324416840916320E+00   -0.369457951685717401E+01   -0.287352579038971623E+01   -0.207172711617055575E+04
    0.169688746150080449E+00   -0.369197508440815536E+01   -0.256229354318785640E+01   -0.207191257249922501E+04
    0.173159970143512143E+00   -0.369380873691493328E+01   -0.233286050706309434E+01   -0.207169493345079354E+04
    0.168758354398195642E+00   -0.369219993463959284E+01   -0.268191818420247419E+01   -0.207179863093334779E+04
    0.168758354398195642E+00   -0.369219993463959284E+01   -0.268191818420247419E+01   -0.207179863093334779E+04
    0.164232149921596571E+00   -0.369195999914209416E+01   -0.262694578339327744E+01   -0.207204761018422823E+04
    0.188174142469248712E+00   -0.369739922836738311E+01   -0.299285622686514730E+01   -0.207187627482225662E+04
    0.174791100058096255E+00   -0.369305565422910576E+01   -0.297745641458725441E+01   -0.207190051484072683E+04
    0.186397351549443702E+00   -0.369672808411100773E+01   -0.269362342580287262E+01   -0.207179992986346269E+04
    0.176882462060109380E+00   -0.369389453470073503E+01   -0.281016477483174398E+01   -0.207174110899616198E+04
    0.174070322814251166E+00   -0.369452973849611110E+01   -0.248152417281509274E+01   -0.207183722098405360E+04
    0.187188955901284620E+00   -0.369684432704973487E+01   -0.261733897491586287E+01   -0.207183365297713317E+04
    0.172303330201710958E+00   -0.369293765874943158E+01   -0.270030734738529965E+01   -0.207173893076717968E+04
    0.186533230265451239E+00   -0.369773918597299067E+01   -0.257079298541776113E+01   -0.207205920465698046E+04
    0.182246732830406100E+00   -0.369600472784372336E+01   -0.269775088510699534E+01   -0.207170490862584438E+04
    0.165832027459381248E+00   -0.369157746209306659E+01   -0.294380490557253349E+01   -0.207188892219980698E+04
    0.164376251777989590E+00   -0.369175650109504971E+01   -0.262297242503668393E+01   -0.207197448861891371E+04
    0.170960082084706144E+00   -0.369303429616561196E+01   -0.292968161609635613E+01   -0.207171623113297210E+04
    0.171496634888406274E+00   -0.369301831234911004E+01   -0.264105645149793711E+01   -0.207170937060805772E+04
    0.171496634888406274E+00   -0.369301831234911004E+01   -0.264105645149793711E+01   -0.207170937060805772E+04
    0.186483078003591568E+00   -0.369614281274141554E+01   -0.269816355540749608E+01   -0.207193922022895822E+04
    0.181586137082306698E+00   -0.369552095070228592E+01   -0.269087380970278289E+01   -0.207167905961867245E+04
    0.166369121455577668E+00   -0.369144493568115362E+01   -0.249244512760561054E+01   -0.207192028623551232E+04
    0.169653321131154444E+00   -0.369274300985746962E+01   -0.265379570317914437E+01   -0.207174943052740082E+04
    0.169653321131154444E+00   -0.369274300985746962E+01   -0.265379570317914437E+01   -0.207174943052740082E+04
    0.177136993046509011E+00   -0.369362980941669372E+01   -0.288315805727952235E+01   -0.207188786649609119E+04
    0.168373828350185356E+00   -0.369248765069710050E+01   -0.247803294722664846E+01   -0.207178956701409743E+04
    0.186733046921726376E+00   -0.369745999365843403E+01   -0.272391608060399726E+01   -0.207191626548722434E+04
    0.187591873360883926E+00   -0.369632999491790937E+01   -0.290798353089695327E+01   -0.207201836796502312E+04
    0.186635496195582284E+00   -0.369715628037479727E+01   -0.257106932263003785E+01   -0.207183628048228957E+04
    0.186139526359437590E+00   -0.369650498499603630E+01   -0.243067211111604209E+01   -0.207180492329446952E+04
    0.184979037842773142E+00   -0.369719871449299653E+01   -0.270326651613029378E+01   -0.207192838251652211E+04
    0.183730292841126408E+00   -0.369585226025017910E+01   -0.286935230080942283E+01   -0.207174434119642137E+04
    0.169424855437519228E+00   -0.369265822967063562E+01   -0.251430622187508090E+01   -0.207175518681503945E+04
    0.180768961140578582E+00   -0.369545475792990263E+01   -0.265744278053773764E+01   -0.207166556365369297E+04
    0.185554812387301038E+00   -0.369613148774709499E+01   -0.253070199618786074E+01   -0.207183335695292817E+04
    0.174809410071069871E+00   -0.369297909265819957E+01   -0.230431245185025757E+01   -0.207194721751934321E+04
    0.172095383222563625E+00   -0.369406653946930952E+01   -0.223573520164080541E+01   -0.207187575870453475E+04
    0.169610312513004180E+00   -0.369278835919987358E+01   -0.217305937151179007E+01   -0.207175312193360287E+04
    0.168557668939190608E+00   -0.369318939211108699E+01   -0.220401295910370632E+01   -0.207195590464137467E+04
    0.169260402951654232E+00   -0.369323463139797337E+01   -0.225848409813044260E+01   -0.207188192649446501E+04
    0.172469096165382418E+00   -0.369320581547386029E+01   -0.220948007098981369E+01   -0.207169528848563186E+04
    0.177368380054080427E+00   -0.369375807339978213E+01   -0.210316625031857463E+01   -0.207184980552235493E+04
    0.174434065537884320E+00   -0.369409434441581563E+01   -0.218628040591530803E+01   -0.207167489865173820E+04
    0.174434065537884320E+00   -0.369409434441581563E+01   -0.218628040591530803E+01   -0.207167489865173820E+04
    0.175767310618459571E+00   -0.369420742686463033E+01   -0.218657015426976020E+01   -0.207164751257752096E+04
    0.173339106968246726E+00   -0.369335884598285258E+01   -0.220873052632178668E+01   -0.207168884534186145E+04
    0.169459836348163778E+00   -0.369283865843593428E+01   -0.227931157944669005E+01   -0.207176498916952960E+04
    0.175494579863165412E+00   -0.369419316523570407E+01   -0.222456957593829996E+01   -0.207165073233401790E+04
    0.162786255562503285E+00   -0.369095784937305993E+01   -0.219793465537681865E+01   -0.207201635069979920E+04
    0.167438414419430998E+00   -0.369164402975691930E+01   -0.235623485738966298E+01   -0.207189928382741664E+04
    0.167963867505214443E+00   -0.369237726358393337E+01   -0.220557885466855730E+01   -0.207180216322726119E+04
    0.168582663988161185E+00   -0.369215084324999143E+01   -0.226878705049403084E+01   -0.207180512557683687E+04
    0.166383308512772360E+00   -0.369271239817555053E+01   -0.225750282340791619E+01   -0.207205523148481916E+04
    0.167770964667269956E+00   -0.369218080427360817E+01   -0.213188255636792423E+01   -0.207180717514427852E+04
    0.186771839060334122E+00   -0.369645382370096165E+01   -0.268964086483560605E+01   -0.207186840460612029E+04
    0.183807346390645221E+00   -0.369693350701828427E+01   -0.287871446124362285E+01   -0.207190733272667421E+04
    0.170249998649086715E+00   -0.369215103076098750E+01   -0.253743886148812914E+01   -0.207188049476157994E+04
    0.182858930539349790E+00   -0.369499292234623589E+01   -0.264343747182257571E+01   -0.207196604802150523E+04
    0.176173753964135343E+00   -0.369435027522977588E+01   -0.268166066797516267E+01   -0.207164664947276060E+04
    0.177693771357312735E+00   -0.369495754023876355E+01   -0.281612852244653444E+01   -0.207167089944162262E+04
    0.177631990023640107E+00   -0.369553427705806303E+01   -0.253644366346846351E+01   -0.207188592197568823E+04
    0.175937586589833689E+00   -0.369430223204128039E+01   -0.222605649799153849E+01   -0.207164816294686352E+04
