    0.159430990090488028E+00   -0.368220255401762486E+01   -0.292037251405554077E+01   -0.108679064738814259E+04
    0.250063599108549695E+00   -0.371003847130972053E+01   -0.261202166776646560E+01   -0.108678925910782414E+04
    0.249192519190412964E+00   -0.370976147756014019E+01   -0.227063252262493265E+01   -0.108659155317916884E+04
    0.140121637304159941E+00   -0.368136408383648739E+01   -0.298084090071039354E+01   -0.108645946463897963E+04
    0.191300520390191436E+00   -0.369795929623429220E+01   -0.249305232565227541E+01   -0.108642189070650738E+04
    0.197244793770534665E+00   -0.369040513291261174E+01   -0.220925095388517523E+01   -0.108634856967651331E+04
    0.156175994261304463E+00   -0.368777745843609717E+01   -0.272633221981789653E+01   -0.108628930047217250E+04
    0.218225622798831564E+00   -0.370432438751141202E+01   -0.251439808241062801E+01   -0.108616868464531899E+04
    0.239110542182137120E+00   -0.370249297022595414E+01   -0.291909470383698499E+01   -0.108612058183590284E+04
    0.190500615549003965E+00   -0.369751821760940036E+01   -0.285789614771320544E+01   -0.108599608593206995E+04
    0.213444790114810073E+00   -0.370314331553133425E+01   -0.282000372786456444E+01   -0.108597306374268737E+04
    0.143748204263202173E+00   -0.368172224697684580E+01   -0.278270399717314598E+01   -0.108596469704544461E+04
    0.217451008294963472E+00   -0.369589529403227779E+01   -0.211153080414214145E+01   -0.108584635014641026E+04
    0.248596465353506824E+00   -0.370834336658701114E+01   -0.282146466718122912E+01   -0.108584491458832463E+04
    0.244085077284144497E+00   -0.370851166565477897E+01   -0.267571245554003800E+01   -0.108579084768147254E+04
    0.158642673003471235E+00   -0.368292631004653037E+01   -0.274104631849852565E+01   -0.108564554728574581E+04
    0.152101446718296313E+00   -0.368555544116904787E+01   -0.279248977090951200E+01   -0.108553697010307019E+04
    0.235707761850100395E+00   -0.370727189874351026E+01   -0.265712453387418401E+01   -0.108552739664668252E+04
    0.161725342637529523E+00   -0.368893761257520580E+01   -0.285269821712122207E+01   -0.108551966422361738E+04
    0.222310356948161619E+00   -0.369749600223034669E+01   -0.224045250705558630E+01   -0.108548913428963488E+04
    0.242863242077189290E+00   -0.370802387004055545E+01   -0.215706992521794039E+01   -0.108547094239462444E+04
    0.246295288808489554E+00   -0.370660133414275350E+01   -0.273407430117716688E+01   -0.108546232239811070E+04
    0.179760578904997470E+00   -0.369421570323314974E+01   -0.272818987372169541E+01   -0.108534486678958001E+04
    0.194733297283930740E+00   -0.369817900185794546E+01   -0.286443931894698522E+01   -0.108524498148031535E+04
    0.164798436736832560E+00   -0.368962296884776020E+01   -0.295487849144372428E+01   -0.108517046909943315E+04
    0.231350232481031204E+00   -0.370626753491984307E+01   -0.218031639881314643E+01   -0.108516422010637780E+04
    0.243835142279428763E+00   -0.370569426227476217E+01   -0.218138396765747400E+01   -0.108515613594318847E+04
    0.204165573107698284E+00   -0.369274689268114020E+01   -0.227253959375336567E+01   -0.108515501836442922E+04
    0.150353600380487978E+00   -0.368325645362944076E+01   -0.273149062195624426E+01   -0.108515421081931208E+04
    0.151563672707124009E+00   -0.368448013702197663E+01   -0.214659057378975238E+01   -0.108511564429872828E+04
    0.241507548177301745E+00   -0.370454086510658787E+01   -0.243368496092033970E+01   -0.108508783638186924E+04
    0.163406640468256037E+00   -0.368906851274434944E+01   -0.274432269783358951E+01   -0.108506051804178946E+04
    0.203654773591013555E+00   -0.370029479417193308E+01   -0.259171235303072489E+01   -0.108505402212472609E+04
    0.157719575321107142E+00   -0.368704313465397604E+01   -0.262136787550394157E+01   -0.108502684908711512E+04
    0.191128544598979516E+00   -0.369706214068935335E+01   -0.217327642530697585E+01   -0.108496137904167017E+04
    0.168719192154996728E+00   -0.369066625575907947E+01   -0.280013535889926635E+01   -0.108494404547669910E+04
    0.231195313218930720E+00   -0.370604867701092910E+01   -0.254201456855705432E+01   -0.108493694759713912E+04
    0.171675555449903761E+00   -0.368569642843063061E+01   -0.217066188777588120E+01   -0.108493409202653675E+04
    0.180747250566993367E+00   -0.369420238507254428E+01   -0.279553372447577519E+01   -0.108491751082416886E+04
    0.210108294451217953E+00   -0.369444168966647268E+01   -0.246110216088882439E+01   -0.108489869936582909E+04
    0.205473711883610799E+00   -0.370061693649781631E+01   -0.272506135538543903E+01   -0.108486952509170987E+04
    0.242790326047625460E+00   -0.370639274853253653E+01   -0.294132258682668768E+01   -0.108483487420542087E+04
    0.157757310538963774E+00   -0.368676500950256525E+01   -0.212070428369235398E+01   -0.108481950584243873E+04
    0.197241492699354370E+00   -0.369854110881035947E+01   -0.265918838890026343E+01   -0.108480212875350162E+04
    0.154174851241664357E+00   -0.368374496356927983E+01   -0.218534120275105259E+01   -0.108479663536924954E+04
    0.153608395681337190E+00   -0.368458299367110698E+01   -0.252523242747592702E+01   -0.108479526172082797E+04
    0.224147758856246132E+00   -0.370465079725304136E+01   -0.253232936665232611E+01   -0.108477774963659704E+04
    0.242012873314189192E+00   -0.370642672593566136E+01   -0.226776197537843371E+01   -0.108474129606225051E+04
    0.210280037321701641E+00   -0.369460135408435519E+01   -0.285935222355579999E+01   -0.108471664216991098E+04
    0.154814520192746385E+00   -0.368393435552623494E+01   -0.269882836977640572E+01   -0.108471633439915240E+04
    0.191377750944959346E+00   -0.368993531723693557E+01   -0.267157713096320704E+01   -0.108471148762254165E+04
    0.220337753263979280E+00   -0.369742613326908298E+01   -0.297741997844518602E+01   -0.108470835618647152E+04
    0.168158203408066670E+00   -0.368529751582935505E+01   -0.229135936737535317E+01   -0.108467231622817008E+04
    0.241669944175153306E+00   -0.370593007335344993E+01   -0.252814475101659752E+01   -0.108466839482736805E+04
    0.189423154645288305E+00   -0.368954153318331901E+01   -0.256893554274237612E+01   -0.108463775564148204E+04
    0.157335183926243183E+00   -0.368403506460917285E+01   -0.230040394609653909E+01   -0.108463431362005826E+04
    0.159951157553091111E+00   -0.368734399111783828E+01   -0.271500372819837166E+01   -0.108462998880197915E+04
    0.216658646411627909E+00   -0.369642203719935658E+01   -0.252004765373483774E+01   -0.108461969268354983E+04
    0.230792857404678531E+00   -0.370083960706896065E+01   -0.252869823524431858E+01   -0.108459528174657362E+04
    0.156493820025746355E+00   -0.368573252673130947E+01   -0.216000555534388061E+01   -0.108459151649422529E+04
    0.211597979106408457E+00   -0.369505446386585312E+01   -0.290989795745803415E+01   -0.108456475924412143E+04
    0.175323977037280393E+00   -0.369232759650040876E+01   -0.287312195223598632E+01   -0.108452285770703293E+04
    0.158460224544321904E+00   -0.368645693688113241E+01   -0.230727847951363341E+01   -0.108448529595695095E+04
    0.158301528102855776E+00   -0.368634990561889664E+01   -0.232927591895586206E+01   -0.108447176335770928E+04
    0.236353578240313389E+00   -0.370615053759676893E+01   -0.252491132753389058E+01   -0.108443895984763549E+04
    0.160704242942616204E+00   -0.368461583841330054E+01   -0.264888489301677810E+01   -0.108441423170404391E+04
    0.222313382266244863E+00   -0.369824002999413759E+01   -0.257064961534404990E+01   -0.108440972722480956E+04
    0.187353276342332564E+00   -0.369567050319223478E+01   -0.226251905621708360E+01   -0.108440919436381728E+04
    0.235117910378321138E+00   -0.370600935970533163E+01   -0.284044560460757767E+01   -0.108440759150776921E+04
    0.238388469296485911E+00   -0.370435219025019702E+01   -0.295994463787485440E+01   -0.108435724963779330E+04
    0.169071787903435050E+00   -0.368575080515051434E+01   -0.253230941874886462E+01   -0.108435520758287339E+04
    0.200444577206435048E+00   -0.369231926807729760E+01   -0.253479423918622437E+01   -0.108434567423270846E+04
    0.162602842109894896E+00   -0.368787760419812338E+01   -0.241877848201837686E+01   -0.108430433786144340E+04
    0.223486811789995798E+00   -0.370412188306721113E+01   -0.262227945164963572E+01   -0.108428504469996619E+04
    0.178499675255453405E+00   -0.368750264301277042E+01   -0.283852342566884586E+01   -0.108428014419340093E+04
    0.224901626471427640E+00   -0.369917209179380801E+01   -0.253311940336212116E+01   -0.108426192273640322E+04
    0.238494024571474922E+00   -0.370487804096005924E+01   -0.277448698124057858E+01   -0.108424825645883152E+04
    0.163596320184197508E+00   -0.368516119741501891E+01   -0.227510343269786741E+01   -0.108423138095234890E+04
    0.228785547492486807E+00   -0.370496298573278793E+01   -0.244318276203224682E+01   -0.108420528978362563E+04
    0.200098031848405494E+00   -0.369233264974372632E+01   -0.266245042189310288E+01   -0.108420061752138963E+04
    0.226078939176430321E+00   -0.369961341759860751E+01   -0.218244898026214962E+01   -0.108419646387454395E+04
    0.178754965141668887E+00   -0.369306636028075985E+01   -0.220729841746810607E+01   -0.108419363607813079E+04
    0.159950693646119413E+00   -0.368513208240030998E+01   -0.289176433508101693E+01   -0.108418727034523317E+04
    0.193208743109122227E+00   -0.369072950754504348E+01   -0.257314423741838372E+01   -0.108415378736732760E+04
    0.230218422177840137E+00   -0.370108953780615124E+01   -0.233931148317955540E+01   -0.108415115551717122E+04
    0.229127299821981156E+00   -0.370492479380291773E+01   -0.259910737103924649E+01   -0.108412252331619584E+04
    0.176411361843078346E+00   -0.368726187605350697E+01   -0.292438043963588745E+01   -0.108409804253874199E+04
    0.161465267241808208E+00   -0.368695149533841171E+01   -0.283203442477124501E+01   -0.108409405956913724E+04
    0.171826540096673197E+00   -0.369083896956485402E+01   -0.274010289607815549E+01   -0.108409147489180214E+04
    0.160721532727111038E+00   -0.368539945833448135E+01   -0.278757759608934119E+01   -0.108408944990797818E+04
    0.219499239371188926E+00   -0.370317669140962114E+01   -0.227792353312506712E+01   -0.108408747982936461E+04
    0.168388670014057384E+00   -0.368967971183690313E+01   -0.297620478266417043E+01   -0.108408007052044013E+04
    0.166861409103680081E+00   -0.368913676234948440E+01   -0.236462794801900156E+01   -0.108407657077675776E+04
    0.175514174251624910E+00   -0.368712901343702670E+01   -0.237916644932856869E+01   -0.108406455210603281E+04
    0.204808306650465483E+00   -0.369361782423627583E+01   -0.237953289474227647E+01   -0.108405033521594987E+04
    0.160507323080056635E+00   -0.368575692886389472E+01   -0.253744280038793812E+01   -0.108404817655981378E+04
    0.236401440375555272E+00   -0.370405699447405112E+01   -0.282774774801258477E+01   -0.108403827396605516E+04
    0.235602286035324043E+00   -0.370533575366183943E+01   -0.294508045547940789E+01   -0.108402958921456207E+04
    0.227752437001747687E+00   -0.370034945612204913E+01   -0.220692252324375193E+01   -0.108402441908356286E+04
    0.236833602097437507E+00   -0.370458181720655766E+01   -0.263283898331933752E+01   -0.108402080071875798E+04
    0.235340823239722163E+00   -0.370348781848437536E+01   -0.231433318079826389E+01   -0.108400782444944798E+04
    0.169409852473240558E+00   -0.368620065199848135E+01   -0.238135488771440507E+01   -0.108399530582574198E+04
    0.176552175727172939E+00   -0.368738268529884472E+01   -0.281651623284883934E+01   -0.108399450744960632E+04
    0.205905907240033270E+00   -0.369395719650687493E+01   -0.262800482055156603E+01   -0.108397203466973269E+04
    0.231584615743189032E+00   -0.370504269161800082E+01   -0.281591603782077415E+01   -0.108396727139420659E+04
    0.172797171175094993E+00   -0.368676369137072868E+01   -0.275869486537965392E+01   -0.108396032266331463E+04
    0.231042877972963967E+00   -0.370165463524579774E+01   -0.288776611514923953E+01   -0.108394699922047812E+04
    0.207042558116923153E+00   -0.369427606147676446E+01   -0.243425851795472781E+01   -0.108394104340730746E+04
    0.228706427179749261E+00   -0.370464612092322465E+01   -0.271861814800443335E+01   -0.108393507710700851E+04
    0.234414724501644189E+00   -0.370318472892108685E+01   -0.245496394899983805E+01   -0.108392675803249813E+04
    0.228569292135193947E+00   -0.370460306392878014E+01   -0.253639736917933023E+01   -0.108391549744494114E+04
    0.172360637976582132E+00   -0.368676020215650846E+01   -0.270863016907441478E+01   -0.108389907984042839E+04
    0.206868517898834092E+00   -0.369430041954224819E+01   -0.249296660708112272E+01   -0.108384799901635802E+04
    0.178386725932556722E+00   -0.369263757298781403E+01   -0.294168018766915962E+01   -0.108384731094936615E+04
    0.234736382469684229E+00   -0.370363058788843036E+01   -0.247290782022799638E+01   -0.108383892106922394E+04
    0.235170948570146199E+00   -0.370418207477374706E+01   -0.252199554699546313E+01   -0.108381645069373849E+04
    0.232978390593681584E+00   -0.370487296765132434E+01   -0.277561106833158489E+01   -0.108381469080518855E+04
    0.164013548571341816E+00   -0.368743096933681347E+01   -0.244525173779183902E+01   -0.108381012072387966E+04
    0.192377961285029458E+00   -0.369656015556647022E+01   -0.282866300829682693E+01   -0.108380882773533108E+04
    0.170934534541269556E+00   -0.369020656892123311E+01   -0.278855108572045429E+01   -0.108380727499489490E+04
    0.230626302600901723E+00   -0.370169074935915976E+01   -0.241526744221089018E+01   -0.108380641992399001E+04
    0.208299170295562552E+00   -0.369470997141590107E+01   -0.223818201022144869E+01   -0.108380610342968384E+04
    0.233823484985944685E+00   -0.370317744491830281E+01   -0.274002746141140641E+01   -0.108380299298433511E+04
    0.170905646072024908E+00   -0.369017091561503552E+01   -0.296181089562930255E+01   -0.108378790813385103E+04
    0.163514757875728445E+00   -0.368695339803738076E+01   -0.267453501538899463E+01   -0.108377829994657031E+04
    0.170641249357174341E+00   -0.368668944224947204E+01   -0.243342426488621388E+01   -0.108374943722613239E+04
    0.199916597355187825E+00   -0.369262241009461833E+01   -0.289839001138028873E+01   -0.108374214257252652E+04
    0.186793890456907613E+00   -0.368963669218844803E+01   -0.245833100083995992E+01   -0.108373206699736716E+04
    0.173635688025078561E+00   -0.368715612143367188E+01   -0.274757592902446213E+01   -0.108373072405597486E+04
    0.213048154985875426E+00   -0.370150301206221144E+01   -0.295793086266840222E+01   -0.108370863287441489E+04
    0.180699523572213500E+00   -0.369319369943878995E+01   -0.285767631093230667E+01   -0.108370722696519283E+04
    0.233277596428910244E+00   -0.370320617596319002E+01   -0.222559930507700576E+01   -0.108368758635989752E+04
    0.210670005549215417E+00   -0.370095998174907992E+01   -0.258853505255780547E+01   -0.108368742183549102E+04
    0.171385096526440295E+00   -0.368688081821639546E+01   -0.222715728439339244E+01   -0.108368378460523195E+04
    0.166093352870418987E+00   -0.368811253271772888E+01   -0.235259120416465040E+01   -0.108368340778048196E+04
    0.198219240418263110E+00   -0.369797417892866420E+01   -0.252269248464343088E+01   -0.108368182833348692E+04
    0.194301162113537068E+00   -0.369695719900999675E+01   -0.229134518826196798E+01   -0.108367478989252277E+04
    0.226887495840656511E+00   -0.370046113402556909E+01   -0.294612372806476008E+01   -0.108366278416585374E+04
    0.209654311509972269E+00   -0.369519971842388051E+01   -0.223605181338089354E+01   -0.108364761546635873E+04
    0.222019371694445466E+00   -0.370322761223239461E+01   -0.294925547604680505E+01   -0.108363361847622559E+04
    0.217551134157445397E+00   -0.370234295033127037E+01   -0.232349008608537577E+01   -0.108359779983355520E+04
    0.166304523535815180E+00   -0.368792644253509128E+01   -0.256575582501579014E+01   -0.108358893707515472E+04
    0.168243016729472949E+00   -0.368884134724863166E+01   -0.211775347080913257E+01   -0.108358714255401037E+04
    0.208527137879467722E+00   -0.369494842581504113E+01   -0.223823220848208804E+01   -0.108358446734470317E+04
    0.167878870187930740E+00   -0.368867221405332790E+01   -0.255815137414114080E+01   -0.108358158742862997E+04
    0.168716982601408771E+00   -0.368675692422669155E+01   -0.289565627749859678E+01   -0.108357648219969860E+04
    0.171419543971099542E+00   -0.368704544230487663E+01   -0.212823679558526102E+01   -0.108357285203772585E+04
    0.214247263690059947E+00   -0.369654413905614465E+01   -0.256147004172569748E+01   -0.108357010673151217E+04
    0.169599176911495036E+00   -0.368685413586316812E+01   -0.292741011205081181E+01   -0.108356527422467070E+04
    0.210284233179342112E+00   -0.369544063445370252E+01   -0.220415099232435896E+01   -0.108356407107266091E+04
    0.209445326467791737E+00   -0.369521825752080790E+01   -0.233918120238343308E+01   -0.108355729645970723E+04
    0.177985247171124211E+00   -0.369220224753960391E+01   -0.270971966894582472E+01   -0.108355178909180904E+04
    0.231739332604611659E+00   -0.370421957407986735E+01   -0.257323390124598550E+01   -0.108354853931065418E+04
    0.187179336467827445E+00   -0.368987866629533734E+01   -0.245371591483175289E+01   -0.108354745728427883E+04
    0.214574270818341295E+00   -0.369667113095800293E+01   -0.287132164346391505E+01   -0.108353329925928256E+04
    0.214574270818341295E+00   -0.369667113095800293E+01   -0.287132164346391505E+01   -0.108353329925928256E+04
    0.190102280805962087E+00   -0.369568857084022628E+01   -0.274673992599142069E+01   -0.108350977195624887E+04
    0.168669099896394115E+00   -0.368883031292377117E+01   -0.290421570159091491E+01   -0.108350223721060343E+04
    0.169754035572826339E+00   -0.368699969055616572E+01   -0.223199294617513155E+01   -0.108349644557058923E+04
    0.168047399705886225E+00   -0.368852665848350458E+01   -0.249786680412532469E+01   -0.108349554171104728E+04
    0.184410677863005162E+00   -0.369407005486747941E+01   -0.233439490347417067E+01   -0.108349163426828409E+04
    0.173831661648151226E+00   -0.369074481607225380E+01   -0.288728787552377719E+01   -0.108347399200259997E+04
    0.190202798346767177E+00   -0.369059402681375381E+01   -0.291673691087823572E+01   -0.108347116396855313E+04
    0.195892850098267179E+00   -0.369188715118203081E+01   -0.266043101578537167E+01   -0.108346196459466978E+04
    0.176974297293578081E+00   -0.368804391955873179E+01   -0.264772334016346766E+01   -0.108344086783611510E+04
    0.195786335156436231E+00   -0.369713963269994306E+01   -0.238593892339614966E+01   -0.108343753049307520E+04
    0.195786335156436231E+00   -0.369713963269994306E+01   -0.238593892339614966E+01   -0.108343753049307520E+04
    0.169681429358368691E+00   -0.368713901259151511E+01   -0.281910244085274275E+01   -0.108342961232544826E+04
    0.173866912387468486E+00   -0.368760367477808426E+01   -0.239350211759504461E+01   -0.108341605374237361E+04
    0.221294947993387475E+00   -0.369883951711371406E+01   -0.269363118085860664E+01   -0.108341534372830574E+04
    0.191903293756288784E+00   -0.369101894611948911E+01   -0.232582649968242006E+01   -0.108341439336111466E+04
    0.231579702299132717E+00   -0.370352732539381435E+01   -0.297940010766093888E+01   -0.108341314977164120E+04
    0.181663422972305144E+00   -0.368891519448982041E+01   -0.276666309417033585E+01   -0.108340510907081330E+04
    0.167647280197629367E+00   -0.368759609598059246E+01   -0.296488878319977767E+01   -0.108338894587588288E+04
    0.182087193889301724E+00   -0.368901239850378238E+01   -0.218248022690391119E+01   -0.108338884531030953E+04
    0.174240807608675941E+00   -0.368770744763592884E+01   -0.220490566086060058E+01   -0.108338096461547866E+04
    0.171626061181315570E+00   -0.368739597283016618E+01   -0.249134193952058691E+01   -0.108337970655719710E+04
    0.171626061181315570E+00   -0.368739597283016618E+01   -0.249134193952058691E+01   -0.108337970655719710E+04
    0.168761718864432475E+00   -0.368729268317098491E+01   -0.288763140518935346E+01   -0.108337442585240456E+04
    0.227878320722197880E+00   -0.370370507654717507E+01   -0.249732109139750236E+01   -0.108336791418221264E+04
    0.193967607994604413E+00   -0.369152499607754914E+01   -0.250185853748465092E+01   -0.108336780380571872E+04
    0.193967607994604413E+00   -0.369152499607754914E+01   -0.250185853748465092E+01   -0.108336780380571872E+04
    0.222207252795677379E+00   -0.369921543507992068E+01   -0.270078190760693282E+01   -0.108335209225918175E+04
    0.179641791006987461E+00   -0.368861937423922726E+01   -0.275130351176544474E+01   -0.108334043252850711E+04
    0.179641791006987461E+00   -0.368861937423922726E+01   -0.275130351176544474E+01   -0.108334043252850711E+04
    0.189180448104183135E+00   -0.369049793015179439E+01   -0.213790358158375282E+01   -0.108333535707593683E+04
    0.210345982183209185E+00   -0.369566725897994841E+01   -0.286998237479059481E+01   -0.108332682149000448E+04
    0.198875603019452396E+00   -0.369271750984643532E+01   -0.248523622784497045E+01   -0.108332035964962438E+04
    0.230487135760138684E+00   -0.370338424718235615E+01   -0.225287579427194107E+01   -0.108331115715828696E+04
    0.230198250104683921E+00   -0.370272088971235735E+01   -0.262537695030194218E+01   -0.108329903716458557E+04
    0.219935376031686780E+00   -0.369856866758309621E+01   -0.244082081618969404E+01   -0.108326757669724680E+04
    0.176661539234176990E+00   -0.369140957718120521E+01   -0.221016002284237789E+01   -0.108326745962327163E+04
    0.204945318899630524E+00   -0.369925108926557300E+01   -0.242055800232601470E+01   -0.108325261662630919E+04
    0.204945318899630524E+00   -0.369925108926557300E+01   -0.242055800232601470E+01   -0.108325261662630919E+04
    0.170886638167486005E+00   -0.368765672606800710E+01   -0.220371441181026695E+01   -0.108324925262897113E+04
    0.228467092253432424E+00   -0.370186724559874758E+01   -0.289049027573445239E+01   -0.108323655389784585E+04
    0.229068725417601593E+00   -0.370331658614141723E+01   -0.281328682231159144E+01   -0.108322077422664688E+04
    0.223999256560808296E+00   -0.370003311391766943E+01   -0.216456298461858809E+01   -0.108321198310768023E+04
    0.176753046158211635E+00   -0.368832840992294653E+01   -0.218230321320008835E+01   -0.108320508164080775E+04
    0.181111467942947579E+00   -0.368904382316217383E+01   -0.279588315521084718E+01   -0.108320331014394560E+04
    0.180807610884263947E+00   -0.368899720601778469E+01   -0.250243323805048323E+01   -0.108319749992657034E+04
    0.219622751281666750E+00   -0.369856137605388557E+01   -0.290706031988850544E+01   -0.108318906769449450E+04
    0.173725620575982009E+00   -0.368798394568363097E+01   -0.255636605730724531E+01   -0.108318542324138730E+04
    0.173725620575982009E+00   -0.368798394568363097E+01   -0.255636605730724531E+01   -0.108318542324138730E+04
    0.177611545951741723E+00   -0.368849433731125131E+01   -0.223479098496928508E+01   -0.108317955958174798E+04
    0.177611545951741723E+00   -0.368849433731125131E+01   -0.223479098496928508E+01   -0.108317955958174798E+04
    0.181779972941608914E+00   -0.368919718613728076E+01   -0.293759998834374070E+01   -0.108317574343104980E+04
    0.181779972941608914E+00   -0.368919718613728076E+01   -0.293759998834374070E+01   -0.108317574343104980E+04
    0.223940535874797231E+00   -0.370008064727303410E+01   -0.284653703249517198E+01   -0.108316768024488283E+04
    0.209714695264478834E+00   -0.369565481194781498E+01   -0.225794300232471201E+01   -0.108315744465895614E+04
    0.209714695264478834E+00   -0.369565481194781498E+01   -0.225794300232471201E+01   -0.108315744465895614E+04
    0.221177885710026001E+00   -0.370250973764874658E+01   -0.215735714024262792E+01   -0.108315674222151438E+04
    0.192407466217228540E+00   -0.369137939498929812E+01   -0.286625152976758191E+01   -0.108314885694683244E+04
    0.201193653693173963E+00   -0.369344062450345145E+01   -0.254968351512271818E+01   -0.108314821758789117E+04
    0.170723666766734061E+00   -0.368818587595841851E+01   -0.275729852217600602E+01   -0.108314646343812092E+04
    0.212300110700744116E+00   -0.370079876884433734E+01   -0.291222098906871496E+01   -0.108314100241436472E+04
    0.183965706402795220E+00   -0.368964743957637209E+01   -0.224473695088216996E+01   -0.108313747186421278E+04
    0.190902443949769629E+00   -0.369108092616061345E+01   -0.273518078260564934E+01   -0.108311824168127123E+04
    0.190902443949769629E+00   -0.369108092616061345E+01   -0.273518078260564934E+01   -0.108311824168127123E+04
    0.180326306713228524E+00   -0.368901719298533459E+01   -0.289392654845908170E+01   -0.108311768118066470E+04
    0.227965345539090675E+00   -0.370301489772765713E+01   -0.270701804478167540E+01   -0.108311393233122317E+04
    0.223343744148384094E+00   -0.369994593632116198E+01   -0.247528580961183708E+01   -0.108311360995962286E+04
    0.223343744148384094E+00   -0.369994593632116198E+01   -0.247528580961183708E+01   -0.108311360995962286E+04
    0.218975550778771400E+00   -0.369845163877735450E+01   -0.241006332979395488E+01   -0.108310839318625835E+04
    0.223687262335081405E+00   -0.370279880824560026E+01   -0.267798571148584363E+01   -0.108310762476084756E+04
    0.224765647652208106E+00   -0.370050923913389695E+01   -0.258771319645173747E+01   -0.108310401421041092E+04
    0.175392771053354518E+00   -0.368834194003873606E+01   -0.298986837781839743E+01   -0.108309317661875457E+04
    0.175841798912798053E+00   -0.368839948849005861E+01   -0.295827851922437812E+01   -0.108308994708681007E+04
    0.214614248881573849E+00   -0.369712766434441553E+01   -0.229545440288303748E+01   -0.108308662007370503E+04
    0.228198458438952784E+00   -0.370270271709666288E+01   -0.221369092051383909E+01   -0.108308460631713820E+04
    0.182846618269752625E+00   -0.369314055385259365E+01   -0.238893246160304606E+01   -0.108307891406031149E+04
    0.203449535290505912E+00   -0.369871969856786098E+01   -0.270436464222719941E+01   -0.108307476314796736E+04
    0.203449535290505912E+00   -0.369871969856786098E+01   -0.270436464222719941E+01   -0.108307476314796736E+04
    0.224294130347468423E+00   -0.370041507132115166E+01   -0.246738933592884679E+01   -0.108305456841930436E+04
    0.186350586060179346E+00   -0.369415485831798662E+01   -0.273848091615567668E+01   -0.108304878968173261E+04
    0.220270582184002001E+00   -0.370217309725108290E+01   -0.228347630056777273E+01   -0.108302258987058872E+04
    0.205868299648508390E+00   -0.369476053426775231E+01   -0.248441881704695700E+01   -0.108301661254498504E+04
    0.173699887619141763E+00   -0.368976326069634464E+01   -0.265351804988928563E+01   -0.108301621389225238E+04
    0.173894448284248493E+00   -0.368980921009902030E+01   -0.257266137906107506E+01   -0.108300205582788158E+04
    0.175447633375569734E+00   -0.368855638982941514E+01   -0.285121491713974828E+01   -0.108299619154074617E+04
    0.175447633375569734E+00   -0.368855638982941514E+01   -0.285121491713974828E+01   -0.108299619154074617E+04
    0.222574771610595218E+00   -0.370243681673281966E+01   -0.261164473740978975E+01   -0.108298093522762792E+04
    0.197310606728704485E+00   -0.369267553512158075E+01   -0.232927237493118344E+01   -0.108297211849869086E+04
    0.219854379172705061E+00   -0.369892703255204403E+01   -0.244908392446536238E+01   -0.108297199620854803E+04
    0.219854379172705061E+00   -0.369892703255204403E+01   -0.244908392446536238E+01   -0.108297199620854803E+04
    0.225162844646288329E+00   -0.370263796103459253E+01   -0.273553811599015484E+01   -0.108297068081365251E+04
    0.220456258686034801E+00   -0.369913580826425514E+01   -0.219683341146197009E+01   -0.108297064391014101E+04
    0.183152961888835841E+00   -0.368971822899676738E+01   -0.278878053657233638E+01   -0.108296108651204167E+04
    0.226000352818384098E+00   -0.370258586619648256E+01   -0.249554099875564717E+01   -0.108295942700091223E+04
    0.174570658641963888E+00   -0.368998518371136974E+01   -0.251822746436534883E+01   -0.108295825493844836E+04
    0.174176442945223470E+00   -0.368978653457974781E+01   -0.252017743940458416E+01   -0.108295754167815176E+04
    0.187673010552513453E+00   -0.369058599443920876E+01   -0.245605899635581881E+01   -0.108295406997012265E+04
    0.173371163760293739E+00   -0.368919714131352139E+01   -0.269846809813197908E+01   -0.108294897715495767E+04
    0.173371163760293739E+00   -0.368919714131352139E+01   -0.269846809813197908E+01   -0.108294897715495767E+04
    0.223440279711145884E+00   -0.370028486312052651E+01   -0.273065076703932519E+01   -0.108294823112203221E+04
    0.226183908931721772E+00   -0.370250059076496774E+01   -0.237247058125559374E+01   -0.108294618542086437E+04
    0.183904111756309274E+00   -0.369328672271636549E+01   -0.229214165683109350E+01   -0.108294361747695211E+04
    0.183904111756309274E+00   -0.369328672271636549E+01   -0.229214165683109350E+01   -0.108294361747695211E+04
    0.173687252509642481E+00   -0.368886522050675048E+01   -0.222139562680369540E+01   -0.108292904605961940E+04
    0.225769590703219780E+00   -0.370245634681656721E+01   -0.292315225921477495E+01   -0.108292404133475065E+04
    0.221515457525634507E+00   -0.369959291603952511E+01   -0.270324515078112171E+01   -0.108292214172366357E+04
    0.181418362282718959E+00   -0.368949084659663828E+01   -0.288512459895566487E+01   -0.108291355701680118E+04
    0.191070943029415297E+00   -0.369134241577554345E+01   -0.215841635054673286E+01   -0.108290847669247660E+04
    0.210587190563637561E+00   -0.369616928877362305E+01   -0.267342833626466447E+01   -0.108290003007970176E+04
    0.210587190563637561E+00   -0.369616928877362305E+01   -0.267342833626466447E+01   -0.108290003007970176E+04
    0.181129725903345196E+00   -0.368947714701730867E+01   -0.256965977792513955E+01   -0.108289285072594384E+04
    0.174104499324814921E+00   -0.368926476617341192E+01   -0.251780212794099922E+01   -0.108289044995916311E+04
    0.219726170773642676E+00   -0.369901339798020423E+01   -0.262483117168806857E+01   -0.108288655073387326E+04
    0.215532180239985438E+00   -0.370114924706078785E+01   -0.263216387083681713E+01   -0.108288510932132749E+04
    0.225305411404192690E+00   -0.370232149425830981E+01   -0.254066839060876593E+01   -0.108288264414162222E+04
    0.194675083897098949E+00   -0.369628386044606660E+01   -0.259191660584545858E+01   -0.108287561064409965E+04
    0.186139156752698764E+00   -0.369386112989696835E+01   -0.257726846028832846E+01   -0.108286582908152286E+04
    0.222641375328529317E+00   -0.370219890014172925E+01   -0.280377942307019357E+01   -0.108285964597525481E+04
    0.193792515795906839E+00   -0.369199248056202389E+01   -0.231380620383636160E+01   -0.108285781246389752E+04
    0.187471092522475680E+00   -0.369424594510968785E+01   -0.274254960685212223E+01   -0.108285756187576749E+04
    0.179681617399559429E+00   -0.368932855473100485E+01   -0.262206832449604743E+01   -0.108285501133149728E+04
    0.176107760297320781E+00   -0.369027380552816098E+01   -0.259234979653503972E+01   -0.108283117457880121E+04
    0.176107760297320781E+00   -0.369027380552816098E+01   -0.259234979653503972E+01   -0.108283117457880121E+04
    0.175436367020083944E+00   -0.368913721401129102E+01   -0.237659749832163625E+01   -0.108282758058898753E+04
    0.175436367020083944E+00   -0.368913721401129102E+01   -0.237659749832163625E+01   -0.108282758058898753E+04
    0.200783465252981241E+00   -0.369780163743875567E+01   -0.281259284527376119E+01   -0.108282527232917550E+04
    0.199211587579902344E+00   -0.369328469087605615E+01   -0.278473779214749495E+01   -0.108282449179252740E+04
    0.223820310423791302E+00   -0.370079428398402044E+01   -0.298035950218224821E+01   -0.108281670831098290E+04
    0.190695190760506617E+00   -0.369511754020628791E+01   -0.244666161852838027E+01   -0.108281294666352642E+04
    0.225031337089058481E+00   -0.370172669504802165E+01   -0.214510797508029460E+01   -0.108281160304878131E+04
    0.222320930347069901E+00   -0.370014424428728184E+01   -0.282841912990853528E+01   -0.108280514501877155E+04
    0.224816711752904130E+00   -0.370187801895446622E+01   -0.274800812672644668E+01   -0.108279968025223707E+04
    0.176717651038713064E+00   -0.369044045575313007E+01   -0.255288620141558198E+01   -0.108279642610591918E+04
    0.176717651038713064E+00   -0.369044045575313007E+01   -0.255288620141558198E+01   -0.108279642610591918E+04
    0.219150785620129906E+00   -0.369896150486270958E+01   -0.247090193684611314E+01   -0.108279620932262469E+04
    0.219150785620129906E+00   -0.369896150486270958E+01   -0.247090193684611314E+01   -0.108279620932262469E+04
    0.217705769161541052E+00   -0.370140844916421541E+01   -0.277357860400823775E+01   -0.108279565251964368E+04
    0.175912580660861739E+00   -0.368925520294192610E+01   -0.246734892813641693E+01   -0.108279544688665806E+04
    0.215824609414240504E+00   -0.369786117892640043E+01   -0.281852908902444765E+01   -0.108279427305949685E+04
    0.218105176046883786E+00   -0.369862133493492795E+01   -0.241194122541725342E+01   -0.108278431238001917E+04
    0.185105805915905808E+00   -0.369032307864157083E+01   -0.273941139689730706E+01   -0.108277972521006404E+04
    0.187297725844904867E+00   -0.369074057952035028E+01   -0.238420682358869573E+01   -0.108277351731977342E+04
    0.192961184432966726E+00   -0.369569792092339000E+01   -0.225900959511712252E+01   -0.108277260717414151E+04
    0.184175396085737825E+00   -0.369019754896932950E+01   -0.227572844663345641E+01   -0.108275470276598685E+04
    0.184175396085737825E+00   -0.369019754896932950E+01   -0.227572844663345641E+01   -0.108275470276598685E+04
    0.220801332494449110E+00   -0.369964816128429952E+01   -0.267492389006363007E+01   -0.108275387466996881E+04
    0.176735180499894146E+00   -0.368940172189873383E+01   -0.213545304782544898E+01   -0.108275102693444614E+04
    0.224080752737905176E+00   -0.370169665194014197E+01   -0.273881166354255390E+01   -0.108274318859427376E+04
    0.224080752737905176E+00   -0.370169665194014197E+01   -0.273881166354255390E+01   -0.108274318859427376E+04
    0.178221697238829246E+00   -0.369093725215591251E+01   -0.279531106956379105E+01   -0.108274115968954629E+04
    0.178221697238829246E+00   -0.369093725215591251E+01   -0.279531106956379105E+01   -0.108274115968954629E+04
    0.178365507146770741E+00   -0.368947631917073027E+01   -0.258883568055085034E+01   -0.108273143380219926E+04
    0.219975241665522098E+00   -0.370162150799041267E+01   -0.269898050198014605E+01   -0.108272716260188531E+04
    0.184752916509731274E+00   -0.369034220222047527E+01   -0.251440742808487183E+01   -0.108272613411465159E+04
    0.184752916509731274E+00   -0.369034220222047527E+01   -0.251440742808487183E+01   -0.108272613411465159E+04
    0.222221000921742351E+00   -0.370033587490071625E+01   -0.289406493801730136E+01   -0.108271865164538735E+04
    0.222221000921742351E+00   -0.370033587490071625E+01   -0.289406493801730136E+01   -0.108271865164538735E+04
    0.186734081809493191E+00   -0.369383117137420536E+01   -0.214770202507197716E+01   -0.108271802043179582E+04
    0.186734081809493191E+00   -0.369383117137420536E+01   -0.214770202507197716E+01   -0.108271802043179582E+04
    0.208520459820899562E+00   -0.369947035669087132E+01   -0.238784347682153575E+01   -0.108270025940305686E+04
    0.208520459820899562E+00   -0.369947035669087132E+01   -0.238784347682153575E+01   -0.108270025940305686E+04
    0.205332849174821364E+00   -0.369874293534202758E+01   -0.274683995916163237E+01   -0.108269507812882716E+04
    0.205332849174821364E+00   -0.369874293534202758E+01   -0.274683995916163237E+01   -0.108269507812882716E+04
    0.191483083245622160E+00   -0.369518679717208798E+01   -0.256341853674168307E+01   -0.108269456414414753E+04
    0.179480214088700685E+00   -0.369128664124427042E+01   -0.226629026975407299E+01   -0.108268095768116245E+04
    0.221792201305134495E+00   -0.370164405225140491E+01   -0.246578188006566767E+01   -0.108267534825207872E+04
    0.221792201305134495E+00   -0.370164405225140491E+01   -0.246578188006566767E+01   -0.108267534825207872E+04
    0.181719965514919202E+00   -0.368996271624343741E+01   -0.220846658028362386E+01   -0.108267408902951115E+04
    0.181319132052171178E+00   -0.369197336606471760E+01   -0.279826188983702862E+01   -0.108267255304113223E+04
    0.192566757209022887E+00   -0.369194894021128395E+01   -0.270771298204366184E+01   -0.108267138582117718E+04
    0.186113121999305048E+00   -0.369356676342146972E+01   -0.233015991920587018E+01   -0.108267064017265693E+04
    0.202527712356176837E+00   -0.369803366398673061E+01   -0.265971255986921795E+01   -0.108266019187914503E+04
    0.222652718495498447E+00   -0.370082564220568733E+01   -0.279521662336647880E+01   -0.108265917539184420E+04
    0.222143962792561572E+00   -0.370155273086729242E+01   -0.255018920872413446E+01   -0.108265303114672770E+04
    0.187882989721459615E+00   -0.369102514208412336E+01   -0.287495233366930103E+01   -0.108265228216842320E+04
    0.187882989721459615E+00   -0.369102514208412336E+01   -0.287495233366930103E+01   -0.108265228216842320E+04
    0.185009280429906497E+00   -0.369051359183781535E+01   -0.272594001286885979E+01   -0.108264848019624878E+04
    0.185009280429906497E+00   -0.369051359183781535E+01   -0.272594001286885979E+01   -0.108264848019624878E+04
    0.179666224267872987E+00   -0.369126285927780629E+01   -0.247460301122513204E+01   -0.108264767816226140E+04
    0.177925912220496918E+00   -0.368991038794285675E+01   -0.256733844733749450E+01   -0.108264633503910045E+04
    0.177925912220496918E+00   -0.368991038794285675E+01   -0.256733844733749450E+01   -0.108264633503910045E+04
    0.213509432872575844E+00   -0.370042268809913288E+01   -0.234196528306352647E+01   -0.108264426906007111E+04
    0.213509432872575844E+00   -0.370042268809913288E+01   -0.234196528306352647E+01   -0.108264426906007111E+04
    0.220688470458520053E+00   -0.369987625513172258E+01   -0.285569489589442194E+01   -0.108264185711283858E+04
    0.222687285828521542E+00   -0.370102256941312113E+01   -0.241568881779127409E+01   -0.108264082960270912E+04
    0.179310744343594120E+00   -0.368986003664935014E+01   -0.270926993528153659E+01   -0.108263052935669293E+04
    0.192305355033084963E+00   -0.369532982889036088E+01   -0.219810597123969664E+01   -0.108262972106216739E+04
    0.214023933773218322E+00   -0.369753897084540561E+01   -0.287609825807271680E+01   -0.108262871841549941E+04
    0.214023933773218322E+00   -0.369753897084540561E+01   -0.287609825807271680E+01   -0.108262871841549941E+04
    0.204013899862846321E+00   -0.369471087872980508E+01   -0.287162924957544208E+01   -0.108262822072636413E+04
    0.221921368073804026E+00   -0.370144988902973182E+01   -0.256421926257110000E+01   -0.108262803142262328E+04
    0.215005325157057420E+00   -0.370067246563676999E+01   -0.219285179884775427E+01   -0.108262780060751334E+04
    0.208876237816327193E+00   -0.369944597501592565E+01   -0.283412144118528131E+01   -0.108262324019614380E+04
    0.208876237816327193E+00   -0.369944597501592565E+01   -0.283412144118528131E+01   -0.108262324019614380E+04
    0.193779352752496137E+00   -0.369572936866789181E+01   -0.220731732371102884E+01   -0.108262306662339961E+04
    0.195771870372387108E+00   -0.369626330093656197E+01   -0.218662061043169054E+01   -0.108261937145712068E+04
    0.193900935108321348E+00   -0.369575466931389274E+01   -0.227042567096715242E+01   -0.108261713888233339E+04
    0.179376217156955342E+00   -0.368992681747806106E+01   -0.245733556501177830E+01   -0.108261417778830628E+04
    0.179376217156955342E+00   -0.368992681747806106E+01   -0.245733556501177830E+01   -0.108261417778830628E+04
    0.196668992129410386E+00   -0.369293444648190938E+01   -0.218597064948457520E+01   -0.108261361135786296E+04
    0.196668992129410386E+00   -0.369293444648190938E+01   -0.218597064948457520E+01   -0.108261361135786296E+04
    0.219941346644495328E+00   -0.369964800065135790E+01   -0.251068791348887865E+01   -0.108260994228120853E+04
    0.182554950361566742E+00   -0.369227250394619855E+01   -0.256616466804010468E+01   -0.108260757500253430E+04
    0.217200580981882718E+00   -0.370099070343498404E+01   -0.255438712262828993E+01   -0.108260355062131384E+04
    0.221971035245232928E+00   -0.370073756994306313E+01   -0.269119779658302694E+01   -0.108260073078379696E+04
    0.191104864722735968E+00   -0.369173989864987107E+01   -0.213387791244212988E+01   -0.108259907087307738E+04
    0.191286950936670419E+00   -0.369178983395114102E+01   -0.255914243582398671E+01   -0.108259028317504863E+04
    0.191286950936670419E+00   -0.369178983395114102E+01   -0.255914243582398671E+01   -0.108259028317504863E+04
    0.221354627505133711E+00   -0.370039622688388370E+01   -0.275500948527621636E+01   -0.108258840296816606E+04
    0.217712312387408069E+00   -0.369884967073571413E+01   -0.273383800755122541E+01   -0.108258376519896206E+04
    0.217712312387408069E+00   -0.369884967073571413E+01   -0.273383800755122541E+01   -0.108258376519896206E+04
    0.180209423844678168E+00   -0.369125814358434035E+01   -0.231051275307141069E+01   -0.108257814079609579E+04
    0.186967595730809205E+00   -0.369367546803670166E+01   -0.295076057193583496E+01   -0.108257603554458819E+04
    0.207630388452850811E+00   -0.369574620867554682E+01   -0.299604640802906275E+01   -0.108257393994525501E+04
    0.183040242401628916E+00   -0.369036581215539572E+01   -0.296719496914353131E+01   -0.108257030109034395E+04
    0.187820706711499419E+00   -0.369114472462230658E+01   -0.257957191710867795E+01   -0.108256822192040681E+04
    0.219349992446640274E+00   -0.369954366225979392E+01   -0.293941570905688598E+01   -0.108255860612247079E+04
    0.219349992446640274E+00   -0.369954366225979392E+01   -0.293941570905688598E+01   -0.108255860612247079E+04
    0.179706982014455618E+00   -0.369088796563682298E+01   -0.268053370935309321E+01   -0.108255686173133518E+04
    0.211687052498345352E+00   -0.369993200235462893E+01   -0.211460375036290449E+01   -0.108255562715420319E+04
    0.200620552966347010E+00   -0.369395583343698020E+01   -0.262678345679008052E+01   -0.108254958547934757E+04
    0.198458605171949715E+00   -0.369687224639226475E+01   -0.214683031550120873E+01   -0.108254823902172257E+04
    0.193248489894562003E+00   -0.369545796524534431E+01   -0.281734001163569125E+01   -0.108253456567702642E+04
    0.194416811393286704E+00   -0.369253502340279338E+01   -0.250043291107968413E+01   -0.108253367835227118E+04
    0.194416811393286704E+00   -0.369253502340279338E+01   -0.250043291107968413E+01   -0.108253367835227118E+04
    0.186236619828508559E+00   -0.369094561546646283E+01   -0.271308636625126143E+01   -0.108252290834197038E+04
    0.220547108232126698E+00   -0.370100626681831724E+01   -0.251173417927295750E+01   -0.108252055716344012E+04
    0.220126782461467191E+00   -0.370003728443338797E+01   -0.283165430878008539E+01   -0.108252052189975120E+04
    0.215926180075093566E+00   -0.369835176609682748E+01   -0.299038709693172944E+01   -0.108251882067621909E+04
    0.215926180075093566E+00   -0.369835176609682748E+01   -0.299038709693172944E+01   -0.108251882067621909E+04
    0.187086578590994729E+00   -0.369360872279459063E+01   -0.223757804676469307E+01   -0.108251780442397489E+04
    0.199761026695354116E+00   -0.369715055240217350E+01   -0.268261650586247047E+01   -0.108250911837513331E+04
    0.216581762524378330E+00   -0.369860383946147842E+01   -0.272902474937698525E+01   -0.108250831862549330E+04
    0.220529547450818042E+00   -0.370088749663310379E+01   -0.249688169064434451E+01   -0.108250434545127837E+04
    0.184329373806353281E+00   -0.369069805239536919E+01   -0.225950845025882385E+01   -0.108250151283884907E+04
    0.183436638891493531E+00   -0.369232884488670976E+01   -0.224255539902328938E+01   -0.108249933734893693E+04
    0.183436638891493531E+00   -0.369232884488670976E+01   -0.224255539902328938E+01   -0.108249933734893693E+04
    0.185433826581788003E+00   -0.369086514480435746E+01   -0.251452063018645511E+01   -0.108249876759288554E+04
    0.214816204410780948E+00   -0.370040751561963743E+01   -0.268195524003819674E+01   -0.108249775960740772E+04
    0.185030287886840172E+00   -0.369081187284125356E+01   -0.259747462219204373E+01   -0.108249531220175550E+04
    0.215728249332114014E+00   -0.369834318626455349E+01   -0.214736195859944701E+01   -0.108248953370281424E+04
    0.205864457205293089E+00   -0.369858392932002733E+01   -0.239958018588626132E+01   -0.108248544804203175E+04
    0.189133191099370851E+00   -0.369152776792942916E+01   -0.264244996919717945E+01   -0.108248528835107663E+04
    0.189133191099370851E+00   -0.369152776792942916E+01   -0.264244996919717945E+01   -0.108248528835107663E+04
    0.220388050318496620E+00   -0.370066572031928187E+01   -0.263661930732317229E+01   -0.108248294823486913E+04
    0.181520680551567282E+00   -0.369050843212204427E+01   -0.255308687002337908E+01   -0.108248212976084233E+04
    0.203471094876434250E+00   -0.369801728017336995E+01   -0.268077897588992631E+01   -0.108247846446767016E+04
    0.203542866131035977E+00   -0.369478852306906891E+01   -0.240813538143381534E+01   -0.108247730492035680E+04
    0.212200773536086518E+00   -0.369990150154665187E+01   -0.287064246950393631E+01   -0.108247629877563918E+04
    0.183504863443127220E+00   -0.369068130823053719E+01   -0.256145614008140754E+01   -0.108246865584894385E+04
    0.214226427759057231E+00   -0.369788488547877225E+01   -0.275538926195471445E+01   -0.108246487416622745E+04
    0.203704998993736952E+00   -0.369804505743521794E+01   -0.227513505361614765E+01   -0.108245937866807617E+04
    0.193607345098289613E+00   -0.369543832498109293E+01   -0.214141957164163310E+01   -0.108245570155512678E+04
    0.218223390037332599E+00   -0.369938539953452805E+01   -0.277256187123928788E+01   -0.108245432702174730E+04
    0.185537479140060024E+00   -0.369296338207084673E+01   -0.224218971461455263E+01   -0.108245244666150461E+04
    0.185537479140060024E+00   -0.369296338207084673E+01   -0.224218971461455263E+01   -0.108245244666150461E+04
    0.207598536012156831E+00   -0.369890590715733936E+01   -0.281270628700345604E+01   -0.108244301516966470E+04
    0.219627592328291099E+00   -0.370029116755343956E+01   -0.294332453354897661E+01   -0.108243878757250286E+04
    0.181962098877197997E+00   -0.369073023852405280E+01   -0.237730619791244591E+01   -0.108243797547347572E+04
    0.218034873325605477E+00   -0.370063290313013571E+01   -0.254721310318002336E+01   -0.108242774265756225E+04
    0.185547484678760560E+00   -0.369289859200903159E+01   -0.210488543808098427E+01   -0.108242431196540565E+04
    0.218943810064061495E+00   -0.369988505168482451E+01   -0.276182719440564073E+01   -0.108242304139541898E+04
    0.218943810064061495E+00   -0.369988505168482451E+01   -0.276182719440564073E+01   -0.108242304139541898E+04
    0.219112169363018805E+00   -0.370055488251891829E+01   -0.251575548599492560E+01   -0.108242119593068014E+04
    0.210250909262025859E+00   -0.369942195868853663E+01   -0.272629780046734194E+01   -0.108241892125439108E+04
    0.215151136367713880E+00   -0.369829797248179393E+01   -0.244762532618916362E+01   -0.108241789882526564E+04
    0.215151136367713880E+00   -0.369829797248179393E+01   -0.244762532618916362E+01   -0.108241789882526564E+04
    0.218414764374406628E+00   -0.370059115599670774E+01   -0.255381757788873731E+01   -0.108241602287302931E+04
    0.216393545416582789E+00   -0.370044390647858945E+01   -0.235787189330675595E+01   -0.108241326050299995E+04
    0.185536998100588713E+00   -0.369285363723954330E+01   -0.236154794400385271E+01   -0.108240827818321759E+04
    0.215605042216411330E+00   -0.370031759748831535E+01   -0.249943706661828102E+01   -0.108240278912068288E+04
    0.208260819089859717E+00   -0.369617973848495041E+01   -0.288085970056135210E+01   -0.108239990363413131E+04
    0.217911677764863199E+00   -0.370050234048253657E+01   -0.286780725518334734E+01   -0.108239658205185833E+04
    0.214258756329670008E+00   -0.369803673674127342E+01   -0.236726716765490020E+01   -0.108239650753091155E+04
    0.215887246689660806E+00   -0.369863726648219604E+01   -0.251955797529886460E+01   -0.108238925846067559E+04
    0.188110164929328916E+00   -0.369367636992526638E+01   -0.247253978221563830E+01   -0.108238787402043590E+04
    0.186455562730648616E+00   -0.369311575004130033E+01   -0.227834761149797860E+01   -0.108238456740914467E+04
    0.190990945900098408E+00   -0.369455445971737895E+01   -0.234872740812257019E+01   -0.108238012908400378E+04
    0.187422095243933606E+00   -0.369343317521956616E+01   -0.232194126220503660E+01   -0.108238006912115020E+04
    0.198324040641816635E+00   -0.369364592575801032E+01   -0.291963170787690807E+01   -0.108237938952275135E+04
    0.186210438767542868E+00   -0.369301463389245876E+01   -0.271418583117592416E+01   -0.108237863412591332E+04
    0.183090732851059645E+00   -0.369103335680076938E+01   -0.226506476229838816E+01   -0.108237687349535668E+04
    0.187634225348212724E+00   -0.369147736237985757E+01   -0.298503359901116827E+01   -0.108237631909904212E+04
    0.183092146363589531E+00   -0.369103918181755475E+01   -0.299575879231084530E+01   -0.108237600327007272E+04
    0.198156105012561617E+00   -0.369361668425707723E+01   -0.236238673470223315E+01   -0.108237294740582911E+04
    0.216625548484634806E+00   -0.369898063566143609E+01   -0.211017806295731436E+01   -0.108237219975389189E+04
    0.183172867594012828E+00   -0.369110974239636658E+01   -0.217615376575167430E+01   -0.108236525136613022E+04
    0.191109731291247253E+00   -0.369212009183800838E+01   -0.238956108989145255E+01   -0.108236416277954686E+04
    0.185855666910807960E+00   -0.369125297504290506E+01   -0.221139142349279361E+01   -0.108236382662812980E+04
    0.214368334246748782E+00   -0.370002019178372343E+01   -0.267852444383151100E+01   -0.108235326723598541E+04
    0.212948190164323814E+00   -0.369978974886596479E+01   -0.294528431917373501E+01   -0.108235000941586395E+04
    0.189970092513067901E+00   -0.369418469981851372E+01   -0.286510079758287617E+01   -0.108234993970916321E+04
    0.210573309144869547E+00   -0.369935840778238534E+01   -0.224853059439316105E+01   -0.108234928008734641E+04
    0.217032263702353845E+00   -0.369925978360426022E+01   -0.280375702339766875E+01   -0.108234685384741624E+04
    0.183520413369654967E+00   -0.369122301812791420E+01   -0.222996037597729746E+01   -0.108234514044157254E+04
    0.200727789011853869E+00   -0.369714524987992910E+01   -0.263284944858733772E+01   -0.108234390275863620E+04
    0.212666527407019135E+00   -0.369762214998612659E+01   -0.210680215597244080E+01   -0.108234244617129275E+04
    0.210610488919298955E+00   -0.369697640871932087E+01   -0.261457771701154496E+01   -0.108234018118142922E+04
    0.216056745567508868E+00   -0.370016280096361294E+01   -0.267995286197376270E+01   -0.108233409250605609E+04
    0.204165992289593617E+00   -0.369516869070552145E+01   -0.280387988149480982E+01   -0.108233292916297455E+04
    0.217732001111559798E+00   -0.369981818108279725E+01   -0.210610773591563527E+01   -0.108233148637466638E+04
    0.217095863278080586E+00   -0.370017316561285980E+01   -0.298173635195847586E+01   -0.108232914741590071E+04
    0.216937698185035444E+00   -0.369932133200816793E+01   -0.213592957489979174E+01   -0.108232498504089767E+04
    0.195131036066411162E+00   -0.369301512071243732E+01   -0.291662312451798833E+01   -0.108232448694395180E+04
    0.209835014389228525E+00   -0.369916440298412974E+01   -0.231166523710089944E+01   -0.108232335100137266E+04
    0.187213132156295592E+00   -0.369321491585807316E+01   -0.213049204665922876E+01   -0.108232211391527380E+04
    0.184169977986014505E+00   -0.369194820701122550E+01   -0.262719746172277624E+01   -0.108232181517068557E+04
    0.215781425627791679E+00   -0.369880689575908983E+01   -0.227242768597489286E+01   -0.108232081799936395E+04
    0.203716983837140542E+00   -0.369782291778881245E+01   -0.246479565757743035E+01   -0.108231625678958062E+04
    0.184858398792423606E+00   -0.369135567639358886E+01   -0.269141716772003736E+01   -0.108231294544995853E+04
    0.213670990282194162E+00   -0.369979538603047642E+01   -0.246357443357628547E+01   -0.108230541911369119E+04
    0.192317790182660486E+00   -0.369480306147298609E+01   -0.229525358596171269E+01   -0.108230461431812682E+04
    0.209869162135520260E+00   -0.369912551540362067E+01   -0.248811764091090781E+01   -0.108230039043865600E+04
    0.216312669675133851E+00   -0.370002554350719581E+01   -0.226904566792751972E+01   -0.108229903797579550E+04
    0.186345314744107843E+00   -0.369281439048008409E+01   -0.231963186449195735E+01   -0.108229646768385896E+04
    0.191357578761859215E+00   -0.369449009465222389E+01   -0.214179587307493335E+01   -0.108229239417851090E+04
    0.204487834811123981E+00   -0.369532416125260355E+01   -0.267859903818522449E+01   -0.108229104181573621E+04
    0.185868889437173362E+00   -0.369150478905673118E+01   -0.219790469971875435E+01   -0.108229044336980087E+04
    0.212882204136696923E+00   -0.369963438027869884E+01   -0.233753344150195996E+01   -0.108228914991433635E+04
    0.186846174201742293E+00   -0.369160899482405291E+01   -0.236920487383217360E+01   -0.108228676455587902E+04
    0.203091559706580910E+00   -0.369762355346099270E+01   -0.233495297579413963E+01   -0.108228623850684198E+04
    0.188659795983890349E+00   -0.369186073445223562E+01   -0.240783365174732289E+01   -0.108228484235429619E+04
    0.214351372173949895E+00   -0.369981013430250316E+01   -0.213167708993329752E+01   -0.108227979144828259E+04
    0.210212320941822794E+00   -0.369697673214361267E+01   -0.292914440723818448E+01   -0.108227922405133222E+04
    0.186574674569760485E+00   -0.369283158137707535E+01   -0.217408427420176498E+01   -0.108227665878050220E+04
    0.196322191777598298E+00   -0.369336464037537304E+01   -0.275583458584409424E+01   -0.108227430320347958E+04
    0.215057840358628266E+00   -0.369983900959267586E+01   -0.256451319240343523E+01   -0.108226899376131541E+04
    0.189806299303073273E+00   -0.369394891845376172E+01   -0.211242399499166833E+01   -0.108226853152048216E+04
    0.215993480609909305E+00   -0.369984593151757135E+01   -0.225188609576392107E+01   -0.108226678605111692E+04
    0.212103411923560359E+00   -0.369761184383219366E+01   -0.211517318475985805E+01   -0.108226644182270707E+04
    0.216449105001448316E+00   -0.369969893556989415E+01   -0.219134650719802337E+01   -0.108226448014869266E+04
    0.216274661224829856E+00   -0.369940209856851343E+01   -0.223997087814748719E+01   -0.108226074534521308E+04
    0.191099309565219005E+00   -0.369233267532429377E+01   -0.267695300881958032E+01   -0.108225977734551589E+04
    0.201729943897827002E+00   -0.369724810523625091E+01   -0.251785299301354115E+01   -0.108225943374816688E+04
    0.215797032742413797E+00   -0.369980155077689599E+01   -0.244361106713537790E+01   -0.108225828517011269E+04
    0.213212189514038086E+00   -0.369804640831827980E+01   -0.274629451889773435E+01   -0.108224850515935941E+04
    0.199308769806414016E+00   -0.369662005746414257E+01   -0.214735925921621096E+01   -0.108224752657466183E+04
    0.215992585501035728E+00   -0.369933866790661225E+01   -0.230563970914428307E+01   -0.108224675586288868E+04
    0.185986191955000185E+00   -0.369242463013702915E+01   -0.212809400053712761E+01   -0.108224658281551456E+04
    0.192396183498853041E+00   -0.369469798664188209E+01   -0.277381726349289126E+01   -0.108224354752134195E+04
    0.192341967116199164E+00   -0.369467927869370705E+01   -0.232147609435408953E+01   -0.108224248013443275E+04
    0.215130685007870082E+00   -0.369968960732348151E+01   -0.274883904730164375E+01   -0.108223690941891755E+04
    0.215421647448725245E+00   -0.369965595651314683E+01   -0.269915851894846037E+01   -0.108223380253559390E+04
    0.193816265224985268E+00   -0.369508959947419413E+01   -0.257483096337932071E+01   -0.108223062365052988E+04
    0.211547339611485252E+00   -0.369751813685987951E+01   -0.237215328613970344E+01   -0.108223021914153674E+04
    0.187468688060882377E+00   -0.369188297631081408E+01   -0.299045292773541460E+01   -0.108222975605671013E+04
    0.192307449976767714E+00   -0.369380110856654920E+01   -0.254441369321544419E+01   -0.108201586537139337E+04
    0.189590391470335101E+00   -0.369366681023989685E+01   -0.234112639003430623E+01   -0.108219468581404999E+04
    0.189880736713696985E+00   -0.369262086921911425E+01   -0.239348598234387078E+01   -0.108211491710187079E+04
    0.189277898833578567E+00   -0.369223799223655558E+01   -0.229323566616462760E+01   -0.108218874488982078E+04
    0.193126363732277706E+00   -0.369313991178879064E+01   -0.246937882831166666E+01   -0.108209352380610630E+04
    0.192687770719279616E+00   -0.369357780592752771E+01   -0.216526774128617117E+01   -0.108200455300494059E+04
    0.191349768872918713E+00   -0.369336078806809898E+01   -0.222612471424405545E+01   -0.108203480425730550E+04
    0.190110169825810499E+00   -0.369379900535009220E+01   -0.233018690189623090E+01   -0.108217969758850177E+04
    0.190686352074572296E+00   -0.369297638361112490E+01   -0.246585729754745797E+01   -0.108206748490976815E+04
    0.192038162011776009E+00   -0.369367401106901916E+01   -0.245091616449249639E+01   -0.108201893675912970E+04
    0.190396489919689882E+00   -0.369277348238874925E+01   -0.217602484117883765E+01   -0.108209446737959183E+04
    0.194670145628532160E+00   -0.369329797586315856E+01   -0.226307055706744187E+01   -0.108213936385765646E+04
    0.188090786388827896E+00   -0.369223889211548872E+01   -0.218936278739245838E+01   -0.108216612091943762E+04
    0.191728579974591473E+00   -0.369430559209591891E+01   -0.227824014656610618E+01   -0.108216914744920791E+04
    0.191929230322591377E+00   -0.369366942063824677E+01   -0.241851582638318030E+01   -0.108202293992527257E+04
    0.188382468468972664E+00   -0.369291544457775522E+01   -0.230293391148151105E+01   -0.108214178781997066E+04
    0.193860789103184022E+00   -0.369362203290466162E+01   -0.253079426972365740E+01   -0.108200657246140031E+04
    0.193860789103184022E+00   -0.369362203290466162E+01   -0.253079426972365740E+01   -0.108200657246140031E+04
    0.194178958858886697E+00   -0.369339916826359094E+01   -0.236127299028616244E+01   -0.108207094556623747E+04
    0.190613851928901401E+00   -0.369270969552519013E+01   -0.242497448326804577E+01   -0.108211066563243344E+04
    0.187465344356518432E+00   -0.369240124021650162E+01   -0.216960042599383174E+01   -0.108216221684763150E+04
    0.194195531028595991E+00   -0.369305864031171360E+01   -0.260383943235450221E+01   -0.108220078898387374E+04
    0.190451784444884198E+00   -0.369366913619355053E+01   -0.255420267156286807E+01   -0.108211374580351594E+04
    0.193855828904811345E+00   -0.369304194814829190E+01   -0.256852274066111663E+01   -0.108217830970536124E+04
    0.191283263178647189E+00   -0.369268515991906066E+01   -0.269264844647473867E+01   -0.108214074197773698E+04
    0.190239724068457905E+00   -0.369269642392833042E+01   -0.274314025279180207E+01   -0.108210604375946377E+04
    0.186172602250408825E+00   -0.369209486832554301E+01   -0.261020586264444887E+01   -0.108221318061605007E+04
    0.186023414765107920E+00   -0.369221902139594871E+01   -0.259644217457981963E+01   -0.108222288790691459E+04
    0.187546204404369365E+00   -0.369217164992963820E+01   -0.254925974346788298E+01   -0.108217697471039492E+04
    0.188176361377156265E+00   -0.369251360448651500E+01   -0.265344303064856657E+01   -0.108213783370853434E+04
    0.189313258293151460E+00   -0.369254156789909427E+01   -0.256442604059192858E+01   -0.108212328268515148E+04
    0.192220715054021885E+00   -0.369408342453630389E+01   -0.269785363447117765E+01   -0.108206066622593835E+04
    0.190700196798193083E+00   -0.369405939802830741E+01   -0.272564704284524151E+01   -0.108220011204761659E+04
    0.193551361166821451E+00   -0.369406041208759905E+01   -0.259496960748347050E+01   -0.108198384915043948E+04
    0.191871874086738087E+00   -0.369436410647231295E+01   -0.262981544693882618E+01   -0.108217369847554096E+04
    0.200490801120155882E+00   -0.369484622549706554E+01   -0.252707814026330935E+01   -0.108203742922424522E+04
    0.195837081589130102E+00   -0.369451746955000448E+01   -0.243008625975693260E+01   -0.108193831663435344E+04
    0.195837081589130102E+00   -0.369451746955000448E+01   -0.243008625975693260E+01   -0.108193831663435344E+04
    0.198685941942654265E+00   -0.369545017188930469E+01   -0.250607017672102961E+01   -0.108191998018562458E+04
    0.201083540242821102E+00   -0.369548013104989659E+01   -0.252727645060037842E+01   -0.108191866396907335E+04
    0.200046448987587999E+00   -0.369598223576670115E+01   -0.241798196151415290E+01   -0.108194257797666069E+04
    0.199088600879016253E+00   -0.369479261615606269E+01   -0.248756383156303107E+01   -0.108195937479464578E+04
    0.192390956011330772E+00   -0.369452424564826121E+01   -0.248922205624930193E+01   -0.108217251415048122E+04
    0.198268337414397450E+00   -0.369590190474137259E+01   -0.241955041519238412E+01   -0.108204964727326887E+04
    0.199183752962375643E+00   -0.369479484509432332E+01   -0.257168236293506647E+01   -0.108196361666390476E+04
    0.199183752962375643E+00   -0.369479484509432332E+01   -0.257168236293506647E+01   -0.108196361666390476E+04
    0.196218590885751248E+00   -0.369473584608185401E+01   -0.258497805605746400E+01   -0.108193719590018372E+04
    0.196218590885751248E+00   -0.369473584608185401E+01   -0.258497805605746400E+01   -0.108193719590018372E+04
    0.198608797499934403E+00   -0.369532730987481584E+01   -0.251321557230050097E+01   -0.108191157411682093E+04
    0.198617548250627385E+00   -0.369588302868484631E+01   -0.246359085807052614E+01   -0.108201286002615666E+04
    0.204442153850404873E+00   -0.369618465303974375E+01   -0.254197232206143120E+01   -0.108195597861927467E+04
    0.212909196692496527E+00   -0.369816393265537435E+01   -0.259821027560106810E+01   -0.108218114973135403E+04
    0.202922205600529093E+00   -0.369578077248594417E+01   -0.250197311843029002E+01   -0.108194965749488551E+04
    0.203276952404493505E+00   -0.369629395127020910E+01   -0.239303885024970153E+01   -0.108190489753704605E+04
    0.205757070112740859E+00   -0.369641651048462494E+01   -0.245369737799304488E+01   -0.108199178878277371E+04
    0.206983309889161471E+00   -0.369719263150803812E+01   -0.239945887931040369E+01   -0.108195029552174719E+04
    0.206044873847187282E+00   -0.369652273613457893E+01   -0.253862494761854540E+01   -0.108198813218060036E+04
    0.207298974722463253E+00   -0.369707991423618099E+01   -0.251696299210565488E+01   -0.108196912576821364E+04
    0.212526904094731406E+00   -0.369923989978534085E+01   -0.246085089724784556E+01   -0.108217656092747711E+04
    0.212025116875842468E+00   -0.369828598677118414E+01   -0.253668154845180815E+01   -0.108209077780350435E+04
    0.211575008257232217E+00   -0.369761688292987944E+01   -0.234667121919103483E+01   -0.108219786062143589E+04
    0.210723139356058908E+00   -0.369760763996347208E+01   -0.248199779987995583E+01   -0.108211099086592480E+04
    0.203295168973401885E+00   -0.369691912260805422E+01   -0.248133658112839983E+01   -0.108197743291700681E+04
    0.213210468898512306E+00   -0.369936164286029090E+01   -0.258099541182845504E+01   -0.108218945603917655E+04
    0.206498558564052748E+00   -0.369722008952265035E+01   -0.243183702979599525E+01   -0.108194282247243109E+04
    0.204218564746022485E+00   -0.369588777469281515E+01   -0.248493326279140048E+01   -0.108201280742443373E+04
    0.201725433624508954E+00   -0.369614964514457611E+01   -0.257746633230750355E+01   -0.108190678023537021E+04
    0.209220956862080337E+00   -0.369756105383850286E+01   -0.245393380728833232E+01   -0.108201085260403420E+04
    0.201070903700222708E+00   -0.369673306439981353E+01   -0.239821165902575029E+01   -0.108208992402671015E+04
    0.209469799079042590E+00   -0.369757222649736850E+01   -0.244579642479466441E+01   -0.108202323245902539E+04
    0.201206303936235786E+00   -0.369566403972871038E+01   -0.267376904245423308E+01   -0.108190300983705379E+04
    0.205933550423065520E+00   -0.369637275513975894E+01   -0.279895004988210960E+01   -0.108201638095807766E+04
    0.201458734697790298E+00   -0.369573090826308226E+01   -0.273234468173518774E+01   -0.108190287074808566E+04
    0.207286640874462746E+00   -0.369727060936676466E+01   -0.280708776790090164E+01   -0.108195578912904284E+04
    0.207286640874462746E+00   -0.369727060936676466E+01   -0.280708776790090164E+01   -0.108195578912904284E+04
    0.207981510945371956E+00   -0.369690500432167513E+01   -0.277070894958311520E+01   -0.108204658524571141E+04
    0.207659762351255189E+00   -0.369646207995661769E+01   -0.299711842210186319E+01   -0.108216378251693027E+04
    0.209689564045064836E+00   -0.369825493793316440E+01   -0.295761950725764899E+01   -0.108203263816144840E+04
    0.212916004840777190E+00   -0.369811210410252134E+01   -0.299707321875751154E+01   -0.108219527310103854E+04
    0.201184509454118310E+00   -0.369675287347195702E+01   -0.266720684268538877E+01   -0.108208658038532326E+04
    0.202264007403303553E+00   -0.369490451724579483E+01   -0.291146815977178886E+01   -0.108220398015220781E+04
    0.209247195155859572E+00   -0.369714998937743289E+01   -0.298318890894357525E+01   -0.108209503572385461E+04
    0.204800069540432977E+00   -0.369562526893954191E+01   -0.291536272639138128E+01   -0.108217633431512650E+04
    0.213381464416567468E+00   -0.369896016089072965E+01   -0.298402922873480980E+01   -0.108213183262853136E+04
    0.212930115266531939E+00   -0.369894937575441585E+01   -0.296766746178257979E+01   -0.108212200236141962E+04
    0.207680016613519397E+00   -0.369739671201078313E+01   -0.289992326690157398E+01   -0.108196288471183561E+04
    0.210474577670774765E+00   -0.369827560679744938E+01   -0.262427369854598158E+01   -0.108203618699565754E+04
    0.209728156776769536E+00   -0.369851165975698137E+01   -0.279820580061073354E+01   -0.108208181105835524E+04
    0.208212076035126897E+00   -0.369830237128550632E+01   -0.289734668838713727E+01   -0.108209290935046852E+04
    0.209143795434711621E+00   -0.369690218103065593E+01   -0.268078298649078040E+01   -0.108216815797910112E+04
    0.212378976373318262E+00   -0.369933091246633339E+01   -0.270336643212213801E+01   -0.108220819139875834E+04
    0.205113758603440610E+00   -0.369576774799842678E+01   -0.265452503476542878E+01   -0.108215000511383073E+04
    0.211467638392565715E+00   -0.369914450252420668E+01   -0.282098514003602308E+01   -0.108219078243098170E+04
    0.204912447071486814E+00   -0.369725457289313386E+01   -0.265270579714579391E+01   -0.108197647096119749E+04
    0.211588271968897762E+00   -0.369845063556858911E+01   -0.230534359687239609E+01   -0.108206593671031806E+04
    0.205274681753856381E+00   -0.369598049382970339E+01   -0.271546520372955813E+01   -0.108208102519325530E+04
    0.214779464132581754E+00   -0.369893989701376658E+01   -0.237843839222073106E+01   -0.108220059942928583E+04
    0.208482756494749427E+00   -0.369743065099298995E+01   -0.214207578438107760E+01   -0.108198814653892600E+04
    0.205799817811638946E+00   -0.369692405844864869E+01   -0.224951387118864909E+01   -0.108193080993415651E+04
    0.203860408602328458E+00   -0.369749912687584104E+01   -0.221147752815410348E+01   -0.108213293250046263E+04
    0.208825137504896952E+00   -0.369751394102197706E+01   -0.230465390368603806E+01   -0.108199622877656975E+04
    0.200209380491462030E+00   -0.369671482425915165E+01   -0.239104344818363979E+01   -0.108217815249718933E+04
    0.205149546116413478E+00   -0.369633706324980960E+01   -0.216944055568817351E+01   -0.108196834533883271E+04
    0.205149546116413478E+00   -0.369633706324980960E+01   -0.216944055568817351E+01   -0.108196834533883271E+04
    0.214254740632345730E+00   -0.369883813404765549E+01   -0.220030071019916651E+01   -0.108217529821520293E+04
    0.208752904313311227E+00   -0.369780844243134599E+01   -0.213512149268423634E+01   -0.108198885720202111E+04
    0.215079611573260110E+00   -0.369949803947911970E+01   -0.280039713009487112E+01   -0.108221030426791208E+04
    0.203815875973521965E+00   -0.369665188844535386E+01   -0.248337114419857574E+01   -0.108191581243177075E+04
    0.204743429098524776E+00   -0.369655367043396277E+01   -0.252970672162535193E+01   -0.108192178926775750E+04
    0.205357448001966481E+00   -0.369767551832574615E+01   -0.244680411750431981E+01   -0.108207145873816057E+04
    0.207041236692458469E+00   -0.369643023325167608E+01   -0.274433051345885470E+01   -0.108210394557947075E+04
    0.202765037050652019E+00   -0.369568979163049249E+01   -0.291366399167216583E+01   -0.108196002056181715E+04
    0.204111961258819974E+00   -0.369601540837362652E+01   -0.282449849164646949E+01   -0.108197123090935065E+04
    0.207358286294157312E+00   -0.369695420415844866E+01   -0.294662312972026230E+01   -0.108198999288954315E+04
    0.213262763207951567E+00   -0.369839855514935234E+01   -0.292345213282706506E+01   -0.108216292330059900E+04
    0.208853569679559037E+00   -0.369824705435013135E+01   -0.259795577060584248E+01   -0.108204866148934775E+04
    0.213458300408653323E+00   -0.369929853488597082E+01   -0.254279666641897295E+01   -0.108217231608114275E+04
    0.214465418177507916E+00   -0.369923663978747541E+01   -0.282447944450667565E+01   -0.108217579287487570E+04
    0.207843122236143318E+00   -0.369836935980084069E+01   -0.298301726144556589E+01   -0.108214121986504051E+04
    0.204855631564302865E+00   -0.369643800610609885E+01   -0.295108848896825471E+01   -0.108193651185244948E+04
    0.211372272321241728E+00   -0.369849572745301991E+01   -0.299545213929941356E+01   -0.108206325557985497E+04
    0.205024344631435956E+00   -0.369747481894579089E+01   -0.210762889666523057E+01   -0.108202845419178584E+04
    0.210258391901875896E+00   -0.369767809942995829E+01   -0.266057345577492477E+01   -0.108205815567422405E+04
    0.200790874090497728E+00   -0.369581705456768894E+01   -0.255496542840273699E+01   -0.108189985186036301E+04
    0.202630692290435011E+00   -0.369541329144168884E+01   -0.238089602460485228E+01   -0.108202739624966034E+04
    0.200425743905126408E+00   -0.369653476865106789E+01   -0.219199699711517093E+01   -0.108207522414453797E+04
    0.203854699506799020E+00   -0.369550418225369981E+01   -0.216982414069858187E+01   -0.108211592527133985E+04
    0.202896005947467845E+00   -0.369577203243992392E+01   -0.224192878497338199E+01   -0.108194997590497906E+04
    0.200846811195518060E+00   -0.369627211748767337E+01   -0.232362690611498168E+01   -0.108196058293770011E+04
    0.204316115968434797E+00   -0.369550507310197318E+01   -0.228479133780764698E+01   -0.108217140569343110E+04
    0.201709179950229495E+00   -0.369571583902400613E+01   -0.243358604413135460E+01   -0.108190964000810004E+04
    0.200878833147081493E+00   -0.369547663366470136E+01   -0.271418246187048595E+01   -0.108191284507997398E+04
    0.209350792671789743E+00   -0.369732746882899610E+01   -0.233289769614533915E+01   -0.108205845042999772E+04
    0.199492955689986068E+00   -0.369651031826539622E+01   -0.250119076259912498E+01   -0.108216756908196112E+04
    0.213480029839350660E+00   -0.369913392020524290E+01   -0.229392734048973645E+01   -0.108214770383963696E+04
    0.205970421593365594E+00   -0.369627221387929517E+01   -0.249154376258978516E+01   -0.108204932943647827E+04
    0.211369473803941360E+00   -0.369916445147348671E+01   -0.260697208098299527E+01   -0.108220285284315605E+04
    0.201895097868861062E+00   -0.369721921417208144E+01   -0.274549888776614370E+01   -0.108222213424089387E+04
    0.214693758381074878E+00   -0.369958967521851623E+01   -0.277115391651915077E+01   -0.108221950755164244E+04
    0.203875477743159284E+00   -0.369687822601951410E+01   -0.267501258461411240E+01   -0.108194282590739272E+04
    0.206620134219135138E+00   -0.369766241769039405E+01   -0.284265440790918200E+01   -0.108199698719599769E+04
    0.209226272762604887E+00   -0.369688999853951117E+01   -0.242034941457255481E+01   -0.108218320108333319E+04
    0.206827698210517108E+00   -0.369639647247221470E+01   -0.294314611408228588E+01   -0.108209315636704150E+04
    0.211150986167298660E+00   -0.369890655971784721E+01   -0.296187835594389171E+01   -0.108213320978155116E+04
    0.206984973070559325E+00   -0.369715695530362343E+01   -0.294342965970202508E+01   -0.108195156779366039E+04
    0.206739999386527873E+00   -0.369642096518867724E+01   -0.274373899899906304E+01   -0.108207551056829129E+04
    0.201989311065462168E+00   -0.369705136489350661E+01   -0.233561097879663526E+01   -0.108212973964507319E+04
    0.203180623230124507E+00   -0.369661928398442274E+01   -0.289188909702471664E+01   -0.108192460035832573E+04
    0.209878794860053841E+00   -0.369731645163929645E+01   -0.221977226462365707E+01   -0.108210881741160370E+04
    0.205290506732534406E+00   -0.369802306708545725E+01   -0.240570915101356109E+01   -0.108222792774762274E+04
    0.205638633729158360E+00   -0.369779700112917986E+01   -0.257529658441523290E+01   -0.108209408892131728E+04
    0.211512406890776716E+00   -0.369834438644721697E+01   -0.277683115925646540E+01   -0.108206322215485170E+04
    0.210212469557478049E+00   -0.369790976747960753E+01   -0.297725678087729007E+01   -0.108202836545595210E+04
    0.202655349775640287E+00   -0.369640062667324631E+01   -0.227450929831957716E+01   -0.108191163720214945E+04
    0.201904102527512119E+00   -0.369674779645070917E+01   -0.258327627829280937E+01   -0.108202100366761215E+04
    0.200375815508679000E+00   -0.369443103729232369E+01   -0.281664409429186602E+01   -0.108220617546626227E+04
    0.194758375563710978E+00   -0.369502842048953628E+01   -0.278474552780922791E+01   -0.108209349678510625E+04
    0.194758375563710978E+00   -0.369502842048953628E+01   -0.278474552780922791E+01   -0.108209349678510625E+04
    0.196123783836387400E+00   -0.369562034435109688E+01   -0.267893453767462297E+01   -0.108217273363756726E+04
    0.198009683645035461E+00   -0.369399229229900694E+01   -0.269117862153702925E+01   -0.108214829223947436E+04
    0.199040398938986063E+00   -0.369522273436445481E+01   -0.286207308109785963E+01   -0.108190483597983621E+04
    0.197249603878049129E+00   -0.369446222537023594E+01   -0.283240891006580453E+01   -0.108195130239841365E+04
    0.197249603878049129E+00   -0.369446222537023594E+01   -0.283240891006580453E+01   -0.108195130239841365E+04
    0.198210298144710390E+00   -0.369558310136022294E+01   -0.284874631867394612E+01   -0.108196440788141285E+04
    0.195788250890010174E+00   -0.369435956533312115E+01   -0.279463389533031847E+01   -0.108194234907367809E+04
    0.201176851287433234E+00   -0.369563152565830411E+01   -0.230102304348734288E+01   -0.108190487099484994E+04
    0.199832665187299807E+00   -0.369538698291944634E+01   -0.236579208493051940E+01   -0.108190200490881580E+04
    0.201154419821929664E+00   -0.369507189177151041E+01   -0.218466143653034672E+01   -0.108201614308221747E+04
    0.198327841859091164E+00   -0.369533565503845907E+01   -0.236255897137653026E+01   -0.108192002110077715E+04
    0.197957078305153300E+00   -0.369587868063503411E+01   -0.224806195680775200E+01   -0.108207155479817311E+04
    0.197755898839657746E+00   -0.369409148050047209E+01   -0.221102308817534565E+01   -0.108208258034254550E+04
    0.198641538561234010E+00   -0.369638819788320472E+01   -0.223929435946893562E+01   -0.108221630314751678E+04
    0.193766213004180343E+00   -0.369451843935125090E+01   -0.235624012580778919E+01   -0.108203689931571944E+04
    0.196271829330370906E+00   -0.369464415050719808E+01   -0.229368872548701708E+01   -0.108193221531392646E+04
    0.196140854329781955E+00   -0.369488240082734443E+01   -0.213589448591107400E+01   -0.108195468302495965E+04
    0.196967394134962975E+00   -0.369435978130658427E+01   -0.224860344406038948E+01   -0.108196030375706550E+04
    0.199918564013448624E+00   -0.369472462196206752E+01   -0.227920689802238519E+01   -0.108203212135911235E+04
    0.199284776488273113E+00   -0.369451538300199456E+01   -0.216171978865593761E+01   -0.108205352848561733E+04
    0.196477812123754286E+00   -0.369409690758467502E+01   -0.221788403272174683E+01   -0.108199672807136039E+04
    0.200352874002686115E+00   -0.369471843089910923E+01   -0.298034171492311639E+01   -0.108207244083206751E+04
    0.196357932225197068E+00   -0.369415833945205607E+01   -0.292601184785006252E+01   -0.108197802671745603E+04
    0.194318311122273518E+00   -0.369464972304223771E+01   -0.298199159730607599E+01   -0.108202468320064281E+04
    0.197082594679977546E+00   -0.369395778869571068E+01   -0.287314817872265005E+01   -0.108207760041044935E+04
    0.195704611474752044E+00   -0.369445431091206355E+01   -0.232156387960232191E+01   -0.108194028406515235E+04
    0.191709392964826142E+00   -0.369282364286245990E+01   -0.279258197178821543E+01   -0.108211915344728232E+04
    0.194868769440662587E+00   -0.369430085654345586E+01   -0.257685318489113691E+01   -0.108195470218622222E+04
    0.204498049513706703E+00   -0.369610161518734337E+01   -0.276984077583564492E+01   -0.108197713697973495E+04
    0.210759331808467482E+00   -0.369835371367646859E+01   -0.246873101779408932E+01   -0.108204505029761776E+04
    0.204147198163240867E+00   -0.369603918063914394E+01   -0.223325983470962264E+01   -0.108196814646461235E+04
    0.194867964686080253E+00   -0.369397838369561837E+01   -0.261563172513142339E+01   -0.108197128896232289E+04
    0.206633673762625925E+00   -0.369789870954847366E+01   -0.252647772809077953E+01   -0.108205895749353886E+04
    0.210565365243107899E+00   -0.369771062777470805E+01   -0.267659009544870319E+01   -0.108207489986253518E+04
    0.213812036879366923E+00   -0.369884925805263043E+01   -0.294119685487568860E+01   -0.108214843974562655E+04
    0.194296687975492544E+00   -0.369351750866877371E+01   -0.242396308284143336E+01   -0.108204343692940643E+04
    0.192858426772575586E+00   -0.369286342780646404E+01   -0.298768881528128194E+01   -0.108217307394079126E+04
    0.190687100068525017E+00   -0.369386505580266356E+01   -0.299516905034014869E+01   -0.108214044984957263E+04
    0.193576566264614836E+00   -0.369320940388713748E+01   -0.292980329314479748E+01   -0.108209634859070570E+04
    0.190268563277838143E+00   -0.369366512637001332E+01   -0.282593120675497733E+01   -0.108212841801752870E+04
    0.186120435576225651E+00   -0.369225071567057572E+01   -0.275737555910150123E+01   -0.108221933202641253E+04
    0.187993946891206409E+00   -0.369258724183646780E+01   -0.286791379307356076E+01   -0.108214228577900121E+04
    0.187936947224863926E+00   -0.369253088782564998E+01   -0.286831549384439821E+01   -0.108214444614814306E+04
